~o
<STREAMINFO> 1 25
<VECSIZE> 25<NULLD><MFCC_D_N_Z_0><DIAGC>
~h "b"
<BEGINHMM>
<NUMSTATES> 5
<STATE> 2
<MEAN> 25
 -9.385274e-002 1.960176e+000 1.897009e+000 4.140808e+000 -1.731367e+000 1.748065e+000 1.467518e+000 -4.298771e-003 -5.862360e-001 -1.855935e-001 5.065759e-001 -2.584853e+000 4.260395e-001 3.462859e-002 -1.099684e-002 3.108803e-002 1.248495e-001 -1.297147e-001 -2.833476e-001 -2.279399e-002 2.295076e-001 1.961427e-001 -1.241303e-002 -7.390421e-002 3.314644e-001
<VARIANCE> 25
 8.480886e+001 1.047523e+002 9.169041e+001 8.081310e+001 7.852135e+001 3.466883e+001 9.582595e+001 4.846942e+001 7.218336e+001 5.513638e+001 3.665907e+001 3.841273e+001 3.314245e+000 5.608651e+000 4.147235e+000 4.422533e+000 3.986803e+000 3.677286e+000 5.785709e+000 4.217212e+000 5.060270e+000 3.422541e+000 2.874478e+000 3.656891e+000 3.820117e+000
<GCONST> 1.140972e+002
<STATE> 3
<MEAN> 25
 -1.225697e-001 1.795180e+000 5.504139e-001 3.049932e+000 -1.470082e+000 5.235452e-001 1.024675e+000 2.720717e-001 -5.827643e-002 8.491859e-001 6.015261e-001 -2.345965e+000 -9.211852e-002 1.021094e-001 -8.458219e-002 -9.342765e-002 3.925173e-002 -1.341479e-001 6.005072e-002 1.955675e-001 2.592759e-001 1.364423e-001 3.746628e-002 1.691859e-001 -9.434864e-002
<VARIANCE> 25
 8.029102e+001 1.094518e+002 1.041476e+002 8.489094e+001 7.179058e+001 3.930640e+001 9.153548e+001 5.630828e+001 6.306721e+001 5.594614e+001 3.959524e+001 3.570823e+001 1.416741e+000 3.701757e+000 2.774581e+000 3.722494e+000 3.383944e+000 3.097563e+000 4.172953e+000 4.096164e+000 4.770646e+000 3.485423e+000 3.210773e+000 2.885655e+000 1.895788e+000
<GCONST> 1.108880e+002
<STATE> 4
<MEAN> 25
 -1.189163e+000 2.009910e+000 -2.731434e+000 3.433644e+000 -9.102359e-001 4.433659e-001 3.912992e+000 3.883604e-001 7.134813e-001 2.733057e+000 1.857000e+000 -1.372426e-001 1.442044e-001 6.004083e-002 1.580776e-001 -1.394407e-001 1.785637e-001 9.811264e-002 -1.057104e-002 9.662747e-002 5.523998e-002 1.930318e-003 1.917468e-002 1.728159e-001 1.833227e-001
<VARIANCE> 25
 7.398861e+001 1.114559e+002 1.534323e+002 1.055199e+002 6.487927e+001 5.067981e+001 1.036105e+002 5.823466e+001 5.658809e+001 5.432406e+001 4.122252e+001 4.435476e+001 1.898979e+000 4.338032e+000 3.111075e+000 4.660416e+000 4.146153e+000 3.708399e+000 4.505586e+000 4.252422e+000 6.050220e+000 3.536448e+000 3.435164e+000 3.093916e+000 1.747878e+000
<GCONST> 1.134553e+002
<TRANSP> 5
 0.000000e+000 1.000000e+000 0.000000e+000 0.000000e+000 0.000000e+000
 0.000000e+000 7.474189e-001 2.525811e-001 0.000000e+000 0.000000e+000
 0.000000e+000 0.000000e+000 7.161612e-001 2.838387e-001 0.000000e+000
 0.000000e+000 0.000000e+000 0.000000e+000 8.618734e-001 1.381265e-001
 0.000000e+000 0.000000e+000 0.000000e+000 0.000000e+000 0.000000e+000
<ENDHMM>
~h "d"
<BEGINHMM>
<NUMSTATES> 5
<STATE> 2
<MEAN> 25
 2.155224e+000 1.105587e+000 1.382029e+000 -1.289865e+000 -3.151149e+000 1.790752e+000 -2.985728e+000 -4.512170e-001 -3.744048e-001 -1.605421e+000 1.681019e+000 -1.734497e+000 -1.355548e-001 5.135127e-001 -2.784566e-001 4.566928e-001 -3.803137e-001 2.718024e-001 2.504310e-001 -6.686518e-002 5.088603e-001 -2.795655e-001 7.187290e-002 -2.437230e-001 -5.857415e-001
<VARIANCE> 25
 6.798058e+001 7.612948e+001 7.718401e+001 8.257668e+001 1.313510e+002 4.717366e+001 8.235440e+001 6.407162e+001 7.271921e+001 5.541938e+001 3.626738e+001 3.772390e+001 1.241820e+000 2.630340e+000 2.402682e+000 3.005664e+000 4.475886e+000 3.555490e+000 2.852296e+000 3.854555e+000 5.256269e+000 3.897942e+000 3.306110e+000 2.694220e+000 1.272102e+000
<GCONST> 1.098568e+002
<STATE> 3
<MEAN> 25
 5.651709e-001 2.688602e+000 -4.028167e-001 1.372140e+000 -3.628635e+000 2.248880e+000 -9.919996e-001 -1.117515e+000 7.352067e-001 -2.031869e+000 1.502595e+000 -2.208843e+000 -2.689041e-001 3.265096e-001 -3.744072e-001 4.400364e-001 1.381788e-001 1.982043e-001 6.071551e-001 1.144728e-002 2.438668e-001 -3.008986e-002 -1.851838e-001 -6.642099e-002 -5.234810e-001
<VARIANCE> 25
 6.722203e+001 7.004471e+001 8.565960e+001 6.723388e+001 1.246812e+002 5.212267e+001 9.348061e+001 6.789470e+001 7.760076e+001 6.357674e+001 3.542913e+001 4.151509e+001 7.333224e-001 2.600024e+000 2.250922e+000 2.989552e+000 4.473536e+000 3.375160e+000 3.365658e+000 4.486374e+000 5.292144e+000 4.150821e+000 3.642282e+000 3.065654e+000 9.538812e-001
<GCONST> 1.098314e+002
<STATE> 4
<MEAN> 25
 -3.018134e+000 5.915828e+000 -4.701055e+000 5.526976e+000 -2.790883e+000 2.171345e+000 6.343979e+000 -3.311798e-001 1.679440e+000 -8.840868e-001 -8.996087e-002 -2.693104e+000 -1.226791e-001 -8.245970e-002 1.997974e-002 1.458503e-001 1.993487e-001 7.190801e-002 2.311452e-001 1.516151e-001 1.811767e-001 7.714683e-002 -1.588186e-001 2.022981e-001 -4.434472e-002
<VARIANCE> 25
 4.838457e+001 7.034756e+001 9.382244e+001 6.686349e+001 7.120926e+001 6.172815e+001 1.195375e+002 5.502435e+001 6.100798e+001 6.250845e+001 3.614891e+001 4.461852e+001 1.255240e+000 4.294011e+000 3.112838e+000 3.448835e+000 4.556352e+000 3.742942e+000 5.784303e+000 5.310169e+000 5.046153e+000 4.823944e+000 4.181192e+000 3.690904e+000 1.306142e+000
<GCONST> 1.121505e+002
<TRANSP> 5
 0.000000e+000 1.000000e+000 0.000000e+000 0.000000e+000 0.000000e+000
 0.000000e+000 7.070519e-001 2.929480e-001 0.000000e+000 0.000000e+000
 0.000000e+000 0.000000e+000 6.817775e-001 3.182225e-001 0.000000e+000
 0.000000e+000 0.000000e+000 0.000000e+000 8.252004e-001 1.747996e-001
 0.000000e+000 0.000000e+000 0.000000e+000 0.000000e+000 0.000000e+000
<ENDHMM>
~h "f"
<BEGINHMM>
<NUMSTATES> 5
<STATE> 2
<MEAN> 25
 -6.097392e+000 -2.317104e+000 2.534678e+000 -8.801130e+000 7.552709e+000 5.115000e+000 -2.321921e+000 4.927091e+000 -2.263880e+000 3.429421e+000 -1.285273e+000 8.291824e-001 7.716940e-002 -7.544602e-001 1.308004e-001 -7.009470e-001 3.004575e-001 2.077840e-001 -2.478599e-001 6.815486e-002 3.971111e-002 3.242176e-001 -5.997355e-002 2.039711e-001 6.157050e-001
<VARIANCE> 25
 1.257115e+002 9.893822e+001 5.353592e+001 8.693348e+001 1.235897e+002 5.976072e+001 4.863145e+001 6.501962e+001 1.198239e+002 7.273911e+001 4.280546e+001 5.404101e+001 4.695187e+000 6.459376e+000 3.263192e+000 4.341899e+000 5.763606e+000 3.976460e+000 4.214979e+000 3.093368e+000 5.967880e+000 5.730753e+000 4.087336e+000 2.365956e+000 2.796004e+000
<GCONST> 1.161990e+002
<STATE> 3
<MEAN> 25
 -4.817398e+000 -3.187064e+000 2.477056e+000 -1.018194e+001 8.560311e+000 5.413204e+000 -3.090762e+000 4.456083e+000 -2.923193e+000 3.080266e+000 -1.340416e+000 1.686220e+000 1.777041e-001 -3.029349e-001 -1.459808e-001 -1.523457e-001 -1.526804e-001 -6.732451e-002 -1.549405e-001 -7.558224e-002 1.174059e-001 1.908971e-002 1.325426e-001 1.191444e-001 2.537160e-001
<VARIANCE> 25
 1.460765e+002 1.121022e+002 5.660957e+001 8.165900e+001 1.107838e+002 6.836874e+001 5.011759e+001 7.196459e+001 1.142673e+002 8.151569e+001 4.210586e+001 5.564872e+001 3.413270e+000 5.757862e+000 2.874006e+000 4.101275e+000 5.515855e+000 3.620319e+000 3.480406e+000 3.319267e+000 4.972924e+000 5.087978e+000 4.217209e+000 2.496399e+000 1.535346e+000
<GCONST> 1.150108e+002
<STATE> 4
<MEAN> 25
 -1.311051e+000 -4.947317e+000 2.745361e+000 -8.499258e+000 6.401479e+000 2.973859e+000 -3.976477e+000 4.213988e+000 4.449816e-003 2.452180e+000 1.209440e-001 1.913486e+000 6.416585e-001 2.806291e-001 -2.428332e-001 3.719365e-001 -6.608566e-001 -1.220405e-001 -3.200473e-002 -1.282490e-001 4.341191e-001 -4.271001e-001 3.591888e-001 -2.074843e-002 1.563105e-001
<VARIANCE> 25
 1.642426e+002 1.334538e+002 8.635863e+001 9.685262e+001 1.435516e+002 7.314751e+001 5.660279e+001 6.822206e+001 1.223217e+002 1.330526e+002 4.474081e+001 4.333654e+001 5.743251e+000 6.224760e+000 3.120627e+000 3.639641e+000 6.679156e+000 3.891499e+000 3.567130e+000 3.284675e+000 4.903215e+000 6.988707e+000 3.764046e+000 2.778377e+000 1.903073e+000
<GCONST> 1.180093e+002
<TRANSP> 5
 0.000000e+000 1.000000e+000 0.000000e+000 0.000000e+000 0.000000e+000
 0.000000e+000 7.833391e-001 2.166609e-001 0.000000e+000 0.000000e+000
 0.000000e+000 0.000000e+000 7.468840e-001 2.531160e-001 0.000000e+000
 0.000000e+000 0.000000e+000 0.000000e+000 9.237538e-001 7.624620e-002
 0.000000e+000 0.000000e+000 0.000000e+000 0.000000e+000 0.000000e+000
<ENDHMM>
~h "g"
<BEGINHMM>
<NUMSTATES> 5
<STATE> 2
<MEAN> 25
 -9.907572e-001 7.122436e+000 -1.717189e+000 4.790992e+000 -6.126603e-001 2.009224e+000 4.675689e+000 -1.204753e+000 1.676238e+000 2.278586e+000 2.410238e-001 7.090307e-001 8.032466e-001 -5.636036e-001 1.228399e+000 -9.166124e-002 9.233397e-001 -4.928906e-002 -9.992388e-001 1.592801e-001 -1.809429e-002 1.073776e+000 -1.281708e-001 -7.385699e-001 1.346634e+000
<VARIANCE> 25
 5.955063e+001 1.160235e+002 1.038918e+002 9.640628e+001 8.476289e+001 6.059693e+001 1.438366e+002 8.193855e+001 8.144920e+001 1.369887e+002 4.481052e+001 5.943814e+001 4.269637e+000 1.415576e+001 9.758775e+000 8.255773e+000 7.413663e+000 7.491993e+000 1.208261e+001 1.049120e+001 8.500249e+000 1.089978e+001 4.414822e+000 4.535126e+000 6.019297e+000
<GCONST> 1.257963e+002
<STATE> 3
<MEAN> 25
 3.532850e+000 1.964001e+000 3.242071e+000 4.446692e+000 6.034209e+000 8.174960e-001 -2.409917e+000 -2.152072e+000 3.956430e-001 8.889659e+000 5.752864e-001 -3.929948e+000 8.180165e-003 -1.145668e+000 6.683273e-001 -6.049379e-001 7.887810e-001 -4.993158e-001 -8.155775e-001 1.894590e-001 -4.104261e-001 1.903054e-001 -3.950514e-001 -1.865487e-001 1.016994e+000
<VARIANCE> 25
 3.209087e+001 1.632431e+002 1.129339e+002 1.005392e+002 8.108141e+001 6.981702e+001 1.727672e+002 6.145922e+001 7.747543e+001 5.879768e+001 5.764489e+001 3.975914e+001 1.966828e+000 1.272822e+001 5.885458e+000 6.710654e+000 4.777441e+000 6.036304e+000 1.260280e+001 4.749244e+000 6.490319e+000 8.300416e+000 4.693564e+000 4.066662e+000 4.489024e+000
<GCONST> 1.207082e+002
<STATE> 4
<MEAN> 25
 2.712732e+000 -2.722640e+000 3.114567e+000 5.640775e-001 7.532441e+000 -3.504343e-001 -6.303649e+000 -4.587538e+000 -1.242393e+000 7.574534e+000 8.483062e-001 -1.624537e+000 -1.165124e-001 -5.452058e-001 4.138747e-001 -5.258297e-001 -4.143963e-002 -1.342994e-001 -4.432774e-001 -1.077328e-003 -1.470139e-001 -3.188728e-001 -9.011270e-002 2.233020e-001 4.085082e-001
<VARIANCE> 25
 2.926744e+001 1.257671e+002 1.334820e+002 1.294483e+002 8.611606e+001 6.497306e+001 2.046810e+002 5.306257e+001 5.802222e+001 5.251826e+001 5.025352e+001 4.163214e+001 9.992890e-001 7.651199e+000 5.561112e+000 7.035382e+000 3.556270e+000 4.196550e+000 8.274878e+000 3.773408e+000 4.246436e+000 5.328666e+000 4.224953e+000 3.397159e+000 3.593056e+000
<GCONST> 1.164128e+002
<TRANSP> 5
 0.000000e+000 1.000000e+000 0.000000e+000 0.000000e+000 0.000000e+000
 0.000000e+000 8.717847e-001 1.282152e-001 0.000000e+000 0.000000e+000
 0.000000e+000 0.000000e+000 7.441153e-001 2.558847e-001 0.000000e+000
 0.000000e+000 0.000000e+000 0.000000e+000 8.734255e-001 1.265746e-001
 0.000000e+000 0.000000e+000 0.000000e+000 0.000000e+000 0.000000e+000
<ENDHMM>
~h "k"
<BEGINHMM>
<NUMSTATES> 5
<STATE> 2
<MEAN> 25
 -6.071134e-001 -6.483352e-001 -8.946041e-001 -1.165308e+000 -5.475414e-001 -1.207360e+000 -1.359207e+000 3.729982e-001 -2.406022e+000 2.424771e+000 3.268413e-001 -2.815304e+000 3.260482e-001 -6.678815e-001 6.297984e-001 -1.761406e+000 -1.285120e-001 -2.677250e-001 -3.351625e-001 6.198559e-001 -8.130250e-001 3.354148e-001 1.527579e-001 1.077211e-002 1.058335e+000
<VARIANCE> 25
 6.132227e+001 1.041370e+002 1.202867e+002 2.178387e+002 8.712805e+001 7.456291e+001 1.012911e+002 1.092517e+002 1.072753e+002 6.609222e+001 5.071012e+001 4.914809e+001 4.309494e+000 6.222609e+000 8.092374e+000 1.898684e+001 6.512632e+000 7.432253e+000 8.101262e+000 7.486295e+000 1.319618e+001 6.110116e+000 5.433177e+000 4.188058e+000 6.673816e+000
<GCONST> 1.253817e+002
<STATE> 3
<MEAN> 25
 2.157134e-001 -2.129396e+000 1.465000e+000 -2.723453e+000 -9.697683e-001 -1.635024e+000 -2.021130e+000 9.526117e-001 -3.438126e+000 2.887590e+000 5.089635e-001 -3.030037e+000 2.143142e-002 -5.318218e-002 2.749103e-001 -4.089790e-001 -1.981458e-001 7.226738e-002 2.067769e-001 6.543233e-002 8.001575e-002 -5.854407e-002 -2.440732e-002 2.471440e-001 2.126217e-001
<VARIANCE> 25
 5.690434e+001 1.012416e+002 1.119487e+002 2.364886e+002 8.816083e+001 7.091414e+001 9.603390e+001 9.706426e+001 9.784708e+001 6.281860e+001 4.844977e+001 4.931997e+001 2.856728e+000 5.072133e+000 6.227082e+000 1.757520e+001 5.755159e+000 5.629577e+000 6.176424e+000 6.070139e+000 1.050459e+001 4.865066e+000 4.174482e+000 3.795979e+000 4.437849e+000
<GCONST> 1.218311e+002
<STATE> 4
<MEAN> 25
 -2.608911e-002 -1.000040e+000 1.292207e+000 -3.445131e+000 -2.120973e+000 -1.913721e+000 -2.494418e-001 1.323618e+000 -2.061380e+000 3.072625e+000 5.005072e-001 -1.655201e+000 9.031217e-002 -2.942536e-001 4.511376e-001 -8.073334e-001 -2.333924e-002 2.507129e-001 7.669339e-002 1.925226e-001 3.722429e-002 -3.228460e-002 3.360498e-002 2.910861e-001 5.336282e-001
<VARIANCE> 25
 6.007671e+001 9.879710e+001 1.271665e+002 2.573102e+002 8.543083e+001 8.312998e+001 1.016043e+002 1.202217e+002 9.890460e+001 6.903777e+001 5.152451e+001 4.996986e+001 3.279608e+000 5.807774e+000 5.437595e+000 2.177040e+001 5.662927e+000 6.577394e+000 6.115222e+000 6.967668e+000 1.040367e+001 5.009724e+000 4.091619e+000 4.059394e+000 4.724132e+000
<GCONST> 1.233989e+002
<TRANSP> 5
 0.000000e+000 1.000000e+000 0.000000e+000 0.000000e+000 0.000000e+000
 0.000000e+000 7.355791e-001 2.644210e-001 0.000000e+000 0.000000e+000
 0.000000e+000 0.000000e+000 6.488801e-001 3.511199e-001 0.000000e+000
 0.000000e+000 0.000000e+000 0.000000e+000 7.827727e-001 2.172273e-001
 0.000000e+000 0.000000e+000 0.000000e+000 0.000000e+000 0.000000e+000
<ENDHMM>
~h "l"
<BEGINHMM>
<NUMSTATES> 5
<STATE> 2
<MEAN> 25
 6.040712e+000 6.422817e-001 2.737910e+000 -2.792656e+000 -7.065814e+000 -7.159544e-002 -1.361133e+000 1.036793e+000 2.661609e+000 -2.617323e+000 -1.116834e+000 6.802663e-001 -1.300109e-001 3.480800e-002 -2.872421e-001 5.502388e-002 -2.764945e-001 -9.853050e-002 2.229216e-001 -1.338714e-001 1.171242e-001 1.273627e-002 -1.048467e-001 3.138558e-002 -2.278335e-001
<VARIANCE> 25
 5.683629e+001 7.009141e+001 1.003794e+002 8.707013e+001 9.157803e+001 5.827322e+001 6.064216e+001 5.692571e+001 5.976088e+001 6.660181e+001 3.845445e+001 4.470760e+001 1.211069e+000 2.651326e+000 2.606774e+000 3.818409e+000 5.324486e+000 3.285647e+000 4.104697e+000 4.009068e+000 4.615965e+000 4.694290e+000 3.569976e+000 3.042575e+000 1.364622e+000
<GCONST> 1.106794e+002
<STATE> 3
<MEAN> 25
 5.273112e+000 5.992373e-001 2.180606e+000 -2.978391e+000 -7.322102e+000 -1.728831e-001 -8.471141e-001 6.947598e-001 2.511003e+000 -2.198825e+000 -1.109689e+000 7.426890e-001 -2.235952e-001 -2.027354e-002 -2.497035e-001 2.017487e-002 1.295768e-001 -1.460250e-001 1.304783e-001 -1.271061e-001 -9.706970e-002 2.623369e-001 6.300934e-002 4.784590e-002 -1.957544e-001
<VARIANCE> 25
 6.817255e+001 7.378430e+001 9.910466e+001 8.667215e+001 9.076820e+001 5.400640e+001 5.943429e+001 5.787415e+001 6.245857e+001 6.764761e+001 4.120128e+001 4.530999e+001 1.140260e+000 2.644529e+000 2.666575e+000 3.807105e+000 5.533976e+000 3.265212e+000 4.223878e+000 3.997055e+000 4.631414e+000 4.806185e+000 3.668453e+000 3.365277e+000 1.241949e+000
<GCONST> 1.110245e+002
<STATE> 4
<MEAN> 25
 4.089387e+000 1.145819e+000 8.892331e-001 -2.945546e+000 -7.424055e+000 -4.423172e-001 -3.565508e-001 6.362254e-001 2.826490e+000 -1.386393e+000 -4.093902e-001 1.381674e+000 -3.088710e-001 -4.980593e-002 -1.500099e-001 1.627405e-001 4.581128e-001 2.678899e-003 6.209936e-002 -1.263103e-001 -2.254908e-001 2.945077e-001 5.571873e-002 -1.352185e-002 -2.250614e-001
<VARIANCE> 25
 7.679881e+001 7.630169e+001 9.890006e+001 8.630603e+001 7.949464e+001 5.081948e+001 5.548144e+001 5.606617e+001 6.241859e+001 6.533686e+001 4.410252e+001 4.646917e+001 9.958666e-001 2.676240e+000 2.767910e+000 3.398072e+000 4.537498e+000 3.329891e+000 3.532061e+000 3.637942e+000 4.272071e+000 4.516545e+000 3.310290e+000 3.284828e+000 1.076172e+000
<GCONST> 1.098699e+002
<TRANSP> 5
 0.000000e+000 1.000000e+000 0.000000e+000 0.000000e+000 0.000000e+000
 0.000000e+000 6.496162e-001 3.503838e-001 0.000000e+000 0.000000e+000
 0.000000e+000 0.000000e+000 6.500003e-001 3.499998e-001 0.000000e+000
 0.000000e+000 0.000000e+000 0.000000e+000 8.391555e-001 1.608446e-001
 0.000000e+000 0.000000e+000 0.000000e+000 0.000000e+000 0.000000e+000
<ENDHMM>
~h "m"
<BEGINHMM>
<NUMSTATES> 5
<STATE> 2
<MEAN> 25
 4.476121e+000 3.430974e+000 3.157254e+000 2.508610e+000 2.867493e+000 3.284847e+000 -2.531274e+000 4.328494e-001 1.908412e-001 -8.793561e-001 -2.569404e+000 -4.036720e+000 -8.325795e-002 7.898805e-002 1.679281e-001 3.951401e-001 8.856297e-002 2.465381e-001 -8.485427e-002 -4.213885e-002 1.459250e-001 -1.219805e-001 -2.392984e-001 -2.647582e-001 -1.617609e-001
<VARIANCE> 25
 6.061283e+001 9.804671e+001 7.727389e+001 6.605226e+001 7.230910e+001 5.670394e+001 7.184667e+001 5.023319e+001 6.423300e+001 8.187075e+001 3.383227e+001 2.742703e+001 1.723977e+000 3.989467e+000 3.253887e+000 4.910944e+000 3.832784e+000 3.588530e+000 4.631657e+000 3.915561e+000 4.199728e+000 4.416456e+000 2.735676e+000 2.255844e+000 2.087344e+000
<GCONST> 1.107803e+002
<STATE> 3
<MEAN> 25
 3.242228e+000 2.545773e+000 3.046711e+000 3.263622e+000 2.706799e+000 3.055254e+000 -2.277852e+000 6.505308e-001 6.325434e-001 -2.972164e-001 -2.765540e+000 -4.233433e+000 -3.278068e-001 -2.655745e-001 -5.807818e-002 2.597237e-001 3.027695e-003 -1.910724e-002 1.812462e-001 5.863325e-002 1.273482e-001 3.993579e-002 -9.309192e-002 5.455362e-002 -1.859031e-001
<VARIANCE> 25
 6.501496e+001 8.298278e+001 7.800373e+001 5.378377e+001 7.197107e+001 6.431968e+001 7.781680e+001 5.400843e+001 6.217789e+001 7.388013e+001 3.601865e+001 2.894006e+001 9.338443e-001 3.363223e+000 2.735022e+000 3.662630e+000 2.744553e+000 2.963812e+000 3.542848e+000 3.340126e+000 3.957609e+000 3.808222e+000 2.765220e+000 2.321800e+000 1.222134e+000
<GCONST> 1.078359e+002
<STATE> 4
<MEAN> 25
 5.793503e-001 1.370783e+000 7.837899e-001 4.253822e+000 2.781264e+000 2.425715e+000 -2.061116e-001 9.665744e-001 1.215143e+000 5.425091e-001 -2.995297e+000 -3.773298e+000 -2.878627e-001 -4.823010e-001 2.014028e-002 -1.952136e-001 -3.637262e-003 -1.096513e-001 -1.515045e-002 2.419478e-001 -4.266308e-002 -7.137882e-002 2.199465e-002 2.554344e-001 5.368705e-002
<VARIANCE> 25
 7.157378e+001 9.535777e+001 1.079267e+002 5.608205e+001 6.659525e+001 7.550810e+001 9.648962e+001 6.046679e+001 6.206408e+001 7.353970e+001 3.693578e+001 3.034399e+001 1.221002e+000 4.198188e+000 4.135450e+000 3.292530e+000 3.166575e+000 3.896939e+000 4.434368e+000 3.752095e+000 4.743404e+000 3.883218e+000 3.441475e+000 3.323858e+000 1.162959e+000
<GCONST> 1.111973e+002
<TRANSP> 5
 0.000000e+000 1.000000e+000 0.000000e+000 0.000000e+000 0.000000e+000
 0.000000e+000 6.461152e-001 3.538848e-001 0.000000e+000 0.000000e+000
 0.000000e+000 0.000000e+000 6.612554e-001 3.387446e-001 0.000000e+000
 0.000000e+000 0.000000e+000 0.000000e+000 7.472045e-001 2.527955e-001
 0.000000e+000 0.000000e+000 0.000000e+000 0.000000e+000 0.000000e+000
<ENDHMM>
~h "n"
<BEGINHMM>
<NUMSTATES> 5
<STATE> 2
<MEAN> 25
 8.184664e+000 -2.196535e+000 7.159943e-001 -1.930994e+000 3.143766e+000 -6.456140e-001 -4.794418e+000 5.164971e-001 4.021419e-001 -6.190778e-001 -1.572413e+000 9.414357e-001 9.721900e-002 3.155099e-001 -4.343229e-002 1.128934e-001 -5.372439e-002 -4.532793e-002 1.664097e-002 1.915815e-001 -4.167022e-003 -3.131870e-001 4.720087e-002 -1.574487e-001 -1.047634e-001
<VARIANCE> 25
 3.868396e+001 9.072620e+001 9.450150e+001 1.264471e+002 8.276402e+001 8.138902e+001 6.989748e+001 7.748634e+001 6.355197e+001 7.993087e+001 4.221391e+001 4.034505e+001 1.009250e+000 2.434885e+000 1.871882e+000 2.602259e+000 2.426112e+000 3.109659e+000 2.896694e+000 2.775340e+000 3.519492e+000 2.981564e+000 2.336860e+000 2.056583e+000 1.465663e+000
<GCONST> 1.077747e+002
<STATE> 3
<MEAN> 25
 7.923073e+000 -1.083619e+000 1.238377e+000 -2.097713e+000 2.335530e+000 -7.757740e-001 -4.375062e+000 1.790626e+000 7.268237e-002 -2.043272e+000 -8.248067e-001 4.743850e-001 -2.147560e-002 4.184090e-001 5.018570e-002 2.182478e-001 3.002500e-002 -7.789344e-002 3.344282e-002 1.625679e-001 -6.656116e-002 -1.730714e-001 9.152974e-002 -1.743910e-001 -2.320041e-001
<VARIANCE> 25
 3.843317e+001 8.535641e+001 8.755226e+001 1.173442e+002 7.416640e+001 8.810053e+001 6.679076e+001 8.037936e+001 5.878213e+001 6.600931e+001 3.486900e+001 3.999507e+001 8.890278e-001 2.287037e+000 1.878072e+000 2.492968e+000 2.483254e+000 3.136436e+000 3.006120e+000 2.726243e+000 3.540989e+000 2.992735e+000 2.351315e+000 1.895867e+000 1.079517e+000
<GCONST> 1.064985e+002
<STATE> 4
<MEAN> 25
 9.299548e+000 2.322212e+000 1.988758e+000 -1.787989e+000 1.225288e+000 -2.759257e+000 -4.049118e+000 5.485393e+000 -2.436386e-001 -2.406605e+000 9.926602e-001 -1.189712e+000 -1.882988e-001 2.831027e-001 3.607518e-002 3.088327e-001 7.344247e-002 1.556943e-001 9.003618e-002 -1.020006e-001 -3.224708e-002 2.244015e-002 3.920392e-002 -1.097034e-001 -3.442933e-001
<VARIANCE> 25
 2.323501e+001 9.222041e+001 6.416165e+001 1.033149e+002 7.785893e+001 9.632571e+001 5.640435e+001 7.528352e+001 5.682276e+001 4.955203e+001 2.970440e+001 3.739927e+001 5.460269e-001 1.899051e+000 1.758068e+000 2.400206e+000 2.267634e+000 3.171820e+000 2.763743e+000 2.987172e+000 3.686591e+000 2.964444e+000 2.153063e+000 1.943799e+000 8.142717e-001
<GCONST> 1.038258e+002
<TRANSP> 5
 0.000000e+000 1.000000e+000 0.000000e+000 0.000000e+000 0.000000e+000
 0.000000e+000 7.169460e-001 2.830540e-001 0.000000e+000 0.000000e+000
 0.000000e+000 0.000000e+000 6.993061e-001 3.006939e-001 0.000000e+000
 0.000000e+000 0.000000e+000 0.000000e+000 9.336329e-001 6.636710e-002
 0.000000e+000 0.000000e+000 0.000000e+000 0.000000e+000 0.000000e+000
<ENDHMM>
~h "p"
<BEGINHMM>
<NUMSTATES> 5
<STATE> 2
<MEAN> 25
 -3.959154e-001 3.224846e+000 -1.903468e+000 2.076619e+000 -2.862309e+000 3.020168e-001 1.551387e+000 -2.179481e+000 -8.961011e-001 -1.048757e+000 -1.993921e-001 8.059264e-001 -2.093723e-001 1.538500e-001 1.874078e-001 -4.079279e-001 -5.697117e-002 7.411027e-002 3.407576e-001 9.965385e-002 -2.322102e-001 5.098652e-002 -8.205057e-002 4.421509e-001 -9.941776e-002
<VARIANCE> 25
 7.574862e+001 8.963158e+001 1.141274e+002 1.517289e+002 8.836184e+001 9.360516e+001 1.049461e+002 7.814340e+001 9.308844e+001 1.139168e+002 8.173517e+001 6.282660e+001 3.328118e+000 6.050143e+000 7.325692e+000 1.008044e+001 5.883427e+000 5.708612e+000 7.116383e+000 6.868085e+000 8.378809e+000 7.321856e+000 4.315068e+000 3.990061e+000 3.338869e+000
<GCONST> 1.232509e+002
<STATE> 3
<MEAN> 25
 -9.966322e-001 5.226465e+000 -3.161907e+000 1.634321e+000 -2.439864e+000 9.813012e-002 3.434134e+000 -1.423278e+000 -1.611697e+000 -1.704989e+000 -2.822818e-001 2.022796e+000 -5.246276e-002 8.104511e-002 -8.728603e-002 -2.595159e-001 6.729224e-002 -3.627821e-002 2.679112e-001 2.277901e-001 -1.240046e-001 5.606466e-002 2.513663e-002 1.742031e-001 -3.153116e-002
<VARIANCE> 25
 7.746822e+001 9.983019e+001 1.154564e+002 1.352581e+002 8.066681e+001 1.131133e+002 1.130732e+002 7.241964e+001 1.027581e+002 1.305936e+002 8.669714e+001 6.752824e+001 2.811820e+000 6.008707e+000 6.051395e+000 8.676306e+000 6.318441e+000 6.572212e+000 7.418652e+000 6.572158e+000 8.136628e+000 7.559802e+000 4.801632e+000 4.238191e+000 2.911923e+000
<GCONST> 1.234672e+002
<STATE> 4
<MEAN> 25
 -2.176734e+000 7.921278e+000 -7.374422e+000 2.661223e+000 -2.199624e+000 -2.799025e-001 6.798379e+000 -1.515735e-001 1.481295e+000 -1.750464e+000 -1.946036e+000 2.242819e+000 2.127358e-001 -3.174177e-001 4.352210e-001 -3.677979e-001 1.243604e-001 1.125176e-001 -3.417989e-001 2.118133e-001 5.041857e-002 4.354815e-002 -7.218403e-002 -5.204757e-002 5.043669e-001
<VARIANCE> 25
 6.571475e+001 9.687371e+001 1.145060e+002 1.379735e+002 6.390237e+001 1.210927e+002 1.207878e+002 7.548019e+001 1.243997e+002 8.565810e+001 6.169017e+001 5.242793e+001 2.698380e+000 6.217821e+000 7.142248e+000 8.963334e+000 6.489655e+000 1.039047e+001 8.427489e+000 6.913321e+000 1.040981e+001 6.760530e+000 5.488071e+000 4.742325e+000 3.313534e+000
<GCONST> 1.237669e+002
<TRANSP> 5
 0.000000e+000 1.000000e+000 0.000000e+000 0.000000e+000 0.000000e+000
 0.000000e+000 6.908597e-001 3.091403e-001 0.000000e+000 0.000000e+000
 0.000000e+000 0.000000e+000 7.083963e-001 2.916037e-001 0.000000e+000
 0.000000e+000 0.000000e+000 0.000000e+000 9.342473e-001 6.575269e-002
 0.000000e+000 0.000000e+000 0.000000e+000 0.000000e+000 0.000000e+000
<ENDHMM>
~h "r"
<BEGINHMM>
<NUMSTATES> 5
<STATE> 2
<MEAN> 25
 4.590056e+000 1.034395e+000 -4.915480e-001 -7.340562e+000 2.363974e+000 4.489854e+000 -3.871589e+000 -3.050522e-001 -1.294326e+000 -2.117572e+000 1.596167e+000 3.375906e+000 3.363613e-001 -2.275466e-001 1.102847e-001 -6.038097e-001 3.331382e-001 5.542696e-002 -2.184878e-001 5.100993e-002 -4.080786e-001 -8.152097e-003 1.632097e-001 2.223508e-001 5.508105e-001
<VARIANCE> 25
 9.213977e+001 1.038944e+002 8.614324e+001 1.463865e+002 8.939170e+001 8.477800e+001 6.912888e+001 6.913702e+001 9.691623e+001 7.054498e+001 3.565725e+001 5.306831e+001 3.907885e+000 7.645020e+000 5.941104e+000 7.397771e+000 5.401597e+000 6.883810e+000 5.106535e+000 5.734904e+000 8.101426e+000 6.019741e+000 3.273772e+000 4.137045e+000 3.465233e+000
<GCONST> 1.202455e+002
<STATE> 3
<MEAN> 25
 5.885682e+000 -8.750459e-001 -4.755936e-001 -8.961305e+000 3.815984e+000 4.440468e+000 -5.024654e+000 -1.844530e-001 -2.273856e+000 -2.386864e+000 2.221766e+000 4.005777e+000 1.325025e-001 -4.675231e-001 8.864567e-002 -6.599762e-002 3.767454e-001 -1.037048e-001 -3.113546e-001 -4.701970e-003 -1.847751e-001 7.428274e-002 7.188727e-002 -1.300898e-002 4.153662e-001
<VARIANCE> 25
 9.195440e+001 1.221093e+002 8.804017e+001 1.412893e+002 1.008038e+002 8.336034e+001 7.171507e+001 6.346230e+001 9.459881e+001 7.317662e+001 3.748143e+001 4.759261e+001 2.748019e+000 7.581617e+000 5.233708e+000 6.389339e+000 5.448956e+000 6.157435e+000 4.689576e+000 5.604502e+000 7.111104e+000 5.187241e+000 3.314155e+000 3.925373e+000 3.131101e+000
<GCONST> 1.191335e+002
<STATE> 4
<MEAN> 25
 6.535412e+000 -4.304722e+000 1.818673e+000 -6.865066e+000 6.916417e+000 2.785765e+000 -8.245336e+000 -8.424112e-001 -2.889022e+000 -1.033274e+000 1.610915e+000 2.544811e+000 1.174952e-001 6.613537e-002 2.090987e-002 4.216961e-001 8.843090e-002 -2.373721e-001 -5.660862e-002 -1.386891e-001 -1.399550e-001 1.778565e-001 -1.261735e-001 -2.353924e-001 6.850527e-004
<VARIANCE> 25
 7.685930e+001 1.262390e+002 8.080994e+001 1.393479e+002 1.323893e+002 1.077718e+002 6.803790e+001 5.427933e+001 1.069427e+002 9.137470e+001 3.862605e+001 5.180326e+001 2.342799e+000 6.437769e+000 4.012667e+000 4.163606e+000 4.559886e+000 5.525227e+000 3.540921e+000 3.908505e+000 5.520176e+000 5.109499e+000 3.372437e+000 3.563708e+000 2.099300e+000
<GCONST> 1.169759e+002
<TRANSP> 5
 0.000000e+000 1.000000e+000 0.000000e+000 0.000000e+000 0.000000e+000
 0.000000e+000 7.365384e-001 2.634617e-001 0.000000e+000 0.000000e+000
 0.000000e+000 0.000000e+000 7.260770e-001 2.739230e-001 0.000000e+000
 0.000000e+000 0.000000e+000 0.000000e+000 8.869830e-001 1.130169e-001
 0.000000e+000 0.000000e+000 0.000000e+000 0.000000e+000 0.000000e+000
<ENDHMM>
~h "s"
<BEGINHMM>
<NUMSTATES> 5
<STATE> 2
<MEAN> 25
 -8.130078e+000 -1.068612e+001 1.827443e+001 -6.192363e+000 1.388226e+000 3.520492e+000 4.538427e+000 -8.339565e-001 -6.761603e+000 6.244986e+000 -9.118985e-002 -4.664163e-001 -1.672039e+000 -1.865726e+000 2.776462e+000 -6.537466e-001 5.295540e-002 2.724545e-001 9.273517e-001 2.101082e-001 -3.107799e-001 6.125982e-001 3.180846e-001 1.168260e-001 9.042856e-001
<VARIANCE> 25
 8.122329e+001 8.088612e+001 1.524416e+002 9.337518e+001 5.177959e+001 5.917117e+001 9.718212e+001 8.479864e+001 6.860294e+001 4.510405e+001 4.813909e+001 3.216731e+001 3.499431e+000 4.912142e+000 9.970139e+000 5.437187e+000 3.084159e+000 3.702286e+000 5.771959e+000 4.653551e+000 4.036879e+000 4.675076e+000 3.254138e+000 2.490592e+000 2.213043e+000
<GCONST> 1.151148e+002
<STATE> 3
<MEAN> 25
 -1.179160e+001 -1.466246e+001 2.375383e+001 -7.545711e+000 1.346735e+000 4.009534e+000 6.774765e+000 6.741157e-001 -6.235476e+000 6.696408e+000 9.610724e-001 -1.022846e-001 -6.382555e-001 -6.590235e-001 8.130797e-001 -9.764961e-002 -7.708679e-002 3.656505e-002 3.520902e-001 2.578838e-001 2.429943e-001 6.538261e-002 2.506598e-001 3.360187e-002 2.823687e-001
<VARIANCE> 25
 6.302078e+001 5.455929e+001 8.649629e+001 5.790610e+001 4.210933e+001 5.939581e+001 8.511180e+001 6.860860e+001 6.199473e+001 4.200679e+001 4.083381e+001 3.402268e+001 3.598520e+000 3.495762e+000 6.888076e+000 2.941325e+000 2.333315e+000 3.003134e+000 4.727295e+000 3.374026e+000 3.308193e+000 3.326015e+000 2.393414e+000 2.334317e+000 1.570142e+000
<GCONST> 1.090338e+002
<STATE> 4
<MEAN> 25
 -1.048903e+001 -1.353339e+001 2.044880e+001 -7.168406e+000 8.293232e-001 4.306768e+000 4.839561e+000 2.758161e-001 -3.939564e+000 6.280843e+000 1.325389e+000 2.320680e-001 4.221714e-001 1.608794e-001 -5.168681e-001 2.978444e-001 -1.215868e-002 -2.107531e-001 -3.560311e-001 -3.053744e-002 -1.362988e-002 -1.189891e-001 1.833615e-002 -1.123011e-001 -5.403212e-002
<VARIANCE> 25
 1.194680e+002 4.935491e+001 1.111680e+002 5.515050e+001 5.756422e+001 7.130194e+001 1.092855e+002 6.248483e+001 6.941029e+001 4.173257e+001 3.173438e+001 3.256321e+001 3.522751e+000 2.569610e+000 3.472180e+000 2.617450e+000 2.499767e+000 2.887385e+000 4.536015e+000 3.003956e+000 3.141924e+000 2.568599e+000 2.223504e+000 2.180213e+000 1.923302e+000
<GCONST> 1.087300e+002
<TRANSP> 5
 0.000000e+000 1.000000e+000 0.000000e+000 0.000000e+000 0.000000e+000
 0.000000e+000 7.612804e-001 2.387197e-001 0.000000e+000 0.000000e+000
 0.000000e+000 0.000000e+000 7.564964e-001 2.435036e-001 0.000000e+000
 0.000000e+000 0.000000e+000 0.000000e+000 9.564600e-001 4.353998e-002
 0.000000e+000 0.000000e+000 0.000000e+000 0.000000e+000 0.000000e+000
<ENDHMM>
~h "t"
<BEGINHMM>
<NUMSTATES> 5
<STATE> 2
<MEAN> 25
 4.830442e-001 3.546812e-001 9.348299e-001 3.064004e+000 1.550297e+000 -7.450926e-001 -3.144860e-001 -1.213162e+000 -2.348978e+000 5.413060e-001 -1.493077e+000 -7.197006e-001 -1.946753e-001 -1.271285e+000 6.871327e-001 -1.100079e+000 4.109961e-001 -2.870972e-001 -1.236938e-001 4.468506e-001 -8.060296e-001 5.688859e-001 -1.822920e-001 5.179204e-003 9.523445e-001
<VARIANCE> 25
 6.999483e+001 1.813575e+002 1.596460e+002 1.183299e+002 7.952531e+001 7.655887e+001 9.574976e+001 7.066782e+001 7.797887e+001 7.307747e+001 4.560756e+001 4.856681e+001 4.078400e+000 1.295368e+001 1.054247e+001 1.430285e+001 6.253341e+000 6.678641e+000 7.297481e+000 7.629344e+000 9.035015e+000 6.678149e+000 5.023554e+000 4.146735e+000 5.999157e+000
<GCONST> 1.247896e+002
<STATE> 3
<MEAN> 25
 -3.510195e-001 -4.334720e+000 3.986323e+000 -5.082029e-001 2.661807e+000 -1.390371e+000 -1.395865e+000 6.396677e-002 -4.249952e+000 2.634208e+000 -1.295935e+000 -6.320770e-001 1.509002e-001 -8.292054e-001 5.994874e-001 -8.133361e-001 2.652053e-001 -1.344731e-001 -4.999405e-001 1.712465e-001 -3.504457e-001 3.042723e-001 1.139699e-001 4.404637e-002 8.912491e-001
<VARIANCE> 25
 7.642217e+001 1.658237e+002 1.395049e+002 1.067109e+002 8.292096e+001 7.592421e+001 9.532758e+001 7.485793e+001 8.318215e+001 7.285796e+001 4.045928e+001 4.048475e+001 4.719732e+000 1.339310e+001 9.875401e+000 1.349576e+001 6.443515e+000 6.004549e+000 7.119313e+000 7.001045e+000 8.661132e+000 7.101683e+000 4.827414e+000 3.545926e+000 6.019598e+000
<GCONST> 1.240913e+002
<STATE> 4
<MEAN> 25
 1.216508e+000 -6.649494e+000 5.404026e+000 -2.377283e+000 3.080122e+000 -2.178004e+000 -4.039268e+000 -6.964914e-001 -5.134328e+000 2.920060e+000 -4.201918e-001 -2.927828e-001 5.702734e-001 1.749508e-001 -2.040842e-001 -2.903517e-002 2.254919e-002 1.378616e-001 -4.847546e-001 -1.777348e-001 2.005472e-001 -3.493905e-001 2.659902e-001 6.677860e-002 2.876280e-001
<VARIANCE> 25
 8.284277e+001 1.089181e+002 1.008959e+002 9.864590e+001 9.249925e+001 7.434588e+001 9.323934e+001 7.978357e+001 8.808036e+001 6.815395e+001 3.826651e+001 3.812369e+001 4.359592e+000 8.884524e+000 6.099730e+000 9.155717e+000 6.415789e+000 5.240396e+000 5.761513e+000 5.758945e+000 6.912406e+000 5.977497e+000 4.178285e+000 3.185220e+000 4.428246e+000
<GCONST> 1.204901e+002
<TRANSP> 5
 0.000000e+000 1.000000e+000 0.000000e+000 0.000000e+000 0.000000e+000
 0.000000e+000 6.922501e-001 3.077499e-001 0.000000e+000 0.000000e+000
 0.000000e+000 0.000000e+000 6.842164e-001 3.157837e-001 0.000000e+000
 0.000000e+000 0.000000e+000 0.000000e+000 7.987617e-001 2.012383e-001
 0.000000e+000 0.000000e+000 0.000000e+000 0.000000e+000 0.000000e+000
<ENDHMM>
~h "v"
<BEGINHMM>
<NUMSTATES> 5
<STATE> 2
<MEAN> 25
 5.887067e+000 -5.503314e+000 5.346998e+000 -3.678282e+000 6.484624e+000 -1.197566e+000 -7.023959e+000 -2.585996e+000 -1.081216e+000 6.273146e+000 -5.347450e-001 1.681778e+000 -6.529502e-002 -1.329472e-001 7.138008e-002 -3.065089e-001 -9.839167e-002 6.515929e-002 -1.338596e-001 -1.747109e-001 -3.568511e-002 6.628850e-002 -1.284350e-001 1.579294e-001 6.556661e-002
<VARIANCE> 25
 6.604526e+001 7.005862e+001 1.204479e+002 7.982228e+001 7.787615e+001 8.456166e+001 7.047369e+001 5.621375e+001 7.122410e+001 9.920315e+001 4.506817e+001 5.218172e+001 1.910820e+000 2.324235e+000 2.757118e+000 3.435318e+000 2.764901e+000 3.943995e+000 3.845313e+000 3.476609e+000 3.987470e+000 4.995595e+000 2.494102e+000 2.913579e+000 1.715567e+000
<GCONST> 1.114966e+002
<STATE> 3
<MEAN> 25
 5.705641e+000 -5.322972e+000 3.398602e+000 -3.929209e+000 5.261966e+000 2.872577e-001 -7.254019e+000 -3.912611e+000 -1.118782e+000 4.130606e+000 -3.319200e-001 2.542741e+000 -8.951755e-002 1.179764e-001 -8.727244e-002 -6.406236e-002 -1.177903e-001 2.056962e-001 -1.837299e-002 -1.145436e-001 -4.104299e-002 -2.327671e-001 -6.131418e-002 1.006734e-001 -1.845881e-001
<VARIANCE> 25
 7.657206e+001 7.367266e+001 1.213240e+002 9.305653e+001 7.408434e+001 9.053430e+001 7.054654e+001 6.472950e+001 7.335822e+001 1.058048e+002 3.963797e+001 5.259996e+001 1.353296e+000 2.346689e+000 2.525280e+000 3.173493e+000 2.627487e+000 3.489755e+000 3.347707e+000 3.494895e+000 4.155814e+000 3.856217e+000 2.256888e+000 2.826500e+000 1.334581e+000
<GCONST> 1.105814e+002
<STATE> 4
<MEAN> 25
 4.451836e+000 -4.627032e+000 1.602232e+000 -3.009058e+000 4.549658e+000 4.328841e-001 -7.035372e+000 -6.396564e+000 -2.163496e+000 3.587599e+000 -3.602351e-001 2.857826e+000 -1.030878e-001 2.399927e-001 -3.262546e-001 1.039591e-001 -1.719883e-001 -3.244011e-002 1.407718e-001 -5.468071e-002 -6.252835e-002 -1.709540e-001 6.957497e-003 -2.256902e-002 -3.434159e-001
<VARIANCE> 25
 8.873325e+001 7.581630e+001 1.492808e+002 1.088344e+002 7.699030e+001 1.062023e+002 7.959127e+001 8.171825e+001 8.821577e+001 1.315711e+002 3.907489e+001 5.057658e+001 1.887349e+000 3.208874e+000 3.515640e+000 4.440855e+000 3.369926e+000 3.690727e+000 3.850878e+000 4.161894e+000 5.831671e+000 4.513253e+000 2.692748e+000 3.217855e+000 1.498016e+000
<GCONST> 1.148719e+002
<TRANSP> 5
 0.000000e+000 1.000000e+000 0.000000e+000 0.000000e+000 0.000000e+000
 0.000000e+000 7.566244e-001 2.433757e-001 0.000000e+000 0.000000e+000
 0.000000e+000 0.000000e+000 7.265625e-001 2.734375e-001 0.000000e+000
 0.000000e+000 0.000000e+000 0.000000e+000 8.868945e-001 1.131055e-001
 0.000000e+000 0.000000e+000 0.000000e+000 0.000000e+000 0.000000e+000
<ENDHMM>
~h "w"
<BEGINHMM>
<NUMSTATES> 5
<STATE> 2
<MEAN> 25
 5.977149e+000 4.274185e+000 -4.089214e+000 -1.501328e+000 -5.729314e+000 -1.406028e+000 4.458184e-001 -3.806560e-001 2.761328e+000 -3.148842e+000 2.116371e-001 5.233787e-001 3.025175e-001 3.417191e-001 -4.064063e-001 2.071737e-001 -6.621941e-001 -6.087644e-001 2.530344e-001 1.396642e-001 9.389897e-001 -1.128832e-001 4.275877e-002 2.876150e-001 -6.174504e-002
<VARIANCE> 25
 7.386275e+001 1.435063e+002 7.140753e+001 1.177381e+002 7.807296e+001 6.407027e+001 1.101497e+002 7.934914e+001 7.662804e+001 7.147863e+001 4.121583e+001 6.295723e+001 1.641910e+000 6.016780e+000 1.861084e+000 5.710002e+000 4.254393e+000 4.496563e+000 6.259627e+000 5.243295e+000 5.391983e+000 3.809612e+000 4.570315e+000 4.232582e+000 2.035637e+000
<GCONST> 1.161071e+002
<STATE> 3
<MEAN> 25
 6.865441e+000 5.479247e+000 -5.597635e+000 -9.348408e-001 -5.725293e+000 -3.505857e+000 1.023319e+000 5.397604e-001 3.809574e+000 -3.545426e+000 -1.574199e-001 1.168584e+000 1.174336e-001 -1.090975e-001 -3.053998e-001 -1.447250e-001 -2.712842e-002 -5.086044e-001 2.252233e-002 3.310545e-001 2.452642e-001 -3.824830e-002 -3.290088e-003 1.523543e-001 1.435927e-001
<VARIANCE> 25
 6.708981e+001 1.705536e+002 9.825045e+001 1.334504e+002 6.482214e+001 6.522314e+001 1.199546e+002 8.115364e+001 7.118994e+001 6.260685e+001 4.462460e+001 5.975137e+001 7.434033e-001 6.667422e+000 1.660847e+000 4.869690e+000 5.508521e+000 4.635839e+000 5.319908e+000 6.071403e+000 6.321457e+000 3.759805e+000 3.880146e+000 4.679385e+000 1.628608e+000
<GCONST> 1.155582e+002
<STATE> 4
<MEAN> 25
 1.055516e+001 -4.293819e-001 -5.412463e+000 -5.268259e+000 -4.343291e+000 -4.555960e+000 2.317011e-001 5.149848e+000 3.571427e+000 -5.465138e+000 1.886912e+000 4.019799e+000 -1.670703e-001 -2.218314e-001 -1.481529e-003 -5.340807e-002 2.732442e-001 1.120666e-001 -1.188546e-001 -2.360307e-001 -2.598381e-001 3.008713e-002 -2.159536e-002 1.640771e-001 1.499167e-002
<VARIANCE> 25
 2.744944e+001 1.968128e+002 6.973785e+001 1.013485e+002 6.458383e+001 6.007281e+001 1.032333e+002 1.055610e+002 6.030387e+001 6.605128e+001 3.666008e+001 4.289776e+001 4.152320e-001 3.923701e+000 1.723781e+000 3.611895e+000 3.205167e+000 2.755584e+000 4.399647e+000 4.634169e+000 4.894568e+000 3.444372e+000 2.468836e+000 2.630168e+000 1.557091e+000
<GCONST> 1.092637e+002
<TRANSP> 5
 0.000000e+000 1.000000e+000 0.000000e+000 0.000000e+000 0.000000e+000
 0.000000e+000 6.515803e-001 3.484198e-001 0.000000e+000 0.000000e+000
 0.000000e+000 0.000000e+000 6.523851e-001 3.476149e-001 0.000000e+000
 0.000000e+000 0.000000e+000 0.000000e+000 9.274735e-001 7.252644e-002
 0.000000e+000 0.000000e+000 0.000000e+000 0.000000e+000 0.000000e+000
<ENDHMM>
~h "y"
<BEGINHMM>
<NUMSTATES> 5
<STATE> 2
<MEAN> 25
 5.994220e+000 -3.169811e+000 7.801186e+000 2.601571e+000 6.322527e+000 -1.492870e-001 -9.005878e+000 1.790035e-002 -1.026146e+000 2.050255e+000 3.017106e-001 -2.248677e+000 2.988907e-001 1.775764e-002 -8.079994e-002 1.499729e-001 6.663940e-001 4.865533e-002 -4.698750e-001 -3.890914e-001 -5.217830e-001 1.004557e-001 1.969025e-001 -1.020080e-001 2.262534e-001
<VARIANCE> 25
 4.457996e+001 5.865645e+001 1.364616e+002 1.180125e+002 1.412911e+002 4.482386e+001 1.335363e+002 8.141313e+001 8.201148e+001 5.920238e+001 3.503851e+001 5.905274e+001 1.189162e+000 3.622433e+000 5.501276e+000 4.682236e+000 3.759120e+000 3.829715e+000 5.479395e+000 4.035068e+000 5.155582e+000 3.288597e+000 2.643811e+000 2.911377e+000 1.960403e+000
<GCONST> 1.136896e+002
<STATE> 3
<MEAN> 25
 6.191206e+000 -2.357242e+000 5.710076e+000 3.163533e+000 6.670753e+000 -2.691467e-001 -8.108884e+000 -1.211746e+000 -2.425881e+000 1.981524e+000 3.956242e-001 -1.362348e+000 2.279979e-001 2.795874e-001 -9.870937e-002 1.306828e-001 5.131079e-001 4.034163e-002 -2.039379e-001 -3.614874e-001 -4.239656e-001 -4.720344e-002 -4.892076e-003 5.444485e-002 5.607124e-002
<VARIANCE> 25
 4.314025e+001 6.676401e+001 1.222787e+002 1.121349e+002 1.507994e+002 4.683681e+001 1.447310e+002 9.693591e+001 9.906270e+001 4.939991e+001 3.852283e+001 5.687128e+001 1.311894e+000 3.514317e+000 7.436731e+000 5.762160e+000 5.068458e+000 3.825450e+000 5.869579e+000 4.881334e+000 5.523150e+000 3.429683e+000 3.285023e+000 3.254131e+000 2.340866e+000
<GCONST> 1.158051e+002
<STATE> 4
<MEAN> 25
 4.742879e+000 -1.708184e+000 6.988147e+000 4.280722e+000 8.341469e+000 -1.452507e+000 -8.169122e+000 -1.147414e+000 -3.255819e+000 3.020502e+000 -8.631970e-001 -1.700765e+000 2.946977e-001 -2.938276e-002 1.371590e-002 -5.281534e-001 3.315566e-001 -6.064938e-002 -1.787463e-001 5.997978e-003 -3.951253e-001 6.652990e-002 5.504220e-002 -7.415489e-002 4.216751e-001
<VARIANCE> 25
 4.823680e+001 7.292019e+001 1.232658e+002 1.788339e+002 1.218402e+002 4.400912e+001 1.525298e+002 1.101681e+002 9.376279e+001 4.620796e+001 3.898167e+001 4.723710e+001 2.822321e+000 4.559827e+000 1.191885e+001 1.278441e+001 6.865488e+000 4.084968e+000 1.259511e+001 8.294391e+000 7.960691e+000 4.687333e+000 3.806342e+000 3.811905e+000 4.755766e+000
<GCONST> 1.217393e+002
<TRANSP> 5
 0.000000e+000 1.000000e+000 0.000000e+000 0.000000e+000 0.000000e+000
 0.000000e+000 6.398148e-001 3.601852e-001 0.000000e+000 0.000000e+000
 0.000000e+000 0.000000e+000 5.908267e-001 4.091733e-001 0.000000e+000
 0.000000e+000 0.000000e+000 0.000000e+000 8.016640e-001 1.983360e-001
 0.000000e+000 0.000000e+000 0.000000e+000 0.000000e+000 0.000000e+000
<ENDHMM>
~h "z"
<BEGINHMM>
<NUMSTATES> 5
<STATE> 2
<MEAN> 25
 -7.261743e+000 -7.945008e+000 2.028677e+001 -4.156287e+000 2.672767e+000 4.176135e+000 4.557755e+000 -4.509090e-001 -5.157528e+000 5.653038e+000 -2.466563e-001 -1.019826e+000 -9.665240e-001 -1.262190e+000 2.536257e+000 -8.668617e-002 1.831744e-001 9.447098e-002 9.448867e-001 3.612320e-001 -5.002863e-001 4.878825e-001 4.101754e-002 -1.485277e-001 9.439189e-001
<VARIANCE> 25
 9.159924e+001 8.318568e+001 2.875179e+002 6.687634e+001 5.339140e+001 8.236434e+001 1.492696e+002 7.058499e+001 3.795536e+001 5.450323e+001 3.791933e+001 2.895336e+001 3.887325e+000 3.486167e+000 1.151052e+001 3.566171e+000 4.139404e+000 4.546422e+000 6.153574e+000 5.016351e+000 3.030981e+000 3.046447e+000 2.444755e+000 2.874649e+000 2.083962e+000
<GCONST> 1.146297e+002
<STATE> 3
<MEAN> 25
 -8.665360e+000 -1.191007e+001 2.646265e+001 -3.941104e+000 3.953169e+000 3.305436e+000 4.798651e+000 -3.404284e-001 -6.209499e+000 5.917365e+000 -2.383557e-001 -1.447864e+000 -3.407570e-001 -6.511583e-001 5.092732e-001 2.819619e-001 1.443280e-001 -2.975310e-001 5.598804e-002 5.986091e-002 -1.904885e-001 2.326961e-001 1.127798e-001 -1.292342e-001 2.604114e-001
<VARIANCE> 25
 7.046653e+001 6.324350e+001 1.392587e+002 5.685199e+001 5.238846e+001 8.136322e+001 1.253521e+002 6.725250e+001 4.004283e+001 3.840673e+001 4.272976e+001 2.922069e+001 3.481852e+000 2.417271e+000 6.180405e+000 3.134613e+000 2.526599e+000 2.931830e+000 5.766744e+000 3.482253e+000 2.675387e+000 2.391205e+000 2.420392e+000 2.070581e+000 1.059865e+000
<GCONST> 1.088132e+002
<STATE> 4
<MEAN> 25
 -8.568280e+000 -1.446358e+001 2.273767e+001 -2.139753e+000 3.375619e+000 5.297971e-001 2.348611e+000 3.336205e-001 -7.569678e+000 6.121679e+000 1.406728e+000 -1.547807e+000 2.263593e-001 9.310134e-002 -7.849451e-001 5.847109e-001 -1.718632e-001 -3.463792e-002 -5.127440e-001 -1.912322e-001 -1.711425e-002 -1.139655e-001 1.512547e-001 -1.234584e-001 -4.415105e-001
<VARIANCE> 25
 7.501331e+001 5.485186e+001 1.394618e+002 6.958762e+001 9.846963e+001 5.904049e+001 1.000794e+002 7.674890e+001 6.286385e+001 3.534924e+001 4.677794e+001 3.751187e+001 1.942952e+000 1.798448e+000 3.823924e+000 2.392244e+000 3.296324e+000 3.341498e+000 4.869744e+000 2.958469e+000 2.932837e+000 2.636150e+000 2.808978e+000 2.767447e+000 8.683905e-001
<GCONST> 1.087269e+002
<TRANSP> 5
 0.000000e+000 1.000000e+000 0.000000e+000 0.000000e+000 0.000000e+000
 0.000000e+000 8.545118e-001 1.454882e-001 0.000000e+000 0.000000e+000
 0.000000e+000 0.000000e+000 7.874911e-001 2.125090e-001 0.000000e+000
 0.000000e+000 0.000000e+000 0.000000e+000 9.020008e-001 9.799919e-002
 0.000000e+000 0.000000e+000 0.000000e+000 0.000000e+000 0.000000e+000
<ENDHMM>
~h "aa"
<BEGINHMM>
<NUMSTATES> 5
<STATE> 2
<MEAN> 25
 7.626071e+000 -2.353190e+000 3.874635e+000 -4.750202e+000 -6.359150e+000 -1.547498e+000 -3.873232e+000 5.261528e+000 5.508713e+000 -2.638308e+000 9.206321e-001 -8.100457e-002 6.174300e-001 -1.552359e-001 -9.307914e-002 -3.363100e-001 -6.775135e-001 -4.336941e-001 -3.406758e-001 2.661346e-001 8.745421e-001 -9.622854e-002 1.158636e-001 2.671344e-001 5.240834e-001
<VARIANCE> 25
 7.682530e+001 5.181475e+001 5.119653e+001 6.899825e+001 6.482818e+001 8.659486e+001 3.835956e+001 4.512792e+001 8.247663e+001 4.106863e+001 2.915889e+001 3.653077e+001 2.925644e+000 3.604490e+000 3.230992e+000 6.028952e+000 4.178437e+000 5.193515e+000 3.618680e+000 3.039853e+000 6.151248e+000 3.147642e+000 3.032181e+000 2.694515e+000 4.802897e+000
<GCONST> 1.110274e+002
<STATE> 3
<MEAN> 25
 8.337068e+000 -1.994152e+000 2.500383e+000 -4.723910e+000 -6.860511e+000 -1.866459e+000 -3.814278e+000 4.487300e+000 6.575679e+000 -2.655984e+000 1.264950e+000 1.461329e+000 1.698757e-002 1.861266e-001 -2.023029e-001 1.230101e-001 2.115712e-002 3.864479e-003 1.071218e-001 -1.666316e-001 6.001733e-002 8.510321e-002 4.874173e-002 2.270235e-001 -1.472174e-001
<VARIANCE> 25
 7.352551e+001 5.083282e+001 6.129903e+001 7.706664e+001 8.300916e+001 8.299446e+001 4.497181e+001 4.911153e+001 9.205390e+001 5.862758e+001 3.505059e+001 3.779919e+001 1.702066e+000 3.164175e+000 2.166909e+000 5.482647e+000 4.950375e+000 4.926430e+000 3.531089e+000 3.348462e+000 6.529138e+000 3.784897e+000 3.431171e+000 2.431412e+000 2.861218e+000
<GCONST> 1.111568e+002
<STATE> 4
<MEAN> 25
 8.510709e+000 -2.065581e+000 6.090594e-001 -3.709386e+000 -2.953228e+000 3.286841e-001 -3.536445e+000 1.342771e+000 3.596832e+000 -2.655266e+000 1.547091e+000 3.308259e+000 -9.178869e-002 1.358939e-001 -7.596228e-002 2.194731e-001 1.785650e-001 4.051502e-002 5.066067e-002 -1.218392e-001 -2.086128e-001 5.844107e-002 -4.890007e-002 -8.064622e-002 -1.901240e-001
<VARIANCE> 25
 5.473253e+001 6.763187e+001 6.225083e+001 9.959671e+001 1.272927e+002 7.943859e+001 6.612410e+001 7.161538e+001 1.042307e+002 7.166862e+001 3.760945e+001 3.974002e+001 1.400939e+000 4.211270e+000 3.386736e+000 5.903899e+000 6.587959e+000 4.783594e+000 3.803323e+000 4.312621e+000 7.662235e+000 5.353394e+000 3.340903e+000 3.018100e+000 2.691614e+000
<GCONST> 1.148416e+002
<TRANSP> 5
 0.000000e+000 1.000000e+000 0.000000e+000 0.000000e+000 0.000000e+000
 0.000000e+000 8.126710e-001 1.873290e-001 0.000000e+000 0.000000e+000
 0.000000e+000 0.000000e+000 8.019437e-001 1.980563e-001 0.000000e+000
 0.000000e+000 0.000000e+000 0.000000e+000 9.454547e-001 5.454533e-002
 0.000000e+000 0.000000e+000 0.000000e+000 0.000000e+000 0.000000e+000
<ENDHMM>
~h "ae"
<BEGINHMM>
<NUMSTATES> 5
<STATE> 2
<MEAN> 25
 4.025351e+000 -4.859339e+000 3.644157e+000 -5.684181e+000 1.783784e+000 1.857944e+000 -4.465587e+000 -2.666655e+000 -1.240942e+000 4.749884e+000 1.487905e+000 2.507091e+000 7.784303e-001 -1.270283e+000 5.068445e-001 -1.138572e+000 8.573402e-003 -1.856057e-001 -5.562725e-001 -1.310873e-002 -1.786549e-002 5.081376e-001 2.707600e-002 6.048287e-001 1.600573e+000
<VARIANCE> 25
 8.012004e+001 1.096072e+002 7.370754e+001 8.224752e+001 7.769981e+001 4.795496e+001 8.013156e+001 4.661837e+001 7.268522e+001 5.948510e+001 4.223219e+001 4.579460e+001 4.642545e+000 6.335413e+000 3.823552e+000 5.875649e+000 4.264740e+000 3.691025e+000 5.178069e+000 4.416053e+000 4.835925e+000 4.209533e+000 3.649641e+000 3.407237e+000 6.080017e+000
<GCONST> 1.158435e+002
<STATE> 3
<MEAN> 25
 5.991448e+000 -9.124683e+000 4.341340e+000 -7.972062e+000 2.025950e+000 7.162648e-001 -5.653228e+000 -2.724712e+000 -1.719513e+000 5.124112e+000 1.229280e+000 3.276050e+000 6.996297e-002 -1.169849e-001 -1.568866e-001 -2.083185e-002 -1.510035e-001 1.144065e-001 7.634797e-002 1.520344e-002 1.727877e-001 -2.704529e-001 -6.266587e-002 7.944049e-002 4.294381e-002
<VARIANCE> 25
 6.665569e+001 6.548904e+001 5.160351e+001 6.174361e+001 7.362620e+001 3.709634e+001 6.661815e+001 4.143725e+001 7.362668e+001 6.168446e+001 3.811346e+001 5.038412e+001 9.755210e-001 3.799110e+000 2.374128e+000 4.109519e+000 3.757250e+000 2.373807e+000 3.061109e+000 3.022738e+000 4.037894e+000 2.764704e+000 3.189368e+000 2.816594e+000 2.576216e+000
<GCONST> 1.077673e+002
<STATE> 4
<MEAN> 25
 5.456400e+000 -6.540128e+000 1.747096e+000 -5.798024e+000 4.912377e-001 9.801472e-001 -4.331827e+000 -2.715101e+000 -1.256671e+000 3.815989e+000 3.887996e-001 1.112379e+000 -7.924960e-002 5.386285e-001 -4.208373e-001 4.783289e-001 -3.467372e-001 1.706627e-001 2.042061e-001 7.690050e-003 3.250514e-001 -3.123585e-001 -4.876394e-002 -2.743119e-001 -6.299319e-001
<VARIANCE> 25
 6.038959e+001 7.325078e+001 6.858403e+001 1.047370e+002 8.028146e+001 3.690891e+001 8.311980e+001 6.537500e+001 1.058523e+002 6.536129e+001 3.292886e+001 4.949410e+001 5.904841e-001 3.791892e+000 2.157909e+000 6.094137e+000 4.177142e+000 2.856806e+000 3.629849e+000 3.623191e+000 5.802454e+000 3.521675e+000 3.268206e+000 2.431827e+000 2.153127e+000
<GCONST> 1.103492e+002
<TRANSP> 5
 0.000000e+000 1.000000e+000 0.000000e+000 0.000000e+000 0.000000e+000
 0.000000e+000 7.634528e-001 2.365471e-001 0.000000e+000 0.000000e+000
 0.000000e+000 0.000000e+000 7.386518e-001 2.613483e-001 0.000000e+000
 0.000000e+000 0.000000e+000 0.000000e+000 8.577144e-001 1.422856e-001
 0.000000e+000 0.000000e+000 0.000000e+000 0.000000e+000 0.000000e+000
<ENDHMM>
~h "ah"
<BEGINHMM>
<NUMSTATES> 5
<STATE> 2
<MEAN> 25
 5.380809e+000 -1.294386e+000 1.598212e+000 -2.644808e+000 -7.687914e-002 1.080950e+000 -3.194130e+000 -2.101039e-002 6.999195e-001 -4.095481e-001 -5.637484e-001 7.987191e-001 1.018962e-001 8.956233e-002 -1.413721e-001 -1.708005e-001 -2.959869e-002 1.102852e-001 1.538691e-001 1.538662e-001 -9.701031e-003 -1.015113e-001 -5.839308e-002 1.878437e-002 7.555079e-003
<VARIANCE> 25
 6.180873e+001 9.166792e+001 9.463333e+001 1.074934e+002 7.697079e+001 5.488686e+001 8.306207e+001 6.446637e+001 6.793224e+001 6.994041e+001 4.127380e+001 4.810371e+001 1.902168e+000 4.539505e+000 4.207134e+000 5.457171e+000 4.825751e+000 3.638596e+000 5.472216e+000 4.536292e+000 5.204501e+000 4.507634e+000 3.563436e+000 3.414013e+000 2.553650e+000
<GCONST> 1.147691e+002
<STATE> 3
<MEAN> 25
 5.179856e+000 -9.790916e-001 7.230139e-001 -2.646971e+000 1.073154e-002 1.234656e+000 -2.407494e+000 4.526381e-001 5.161915e-001 -7.088008e-001 -4.110430e-001 7.899007e-001 -2.928057e-002 8.115111e-002 -2.035774e-001 -5.953576e-002 6.115997e-003 6.267299e-002 1.154663e-001 1.246998e-001 -2.251368e-002 -8.477216e-002 4.919571e-002 -2.642763e-002 -1.205700e-001
<VARIANCE> 25
 6.285994e+001 8.634782e+001 1.044894e+002 1.069529e+002 8.035726e+001 5.163694e+001 8.061815e+001 6.720870e+001 6.843801e+001 6.977997e+001 4.256323e+001 4.842937e+001 1.315313e+000 3.574545e+000 3.546662e+000 4.770977e+000 4.831777e+000 3.396925e+000 4.894754e+000 4.132182e+000 4.857210e+000 4.575397e+000 3.568250e+000 3.615290e+000 1.976555e+000
<GCONST> 1.134196e+002
<STATE> 4
<MEAN> 25
 4.694181e+000 -6.097720e-001 -1.419205e+000 -2.307355e+000 -2.258832e-001 1.541473e+000 -6.978918e-001 1.371439e+000 3.699018e-001 -1.550118e+000 5.265632e-001 9.061427e-001 -1.935845e-001 1.082361e-001 -6.268719e-002 1.097988e-001 -1.330426e-001 -5.010235e-003 7.445630e-002 4.085118e-002 3.867237e-002 -1.216932e-001 5.939087e-002 -5.381193e-002 -2.614889e-001
<VARIANCE> 25
 6.425037e+001 7.884428e+001 1.196463e+002 1.119139e+002 7.610725e+001 5.268384e+001 8.238135e+001 6.857178e+001 6.307645e+001 6.611736e+001 4.045095e+001 4.732206e+001 1.056740e+000 2.798559e+000 3.225707e+000 4.066506e+000 3.927689e+000 3.032535e+000 4.509822e+000 3.791020e+000 4.589583e+000 4.258509e+000 3.170191e+000 3.232030e+000 1.388075e+000
<GCONST> 1.114101e+002
<TRANSP> 5
 0.000000e+000 1.000000e+000 0.000000e+000 0.000000e+000 0.000000e+000
 0.000000e+000 6.037055e-001 3.962944e-001 0.000000e+000 0.000000e+000
 0.000000e+000 0.000000e+000 6.014460e-001 3.985540e-001 0.000000e+000
 0.000000e+000 0.000000e+000 0.000000e+000 7.665957e-001 2.334043e-001
 0.000000e+000 0.000000e+000 0.000000e+000 0.000000e+000 0.000000e+000
<ENDHMM>
~h "ao"
<BEGINHMM>
<NUMSTATES> 5
<STATE> 2
<MEAN> 25
 5.614881e+000 3.832936e+000 6.061018e+000 -4.489739e+000 -9.739744e+000 -4.894323e+000 -5.846913e+000 4.416136e+000 6.610802e+000 -1.609379e+000 3.308559e+000 9.098469e-002 2.465612e+000 1.930283e-001 1.380159e+000 2.881473e-001 -1.015529e+000 -1.006119e+000 -9.817891e-001 -3.920646e-001 7.490062e-001 -6.297495e-001 -2.450104e-001 3.246341e-001 2.189116e+000
<VARIANCE> 25
 7.846551e+001 9.318797e+001 8.531743e+001 1.008762e+002 7.732900e+001 7.174571e+001 4.799232e+001 6.089351e+001 7.881470e+001 5.546779e+001 3.816756e+001 3.093405e+001 8.740541e+000 9.440328e+000 7.969792e+000 9.392814e+000 5.731677e+000 6.668133e+000 4.658690e+000 5.369597e+000 5.337370e+000 6.101364e+000 3.752360e+000 1.792780e+000 5.205206e+000
<GCONST> 1.185930e+002
<STATE> 3
<MEAN> 25
 1.011553e+001 1.022570e-001 9.249921e+000 -4.840892e+000 -1.218424e+001 -7.211319e+000 -7.755810e+000 3.139187e+000 7.995810e+000 -2.126760e+000 2.472414e+000 1.425328e+000 6.132607e-001 -6.655533e-001 3.462678e-001 -1.816013e-001 -3.224176e-001 -2.621993e-001 -2.232861e-001 -2.702638e-001 2.780202e-001 -4.704656e-002 -1.061647e-001 3.198151e-001 9.764527e-001
<VARIANCE> 25
 3.132382e+001 6.169827e+001 6.492295e+001 7.226692e+001 7.063446e+001 6.865470e+001 3.962191e+001 8.049673e+001 7.529025e+001 5.073910e+001 2.750265e+001 2.576656e+001 3.297459e+000 4.066677e+000 3.978546e+000 4.348244e+000 2.497446e+000 4.362284e+000 3.056191e+000 2.822610e+000 2.976794e+000 3.022931e+000 2.210147e+000 1.536896e+000 3.154979e+000
<GCONST> 1.078914e+002
<STATE> 4
<MEAN> 25
 1.007826e+001 1.999380e-001 4.978506e+000 -6.777145e+000 -1.189476e+001 -4.273759e+000 -6.385031e+000 5.437985e-001 8.483775e+000 -4.478238e+000 1.493476e+000 4.603205e+000 -1.984098e-002 2.140795e-001 -3.593551e-001 -1.578126e-001 2.457998e-001 3.897977e-001 1.085872e-001 -2.051035e-001 -1.703773e-001 -1.503752e-001 -8.064771e-002 1.766250e-001 -1.919370e-001
<VARIANCE> 25
 4.199989e+001 5.975720e+001 8.384966e+001 1.279999e+002 9.226104e+001 9.065958e+001 5.351174e+001 8.725912e+001 8.172038e+001 4.300739e+001 2.752214e+001 4.635089e+001 8.850022e-001 1.689494e+000 1.946253e+000 3.071174e+000 2.168703e+000 2.748792e+000 2.724584e+000 2.827478e+000 3.555750e+000 2.902922e+000 2.069378e+000 2.037534e+000 1.073877e+000
<GCONST> 1.057141e+002
<TRANSP> 5
 0.000000e+000 1.000000e+000 0.000000e+000 0.000000e+000 0.000000e+000
 0.000000e+000 7.836190e-001 2.163809e-001 0.000000e+000 0.000000e+000
 0.000000e+000 0.000000e+000 7.638677e-001 2.361323e-001 0.000000e+000
 0.000000e+000 0.000000e+000 0.000000e+000 9.584166e-001 4.158345e-002
 0.000000e+000 0.000000e+000 0.000000e+000 0.000000e+000 0.000000e+000
<ENDHMM>
~h "aw"
<BEGINHMM>
<NUMSTATES> 5
<STATE> 2
<MEAN> 25
 4.529061e+000 1.103376e-001 4.715724e-001 -1.310760e+000 -2.941181e+000 2.878290e+000 3.395855e-002 -4.878444e-001 4.952491e+000 -1.416859e+000 -8.980528e-001 4.175000e+000 4.439658e-001 -7.864029e-001 6.259472e-002 -4.477511e-001 3.062955e-001 -3.789398e-001 -3.247011e-001 1.453619e-001 -2.253392e-001 3.965757e-001 1.356872e-004 2.651545e-001 8.890944e-001
<VARIANCE> 25
 7.643566e+001 1.205380e+002 8.038889e+001 1.328281e+002 1.650506e+002 5.974961e+001 7.049391e+001 5.722799e+001 1.254609e+002 8.584241e+001 5.527088e+001 4.923536e+001 3.733641e+000 1.128352e+001 4.757863e+000 7.405392e+000 5.620781e+000 4.755222e+000 6.670936e+000 3.977287e+000 8.976633e+000 5.151667e+000 4.028806e+000 3.337761e+000 6.369483e+000
<GCONST> 1.211947e+002
<STATE> 3
<MEAN> 25
 4.361708e+000 -2.618460e+000 -2.078362e+000 -1.568756e+000 -1.474710e-001 1.217173e+000 -8.603047e-001 -1.063329e+000 3.026024e+000 -1.403147e-001 7.866146e-001 5.607308e+000 3.186213e-001 -7.491887e-001 -2.105518e-002 -2.850985e-001 6.400226e-003 -2.647928e-001 -1.554582e-001 1.528344e-001 -4.973099e-002 1.722210e-001 1.935386e-001 4.706711e-002 6.869305e-001
<VARIANCE> 25
 6.339850e+001 1.203019e+002 1.007262e+002 1.870473e+002 1.493243e+002 5.685046e+001 8.738440e+001 6.052881e+001 1.235706e+002 1.158645e+002 5.350159e+001 4.664852e+001 3.250921e+000 1.080275e+001 5.183578e+000 6.643294e+000 4.731242e+000 5.362303e+000 6.431964e+000 3.846611e+000 8.382917e+000 5.037854e+000 4.302832e+000 3.005330e+000 6.980241e+000
<GCONST> 1.215275e+002
<STATE> 4
<MEAN> 25
 3.545732e+000 -3.312974e+000 -1.936866e+000 -3.154785e+000 -3.155891e+000 1.292131e+000 1.720660e+000 2.085768e+000 3.194864e+000 1.152380e-001 2.555515e+000 3.648931e+000 9.801072e-002 -2.251713e-002 1.542547e-001 -6.341437e-002 1.167053e-002 3.791326e-002 -4.034759e-003 8.416456e-002 -2.035390e-002 -8.028506e-002 -4.706843e-002 -1.190955e-001 1.511178e-001
<VARIANCE> 25
 7.487720e+001 1.041590e+002 1.209905e+002 1.548668e+002 9.777116e+001 5.074701e+001 8.245122e+001 5.237867e+001 1.512312e+002 7.444884e+001 4.195411e+001 5.641635e+001 2.249750e+000 7.100305e+000 6.192583e+000 5.811978e+000 4.548916e+000 4.316718e+000 5.455748e+000 4.145206e+000 9.249972e+000 4.093384e+000 3.244697e+000 3.419624e+000 4.058928e+000
<GCONST> 1.186171e+002
<TRANSP> 5
 0.000000e+000 1.000000e+000 0.000000e+000 0.000000e+000 0.000000e+000
 0.000000e+000 8.456929e-001 1.543070e-001 0.000000e+000 0.000000e+000
 0.000000e+000 0.000000e+000 8.045114e-001 1.954887e-001 0.000000e+000
 0.000000e+000 0.000000e+000 0.000000e+000 9.682564e-001 3.174368e-002
 0.000000e+000 0.000000e+000 0.000000e+000 0.000000e+000 0.000000e+000
<ENDHMM>
~h "ay"
<BEGINHMM>
<NUMSTATES> 5
<STATE> 2
<MEAN> 25
 3.173275e+000 6.023098e+000 -6.366689e+000 6.077122e+000 -4.025520e+000 1.353922e+000 4.767631e+000 -1.842922e+000 3.611440e+000 -9.916577e-001 2.588031e+000 1.847564e-001 6.261590e-002 6.492575e-001 -4.093212e-001 9.763403e-001 -1.983985e-002 -6.112490e-002 5.180328e-001 -5.281898e-001 6.117174e-001 -1.175820e-001 -4.034777e-001 2.084776e-001 -4.801581e-001
<VARIANCE> 25
 8.336108e+001 1.512151e+002 8.405846e+001 1.362311e+002 7.555411e+001 5.923907e+001 1.241645e+002 9.079028e+001 7.935210e+001 7.788517e+001 5.706348e+001 4.068380e+001 1.819524e+000 3.928029e+000 5.830894e+000 5.526485e+000 3.946005e+000 6.112621e+000 6.047915e+000 5.179977e+000 5.662128e+000 5.222016e+000 4.066971e+000 3.143675e+000 1.725971e+000
<GCONST> 1.174982e+002
<STATE> 3
<MEAN> 25
 2.826894e+000 8.374047e+000 -8.184396e+000 8.009873e+000 -3.172743e+000 5.334429e-001 5.538691e+000 -2.700526e+000 4.653347e+000 -1.951768e+000 9.632289e-001 6.285406e-001 5.053339e-002 3.518733e-001 -7.214728e-002 1.552420e-001 2.270076e-001 1.231929e-002 -2.578743e-001 -2.798606e-001 3.413515e-001 -1.089220e-001 -3.163188e-001 7.223710e-002 -1.245125e-001
<VARIANCE> 25
 7.323436e+001 1.701808e+002 9.189735e+001 1.406049e+002 6.893921e+001 6.052218e+001 1.228223e+002 9.288205e+001 9.400360e+001 7.537624e+001 5.638031e+001 4.065574e+001 2.399487e+000 3.623871e+000 6.574954e+000 6.196619e+000 3.835934e+000 6.232204e+000 8.142076e+000 5.089673e+000 6.076304e+000 5.731359e+000 4.556092e+000 3.396699e+000 2.136773e+000
<GCONST> 1.189429e+002
<STATE> 4
<MEAN> 25
 7.958902e-001 1.071414e+001 -9.734374e+000 7.103771e+000 -3.353773e+000 9.422557e-001 6.972449e+000 -2.012466e+000 5.051662e+000 -3.024414e+000 -1.412995e+000 7.867689e-001 5.298407e-002 -3.922601e-001 6.317871e-001 -7.092634e-001 1.725152e-001 1.428828e-001 -5.946490e-001 2.510692e-001 2.022553e-002 3.373480e-001 -2.850025e-002 -6.237305e-002 5.190116e-001
<VARIANCE> 25
 6.942055e+001 1.407634e+002 1.027033e+002 1.245185e+002 6.507314e+001 6.584471e+001 1.292279e+002 9.797369e+001 1.124292e+002 7.145444e+001 5.902222e+001 4.401589e+001 3.376082e+000 3.651713e+000 5.545720e+000 6.323767e+000 4.446989e+000 6.727050e+000 7.587744e+000 6.928500e+000 7.242829e+000 5.341135e+000 4.825585e+000 4.379637e+000 3.766505e+000
<GCONST> 1.207157e+002
<TRANSP> 5
 0.000000e+000 1.000000e+000 0.000000e+000 0.000000e+000 0.000000e+000
 0.000000e+000 6.945373e-001 3.054626e-001 0.000000e+000 0.000000e+000
 0.000000e+000 0.000000e+000 6.949277e-001 3.050723e-001 0.000000e+000
 0.000000e+000 0.000000e+000 0.000000e+000 8.487802e-001 1.512198e-001
 0.000000e+000 0.000000e+000 0.000000e+000 0.000000e+000 0.000000e+000
<ENDHMM>
~h "ch"
<BEGINHMM>
<NUMSTATES> 5
<STATE> 2
<MEAN> 25
 -4.459792e+000 4.704200e+000 -7.961012e+000 7.467652e+000 3.066890e+000 -3.071395e+000 8.186149e+000 3.941065e-001 -4.067029e+000 2.810649e+000 5.296782e-001 -3.291695e+000 -2.826012e-001 -2.995031e-001 2.060411e-001 6.640352e-002 -1.721830e-001 -2.658003e-001 -5.688600e-002 -4.691962e-002 2.792306e-001 2.811299e-002 9.061909e-002 1.433472e-001 4.729535e-002
<VARIANCE> 25
 1.378785e+001 9.555316e+001 2.016201e+002 5.572404e+001 5.301766e+001 3.966162e+001 6.833077e+001 7.568824e+001 4.693443e+001 5.617795e+001 4.954589e+001 3.287066e+001 1.584124e+000 3.608515e+000 5.735532e+000 5.791969e+000 9.044777e+000 3.743811e+000 7.363350e+000 8.988408e+000 6.641637e+000 6.120823e+000 4.668408e+000 3.557228e+000 9.634343e-001
<GCONST> 1.133708e+002
<STATE> 3
<MEAN> 25
 -5.178165e+000 4.216125e+000 -5.510905e+000 6.583381e+000 3.652876e+000 -4.328879e+000 7.973971e+000 1.063645e+000 -4.243512e+000 4.343191e+000 -3.135276e-001 -3.603036e+000 -3.517774e-001 -6.303290e-001 4.742214e-001 -3.754658e-001 9.132865e-002 -2.004490e-001 -1.000029e-001 2.444638e-001 5.035013e-004 8.549096e-002 4.097869e-002 2.197083e-001 3.216617e-001
<VARIANCE> 25
 1.290772e+001 1.355593e+002 2.117252e+002 6.402505e+001 4.209949e+001 3.411764e+001 6.499744e+001 6.023442e+001 5.082511e+001 5.600397e+001 3.834964e+001 3.556456e+001 1.468826e+000 6.031517e+000 9.415150e+000 6.387398e+000 6.704232e+000 3.114134e+000 7.208041e+000 6.196115e+000 5.438719e+000 4.872957e+000 3.556945e+000 3.322790e+000 2.457436e+000
<GCONST> 1.134051e+002
<STATE> 4
<MEAN> 25
 -8.447356e+000 -1.580002e+001 1.428850e+001 -3.427307e+000 3.316242e+000 -2.429033e+000 -1.262087e+000 5.581960e+000 -5.238698e-001 2.422793e+000 -8.378056e-001 3.702369e+000 8.369414e-001 4.910140e-001 -7.769726e-001 6.528320e-001 -1.499561e-001 3.382558e-001 -1.054565e+000 -6.410548e-001 1.762928e-001 -7.257605e-001 2.577637e-001 -3.547220e-003 -1.004358e-001
<VARIANCE> 25
 2.988372e+001 6.782568e+001 8.442617e+001 4.102506e+001 3.096177e+001 2.986745e+001 6.385528e+001 9.036780e+001 6.666257e+001 6.154438e+001 2.135098e+001 2.300950e+001 5.064198e+000 4.031849e+000 5.469410e+000 4.340688e+000 4.655979e+000 2.785891e+000 3.194507e+000 5.579326e+000 6.044904e+000 2.621170e+000 1.722595e+000 1.541753e+000 1.397707e+000
<GCONST> 1.074189e+002
<TRANSP> 5
 0.000000e+000 1.000000e+000 0.000000e+000 0.000000e+000 0.000000e+000
 0.000000e+000 8.865752e-001 1.134249e-001 0.000000e+000 0.000000e+000
 0.000000e+000 0.000000e+000 8.979677e-001 1.020323e-001 0.000000e+000
 0.000000e+000 0.000000e+000 0.000000e+000 8.286694e-001 1.713307e-001
 0.000000e+000 0.000000e+000 0.000000e+000 0.000000e+000 0.000000e+000
<ENDHMM>
~h "dh"
<BEGINHMM>
<NUMSTATES> 5
<STATE> 2
<MEAN> 25
 5.701446e+000 -2.553133e+000 -3.520487e+000 -3.319036e+000 7.253348e+000 -3.535773e-001 -9.832104e+000 -5.487758e+000 -3.013377e+000 -3.155673e+000 1.407360e-001 3.752800e+000 1.106507e-001 6.700789e-001 -1.110248e+000 -1.521720e+000 6.788611e-001 6.314491e-002 -5.419574e-001 -1.377113e-001 1.154764e-002 -8.035220e-001 5.361460e-001 1.067756e+000 -9.305807e-002
<VARIANCE> 25
 4.168918e+001 5.177827e+001 5.711487e+001 8.326337e+001 2.312401e+002 2.723599e+001 1.344376e+002 4.707543e+001 8.323280e+001 5.802731e+001 4.036641e+001 5.101729e+001 7.761856e-001 1.869226e+000 2.916227e+000 4.230738e+000 5.746741e+000 3.555751e+000 5.649987e+000 3.399453e+000 2.286639e+000 3.190698e+000 3.806777e+000 3.086943e+000 5.691045e-001
<GCONST> 1.084497e+002
<STATE> 3
<MEAN> 25
 6.295757e+000 -8.488352e-001 -5.067319e+000 -7.855468e+000 8.340739e+000 8.660520e-001 -1.107484e+001 -5.586442e+000 -3.844007e+000 -5.468786e+000 2.270340e+000 6.214558e+000 -9.934566e-002 5.862389e-001 -4.522202e-001 -1.176383e+000 -3.624802e-001 4.799313e-001 -6.543957e-002 -2.201749e-002 2.169954e-003 -8.428720e-001 4.793377e-001 5.982201e-001 -3.073352e-001
<VARIANCE> 25
 4.364692e+001 3.616587e+001 5.615300e+001 1.130289e+002 2.102833e+002 4.541212e+001 1.305852e+002 4.122306e+001 7.253339e+001 5.159021e+001 3.634955e+001 5.184931e+001 7.614413e-001 1.519585e+000 2.421776e+000 3.846102e+000 4.365746e+000 3.216095e+000 4.794466e+000 3.052062e+000 2.405424e+000 3.855732e+000 3.744647e+000 2.539408e+000 4.351354e-001
<GCONST> 1.069412e+002
<STATE> 4
<MEAN> 25
 2.425220e+000 2.839867e+000 -4.151606e+000 -4.933595e+000 2.277877e+000 2.310635e+000 -6.920716e+000 -3.415697e+000 -3.828479e+000 -6.886689e+000 3.396395e+000 2.577075e+000 -4.564252e-001 1.772683e-001 -8.564054e-003 4.428360e-001 -6.049467e-001 -3.284292e-002 5.540662e-001 1.754089e-001 2.215477e-001 1.360530e-002 -2.630980e-001 -2.621556e-001 -6.094746e-001
<VARIANCE> 25
 6.012202e+001 1.877635e+001 4.003989e+001 1.476262e+002 1.272853e+002 4.390743e+001 9.721340e+001 4.284155e+001 6.014117e+001 3.459666e+001 6.021804e+001 6.847357e+001 4.742973e-001 1.110515e+000 1.698373e+000 3.456508e+000 2.712768e+000 2.642393e+000 3.792554e+000 3.275755e+000 3.527159e+000 2.827387e+000 4.127477e+000 2.653712e+000 4.066532e-001
<GCONST> 1.040000e+002
<TRANSP> 5
 0.000000e+000 1.000000e+000 0.000000e+000 0.000000e+000 0.000000e+000
 0.000000e+000 6.286864e-001 3.713136e-001 0.000000e+000 0.000000e+000
 0.000000e+000 0.000000e+000 6.584563e-001 3.415437e-001 0.000000e+000
 0.000000e+000 0.000000e+000 0.000000e+000 9.421459e-001 5.785407e-002
 0.000000e+000 0.000000e+000 0.000000e+000 0.000000e+000 0.000000e+000
<ENDHMM>
~h "eh"
<BEGINHMM>
<NUMSTATES> 5
<STATE> 2
<MEAN> 25
 5.383343e+000 -3.696081e+000 3.102937e+000 -1.545485e+000 1.933306e+000 1.142470e+000 -4.626288e+000 -4.514525e+000 -8.779535e-001 1.669299e+000 1.170429e+000 3.453994e+000 -5.300574e-002 -1.130744e-001 1.195219e-006 1.906594e-001 3.335381e-001 7.262752e-002 -5.192271e-002 -3.660749e-001 5.822927e-002 2.015032e-001 6.794650e-002 3.171211e-001 5.350040e-002
<VARIANCE> 25
 4.803610e+001 1.200357e+002 7.328677e+001 8.250375e+001 7.353054e+001 6.700574e+001 6.967737e+001 7.334254e+001 5.906479e+001 9.937975e+001 4.529412e+001 4.337682e+001 1.537774e+000 4.908290e+000 3.288999e+000 3.977639e+000 4.675189e+000 4.330289e+000 4.380504e+000 4.173414e+000 5.035525e+000 5.163610e+000 3.773248e+000 3.123966e+000 2.297856e+000
<GCONST> 1.136796e+002
<STATE> 3
<MEAN> 25
 4.851867e+000 -3.040438e+000 2.857868e+000 -6.244678e-001 2.174841e+000 1.044101e+000 -4.077326e+000 -5.050055e+000 -1.086845e+000 1.781745e+000 8.474640e-001 3.528908e+000 -1.254464e-001 -1.207295e-001 -5.477546e-002 1.071216e-001 1.932404e-001 -5.117768e-002 4.443768e-002 -1.186441e-001 -1.265387e-001 2.031323e-001 6.266112e-002 -8.356394e-002 -2.841675e-002
<VARIANCE> 25
 4.974281e+001 1.202054e+002 9.400649e+001 7.590030e+001 7.114898e+001 7.469308e+001 7.131206e+001 7.508367e+001 6.055001e+001 1.001958e+002 4.348973e+001 4.385141e+001 1.298191e+000 5.043578e+000 3.553306e+000 4.545457e+000 4.715895e+000 5.117647e+000 5.017273e+000 4.277150e+000 5.296008e+000 5.450622e+000 3.838415e+000 3.266666e+000 2.756165e+000
<GCONST> 1.147598e+002
<STATE> 4
<MEAN> 25
 4.104781e+000 -5.118528e+000 3.653271e+000 -1.488333e+000 2.253946e+000 6.534753e-001 -4.396958e+000 -5.894592e+000 -2.502985e+000 3.393808e+000 1.593433e+000 3.186986e+000 -1.202839e-001 3.471239e-002 -2.561380e-001 -4.181373e-002 5.441725e-002 -9.287649e-002 -1.355686e-001 -7.999150e-003 -1.063535e-001 -7.815808e-002 8.873233e-002 -1.145296e-001 -1.756936e-001
<VARIANCE> 25
 6.774913e+001 1.154806e+002 1.317323e+002 7.109277e+001 6.397326e+001 6.702052e+001 7.438132e+001 5.983144e+001 5.752055e+001 8.034724e+001 3.724361e+001 3.874089e+001 1.519002e+000 4.255597e+000 3.768110e+000 4.654551e+000 4.168419e+000 4.243854e+000 5.077406e+000 3.828254e+000 4.467940e+000 4.503832e+000 3.224158e+000 2.830844e+000 2.574630e+000
<GCONST> 1.132634e+002
<TRANSP> 5
 0.000000e+000 1.000000e+000 0.000000e+000 0.000000e+000 0.000000e+000
 0.000000e+000 6.396401e-001 3.603600e-001 0.000000e+000 0.000000e+000
 0.000000e+000 0.000000e+000 6.151462e-001 3.848539e-001 0.000000e+000
 0.000000e+000 0.000000e+000 0.000000e+000 7.883719e-001 2.116282e-001
 0.000000e+000 0.000000e+000 0.000000e+000 0.000000e+000 0.000000e+000
<ENDHMM>
~h "er"
<BEGINHMM>
<NUMSTATES> 5
<STATE> 2
<MEAN> 25
 5.541666e+000 3.622519e+000 -4.822846e+000 -6.911490e+000 3.961506e+000 4.895917e+000 -4.177701e+000 -1.996250e+000 -2.976195e+000 -4.809803e+000 3.189506e+000 4.432959e+000 1.005575e-001 -1.717659e-002 2.134447e-001 -5.439140e-001 -2.081899e-001 -4.787546e-003 1.431943e-001 4.624950e-001 1.889540e-001 -1.585251e-001 -8.856265e-002 1.865195e-001 2.382509e-001
<VARIANCE> 25
 8.470001e+001 7.425886e+001 8.974369e+001 1.636479e+002 8.182460e+001 8.986101e+001 1.344991e+002 7.076561e+001 7.329198e+001 6.455264e+001 4.694476e+001 5.240467e+001 3.378181e+000 4.993530e+000 6.182651e+000 6.624098e+000 4.436298e+000 5.580128e+000 5.009795e+000 4.981638e+000 4.475537e+000 5.124460e+000 3.999175e+000 3.659770e+000 2.533496e+000
<GCONST> 1.183318e+002
<STATE> 3
<MEAN> 25
 5.462151e+000 2.101258e+000 -3.230828e+000 -8.533774e+000 3.189389e+000 4.495413e+000 -4.323660e+000 -4.165884e-001 -2.700381e+000 -4.909895e+000 2.286423e+000 4.150403e+000 -3.981419e-002 -5.707442e-001 5.474556e-001 -2.773383e-001 -9.160300e-002 -1.879641e-001 -1.975158e-002 3.099357e-001 1.099584e-001 1.417579e-001 -3.075935e-001 6.780027e-002 4.581047e-001
<VARIANCE> 25
 9.588097e+001 6.749725e+001 7.787705e+001 1.601524e+002 8.731038e+001 8.676321e+001 1.351070e+002 7.654988e+001 7.566268e+001 6.966346e+001 4.268853e+001 5.232751e+001 3.052579e+000 6.136100e+000 6.852684e+000 5.783744e+000 4.318442e+000 5.074739e+000 4.341491e+000 4.414045e+000 4.484388e+000 4.954448e+000 3.569032e+000 3.148670e+000 3.074487e+000
<GCONST> 1.179048e+002
<STATE> 4
<MEAN> 25
 7.780970e+000 -4.359913e-001 -1.823289e+000 -1.011040e+001 3.080174e+000 5.474865e+000 -7.213475e+000 -4.786088e-002 -1.041225e+000 -5.381883e+000 2.859504e+000 4.350702e+000 -1.925745e-001 -2.795886e-001 3.411441e-001 6.129469e-001 4.974360e-003 -4.505514e-001 -8.171326e-002 -4.089116e-002 1.964785e-001 3.685265e-001 -1.779410e-001 -1.448961e-001 2.077461e-003
<VARIANCE> 25
 6.199685e+001 6.420912e+001 8.284357e+001 1.264188e+002 8.982246e+001 9.119815e+001 1.003079e+002 7.357996e+001 7.507558e+001 8.235781e+001 3.726929e+001 5.088149e+001 1.521702e+000 3.349415e+000 3.829704e+000 4.249041e+000 3.412355e+000 3.913573e+000 3.544339e+000 3.633743e+000 3.843180e+000 3.952793e+000 2.359083e+000 3.056101e+000 1.990595e+000
<GCONST> 1.126376e+002
<TRANSP> 5
 0.000000e+000 1.000000e+000 0.000000e+000 0.000000e+000 0.000000e+000
 0.000000e+000 6.646194e-001 3.353806e-001 0.000000e+000 0.000000e+000
 0.000000e+000 0.000000e+000 6.469831e-001 3.530169e-001 0.000000e+000
 0.000000e+000 0.000000e+000 0.000000e+000 8.562673e-001 1.437327e-001
 0.000000e+000 0.000000e+000 0.000000e+000 0.000000e+000 0.000000e+000
<ENDHMM>
~h "ey"
<BEGINHMM>
<NUMSTATES> 5
<STATE> 2
<MEAN> 25
 3.896438e+000 -4.269220e+000 6.499477e+000 4.585040e+000 4.742922e+000 -7.165948e+000 -9.221685e+000 -1.370152e+000 -1.364612e-001 2.809298e+000 -2.446739e+000 -3.750593e+000 -1.027408e-001 4.010271e-001 -1.872875e-001 5.743973e-001 4.304596e-002 -2.632877e-001 -2.244103e-003 7.084980e-002 1.833898e-001 -1.923719e-001 -2.781616e-001 -1.875195e-001 -4.283360e-001
<VARIANCE> 25
 3.695847e+001 1.495330e+002 1.102824e+002 6.049474e+001 6.682055e+001 6.492444e+001 1.345307e+002 3.772148e+001 4.434241e+001 6.588635e+001 3.741140e+001 2.338431e+001 7.409897e-001 1.915301e+000 2.261832e+000 1.756947e+000 1.820337e+000 2.999511e+000 3.521857e+000 2.655508e+000 3.324852e+000 3.082399e+000 2.002775e+000 1.908189e+000 9.820458e-001
<GCONST> 1.043437e+002
<STATE> 3
<MEAN> 25
 3.127077e+000 2.176841e-001 3.224497e+000 7.041994e+000 3.747939e+000 -6.467806e+000 -5.880086e+000 -1.258629e+000 2.122689e-001 1.666202e+000 -2.881185e+000 -3.713407e+000 2.831465e-002 4.405957e-001 -2.546624e-001 3.183252e-001 6.193209e-002 8.063541e-002 1.839368e-001 -7.289892e-002 3.686149e-002 -9.250563e-002 -1.415813e-001 5.983978e-002 -3.382643e-001
<VARIANCE> 25
 4.141688e+001 2.004855e+002 1.479513e+002 7.308642e+001 7.703498e+001 7.028054e+001 1.830959e+002 4.697405e+001 5.783889e+001 7.397264e+001 3.731432e+001 3.226916e+001 1.415074e+000 2.641382e+000 2.643711e+000 2.418593e+000 2.638095e+000 3.095743e+000 4.602509e+000 3.585891e+000 3.830705e+000 3.922561e+000 2.769864e+000 2.768530e+000 1.434715e+000
<GCONST> 1.105565e+002
<STATE> 4
<MEAN> 25
 3.977026e+000 1.515619e+000 2.101257e+000 1.100827e+001 4.357287e+000 -5.845336e+000 -6.990246e+000 -3.483818e+000 1.368822e+000 -4.214976e-001 -3.671821e+000 -2.678083e+000 1.704241e-002 7.128680e-002 -1.570324e-001 3.702997e-002 2.249279e-002 1.929181e-001 1.668876e-001 -1.354221e-001 -2.225432e-002 -1.792411e-002 3.382647e-002 9.511422e-002 -8.092906e-002
<VARIANCE> 25
 3.916085e+001 1.930035e+002 1.526774e+002 1.178997e+002 7.298345e+001 6.923549e+001 1.861904e+002 6.217894e+001 4.978479e+001 6.531353e+001 5.506236e+001 3.080655e+001 1.723682e+000 5.659004e+000 3.439850e+000 4.470635e+000 3.507680e+000 4.113406e+000 6.424249e+000 3.913446e+000 4.005913e+000 4.591434e+000 3.210342e+000 2.589530e+000 3.387067e+000
<GCONST> 1.152373e+002
<TRANSP> 5
 0.000000e+000 1.000000e+000 0.000000e+000 0.000000e+000 0.000000e+000
 0.000000e+000 7.949970e-001 2.050030e-001 0.000000e+000 0.000000e+000
 0.000000e+000 0.000000e+000 7.504033e-001 2.495967e-001 0.000000e+000
 0.000000e+000 0.000000e+000 0.000000e+000 9.268442e-001 7.315575e-002
 0.000000e+000 0.000000e+000 0.000000e+000 0.000000e+000 0.000000e+000
<ENDHMM>
~h "hh"
<BEGINHMM>
<NUMSTATES> 5
<STATE> 2
<MEAN> 25
 4.485090e+000 -9.538717e+000 3.921880e+000 -5.960327e+000 4.575951e+000 4.718276e+000 -5.831491e+000 2.650036e+000 2.032858e+000 4.357849e+000 1.869232e+000 1.420107e+000 4.800598e-001 -1.069156e-001 2.146338e-004 -3.454849e-001 -1.133116e-001 1.331700e-001 -3.442411e-002 4.044958e-001 3.352084e-001 -1.357823e-001 1.255488e-001 -6.683439e-002 4.787449e-001
<VARIANCE> 25
 4.063086e+001 5.764768e+001 5.347122e+001 6.630768e+001 5.837967e+001 4.237441e+001 5.322868e+001 3.861938e+001 1.023618e+002 4.892818e+001 3.598355e+001 2.305648e+001 1.629923e+000 2.662327e+000 3.086490e+000 2.907794e+000 5.221831e+000 2.729272e+000 2.446995e+000 3.600383e+000 3.526714e+000 2.747459e+000 3.674331e+000 2.190228e+000 2.035483e+000
<GCONST> 1.061231e+002
<STATE> 3
<MEAN> 25
 7.037289e+000 -7.712942e+000 3.991988e+000 -7.202132e+000 2.796161e+000 3.780831e+000 -4.763234e+000 3.990554e+000 2.814976e+000 2.293640e+000 1.130831e+000 1.312466e+000 2.186807e-001 1.630409e-001 -1.739656e-001 2.627295e-002 -4.681945e-001 -2.482198e-001 1.648671e-001 2.754963e-001 4.728757e-001 -2.703078e-001 -1.008284e-001 -8.695950e-002 -2.202416e-003
<VARIANCE> 25
 3.276249e+001 4.913403e+001 2.127353e+001 7.035454e+001 5.161805e+001 3.744911e+001 5.239473e+001 4.937360e+001 1.013397e+002 4.703946e+001 2.818002e+001 2.375026e+001 9.060456e-001 1.724729e+000 1.373056e+000 2.241591e+000 3.261181e+000 1.895439e+000 2.056916e+000 2.631891e+000 2.556386e+000 2.458581e+000 2.560159e+000 1.671094e+000 1.070373e+000
<GCONST> 9.948334e+001
<STATE> 4
<MEAN> 25
 8.717196e+000 -2.074582e+000 2.778697e+000 -4.653977e+000 -7.552392e-001 1.456120e+000 -4.055300e+000 4.513335e+000 1.520925e+000 -3.521584e+000 7.998781e-001 -4.922295e-001 -5.919339e-002 2.111705e-001 -7.858855e-002 2.453877e-001 -1.582050e-001 -3.817805e-002 5.888560e-002 -1.695843e-001 -4.727091e-003 -1.183930e-001 5.610031e-003 9.254725e-003 -2.345258e-001
<VARIANCE> 25
 2.844938e+001 7.399277e+001 3.302930e+001 5.514504e+001 7.150837e+001 5.053300e+001 4.915197e+001 5.431568e+001 1.158252e+002 4.206425e+001 3.676541e+001 3.935026e+001 8.457112e-001 2.299029e+000 1.599203e+000 2.702311e+000 2.721076e+000 2.360220e+000 2.647567e+000 2.894052e+000 3.474457e+000 2.270555e+000 2.177645e+000 1.875699e+000 1.364299e+000
<GCONST> 1.027648e+002
<TRANSP> 5
 0.000000e+000 1.000000e+000 0.000000e+000 0.000000e+000 0.000000e+000
 0.000000e+000 7.660996e-001 2.339004e-001 0.000000e+000 0.000000e+000
 0.000000e+000 0.000000e+000 7.786638e-001 2.213362e-001 0.000000e+000
 0.000000e+000 0.000000e+000 0.000000e+000 9.695629e-001 3.043713e-002
 0.000000e+000 0.000000e+000 0.000000e+000 0.000000e+000 0.000000e+000
<ENDHMM>
~h "ih"
<BEGINHMM>
<NUMSTATES> 5
<STATE> 2
<MEAN> 25
 4.449500e+000 -1.377253e+000 7.421213e+000 4.721727e+000 8.470524e+000 -2.718626e+000 -8.096071e+000 -4.089019e-001 -2.921584e+000 3.956810e+000 -1.673649e+000 -5.089588e+000 4.038686e-001 1.073909e-001 6.058227e-001 3.905367e-001 6.118841e-001 -6.713406e-002 -6.340834e-001 -1.426371e-001 1.306309e-001 3.345530e-001 -7.705591e-002 -1.771007e-001 4.160475e-001
<VARIANCE> 25
 5.257899e+001 1.101972e+002 6.667844e+001 1.127810e+002 9.405796e+001 8.551901e+001 1.051617e+002 5.352071e+001 7.271093e+001 6.084763e+001 4.709551e+001 4.535161e+001 3.450025e+000 9.620354e+000 4.795733e+000 6.300665e+000 4.788794e+000 5.930502e+000 7.435184e+000 4.542496e+000 5.079159e+000 4.612756e+000 3.642623e+000 3.091105e+000 4.610931e+000
<GCONST> 1.181069e+002
<STATE> 3
<MEAN> 25
 5.821795e+000 -1.579324e+000 8.640748e+000 4.662065e+000 1.009601e+001 -1.731154e+000 -1.017944e+001 -1.051338e+000 -3.016050e+000 3.793550e+000 -1.465845e+000 -4.913427e+000 5.092514e-002 2.272724e-002 1.238586e-001 1.207346e-001 1.425950e-001 3.102202e-001 -1.758692e-001 -9.410093e-002 9.031935e-002 -9.456957e-002 2.137190e-002 3.624675e-002 8.118602e-003
<VARIANCE> 25
 3.645764e+001 9.347049e+001 5.672616e+001 1.319484e+002 8.315601e+001 8.519286e+001 7.912569e+001 5.262949e+001 7.047717e+001 5.374492e+001 4.987938e+001 4.473726e+001 2.078957e+000 6.757017e+000 3.419093e+000 5.885691e+000 5.179223e+000 5.119333e+000 5.779464e+000 3.828295e+000 5.352156e+000 3.767642e+000 3.286279e+000 2.823961e+000 3.503108e+000
<GCONST> 1.146555e+002
<STATE> 4
<MEAN> 25
 5.833959e+000 -2.628477e+000 9.693696e+000 3.853392e+000 1.041784e+001 3.058966e-001 -1.067033e+001 -1.947685e+000 -3.968882e+000 2.371488e+000 -1.311491e+000 -4.148539e+000 -1.921705e-001 4.164020e-002 -9.904077e-002 1.240740e-001 -2.703367e-001 2.830949e-001 3.203421e-001 -7.819705e-002 6.711276e-002 -1.628506e-001 3.479793e-002 8.141647e-002 -2.654169e-001
<VARIANCE> 25
 3.570305e+001 7.302623e+001 6.593328e+001 1.396606e+002 8.139435e+001 7.819185e+001 7.137649e+001 5.114088e+001 6.864906e+001 5.420906e+001 5.336882e+001 4.550808e+001 1.590537e+000 4.876831e+000 3.160213e+000 5.467721e+000 4.242074e+000 4.067822e+000 4.863972e+000 3.673256e+000 5.328637e+000 3.610916e+000 3.873947e+000 2.610368e+000 2.282517e+000
<GCONST> 1.126441e+002
<TRANSP> 5
 0.000000e+000 1.000000e+000 0.000000e+000 0.000000e+000 0.000000e+000
 0.000000e+000 6.888252e-001 3.111748e-001 0.000000e+000 0.000000e+000
 0.000000e+000 0.000000e+000 6.679992e-001 3.320008e-001 0.000000e+000
 0.000000e+000 0.000000e+000 0.000000e+000 8.161755e-001 1.838245e-001
 0.000000e+000 0.000000e+000 0.000000e+000 0.000000e+000 0.000000e+000
<ENDHMM>
~h "iy"
<BEGINHMM>
<NUMSTATES> 5
<STATE> 2
<MEAN> 25
 5.540222e+000 -5.837546e+000 1.080273e+001 7.740547e+000 1.392919e+001 -4.185865e+000 -1.334101e+001 -3.899499e+000 -5.618859e+000 2.326973e+000 -3.087723e+000 -3.686961e+000 2.632400e-001 -5.718989e-001 3.480301e-001 1.006944e+000 6.368493e-001 -1.194711e+000 -1.130412e+000 -2.550778e-002 1.004369e-001 8.624089e-002 1.962527e-002 -4.086349e-001 5.432292e-001
<VARIANCE> 25
 3.022978e+001 7.549080e+001 1.037163e+002 1.159977e+002 6.208944e+001 5.700887e+001 6.136130e+001 6.413474e+001 7.425660e+001 5.582127e+001 2.800492e+001 3.229860e+001 2.199400e+000 5.731251e+000 4.994862e+000 7.508069e+000 4.806182e+000 4.498027e+000 6.088367e+000 4.419988e+000 4.683596e+000 3.946609e+000 2.529640e+000 2.695274e+000 2.986037e+000
<GCONST> 1.131166e+002
<STATE> 3
<MEAN> 25
 5.941254e+000 -7.973700e+000 1.174875e+001 8.486528e+000 1.478946e+001 -6.496156e+000 -1.518045e+001 -3.025324e+000 -4.881355e+000 2.512367e+000 -2.657422e+000 -4.606733e+000 7.950594e-002 -2.460384e-001 -1.909659e-002 1.907277e-001 1.642492e-001 -5.927530e-001 -4.136476e-001 1.636360e-001 8.120902e-002 -9.697651e-002 1.275999e-001 -1.238451e-001 2.192529e-001
<VARIANCE> 25
 2.005213e+001 5.348795e+001 8.066143e+001 9.788211e+001 5.099029e+001 5.439893e+001 4.656396e+001 5.666790e+001 6.214859e+001 4.725139e+001 2.973938e+001 2.665345e+001 1.099865e+000 3.542046e+000 3.335078e+000 5.969740e+000 2.745098e+000 4.422238e+000 4.031989e+000 2.983618e+000 3.230331e+000 3.158480e+000 2.460879e+000 2.160641e+000 1.756184e+000
<GCONST> 1.062569e+002
<STATE> 4
<MEAN> 25
 6.119258e+000 -5.949879e+000 8.342088e+000 5.473133e+000 1.472261e+001 -6.270528e+000 -1.501358e+001 -2.740436e+000 -6.599874e+000 2.363861e+000 -2.128680e+000 -3.889220e+000 -2.975533e-002 3.196861e-001 -4.542229e-001 -3.977114e-001 -2.851420e-001 2.879393e-001 2.708032e-001 1.286344e-002 4.542761e-002 -7.591046e-002 3.111385e-002 1.411806e-001 -3.065900e-001
<VARIANCE> 25
 2.219263e+001 6.013681e+001 7.336708e+001 1.167858e+002 6.772989e+001 7.393015e+001 4.673376e+001 4.479224e+001 6.932490e+001 4.823192e+001 3.125492e+001 2.829882e+001 6.238081e-001 1.937761e+000 2.169930e+000 3.796318e+000 2.443663e+000 3.552532e+000 2.998192e+000 2.745917e+000 3.219839e+000 3.241339e+000 2.310715e+000 2.124576e+000 8.416026e-001
<GCONST> 1.035957e+002
<TRANSP> 5
 0.000000e+000 1.000000e+000 0.000000e+000 0.000000e+000 0.000000e+000
 0.000000e+000 7.515614e-001 2.484386e-001 0.000000e+000 0.000000e+000
 0.000000e+000 0.000000e+000 7.377290e-001 2.622710e-001 0.000000e+000
 0.000000e+000 0.000000e+000 0.000000e+000 9.498457e-001 5.015424e-002
 0.000000e+000 0.000000e+000 0.000000e+000 0.000000e+000 0.000000e+000
<ENDHMM>
~h "jh"
<BEGINHMM>
<NUMSTATES> 5
<STATE> 2
<MEAN> 25
 4.660660e-001 -3.025562e+000 -2.530370e+000 1.486702e+000 -6.804532e-001 1.449231e-001 5.714881e+000 2.660088e+000 -3.419859e+000 4.869410e+000 4.920637e+000 1.214760e+000 -3.291309e-001 -4.057649e-001 -3.908241e-001 -1.553563e-001 -9.879243e-001 -3.588026e-001 3.920969e-001 9.246572e-002 2.271951e-001 -7.946119e-003 6.885887e-001 3.840815e-001 -2.270836e-001
<VARIANCE> 25
 2.934820e+001 1.184461e+002 1.877879e+002 1.077822e+002 6.085526e+001 4.373956e+001 9.607004e+001 3.078584e+001 1.031898e+002 2.342045e+001 7.005656e+001 2.283966e+001 2.395781e+000 6.255048e+000 1.129627e+001 7.897257e+000 5.361726e+000 5.752253e+000 8.601678e+000 4.582919e+000 7.707481e+000 2.738856e+000 3.743818e+000 1.886899e+000 4.817739e+000
<GCONST> 1.159412e+002
<STATE> 3
<MEAN> 25
 -1.638531e+000 -3.626209e-001 -6.341337e+000 3.788877e+000 -3.503567e+000 -2.715633e+000 7.467377e+000 2.601800e+000 4.457236e-001 1.835791e+000 5.617228e+000 3.614164e+000 -6.644102e-001 -2.807419e-001 1.342370e-001 -2.391036e-001 -4.448148e-001 -3.755030e-001 -1.704063e-001 -1.361082e-002 3.456055e-002 -5.219409e-001 -9.025643e-002 3.196170e-002 -2.924985e-001
<VARIANCE> 25
 4.255761e+001 1.210134e+002 3.398022e+002 1.234452e+002 5.541097e+001 4.074737e+001 1.377652e+002 4.440181e+001 7.292632e+001 3.266184e+001 6.208486e+001 2.924645e+001 2.189771e+000 5.123977e+000 1.107179e+001 6.868128e+000 4.320019e+000 5.176024e+000 7.553802e+000 4.969782e+000 8.986176e+000 3.534680e+000 4.095757e+000 2.927926e+000 1.833973e+000
<GCONST> 1.168895e+002
<STATE> 4
<MEAN> 25
 -4.472302e+000 -1.177566e+000 -1.614197e+000 -1.310186e+000 -1.102330e+000 -2.971521e+000 -1.797509e+000 2.028049e+000 1.744723e+000 9.039442e-002 2.950821e-001 4.753140e-001 1.749209e-001 -3.686899e-001 5.200830e-001 -9.962422e-002 5.641557e-001 2.048540e-001 -7.222150e-001 -1.815921e-001 9.641543e-002 3.266656e-002 -3.536732e-001 -2.068424e-002 5.181463e-001
<VARIANCE> 25
 7.611189e+001 1.564162e+002 3.695671e+002 8.123389e+001 1.113060e+002 4.787888e+001 8.687731e+001 4.526500e+001 6.656271e+001 4.267044e+001 4.541771e+001 4.511241e+001 3.895712e+000 1.070675e+001 1.105343e+001 5.415887e+000 9.761617e+000 6.179909e+000 1.075110e+001 6.558373e+000 8.441478e+000 4.064819e+000 4.057448e+000 4.656473e+000 2.655758e+000
<GCONST> 1.217054e+002
<TRANSP> 5
 0.000000e+000 1.000000e+000 0.000000e+000 0.000000e+000 0.000000e+000
 0.000000e+000 9.050559e-001 9.494409e-002 0.000000e+000 0.000000e+000
 0.000000e+000 0.000000e+000 8.298525e-001 1.701475e-001 0.000000e+000
 0.000000e+000 0.000000e+000 0.000000e+000 9.200159e-001 7.998410e-002
 0.000000e+000 0.000000e+000 0.000000e+000 0.000000e+000 0.000000e+000
<ENDHMM>
~h "ng"
<BEGINHMM>
<NUMSTATES> 5
<STATE> 2
<MEAN> 25
 7.757070e+000 1.007601e+000 -1.210214e+000 -3.889816e+000 4.812848e+000 3.604557e+000 -2.459550e+000 3.352408e+000 -2.922494e+000 -3.147642e+000 -1.309698e+000 -2.413544e+000 -4.235572e-001 1.143532e-001 -2.999126e-001 1.277655e-001 -4.203742e-002 9.072348e-002 3.398745e-001 -4.454733e-001 -6.409425e-001 2.080837e-001 1.937096e-001 -1.140054e-001 -5.231295e-001
<VARIANCE> 25
 2.315384e+001 6.455891e+001 3.258754e+001 1.267211e+002 5.060227e+001 4.174179e+001 7.762203e+001 3.724757e+001 1.615437e+002 4.869084e+001 6.782140e+001 3.798361e+001 8.580636e-001 5.618546e+000 2.953777e+000 1.215270e+001 3.542286e+000 4.057486e+000 5.575622e+000 2.816393e+000 1.746244e+001 5.960424e+000 3.905710e+000 1.956470e+000 2.729085e+000
<GCONST> 1.122874e+002
<STATE> 3
<MEAN> 25
 3.438153e+000 7.553352e-001 -4.261421e+000 -8.851195e-001 2.708646e+000 3.904155e+000 1.133650e+000 3.239508e-001 -7.052583e+000 -2.723592e+000 2.331433e+000 -2.834471e+000 -4.884678e-001 4.557899e-001 -6.981968e-001 7.596018e-001 -6.766415e-001 4.112053e-001 8.751378e-002 -4.385423e-001 1.106819e+000 -4.026605e-001 8.082226e-002 1.033286e-001 -1.052581e+000
<VARIANCE> 25
 3.139669e+001 4.758413e+001 6.295754e+001 1.168966e+002 7.710799e+001 4.233066e+001 8.258596e+001 6.410783e+001 1.169731e+002 4.473090e+001 8.514156e+001 4.384304e+001 1.017999e+000 4.240767e+000 3.331747e+000 9.857489e+000 3.820587e+000 4.564351e+000 4.920345e+000 4.518950e+000 1.436467e+001 6.060119e+000 5.248708e+000 2.964363e+000 2.217873e+000
<GCONST> 1.145349e+002
<STATE> 4
<MEAN> 25
 -4.849236e+000 4.426132e+000 -9.027980e+000 2.436056e+000 -4.164727e+000 4.589323e+000 3.262432e+000 -2.081534e+000 1.595641e+000 -6.946833e+000 1.020367e+000 -2.980951e-001 -5.080451e-001 2.185995e-001 -2.800008e-001 1.035847e-001 -4.308686e-001 -4.305368e-001 1.245627e-001 5.724489e-002 5.033611e-001 1.375857e-001 -1.333228e-001 -5.952752e-003 -6.033043e-001
<VARIANCE> 25
 4.033530e+001 5.506333e+001 8.943489e+001 4.585955e+001 6.053524e+001 7.153712e+001 8.458789e+001 5.805333e+001 6.652201e+001 6.174559e+001 7.178017e+001 3.503147e+001 1.000147e+000 2.451614e+000 4.214132e+000 5.471922e+000 4.501776e+000 5.039696e+000 5.334245e+000 5.477105e+000 7.748219e+000 6.137052e+000 6.616958e+000 3.654036e+000 1.295277e+000
<GCONST> 1.128322e+002
<TRANSP> 5
 0.000000e+000 1.000000e+000 0.000000e+000 0.000000e+000 0.000000e+000
 0.000000e+000 9.229945e-001 7.700555e-002 0.000000e+000 0.000000e+000
 0.000000e+000 0.000000e+000 7.756700e-001 2.243300e-001 0.000000e+000
 0.000000e+000 0.000000e+000 0.000000e+000 9.170005e-001 8.299951e-002
 0.000000e+000 0.000000e+000 0.000000e+000 0.000000e+000 0.000000e+000
<ENDHMM>
~h "ow"
<BEGINHMM>
<NUMSTATES> 5
<STATE> 2
<MEAN> 25
 6.803054e+000 4.751746e+000 -7.183241e-001 -4.497701e+000 -4.840311e+000 -2.865879e+000 -2.639580e+000 3.800089e+000 2.111811e+000 -2.678375e+000 -9.488653e-002 -5.178822e-001 -1.856109e-001 8.166038e-002 -2.180246e-001 2.799082e-001 -1.569022e-001 -1.467209e-001 2.089027e-001 -1.410661e-001 2.100952e-001 3.169359e-001 -4.065612e-002 3.002922e-002 -3.037347e-001
<VARIANCE> 25
 6.034061e+001 6.920274e+001 9.857828e+001 1.049058e+002 9.647366e+001 7.067890e+001 5.478144e+001 8.347924e+001 7.188732e+001 3.633829e+001 2.153779e+001 3.783887e+001 6.959035e-001 1.704792e+000 2.138752e+000 2.863972e+000 3.066528e+000 3.485267e+000 2.629233e+000 2.883307e+000 3.400918e+000 2.495796e+000 2.419781e+000 2.306315e+000 8.024033e-001
<GCONST> 1.053703e+002
<STATE> 3
<MEAN> 25
 4.988451e+000 5.560470e+000 -3.160875e+000 -2.327920e+000 -4.463095e+000 -2.153012e+000 -1.334846e+000 2.184024e+000 2.790587e+000 -1.585480e+000 -2.892595e-001 1.533020e-001 -3.118006e-001 5.449397e-002 -4.143120e-001 2.377132e-001 -6.652993e-002 1.831166e-001 2.955729e-001 -1.914080e-001 2.174453e-001 1.983129e-001 3.696535e-003 7.236244e-002 -4.463846e-001
<VARIANCE> 25
 6.782630e+001 6.834156e+001 1.553997e+002 1.103900e+002 8.660165e+001 8.504425e+001 7.083678e+001 9.323746e+001 6.368831e+001 4.278792e+001 2.480221e+001 3.740902e+001 5.739764e-001 1.862574e+000 2.943979e+000 3.637555e+000 3.678929e+000 3.853633e+000 3.272566e+000 3.358800e+000 3.851970e+000 3.016750e+000 2.421126e+000 2.362936e+000 6.170003e-001
<GCONST> 1.077822e+002
<STATE> 4
<MEAN> 25
 -2.315754e+000 3.424985e+000 -9.902015e+000 9.456543e-001 -2.213136e+000 1.888280e+000 3.883620e+000 -1.248749e+000 1.298846e+000 3.531451e-001 -1.064008e+000 1.162068e+000 -3.222538e-001 -1.791449e-001 -7.780071e-002 -1.438551e-001 2.829510e-002 1.543931e-001 5.082608e-002 2.251020e-002 -9.538396e-002 1.166400e-002 3.504761e-002 4.731190e-002 -1.751457e-001
<VARIANCE> 25
 7.828300e+001 6.513488e+001 2.031838e+002 1.041165e+002 1.184222e+002 7.558970e+001 1.103438e+002 9.060575e+001 7.119702e+001 5.572224e+001 2.837739e+001 4.459821e+001 8.569580e-001 2.344725e+000 4.809076e+000 4.206337e+000 4.288445e+000 4.489089e+000 3.772832e+000 4.052370e+000 4.410948e+000 3.738944e+000 2.652642e+000 3.554179e+000 8.500047e-001
<GCONST> 1.124558e+002
<TRANSP> 5
 0.000000e+000 1.000000e+000 0.000000e+000 0.000000e+000 0.000000e+000
 0.000000e+000 7.798683e-001 2.201317e-001 0.000000e+000 0.000000e+000
 0.000000e+000 0.000000e+000 7.624140e-001 2.375860e-001 0.000000e+000
 0.000000e+000 0.000000e+000 0.000000e+000 9.328781e-001 6.712195e-002
 0.000000e+000 0.000000e+000 0.000000e+000 0.000000e+000 0.000000e+000
<ENDHMM>
~h "oy"
<BEGINHMM>
<NUMSTATES> 5
<STATE> 2
<MEAN> 25
 6.587118e+000 -1.162671e+001 1.016365e+001 -8.763563e+000 -1.842393e+000 -1.270389e+000 -6.370606e+000 3.328015e+000 -3.385251e-001 -3.102458e+000 3.331574e+000 2.070926e+000 -1.012243e-001 -4.211788e-001 1.563429e-002 2.307366e-002 3.569669e-001 7.260723e-001 4.390273e-001 -1.525525e-001 -1.849766e-001 4.515597e-002 1.075427e-001 2.022525e-001 1.648895e-001
<VARIANCE> 25
 1.314138e+002 7.341674e+001 1.087244e+002 4.652556e+001 3.410145e+001 4.759337e+001 5.273713e+001 3.526300e+001 7.369691e+001 3.565504e+001 4.068777e+001 2.236498e+001 1.802411e+000 2.114373e+000 2.261309e+000 1.711450e+000 2.889554e+000 4.716593e+000 3.423933e+000 3.496879e+000 3.913333e+000 2.571893e+000 3.865596e+000 1.756553e+000 4.972351e-001
<GCONST> 1.045695e+002
<STATE> 3
<MEAN> 25
 4.136176e+000 -1.150613e+001 1.291564e+001 -8.222049e+000 -1.358009e+000 -1.039320e+000 -3.106174e+000 1.510329e+000 -2.057237e+000 -1.324517e+000 2.336872e+000 2.530861e+000 -1.732125e-001 7.091137e-003 7.424562e-002 6.863097e-003 3.389152e-001 -5.842975e-002 3.445911e-001 -3.483088e-001 -5.912015e-001 4.017360e-001 9.747478e-002 6.188924e-002 2.012255e-002
<VARIANCE> 25
 1.419970e+002 7.414200e+001 1.388499e+002 3.958315e+001 4.344618e+001 3.625563e+001 6.505763e+001 4.384357e+001 8.001510e+001 4.880872e+001 4.875716e+001 2.518083e+001 3.419296e+000 2.227894e+000 3.070368e+000 1.720956e+000 3.542064e+000 3.596013e+000 4.140334e+000 4.602640e+000 4.480968e+000 3.812330e+000 4.271513e+000 2.095451e+000 4.993531e-001
<GCONST> 1.080441e+002
<STATE> 4
<MEAN> 25
 -1.119756e+000 -1.345839e+001 1.254495e+001 -6.957125e+000 5.578476e-002 1.686458e-001 8.305151e-002 1.953557e+000 -8.976084e+000 -3.430267e-001 5.727220e+000 1.615910e+000 1.495865e-001 1.884768e-001 -7.622181e-001 1.370258e-001 9.177702e-002 1.505986e-001 -2.021220e-001 -1.450673e-001 -3.266372e-001 1.073514e-002 3.352017e-005 -5.465959e-002 -4.164907e-001
<VARIANCE> 25
 1.230752e+002 6.281830e+001 1.540530e+002 3.333840e+001 3.382441e+001 5.034035e+001 5.695372e+001 4.367357e+001 8.410568e+001 5.104617e+001 3.868175e+001 2.171977e+001 1.686836e+000 2.295409e+000 2.972081e+000 2.984104e+000 3.227227e+000 4.087578e+000 2.907783e+000 5.042916e+000 4.487010e+000 3.434031e+000 3.378217e+000 2.206410e+000 7.695823e-001
<GCONST> 1.070844e+002
<TRANSP> 5
 0.000000e+000 1.000000e+000 0.000000e+000 0.000000e+000 0.000000e+000
 0.000000e+000 8.391756e-001 1.608243e-001 0.000000e+000 0.000000e+000
 0.000000e+000 0.000000e+000 8.268223e-001 1.731777e-001 0.000000e+000
 0.000000e+000 0.000000e+000 0.000000e+000 9.453890e-001 5.461105e-002
 0.000000e+000 0.000000e+000 0.000000e+000 0.000000e+000 0.000000e+000
<ENDHMM>
~h "sh"
<BEGINHMM>
<NUMSTATES> 5
<STATE> 2
<MEAN> 25
 -2.560615e+000 -3.790315e+000 3.394847e+000 7.658887e+000 4.272159e+000 -1.364003e+000 9.424722e-001 -2.173842e+000 -2.291462e+000 5.961151e-001 1.655331e+000 -2.312997e+000 -1.099371e+000 -1.144681e+000 1.130265e-001 -2.945668e-001 -4.237172e-001 -1.393006e-001 9.878311e-001 5.258639e-001 1.185174e-001 9.896704e-002 6.812479e-002 2.826316e-001 -1.211561e-001
<VARIANCE> 25
 5.576515e+001 3.377950e+002 3.896048e+002 1.442038e+002 6.300662e+001 6.519918e+001 1.350579e+002 8.318264e+001 5.052180e+001 3.498593e+001 2.752449e+001 2.928666e+001 1.676840e+000 4.481228e+000 5.077152e+000 3.620189e+000 2.014241e+000 3.879374e+000 3.932554e+000 4.144350e+000 5.236953e+000 3.056751e+000 2.846955e+000 2.335055e+000 1.169138e+000
<GCONST> 1.131425e+002
<STATE> 3
<MEAN> 25
 -7.381488e+000 -1.152678e+001 7.238041e+000 3.155886e+000 2.070374e+000 -1.697369e+000 8.462813e-001 7.063615e-001 -1.129733e+000 8.504021e-001 2.039300e+000 -7.512988e-001 -8.295484e-001 -1.059505e+000 3.849488e-001 -4.854496e-001 -7.129905e-001 -9.007724e-002 3.815919e-001 4.002730e-001 4.150714e-001 3.641951e-002 -9.311946e-002 4.216999e-001 7.044601e-002
<VARIANCE> 25
 3.414963e+001 2.794986e+002 4.016411e+002 9.926033e+001 7.087943e+001 4.709047e+001 9.616837e+001 5.272753e+001 6.454841e+001 4.323031e+001 2.887536e+001 2.975783e+001 2.290850e+000 5.151212e+000 5.995665e+000 4.316095e+000 2.060515e+000 4.378052e+000 4.084743e+000 4.716283e+000 6.399414e+000 2.843270e+000 2.841343e+000 2.378328e+000 1.621566e+000
<GCONST> 1.132129e+002
<STATE> 4
<MEAN> 25
 -8.172496e+000 -9.953925e+000 6.537238e+000 9.549824e-001 -3.637794e-001 -1.370727e+000 -2.676977e+000 4.759786e-001 9.281345e-001 -9.424597e-001 7.311491e-001 -1.029161e-001 5.560294e-001 4.521811e-001 -4.353057e-001 -1.162295e-001 -2.455737e-001 1.159870e-001 -2.786854e-001 -3.099692e-001 -9.734233e-003 -2.288944e-001 -1.909202e-001 1.392200e-001 -2.699821e-002
<VARIANCE> 25
 3.263956e+001 2.939166e+002 2.643851e+002 3.857069e+001 5.196635e+001 4.541824e+001 5.160535e+001 5.492996e+001 6.235475e+001 4.874692e+001 2.839773e+001 4.134973e+001 3.808678e+000 5.374046e+000 4.843554e+000 3.272964e+000 2.951591e+000 3.700784e+000 3.839108e+000 5.405362e+000 5.056961e+000 4.136432e+000 3.041072e+000 2.502320e+000 1.749870e+000
<GCONST> 1.119850e+002
<TRANSP> 5
 0.000000e+000 1.000000e+000 0.000000e+000 0.000000e+000 0.000000e+000
 0.000000e+000 7.148394e-001 2.851606e-001 0.000000e+000 0.000000e+000
 0.000000e+000 0.000000e+000 7.011688e-001 2.988312e-001 0.000000e+000
 0.000000e+000 0.000000e+000 0.000000e+000 9.393483e-001 6.065164e-002
 0.000000e+000 0.000000e+000 0.000000e+000 0.000000e+000 0.000000e+000
<ENDHMM>
~h "th"
<BEGINHMM>
<NUMSTATES> 5
<STATE> 2
<MEAN> 25
 6.554029e+000 -7.175661e+000 4.958509e+000 -3.912540e+000 4.240359e+000 -1.690880e-002 -6.196487e+000 -1.056465e+000 -4.791962e+000 1.566043e+000 4.573436e-001 -5.899488e-001 4.887613e-002 3.783722e-001 -3.337868e-001 3.770441e-001 6.045374e-002 5.966821e-001 5.707060e-002 -4.781027e-001 -3.127031e-002 -2.393232e-001 1.664237e-001 -1.473861e-001 -3.745449e-001
<VARIANCE> 25
 4.296674e+001 7.097411e+001 5.746267e+001 1.027610e+002 5.997276e+001 8.851151e+001 2.983692e+001 5.164996e+001 1.119289e+002 6.987138e+001 7.870826e+001 7.667683e+001 9.298385e-001 2.397806e+000 2.659085e+000 2.818468e+000 1.885040e+000 2.852401e+000 2.745460e+000 2.434803e+000 3.803672e+000 2.807609e+000 2.339015e+000 1.996232e+000 1.450822e+000
<GCONST> 1.069197e+002
<STATE> 3
<MEAN> 25
 6.301733e+000 -4.833418e+000 3.650635e+000 -1.598863e+000 4.472506e+000 1.553729e+000 -5.344279e+000 -2.257392e+000 -4.867104e+000 8.163887e-001 8.365951e-001 -2.079113e+000 -1.352334e-003 7.762755e-001 -4.178916e-001 5.705870e-001 -4.860102e-002 3.761002e-001 2.543344e-001 -1.929583e-001 1.839507e-001 -2.352746e-001 1.704295e-001 -3.294241e-001 -6.418728e-001
<VARIANCE> 25
 3.955482e+001 8.387128e+001 4.323512e+001 1.035789e+002 6.114724e+001 7.134348e+001 3.583934e+001 4.580710e+001 1.057925e+002 6.099289e+001 7.644659e+001 9.535330e+001 7.510296e-001 2.449482e+000 2.208052e+000 3.049654e+000 2.289869e+000 2.865967e+000 2.134479e+000 2.430924e+000 3.367837e+000 2.821392e+000 2.702794e+000 2.684911e+000 1.309639e+000
<GCONST> 1.064594e+002
<STATE> 4
<MEAN> 25
 6.112070e+000 -1.672879e-001 1.770944e+000 1.252028e+000 7.007560e+000 1.805188e+000 -6.892045e+000 -3.622859e+000 -7.558348e+000 -1.021394e+000 2.722606e+000 -2.418748e+000 -2.904989e-001 4.172802e-001 -2.215286e-001 2.476282e-001 -4.073918e-001 1.894945e-001 1.791600e-001 -4.730115e-003 5.040714e-001 -1.287631e-001 2.144473e-002 -8.981100e-002 -6.047869e-001
<VARIANCE> 25
 4.024190e+001 7.243166e+001 2.809342e+001 6.267767e+001 9.594147e+001 5.004181e+001 4.482891e+001 5.486948e+001 1.159472e+002 5.153706e+001 5.061045e+001 5.935765e+001 8.195343e-001 2.480464e+000 1.842178e+000 3.110824e+000 2.482526e+000 2.453707e+000 2.560251e+000 3.131131e+000 3.054539e+000 2.779261e+000 2.824319e+000 2.581603e+000 1.318219e+000
<GCONST> 1.051310e+002
<TRANSP> 5
 0.000000e+000 1.000000e+000 0.000000e+000 0.000000e+000 0.000000e+000
 0.000000e+000 7.090583e-001 2.909417e-001 0.000000e+000 0.000000e+000
 0.000000e+000 0.000000e+000 6.977031e-001 3.022969e-001 0.000000e+000
 0.000000e+000 0.000000e+000 0.000000e+000 9.387438e-001 6.125628e-002
 0.000000e+000 0.000000e+000 0.000000e+000 0.000000e+000 0.000000e+000
<ENDHMM>
~h "uh"
<BEGINHMM>
<NUMSTATES> 5
<STATE> 2
<MEAN> 25
 2.106469e+000 1.237498e+000 -2.789189e+000 1.361551e+000 -9.123466e-001 2.941705e+000 -3.977664e+000 4.736152e-002 -4.203974e-001 -8.427318e+000 2.009330e-001 -2.767123e+000 -5.218342e-001 -1.690150e-001 -3.415583e-001 4.393832e-001 -1.010350e+000 1.198259e-001 7.932054e-001 -3.293076e-001 6.048330e-001 -2.536550e-001 -1.369260e-001 2.229532e-001 -5.847807e-001
<VARIANCE> 25
 2.392597e+001 3.552919e+001 1.394183e+002 4.974002e+001 6.164312e+001 1.851537e+001 5.972749e+001 2.304469e+001 5.539032e+001 5.096905e+001 4.051409e+001 3.531266e+001 5.587637e-001 9.793748e-001 1.595448e+000 2.154787e+000 3.001716e+000 1.897059e+000 3.856572e+000 1.398605e+000 4.891254e+000 3.469853e+000 3.516637e+000 4.233293e+000 5.373944e-001
<GCONST> 9.998299e+001
<STATE> 3
<MEAN> 25
 7.291108e-001 1.426033e+000 1.805414e+000 2.804022e+000 -1.559650e+000 9.726191e-001 -3.532092e+000 4.636866e-001 -1.976994e-001 -5.708961e+000 6.920617e-001 -7.755949e-001 -4.714267e-001 9.740065e-002 3.248167e-001 7.066625e-002 1.389856e-001 -4.972849e-001 -2.414519e-002 1.598595e-001 -8.998814e-002 1.233826e-001 -2.546063e-001 -1.569663e-001 -2.630609e-001
<VARIANCE> 25
 4.306142e+001 5.302393e+001 1.400916e+002 6.748042e+001 7.830057e+001 2.688798e+001 5.544347e+001 3.376097e+001 6.244098e+001 5.254613e+001 4.911982e+001 3.403735e+001 9.880605e-001 1.923913e+000 3.118967e+000 3.090830e+000 4.610343e+000 2.855144e+000 4.491200e+000 2.743856e+000 7.685802e+000 5.472766e+000 5.064381e+000 3.254548e+000 7.265117e-001
<GCONST> 1.077581e+002
<STATE> 4
<MEAN> 25
 -2.237099e-001 1.680704e+000 5.626288e+000 1.702494e+000 3.704263e-001 -1.382675e+000 -3.702974e+000 2.580002e+000 -2.093984e+000 -3.370662e+000 -9.391024e-001 -1.473086e+000 -2.545784e-001 1.794420e-001 5.915666e-001 -5.082346e-001 5.007116e-001 -3.269192e-002 3.210946e-001 5.707427e-001 -7.792568e-003 1.162012e-001 -9.046459e-001 -4.655525e-001 8.521274e-002
<VARIANCE> 25
