~o
<STREAMINFO> 1 25
<VECSIZE> 25<NULLD><MFCC_D_N_Z_0><DIAGC>
~s "silst"
<MEAN> 25
 -1.002207e+001 5.856555e+000 -8.959088e+000 3.478797e+000 -2.838849e+000 6.503503e-001 6.178254e+000 -9.431885e-001 2.845906e+000 1.109973e+000 -2.024900e-001 1.934441e-001 1.604462e+000 -2.030300e+000 2.671462e+000 -1.675853e+000 -1.172199e-001 3.310029e-001 -2.449118e+000 8.586414e-001 -1.082543e+000 -2.133315e-001 -2.038641e-001 -1.451635e+000 3.111700e+000
<VARIANCE> 25
 8.324890e+001 7.088456e+001 1.160604e+002 6.573158e+001 6.730512e+001 4.901678e+001 1.018335e+002 5.463454e+001 5.567707e+001 4.437803e+001 3.533152e+001 4.356409e+001 9.458732e+000 5.682812e+000 7.916386e+000 5.845439e+000 7.592620e+000 5.680596e+000 8.578343e+000 5.927002e+000 5.508145e+000 6.044708e+000 4.191361e+000 5.000666e+000 7.355430e+000
<GCONST> 1.195016e+002
~h "b"
<BEGINHMM>
<NUMSTATES> 5
<STATE> 2
<MEAN> 25
 4.399292e+000 8.963121e+000 2.704207e+000 1.079699e+001 3.851991e-001 6.316312e+000 2.266327e+000 -2.158845e+000 3.468406e+000 -4.283548e+000 -3.636709e-001 -1.135721e+000 1.138938e+000 1.133401e+000 6.711435e-001 3.565349e-001 2.454194e-001 6.502671e-001 -3.347669e-001 -7.434555e-002 2.701658e-001 2.788589e-001 3.425275e-001 -3.656156e-001 4.392496e-001
<VARIANCE> 25
 6.549130e+001 7.442244e+001 1.043315e+002 6.707468e+001 6.214178e+001 5.936204e+001 8.067602e+001 7.803341e+001 7.362658e+001 4.294235e+001 6.004889e+001 4.225800e+001 6.728666e+000 5.771925e+000 5.493761e+000 6.443599e+000 3.982435e+000 5.353079e+000 8.365994e+000 4.846157e+000 6.831627e+000 4.161979e+000 4.201313e+000 4.898555e+000 5.600309e+000
<GCONST> 1.182332e+002
<STATE> 3
<MEAN> 25
 -4.076432e+000 1.506302e+000 -9.434267e-001 3.026323e+000 -3.400028e+000 2.942841e+000 4.317487e+000 6.298510e-001 1.127382e+000 -4.970916e-001 3.675637e-001 -1.273451e+000 -2.906183e-001 2.439318e-001 -4.709821e-001 -1.157607e-001 -3.212868e-002 -3.931417e-001 2.147553e-001 1.294892e-001 2.632387e-002 6.506784e-002 -5.106355e-002 1.728796e-001 -4.161048e-001
<VARIANCE> 25
 5.195858e+001 8.248264e+001 6.832461e+001 6.835013e+001 4.521176e+001 4.266318e+001 4.895681e+001 4.486352e+001 6.280878e+001 6.220082e+001 5.129696e+001 3.348175e+001 6.148664e-001 1.947524e+000 2.171069e+000 2.449286e+000 2.262292e+000 2.487144e+000 2.756786e+000 3.639181e+000 4.273946e+000 3.056626e+000 4.016435e+000 2.492656e+000 7.062139e-001
<GCONST> 1.041475e+002
<STATE> 4
<MEAN> 25
 -1.639809e+000 7.026712e+000 -1.041732e+001 7.971141e+000 -3.151300e-001 -2.242405e+000 9.005811e+000 -1.608200e+000 2.384772e-001 3.913271e+000 3.068574e+000 1.933817e+000 2.402608e-001 -2.510956e-001 3.213797e-001 -3.529579e-001 9.246930e-002 -8.420603e-003 -2.379256e-001 1.735717e-001 2.267200e-002 1.219513e-001 3.274819e-002 9.335412e-002 4.749113e-001
<VARIANCE> 25
 6.521367e+001 1.212883e+002 1.194673e+002 9.542265e+001 6.806898e+001 7.155904e+001 9.200314e+001 7.485303e+001 6.656243e+001 6.875920e+001 3.434488e+001 6.758842e+001 2.686833e+000 6.184700e+000 4.555078e+000 6.020376e+000 4.445803e+000 4.430943e+000 7.194897e+000 5.564150e+000 5.742722e+000 5.409475e+000 3.331388e+000 5.772374e+000 2.295124e+000
<GCONST> 1.177866e+002
<TRANSP> 5
 0.000000e+000 1.000000e+000 0.000000e+000 0.000000e+000 0.000000e+000
 0.000000e+000 6.639135e-001 3.360865e-001 0.000000e+000 0.000000e+000
 0.000000e+000 0.000000e+000 8.616775e-001 1.383224e-001 0.000000e+000
 0.000000e+000 0.000000e+000 0.000000e+000 8.981216e-001 1.018784e-001
 0.000000e+000 0.000000e+000 0.000000e+000 0.000000e+000 0.000000e+000
<ENDHMM>
~h "d"
<BEGINHMM>
<NUMSTATES> 5
<STATE> 2
<MEAN> 25
 9.967393e-001 -2.530919e+000 3.501335e+000 2.166758e+000 -1.504468e+000 1.600944e+000 -3.372643e+000 -4.477280e+000 -6.425655e+000 1.965309e-001 3.351767e+000 -6.909520e-001 -1.477480e-001 1.641099e+000 -1.115958e+000 1.380401e+000 -8.791126e-001 6.267229e-001 6.863269e-001 -9.706771e-001 1.396280e+000 -7.947140e-001 3.076708e-001 4.890639e-001 -1.589248e+000
<VARIANCE> 25
 6.691177e+001 7.464991e+001 1.202416e+002 5.576604e+001 1.117413e+002 4.346571e+001 8.147874e+001 4.282943e+001 4.715358e+001 4.369844e+001 2.158225e+001 2.570859e+001 3.651668e-001 2.861724e+000 2.266375e+000 3.229243e+000 3.238998e+000 4.390394e+000 3.703289e+000 4.120566e+000 6.414061e+000 4.915311e+000 1.918082e+000 2.987408e+000 8.545846e-001
<GCONST> 1.063227e+002
<STATE> 3
<MEAN> 25
 -3.010750e+000 1.354820e+000 -4.427429e+000 4.610878e+000 -2.804954e+000 3.760269e+000 -7.783601e-002 -4.666189e+000 1.113377e+000 -2.785701e+000 1.572972e+000 -1.086434e+000 -5.370173e-001 3.802145e-001 -5.317152e-001 1.626154e-002 -7.563709e-002 -1.849502e-001 9.338291e-001 3.552958e-001 3.973052e-001 2.403787e-001 -4.476728e-001 6.871001e-002 -6.915696e-001
<VARIANCE> 25
 3.888299e+001 4.175136e+001 7.492451e+001 4.749484e+001 5.987244e+001 3.869524e+001 7.660024e+001 5.198337e+001 4.649398e+001 4.850519e+001 3.554703e+001 3.502132e+001 5.472381e-001 1.725296e+000 1.779491e+000 2.705082e+000 3.448702e+000 3.000860e+000 2.629295e+000 3.629844e+000 3.430314e+000 3.010439e+000 3.512090e+000 2.575636e+000 3.824900e-001
<GCONST> 1.020844e+002
<STATE> 4
<MEAN> 25
 -3.984534e+000 6.294803e+000 -3.833008e+000 5.512280e+000 -1.672439e+000 -8.499746e-001 4.813328e+000 -3.524199e-001 7.780056e-001 1.398394e+000 -1.110672e-001 -2.400205e+000 -3.436044e-002 -4.928999e-001 4.061705e-001 -2.808605e-001 5.311168e-001 3.256387e-002 -2.423622e-001 5.813179e-001 2.496058e-002 1.450886e-001 -9.174179e-002 7.463718e-002 4.126964e-001
<VARIANCE> 25
 5.653918e+001 8.186266e+001 1.038998e+002 6.290155e+001 7.347667e+001 6.259463e+001 1.004492e+002 7.977750e+001 6.515733e+001 6.945118e+001 4.135905e+001 5.221646e+001 2.182115e+000 7.091313e+000 4.104525e+000 5.063314e+000 6.648671e+000 5.559357e+000 7.340961e+000 7.066164e+000 7.284122e+000 6.323734e+000 5.039147e+000 4.560021e+000 2.044744e+000
<GCONST> 1.177014e+002
<TRANSP> 5
 0.000000e+000 1.000000e+000 0.000000e+000 0.000000e+000 0.000000e+000
 0.000000e+000 5.450346e-001 4.549653e-001 0.000000e+000 0.000000e+000
 0.000000e+000 0.000000e+000 7.689200e-001 2.310800e-001 0.000000e+000
 0.000000e+000 0.000000e+000 0.000000e+000 8.266448e-001 1.733552e-001
 0.000000e+000 0.000000e+000 0.000000e+000 0.000000e+000 0.000000e+000
<ENDHMM>
~h "f"
<BEGINHMM>
<NUMSTATES> 5
<STATE> 2
<MEAN> 25
 -5.647836e+000 3.866970e+000 3.315619e+000 -9.134424e-001 8.063631e+000 2.295284e+000 -1.395489e+000 2.995596e+000 -4.491995e+000 3.084676e+000 -2.822703e+000 -1.258309e+000 -1.505155e+000 -9.167867e-001 8.124389e-001 -1.789780e+000 1.103385e+000 -5.767745e-001 -3.287826e-001 9.632038e-001 -1.023329e+000 1.337901e+000 -4.552379e-001 -4.089383e-002 -3.886466e-003
<VARIANCE> 25
 5.572253e+001 6.649631e+001 9.848578e+001 9.135335e+001 9.548563e+001 5.566878e+001 7.440078e+001 7.155633e+001 8.055782e+001 1.023158e+002 5.488461e+001 2.957518e+001 1.070502e+000 4.497189e+000 4.271523e+000 5.762684e+000 5.086274e+000 6.071393e+000 5.122065e+000 5.501618e+000 4.947057e+000 6.578940e+000 4.324124e+000 3.481599e+000 1.071850e+000
<GCONST> 1.146441e+002
<STATE> 3
<MEAN> 25
 -1.512360e+001 -6.682786e+000 4.085680e+000 -9.470880e+000 1.442136e+001 2.017053e+000 -1.955819e-001 9.471704e+000 -7.021296e+000 1.000542e+001 -5.023000e+000 -1.353714e+000 6.287410e-002 -8.855243e-001 -4.771107e-001 -1.723601e-001 -3.737616e-001 3.223344e-001 1.589792e-001 9.261975e-002 3.985097e-001 -6.067680e-002 1.743143e-001 1.900621e-001 2.860865e-001
<VARIANCE> 25
 2.387405e+001 5.971396e+001 3.117838e+001 4.693711e+001 4.528107e+001 4.174227e+001 3.163025e+001 2.270569e+001 2.780750e+001 2.868959e+001 3.421428e+001 3.075090e+001 9.021339e-001 2.021407e+000 2.107046e+000 1.547309e+000 3.606466e+000 2.080546e+000 2.140685e+000 2.474719e+000 2.124708e+000 2.707518e+000 3.266979e+000 1.898553e+000 5.407006e-001
<GCONST> 9.668430e+001
<STATE> 4
<MEAN> 25
 6.443924e+000 -9.028808e+000 -3.104883e+000 -1.020533e+001 -7.097819e+000 8.298488e-001 -1.239076e+000 8.759085e+000 9.318668e+000 -3.817073e+000 3.545578e+000 9.020808e-001 1.776312e+000 7.255588e-001 -3.049468e-002 1.655796e-001 -1.341229e+000 -4.528651e-001 -5.473720e-001 -3.403377e-001 1.159383e+000 -9.146294e-001 6.600865e-001 -1.427956e-001 9.576849e-001
<VARIANCE> 25
 1.120646e+002 7.661768e+001 4.076160e+001 3.276335e+001 7.846217e+001 4.972511e+001 5.040210e+001 2.948087e+001 1.156403e+002 9.817299e+001 3.352760e+001 2.704040e+001 7.596124e+000 8.134500e+000 2.627175e+000 2.613942e+000 6.755244e+000 3.450532e+000 3.687132e+000 2.371564e+000 3.914875e+000 5.723887e+000 2.700076e+000 2.205534e+000 2.385149e+000
<GCONST> 1.110524e+002
<TRANSP> 5
 0.000000e+000 1.000000e+000 0.000000e+000 0.000000e+000 0.000000e+000
 0.000000e+000 8.454864e-001 1.545135e-001 0.000000e+000 0.000000e+000
 0.000000e+000 0.000000e+000 8.916080e-001 1.083919e-001 0.000000e+000
 0.000000e+000 0.000000e+000 0.000000e+000 8.640947e-001 1.359053e-001
 0.000000e+000 0.000000e+000 0.000000e+000 0.000000e+000 0.000000e+000
<ENDHMM>
~h "g"
<BEGINHMM>
<NUMSTATES> 5
<STATE> 2
<MEAN> 25
 -4.089003e+000 1.059362e+001 -1.005043e+001 5.160244e+000 -5.402163e+000 7.042915e-001 9.778450e+000 -1.853888e+000 2.922580e+000 -3.890857e+000 -3.019111e+000 1.928371e+000 1.002796e-001 3.995092e-001 4.816392e-001 1.456833e-001 4.021686e-001 2.248031e-002 -8.730389e-002 3.019525e-001 1.387177e-001 3.129641e-001 -5.174406e-002 -3.049470e-001 5.005662e-002
<VARIANCE> 25
 2.627254e+001 6.152176e+001 9.654168e+001 5.743130e+001 6.234115e+001 5.406809e+001 7.720118e+001 8.798440e+001 6.455470e+001 7.676511e+001 4.419606e+001 6.426168e+001 2.470387e+000 7.377855e+000 7.348239e+000 6.052050e+000 7.805916e+000 7.148944e+000 7.313485e+000 9.068803e+000 7.839010e+000 7.978491e+000 4.190125e+000 5.489414e+000 2.324947e+000
<GCONST> 1.183909e+002
<STATE> 3
<MEAN> 25
 6.450328e+000 8.994300e+000 4.152634e+000 5.658926e+000 6.004778e+000 1.204221e+000 -9.374919e-001 -4.992018e-001 -2.280324e+000 7.809384e+000 3.574166e+000 -5.704886e+000 5.222768e-002 -2.876205e+000 1.611393e+000 -1.668555e+000 1.398565e+000 -5.294297e-001 -1.175587e+000 4.821740e-001 -8.994440e-001 1.145313e+000 -1.311990e+000 -1.176663e-001 2.356764e+000
<VARIANCE> 25
 1.865438e+001 1.546480e+002 4.758650e+001 7.946966e+001 7.712982e+001 7.590633e+001 7.273761e+001 5.502790e+001 8.122426e+001 6.648123e+001 5.417915e+001 2.726907e+001 3.670430e+000 1.880093e+001 7.321467e+000 8.043541e+000 5.655422e+000 8.096517e+000 1.411569e+001 5.545086e+000 9.255997e+000 9.668509e+000 5.517892e+000 2.965235e+000 5.793354e+000
<GCONST> 1.205539e+002
<STATE> 4
<MEAN> 25
 5.184608e+000 -1.132483e+001 1.468014e+001 -2.945195e+000 1.196882e+001 -8.629956e+000 -1.836225e+001 1.367957e+000 9.757311e-001 7.990786e+000 -4.868122e+000 -4.319049e+000 1.869825e-001 -2.694353e-001 3.654834e-001 -3.635279e-001 -3.929096e-001 -2.527404e-001 -1.095528e+000 -3.909391e-001 6.600447e-001 -4.107631e-001 1.714135e-001 1.316626e-001 4.927612e-001
<VARIANCE> 25
 5.557040e+000 2.511662e+001 1.628766e+001 2.587259e+001 4.016360e+001 4.823676e+001 4.304628e+001 3.050778e+001 4.830990e+001 2.091896e+001 2.525254e+001 1.605524e+001 2.806482e-001 1.360972e+000 2.536269e+000 1.427744e+000 1.648606e+000 2.417231e+000 6.651243e+000 1.205587e+000 2.298263e+000 1.308911e+000 2.210250e+000 1.603395e+000 8.045306e-001
<GCONST> 9.053945e+001
<TRANSP> 5
 0.000000e+000 1.000000e+000 0.000000e+000 0.000000e+000 0.000000e+000
 0.000000e+000 9.113697e-001 8.863031e-002 0.000000e+000 0.000000e+000
 0.000000e+000 0.000000e+000 8.291083e-001 1.708917e-001 0.000000e+000
 0.000000e+000 0.000000e+000 0.000000e+000 8.457285e-001 1.542715e-001
 0.000000e+000 0.000000e+000 0.000000e+000 0.000000e+000 0.000000e+000
<ENDHMM>
~h "k"
<BEGINHMM>
<NUMSTATES> 5
<STATE> 2
<MEAN> 25
 -1.357053e-001 2.845521e-001 -3.463297e+000 1.022144e+000 3.683960e-001 -2.049551e+000 1.236818e+000 -3.028227e+000 -4.097072e+000 4.152669e+000 -1.061719e+000 -1.893337e+000 1.648990e-001 -2.281503e+000 8.814092e-001 -5.213386e+000 9.832410e-001 -5.227948e-001 1.090450e-001 2.009503e+000 -3.263406e+000 1.136746e+000 6.997222e-002 4.739439e-002 2.604437e+000
<VARIANCE> 25
 3.242663e+001 1.028822e+002 1.059096e+002 3.071244e+002 1.078970e+002 7.136654e+001 7.867670e+001 1.347425e+002 1.318542e+002 6.548907e+001 6.612169e+001 5.255942e+001 4.051694e+000 7.737976e+000 1.020229e+001 1.913260e+001 7.770252e+000 1.155815e+001 1.086099e+001 8.211647e+000 1.017581e+001 6.091044e+000 7.423923e+000 5.224842e+000 5.292583e+000
<GCONST> 1.270430e+002
<STATE> 3
<MEAN> 25
 -3.410364e+000 -8.018999e+000 2.901381e+000 -8.716148e+000 -9.407003e-002 1.284206e+000 -1.588551e+000 2.742592e+000 -9.480050e+000 2.949452e+000 2.342980e+000 -3.754921e+000 -3.512800e-001 7.914830e-001 1.863539e-001 1.188191e+000 -1.761961e-001 6.829911e-001 2.908176e-002 -3.402002e-002 1.259912e+000 -3.826984e-001 1.247301e-001 -2.271146e-001 -8.917594e-001
<VARIANCE> 25
 2.698864e+001 6.636047e+001 8.910038e+001 1.207717e+002 8.619878e+001 7.495169e+001 4.890543e+001 5.110289e+001 6.395021e+001 8.522617e+001 4.543924e+001 3.699881e+001 1.974712e+000 3.970762e+000 5.312788e+000 7.581789e+000 4.032146e+000 4.317544e+000 4.992197e+000 3.262522e+000 5.631578e+000 3.593093e+000 3.505099e+000 2.485662e+000 1.951398e+000
<GCONST> 1.125923e+002
<STATE> 4
<MEAN> 25
 -2.741946e+000 3.907202e+000 -3.921138e+000 -4.218558e+000 -3.514370e+000 -3.122955e+000 3.018473e+000 6.881518e+000 -1.340513e+000 -1.291751e-002 1.591484e+000 -2.420726e+000 9.141719e-001 2.613926e-001 8.564309e-001 -3.601530e-001 -3.809366e-001 -2.236415e-001 -6.379184e-001 -1.037038e-001 5.139086e-001 -6.775150e-002 9.606845e-002 3.331456e-001 9.080078e-001
<VARIANCE> 25
 4.173847e+001 6.216398e+001 1.085231e+002 2.192784e+002 7.034998e+001 9.205944e+001 1.175760e+002 6.467023e+001 1.087600e+002 8.011845e+001 5.137545e+001 5.193564e+001 3.874048e+000 6.370115e+000 7.068084e+000 2.292483e+001 6.507479e+000 8.342315e+000 8.000044e+000 6.551309e+000 1.284073e+001 6.888968e+000 4.222224e+000 5.174754e+000 4.929862e+000
<GCONST> 1.239687e+002
<TRANSP> 5
 0.000000e+000 1.000000e+000 0.000000e+000 0.000000e+000 0.000000e+000
 0.000000e+000 6.955884e-001 3.044116e-001 0.000000e+000 0.000000e+000
 0.000000e+000 0.000000e+000 7.495226e-001 2.504774e-001 0.000000e+000
 0.000000e+000 0.000000e+000 0.000000e+000 7.736607e-001 2.263394e-001
 0.000000e+000 0.000000e+000 0.000000e+000 0.000000e+000 0.000000e+000
<ENDHMM>
~h "l"
<BEGINHMM>
<NUMSTATES> 5
<STATE> 2
<MEAN> 25
 1.049349e+001 5.035555e-003 8.289273e+000 -8.321538e+000 -1.145943e+001 -3.743336e+000 -4.325395e+000 4.991652e+000 3.201737e+000 -4.033184e+000 -2.544523e+000 7.666880e-001 -8.594845e-002 7.625715e-001 9.270567e-002 5.947227e-001 -2.597238e-001 2.287324e-001 2.535120e-001 -1.017297e-001 5.936847e-002 -1.814157e-002 -8.833970e-002 -3.307463e-001 -5.974990e-001
<VARIANCE> 25
 8.117191e+000 3.741187e+001 2.746318e+001 4.118032e+001 4.887107e+001 4.778207e+001 2.875525e+001 3.301894e+001 4.302019e+001 4.324844e+001 2.183912e+001 3.894273e+001 2.532664e-001 8.974855e-001 8.713723e-001 1.403027e+000 2.967952e+000 2.410634e+000 1.536582e+000 2.064525e+000 2.571002e+000 2.461516e+000 1.905908e+000 1.758169e+000 3.933558e-001
<GCONST> 9.154283e+001
<STATE> 3
<MEAN> 25
 8.021249e+000 4.208563e-001 8.611985e+000 -3.514630e+000 -6.981387e+000 2.023941e+000 2.506019e-001 2.015492e+000 -6.075056e-001 -3.732536e+000 -4.080141e+000 6.421854e-001 -4.870960e-001 -7.336858e-001 -5.989242e-001 2.170120e-001 1.647268e+000 1.019512e-002 -4.528035e-002 -4.675941e-001 -8.990074e-001 1.116790e+000 6.439144e-001 6.794903e-001 -3.366587e-002
<VARIANCE> 25
 2.646230e+001 5.351876e+001 3.519997e+001 4.081561e+001 6.910091e+001 4.383118e+001 3.550909e+001 4.486911e+001 6.642010e+001 5.617957e+001 3.692695e+001 3.850126e+001 8.122473e-001 3.821897e+000 2.472695e+000 4.548147e+000 7.029881e+000 3.845598e+000 4.791068e+000 3.155900e+000 6.301232e+000 6.259552e+000 4.547361e+000 3.221172e+000 2.124540e+000
<GCONST> 1.080251e+002
<STATE> 4
<MEAN> 25
 -3.501365e-001 5.113406e+000 -4.241225e+000 2.796214e+000 -7.290343e+000 1.984776e+000 1.974018e+000 -2.051086e+000 3.368094e+000 -3.054153e+000 1.036881e+000 3.969387e-001 -5.829934e-001 -2.011205e-001 -6.597583e-001 2.181496e-001 3.831129e-001 -1.225211e-001 1.107930e-001 -3.337415e-001 -1.926956e-001 1.323751e-001 1.064914e-001 1.191478e-001 -5.081955e-001
<VARIANCE> 25
 5.632439e+001 7.541383e+001 9.194003e+001 6.342780e+001 7.227970e+001 5.199588e+001 5.733641e+001 6.398455e+001 6.078836e+001 5.605415e+001 3.532911e+001 5.476208e+001 7.127442e-001 1.793864e+000 3.044574e+000 3.645166e+000 3.671411e+000 3.748427e+000 4.329336e+000 3.691284e+000 4.129867e+000 4.052416e+000 3.514047e+000 3.843743e+000 6.132320e-001
<GCONST> 1.080904e+002
<TRANSP> 5
 0.000000e+000 1.000000e+000 0.000000e+000 0.000000e+000 0.000000e+000
 0.000000e+000 8.787200e-001 1.212799e-001 0.000000e+000 0.000000e+000
 0.000000e+000 0.000000e+000 6.228557e-001 3.771443e-001 0.000000e+000
 0.000000e+000 0.000000e+000 0.000000e+000 8.560219e-001 1.439781e-001
 0.000000e+000 0.000000e+000 0.000000e+000 0.000000e+000 0.000000e+000
<ENDHMM>
~h "m"
<BEGINHMM>
<NUMSTATES> 5
<STATE> 2
<MEAN> 25
 6.343800e+000 1.093256e+001 3.410947e-002 6.245899e+000 7.612751e+000 4.948930e+000 -1.080670e+000 3.941187e-001 1.646971e+000 -3.071249e+000 -2.588287e+000 -3.478756e+000 9.437449e-001 6.133764e-001 1.320801e+000 7.375758e-001 1.502622e+000 1.811288e+000 -1.810984e+000 1.702280e-001 1.254372e+000 -8.813049e-001 -1.535168e-001 -6.463736e-001 6.313772e-001
<VARIANCE> 25
 5.366359e+001 5.584253e+001 7.331256e+001 9.294314e+001 9.110341e+001 4.908398e+001 6.973581e+001 4.175447e+001 7.979626e+001 8.600394e+001 2.805147e+001 3.443631e+001 3.975578e+000 5.016244e+000 8.915351e+000 9.358003e+000 9.667610e+000 4.286543e+000 9.003957e+000 4.872987e+000 5.708896e+000 4.980392e+000 2.251335e+000 3.077599e+000 4.934109e+000
<GCONST> 1.166699e+002
<STATE> 3
<MEAN> 25
 8.994480e+000 7.938597e+000 1.522802e+000 2.543424e+000 8.668932e+000 7.644915e+000 -4.630053e+000 1.571459e+000 1.708807e+000 -3.065846e+000 -3.188807e+000 -5.569466e+000 -3.772641e-001 -6.415343e-002 7.817446e-002 4.805983e-001 -5.538581e-002 -1.313577e-003 2.657543e-001 -1.918161e-001 -3.040748e-002 4.853984e-002 -1.431233e-001 -4.344106e-002 -3.348354e-001
<VARIANCE> 25
 2.505136e+001 3.096231e+001 3.416907e+001 3.448481e+001 5.013949e+001 3.700121e+001 2.757594e+001 4.044287e+001 6.634101e+001 4.971986e+001 2.578651e+001 2.129091e+001 4.047415e-001 1.392819e+000 1.041950e+000 2.101413e+000 1.915707e+000 1.969115e+000 1.773612e+000 1.888919e+000 2.453223e+000 2.090766e+000 1.695828e+000 1.361030e+000 6.538691e-001
<GCONST> 9.341812e+001
<STATE> 4
<MEAN> 25
 2.096817e+000 2.417677e+000 1.161064e+000 2.555736e+000 3.142284e+000 2.103088e+000 5.997129e-001 1.432193e+000 -5.272725e-001 -5.765210e-001 -4.526179e+000 -2.759380e+000 -3.943859e-001 -1.696522e+000 2.627553e-001 -9.622662e-001 -3.241344e-001 -7.699295e-001 1.250986e-001 5.678990e-001 -1.369057e-001 8.734022e-001 1.699544e-001 6.402509e-001 8.203676e-001
<VARIANCE> 25
 7.686408e+001 6.331579e+001 7.780039e+001 5.222507e+001 8.352555e+001 7.332828e+001 5.460755e+001 4.814700e+001 6.813219e+001 7.216467e+001 3.997019e+001 3.895130e+001 1.020148e+000 6.475659e+000 4.115542e+000 3.832097e+000 2.785241e+000 4.870796e+000 4.138167e+000 2.246106e+000 6.309200e+000 6.643271e+000 4.595302e+000 4.753768e+000 2.133592e+000
<GCONST> 1.122528e+002
<TRANSP> 5
 0.000000e+000 1.000000e+000 0.000000e+000 0.000000e+000 0.000000e+000
 0.000000e+000 4.883900e-001 5.116100e-001 0.000000e+000 0.000000e+000
 0.000000e+000 0.000000e+000 7.930937e-001 2.069064e-001 0.000000e+000
 0.000000e+000 0.000000e+000 0.000000e+000 7.695128e-001 2.304873e-001
 0.000000e+000 0.000000e+000 0.000000e+000 0.000000e+000 0.000000e+000
<ENDHMM>
~h "n"
<BEGINHMM>
<NUMSTATES> 5
<STATE> 2
<MEAN> 25
 1.072511e+001 3.082499e+000 -1.819141e+000 4.489152e+000 9.360790e+000 -1.036895e+000 -6.360261e+000 -2.372863e-001 2.403556e+000 1.512537e+000 -2.491364e+000 -2.290884e-002 -3.895126e-002 2.498322e-001 -1.995704e-001 3.868347e-001 7.285357e-002 2.549398e-001 2.474786e-001 8.548681e-002 1.428297e-001 -6.965317e-002 9.177785e-002 -1.259647e-001 -2.932088e-001
<VARIANCE> 25
 1.490302e+001 1.303296e+002 1.138387e+002 1.263487e+002 4.806831e+001 7.084366e+001 5.683600e+001 8.094253e+001 7.880656e+001 1.100173e+002 5.654285e+001 4.061465e+001 4.757180e-001 3.510141e+000 2.789326e+000 3.599962e+000 2.601397e+000 4.051180e+000 4.287324e+000 4.476820e+000 6.986145e+000 4.583125e+000 3.136251e+000 3.538059e+000 1.602692e+000
<GCONST> 1.109398e+002
<STATE> 3
<MEAN> 25
 1.031485e+001 2.166534e-001 4.207799e-001 6.056048e-001 3.113337e+000 4.606655e+000 -6.027635e+000 -1.950916e+000 2.819891e-001 -7.351101e+000 3.566730e-001 1.783483e+000 -1.295899e-001 7.911102e-001 -2.331628e-001 7.228099e-001 -2.147786e-002 2.366721e-001 2.407697e-001 -3.501868e-003 2.801561e-001 -5.320518e-001 2.010295e-002 -2.359683e-001 -6.850733e-001
<VARIANCE> 25
 1.209770e+001 6.607034e+001 4.075950e+001 8.760251e+001 6.274706e+001 3.814406e+001 7.032036e+001 8.186295e+001 4.686319e+001 5.700519e+001 3.141023e+001 3.189932e+001 2.032167e-001 9.565185e-001 6.448818e-001 1.895399e+000 1.598608e+000 1.761150e+000 1.890252e+000 2.061729e+000 2.787034e+000 2.579057e+000 1.757164e+000 1.392559e+000 3.812007e-001
<GCONST> 9.491082e+001
<STATE> 4
<MEAN> 25
 8.374577e+000 3.240835e+000 -5.324775e-001 3.157590e+000 5.517712e+000 1.115800e+000 -1.586300e+000 2.085767e+000 -2.239011e+000 -1.706356e+000 1.321023e+000 -1.631396e+000 -5.334355e-001 3.545421e-001 8.943006e-002 5.341405e-001 5.613476e-002 -1.784040e-001 3.916978e-001 -1.703825e-001 -2.279550e-001 4.444287e-001 -1.576777e-001 -2.853455e-001 -6.377273e-001
<VARIANCE> 25
 1.602966e+001 1.000663e+002 5.416359e+001 9.607616e+001 5.383655e+001 9.614135e+001 6.899546e+001 4.890903e+001 7.340847e+001 5.262761e+001 3.164133e+001 3.274832e+001 4.165974e-001 1.246081e+000 1.874549e+000 2.171235e+000 3.053507e+000 3.247756e+000 3.314652e+000 2.776171e+000 4.137057e+000 3.622122e+000 2.243088e+000 1.873863e+000 4.692459e-001
<GCONST> 1.024107e+002
<TRANSP> 5
 0.000000e+000 1.000000e+000 0.000000e+000 0.000000e+000 0.000000e+000
 0.000000e+000 7.209963e-001 2.790037e-001 0.000000e+000 0.000000e+000
 0.000000e+000 0.000000e+000 7.906171e-001 2.093829e-001 0.000000e+000
 0.000000e+000 0.000000e+000 0.000000e+000 8.073668e-001 1.926332e-001
 0.000000e+000 0.000000e+000 0.000000e+000 0.000000e+000 0.000000e+000
<ENDHMM>
~h "p"
<BEGINHMM>
<NUMSTATES> 5
<STATE> 2
<MEAN> 25
 -2.579309e-001 3.044431e+000 -4.685734e+000 1.005719e+001 -5.292483e+000 -5.899954e-001 -9.065237e-001 -7.815330e+000 6.014425e+000 -3.005683e+000 -3.529284e+000 2.297675e+000 -5.336010e-002 4.986154e-001 -5.472528e-001 2.664367e-002 -4.117159e-001 -3.542228e-001 8.179025e-001 -1.592806e-001 1.028614e-001 4.030006e-001 -2.231815e-001 3.614005e-001 -4.241436e-001
<VARIANCE> 25
 9.680466e+001 6.164222e+001 6.633907e+001 2.026641e+002 6.430442e+001 1.084730e+002 6.758002e+001 9.494156e+001 8.007376e+001 4.683238e+001 7.779906e+001 4.023532e+001 3.672911e+000 4.602751e+000 3.775592e+000 9.879605e+000 4.078520e+000 6.174933e+000 4.524209e+000 6.538944e+000 6.346564e+000 5.659584e+000 4.806363e+000 3.856177e+000 2.306143e+000
<GCONST> 1.184390e+002
<STATE> 3
<MEAN> 25
 2.895686e+000 1.286014e+001 -7.482430e+000 3.525053e+000 -1.271124e+000 -8.485747e+000 6.371037e+000 -1.140690e+000 -6.444775e+000 9.456645e-001 -1.741541e+000 1.802309e+000 -3.659763e-001 8.312005e-001 -3.088537e-001 -2.931757e-002 1.603264e-001 -1.464604e+000 6.442540e-001 6.629361e-001 -1.293241e+000 6.366544e-001 1.978676e-001 -5.080418e-001 -5.941162e-001
<VARIANCE> 25
 4.214553e+001 6.302415e+001 1.781642e+002 1.402407e+002 7.944791e+001 1.052424e+002 8.773080e+001 6.085084e+001 1.323185e+002 1.592156e+002 1.228907e+002 9.301260e+001 2.552779e+000 4.115684e+000 4.287437e+000 3.811863e+000 7.113527e+000 5.102258e+000 4.971795e+000 4.958861e+000 9.102082e+000 7.258617e+000 5.206250e+000 4.850413e+000 1.343499e+000
<GCONST> 1.205285e+002
<STATE> 4
<MEAN> 25
 -1.430031e+000 6.778529e+000 -8.980724e+000 1.001437e+000 -4.145513e+000 -3.443187e+000 4.204356e+000 1.027284e+000 5.454085e+000 -8.864307e-001 -2.985777e+000 2.777842e+000 -8.390388e-002 -1.003265e+000 1.063136e+000 -7.803139e-001 3.611148e-001 4.638646e-001 -9.733456e-001 4.273613e-001 2.703896e-001 2.673213e-002 -5.622658e-002 -6.999335e-002 8.108225e-001
<VARIANCE> 25
 7.392069e+001 9.965305e+001 1.396600e+002 9.053565e+001 6.253646e+001 8.856497e+001 6.221271e+001 1.024945e+002 1.370126e+002 4.700840e+001 3.903845e+001 4.329775e+001 3.489739e+000 7.863632e+000 8.310603e+000 7.981689e+000 7.900847e+000 7.225530e+000 7.035891e+000 6.707431e+000 1.402843e+001 6.690231e+000 5.965714e+000 3.359237e+000 3.930230e+000
<GCONST> 1.221932e+002
<TRANSP> 5
 0.000000e+000 1.000000e+000 0.000000e+000 0.000000e+000 0.000000e+000
 0.000000e+000 7.091122e-001 2.908878e-001 0.000000e+000 0.000000e+000
 0.000000e+000 0.000000e+000 6.483473e-001 3.516527e-001 0.000000e+000
 0.000000e+000 0.000000e+000 0.000000e+000 8.669821e-001 1.330179e-001
 0.000000e+000 0.000000e+000 0.000000e+000 0.000000e+000 0.000000e+000
<ENDHMM>
~h "r"
<BEGINHMM>
<NUMSTATES> 5
<STATE> 2
<MEAN> 25
 -1.243394e+000 1.053012e+000 -2.845587e+000 -3.120666e+000 -2.071562e-001 2.991331e+000 1.106839e+000 1.162185e+000 8.299668e-001 -8.171012e-001 7.326710e-001 1.254902e+000 3.317184e-001 -6.653332e-001 5.781878e-001 -1.470460e+000 4.163930e-001 2.765344e-001 -5.024977e-001 -5.085634e-002 -5.665294e-001 -9.402860e-002 -3.207714e-001 2.936191e-001 1.092091e+000
<VARIANCE> 25
 9.785024e+001 1.529590e+002 1.075971e+002 1.584745e+002 9.837862e+001 8.429458e+001 6.961983e+001 8.686017e+001 9.653733e+001 7.312370e+001 3.973563e+001 4.100834e+001 5.284471e+000 1.084201e+001 9.576584e+000 9.668561e+000 6.988230e+000 7.465214e+000 5.697913e+000 7.487112e+000 1.000829e+001 6.841256e+000 3.577781e+000 4.583412e+000 4.880402e+000
<GCONST> 1.241861e+002
<STATE> 3
<MEAN> 25
 1.162315e+001 2.249444e+000 -3.662598e+000 -1.716960e+001 2.816197e+000 1.044884e+001 -6.635432e+000 -2.428212e+000 -2.972588e-001 -6.993823e+000 3.900551e+000 9.109057e+000 -1.102498e-001 -1.903395e-002 -3.560260e-001 5.131270e-001 -4.990449e-003 -1.263533e-001 1.999336e-001 -2.063571e-001 8.852693e-002 1.429624e-001 3.293378e-002 1.787863e-001 -2.719992e-001
<VARIANCE> 25
 2.257533e+001 1.244176e+002 4.454926e+001 8.563702e+001 6.257673e+001 4.564616e+001 5.312742e+001 5.274401e+001 6.218417e+001 6.435205e+001 4.828490e+001 3.729123e+001 3.805616e-001 2.761939e+000 1.546582e+000 3.860741e+000 4.014872e+000 3.526829e+000 3.571961e+000 3.865583e+000 4.432964e+000 3.611549e+000 2.840379e+000 3.262691e+000 1.130123e+000
<GCONST> 1.060543e+002
<STATE> 4
<MEAN> 25
 4.519969e+000 -7.409927e+000 2.573565e+000 -5.874963e+000 1.129751e+001 1.007766e+000 -9.060390e+000 -2.731591e+000 -7.223720e+000 1.596890e+000 -5.150719e-003 2.968135e+000 2.838640e-001 4.961674e-001 2.581097e-001 1.039982e+000 7.813854e-001 -9.826928e-001 -5.825179e-001 5.461624e-002 -8.969285e-001 5.110742e-001 -2.660612e-001 -7.445865e-001 -6.871428e-002
<VARIANCE> 25
 9.377997e+001 1.217381e+002 6.431535e+001 9.527359e+001 7.743613e+001 1.206436e+002 6.352981e+001 4.614210e+001 8.189307e+001 1.178723e+002 4.266602e+001 3.822760e+001 3.179020e+000 6.352849e+000 2.363389e+000 2.262647e+000 3.903967e+000 5.884842e+000 3.131878e+000 2.811911e+000 3.536708e+000 5.953389e+000 4.768682e+000 3.767550e+000 9.413075e-001
<GCONST> 1.135750e+002
<TRANSP> 5
 0.000000e+000 1.000000e+000 0.000000e+000 0.000000e+000 0.000000e+000
 0.000000e+000 7.987666e-001 2.012334e-001 0.000000e+000 0.000000e+000
 0.000000e+000 0.000000e+000 8.742822e-001 1.257178e-001 0.000000e+000
 0.000000e+000 0.000000e+000 0.000000e+000 7.824614e-001 2.175386e-001
 0.000000e+000 0.000000e+000 0.000000e+000 0.000000e+000 0.000000e+000
<ENDHMM>
~h "s"
<BEGINHMM>
<NUMSTATES> 5
<STATE> 2
<MEAN> 25
 -6.507879e+000 -8.725095e+000 1.662493e+001 -6.270964e+000 1.274168e+000 4.944548e+000 1.853321e+000 -4.298685e+000 -6.532246e+000 6.452967e+000 -1.639184e+000 -2.503217e-001 -2.597155e+000 -2.812467e+000 4.352175e+000 -1.079794e+000 6.675728e-002 3.705665e-001 1.872092e+000 3.642419e-001 -3.399512e-001 1.228411e+000 3.746980e-001 7.859157e-002 1.431351e+000
<VARIANCE> 25
 6.078159e+001 6.182850e+001 1.311027e+002 8.630477e+001 5.361285e+001 6.175849e+001 7.014080e+001 7.024130e+001 8.042990e+001 5.045660e+001 5.018776e+001 2.817381e+001 1.798705e+000 3.784148e+000 5.120541e+000 4.936457e+000 3.909747e+000 3.853835e+000 4.685723e+000 5.161956e+000 4.398309e+000 5.452065e+000 4.016282e+000 2.908084e+000 1.628864e+000
<GCONST> 1.128517e+002
<STATE> 3
<MEAN> 25
 -1.686749e+001 -1.730970e+001 2.859004e+001 -9.741870e+000 9.593379e-001 6.486998e+000 1.122392e+001 1.332522e+000 -3.024200e+000 7.872187e+000 2.346468e+000 6.931261e-001 -3.147011e-001 -3.751998e-001 -3.259906e-002 8.567479e-002 -9.771999e-003 -2.912637e-002 3.529612e-001 4.311493e-001 2.640404e-001 1.541496e-002 3.425257e-001 1.681245e-001 1.144244e-002
<VARIANCE> 25
 1.631225e+001 1.746252e+001 1.840569e+001 3.576308e+001 2.284757e+001 4.528777e+001 3.571050e+001 4.363126e+001 5.814089e+001 3.003605e+001 2.779631e+001 2.435591e+001 6.474843e-001 9.585776e-001 1.293484e+000 1.063265e+000 9.077902e-001 1.211672e+000 1.722032e+000 1.755798e+000 1.860399e+000 1.650688e+000 1.551205e+000 1.203857e+000 3.568039e-001
<GCONST> 8.812390e+001
<STATE> 4
<MEAN> 25
 -1.476102e+001 -1.368107e+001 1.922443e+001 -5.708029e+000 -2.772906e+000 5.080400e+000 7.321061e+000 3.123807e+000 -5.091759e+000 5.183997e+000 2.669917e+000 2.143192e-003 1.084521e+000 1.322482e+000 -1.541217e+000 7.291815e-001 -5.195320e-001 2.288743e-002 -1.161092e+000 -5.568664e-001 -3.529155e-001 -5.316671e-001 -4.025946e-001 -5.061558e-001 -9.872685e-001
<VARIANCE> 25
 2.759450e+001 5.958171e+001 6.892167e+001 4.591498e+001 6.753194e+001 6.341320e+001 4.648942e+001 6.683205e+001 9.152240e+001 4.508012e+001 4.166732e+001 4.298366e+001 4.375442e+000 2.654833e+000 3.704865e+000 3.425324e+000 4.112512e+000 3.267230e+000 6.144394e+000 4.301061e+000 4.108017e+000 3.244866e+000 2.971841e+000 4.128081e+000 2.056762e+000
<GCONST> 1.103147e+002
<TRANSP> 5
 0.000000e+000 1.000000e+000 0.000000e+000 0.000000e+000 0.000000e+000
 0.000000e+000 7.657945e-001 2.342055e-001 0.000000e+000 0.000000e+000
 0.000000e+000 0.000000e+000 9.208859e-001 7.911420e-002 0.000000e+000
 0.000000e+000 0.000000e+000 0.000000e+000 8.509015e-001 1.490985e-001
 0.000000e+000 0.000000e+000 0.000000e+000 0.000000e+000 0.000000e+000
<ENDHMM>
~h "t"
<BEGINHMM>
<NUMSTATES> 5
<STATE> 2
<MEAN> 25
 -1.502651e-001 4.467129e+000 -1.898126e+000 5.806708e+000 -2.665692e+000 -2.561697e+000 8.513916e-001 -1.612124e+000 1.583656e-001 1.567484e-001 -1.590137e+000 -1.743025e+000 -1.156820e+000 -3.428338e+000 1.395619e+000 -3.004842e+000 6.074123e-001 -1.086051e+000 5.654104e-001 1.537575e+000 -2.174237e+000 1.699101e+000 -8.568744e-001 2.485351e-001 1.909242e+000
<VARIANCE> 25
 6.332439e+001 9.050591e+001 1.608507e+002 1.074779e+002 8.824687e+001 7.204787e+001 8.703781e+001 1.200707e+002 7.542004e+001 4.814087e+001 4.840944e+001 5.982817e+001 2.773525e+000 1.189095e+001 1.371938e+001 1.445898e+001 7.085889e+000 9.238685e+000 6.896388e+000 9.449158e+000 1.109119e+001 6.175925e+000 5.774327e+000 4.763376e+000 5.795114e+000
<GCONST> 1.249813e+002
<STATE> 3
<MEAN> 25
 -6.790553e+000 -1.486467e+001 1.223221e+001 -7.089833e+000 1.495852e+000 -4.866606e+000 1.339782e+000 2.182716e+000 -9.652753e+000 8.349249e+000 -4.115346e+000 -5.448280e-002 -9.010166e-001 -3.037296e+000 2.175618e+000 -2.473186e+000 1.104305e+000 -4.046347e-001 -4.009547e-001 4.873247e-001 -1.207920e+000 1.221682e+000 -2.426661e-001 3.418393e-001 2.165480e+000
<VARIANCE> 25
 4.181055e+001 4.457393e+001 1.116197e+002 6.254177e+001 6.048799e+001 4.303528e+001 6.267267e+001 3.125053e+001 4.951710e+001 3.891605e+001 2.856745e+001 2.598210e+001 3.058309e+000 8.460292e+000 1.262424e+001 9.269876e+000 5.311788e+000 4.677753e+000 7.453371e+000 5.068021e+000 6.648118e+000 3.984215e+000 4.473229e+000 2.845168e+000 4.885512e+000
<GCONST> 1.142127e+002
<STATE> 4
<MEAN> 25
 -5.440554e+000 -1.112437e+001 8.431355e+000 -3.100256e+000 1.753698e+000 -6.098924e-001 -3.013182e+000 -1.358925e+000 -7.076219e+000 5.609988e+000 4.830583e-001 -1.833313e+000 1.236757e+000 1.891726e+000 -1.640260e+000 1.725380e+000 -6.413950e-002 9.149609e-001 -6.613860e-001 -1.005623e+000 7.992107e-001 -1.246244e+000 8.144369e-001 -1.496239e-001 -9.143710e-001
<VARIANCE> 25
 3.149237e+001 8.417528e+001 9.227225e+001 6.153287e+001 7.609081e+001 5.470644e+001 6.118367e+001 4.745651e+001 5.833759e+001 5.094099e+001 3.391627e+001 3.511658e+001 3.853120e+000 4.343979e+000 3.745618e+000 4.242383e+000 5.354676e+000 4.887549e+000 5.995027e+000 5.076517e+000 5.104111e+000 4.293025e+000 3.568490e+000 3.141649e+000 2.072620e+000
<GCONST> 1.123573e+002
<TRANSP> 5
 0.000000e+000 1.000000e+000 0.000000e+000 0.000000e+000 0.000000e+000
 0.000000e+000 6.112391e-001 3.887609e-001 0.000000e+000 0.000000e+000
 0.000000e+000 0.000000e+000 6.581975e-001 3.418025e-001 0.000000e+000
 0.000000e+000 0.000000e+000 0.000000e+000 7.803453e-001 2.196548e-001
 0.000000e+000 0.000000e+000 0.000000e+000 0.000000e+000 0.000000e+000
<ENDHMM>
~h "v"
<BEGINHMM>
<NUMSTATES> 5
<STATE> 2
<MEAN> 25
 2.308295e+000 -3.925669e+000 5.967610e+000 -2.445572e+000 9.919847e+000 -2.832087e-001 -1.072239e+001 -3.933689e+000 -3.302085e+000 6.579005e+000 -1.776652e+000 1.497453e+000 -5.603690e-001 -5.590546e-001 1.627260e-001 -1.037877e+000 1.782919e-001 -5.369943e-001 -8.188150e-003 -2.839385e-001 -5.126758e-001 1.120995e+000 -3.029822e-001 3.087043e-001 1.619636e-001
<VARIANCE> 25
 4.201391e+001 4.549780e+001 5.466650e+001 6.876385e+001 6.977989e+001 6.508955e+001 6.281131e+001 4.582717e+001 4.292189e+001 7.961049e+001 5.265612e+001 3.936534e+001 1.685805e+000 2.638686e+000 2.712732e+000 3.367533e+000 4.177811e+000 3.103280e+000 3.535389e+000 3.489935e+000 5.469028e+000 3.756130e+000 3.380369e+000 3.649834e+000 1.614224e+000
<GCONST> 1.086875e+002
<STATE> 3
<MEAN> 25
 9.464129e+000 -8.302258e+000 1.249154e-001 -6.753589e+000 3.219247e+000 -4.113982e+000 -4.436811e+000 -3.915962e+000 -5.978579e+000 5.282482e+000 1.335097e+000 5.686921e+000 2.058140e-002 4.127164e-001 -8.106669e-002 2.889289e-002 -1.845096e-002 2.443376e-001 1.313616e-001 4.493386e-001 -2.684239e-001 -3.763460e-001 -1.205682e-001 -1.476921e-001 -3.351867e-001
<VARIANCE> 25
 1.691200e+001 3.071986e+001 3.800909e+001 2.461422e+001 4.350721e+001 3.785724e+001 4.053074e+001 7.739820e+001 4.565530e+001 7.047243e+001 3.678959e+001 3.684520e+001 2.211794e-001 9.772937e-001 8.955524e-001 1.452525e+000 1.250264e+000 2.393581e+000 1.687714e+000 2.374271e+000 2.622798e+000 2.269178e+000 1.728118e+000 1.884115e+000 5.564993e-001
<GCONST> 9.338058e+001
<STATE> 4
<MEAN> 25
 -1.148747e+000 1.117362e+000 -2.637268e+000 2.893813e+000 1.363756e+000 2.692408e+000 -7.704195e-001 -3.483897e+000 -3.292884e+000 1.783848e+000 6.447763e-001 -1.615711e+000 -2.325675e-001 5.539192e-001 -7.186003e-001 9.842877e-001 -7.826924e-001 2.448333e-001 4.161906e-001 -3.686969e-001 1.108396e+000 -3.091593e-001 2.334013e-001 -1.813307e-001 -9.162538e-001
<VARIANCE> 25
 8.244092e+001 5.459492e+001 2.733432e+002 1.210049e+002 5.979953e+001 1.359801e+002 7.320619e+001 9.544248e+001 7.742449e+001 8.005475e+001 3.822703e+001 4.654314e+001 1.116694e+000 2.784891e+000 5.056727e+000 4.769845e+000 3.975027e+000 5.374681e+000 4.881669e+000 6.175406e+000 5.167593e+000 5.010244e+000 3.805522e+000 4.703127e+000 1.087282e+000
<GCONST> 1.158444e+002
<TRANSP> 5
 0.000000e+000 1.000000e+000 0.000000e+000 0.000000e+000 0.000000e+000
 0.000000e+000 6.498079e-001 3.501921e-001 0.000000e+000 0.000000e+000
 0.000000e+000 0.000000e+000 8.873587e-001 1.126412e-001 0.000000e+000
 0.000000e+000 0.000000e+000 0.000000e+000 8.033275e-001 1.966725e-001
 0.000000e+000 0.000000e+000 0.000000e+000 0.000000e+000 0.000000e+000
<ENDHMM>
~h "w"
<BEGINHMM>
<NUMSTATES> 5
<STATE> 2
<MEAN> 25
 7.767570e+000 6.533412e+000 1.143807e+000 5.036541e-001 2.071418e-002 8.134253e-001 -4.772965e+000 3.690979e-001 -1.198991e+000 -4.883151e+000 -9.484395e-002 -2.963002e+000 1.570390e+000 2.106380e+000 1.721376e-001 2.314960e-001 -2.264114e+000 -9.499425e-001 -3.489105e-001 2.151585e-001 1.985115e+000 -5.890250e-001 2.565179e-001 -6.122653e-001 7.017654e-002
<VARIANCE> 25
 4.038976e+001 8.428475e+001 3.740031e+001 1.089321e+002 1.114584e+002 4.702112e+001 4.550405e+001 6.252723e+001 1.191259e+002 5.134002e+001 3.643793e+001 6.359698e+001 3.759521e+000 5.202899e+000 2.851180e+000 5.720322e+000 3.166759e+000 3.668851e+000 5.268167e+000 5.743262e+000 7.032891e+000 5.784820e+000 4.796745e+000 6.687244e+000 2.918200e+000
<GCONST> 1.152491e+002
<STATE> 3
<MEAN> 25
 1.251867e+001 9.748053e+000 1.880402e+000 -2.913726e+000 -7.585857e+000 -6.226512e+000 -5.935417e+000 4.212637e+000 4.194148e+000 -3.369843e+000 2.622745e+000 -2.844101e+000 1.453870e-001 -1.523614e+000 -3.718624e-001 -1.149568e+000 -1.250824e-001 -2.550000e-001 6.736307e-001 8.406149e-001 -1.653055e-001 5.800110e-002 1.803801e-001 2.076254e-001 1.033645e+000
<VARIANCE> 25
 6.613913e+000 8.844308e+001 4.673134e+001 6.484435e+001 2.955542e+001 4.809720e+001 2.789276e+001 6.115743e+001 7.337633e+001 3.884491e+001 2.970026e+001 3.820028e+001 1.885594e-001 3.209605e+000 1.182689e+000 2.724260e+000 2.737325e+000 2.729316e+000 3.428743e+000 6.225615e+000 4.880267e+000 3.156560e+000 3.127336e+000 3.167905e+000 1.072617e+000
<GCONST> 1.008631e+002
<STATE> 4
<MEAN> 25
 1.219648e+001 -1.044616e+001 -2.267378e+000 -1.116620e+001 -5.274331e+000 -3.817597e+000 3.776458e+000 1.035591e+001 1.638361e+000 -5.237078e+000 1.810564e+000 4.133653e+000 -1.564446e-001 -4.559477e-001 -3.655300e-002 -5.026069e-002 6.539884e-001 5.723625e-001 -1.153593e-001 -7.407494e-001 -6.034274e-001 1.718387e-001 -3.113300e-002 4.280704e-001 1.321325e-001
<VARIANCE> 25
 6.466169e+000 2.854405e+001 2.487326e+001 2.141000e+001 4.212702e+001 5.077218e+001 9.434082e+001 1.281315e+002 7.258882e+001 5.528510e+001 2.500456e+001 2.848325e+001 1.709952e-001 1.670316e+000 4.424469e-001 1.427033e+000 1.647057e+000 1.897174e+000 3.570760e+000 2.581063e+000 2.937410e+000 2.775176e+000 2.015276e+000 1.519883e+000 3.855130e-001
<GCONST> 9.328815e+001
<TRANSP> 5
 0.000000e+000 1.000000e+000 0.000000e+000 0.000000e+000 0.000000e+000
 0.000000e+000 7.161750e-001 2.838250e-001 0.000000e+000 0.000000e+000
 0.000000e+000 0.000000e+000 8.537892e-001 1.462108e-001 0.000000e+000
 0.000000e+000 0.000000e+000 0.000000e+000 8.912624e-001 1.087376e-001
 0.000000e+000 0.000000e+000 0.000000e+000 0.000000e+000 0.000000e+000
<ENDHMM>
~h "y"
<BEGINHMM>
<NUMSTATES> 5
<STATE> 2
<MEAN> 25
 4.695236e+000 -4.494102e+000 1.821725e+001 1.058323e+001 1.204821e+001 -4.618368e+000 -1.609274e+001 2.645050e+000 -1.010984e+000 5.568010e+000 -3.296874e-001 -5.715452e+000 7.528330e-001 -8.443478e-001 -9.153778e-002 -5.732836e-001 7.916541e-001 -5.320802e-001 -1.382515e+000 -3.934614e-001 -5.477073e-001 2.038231e-001 4.285241e-001 -7.482515e-002 1.180395e+000
<VARIANCE> 25
 1.727816e+001 4.411403e+001 4.521115e+001 6.287831e+001 3.776654e+001 4.361226e+001 6.835820e+001 5.064964e+001 3.756114e+001 2.675341e+001 2.890828e+001 2.237605e+001 1.418285e+000 5.019567e+000 5.525137e+000 5.113528e+000 3.718959e+000 4.059009e+000 6.233562e+000 4.404277e+000 3.589914e+000 3.788054e+000 2.838326e+000 1.837519e+000 1.549249e+000
<GCONST> 1.055072e+002
<STATE> 3
<MEAN> 25
 1.082985e+001 -2.851691e+000 5.353022e+000 2.100361e+000 1.194544e+001 -4.763843e-001 -1.104623e+001 -1.995389e+000 -6.746964e+000 2.431973e+000 2.565909e+000 -7.156768e-001 1.864076e-001 -1.475507e-001 -1.164849e+000 -1.097242e+000 9.490203e-002 -3.450159e-001 5.291302e-001 -6.284829e-001 -7.325037e-001 3.001582e-001 2.761199e-002 6.747426e-001 2.446313e-001
<VARIANCE> 25
 9.398039e+000 4.933117e+001 1.042090e+002 4.147849e+001 9.914421e+001 3.761585e+001 6.837802e+001 4.078219e+001 1.465494e+002 8.771549e+001 2.337264e+001 5.040498e+001 7.844222e-001 1.815474e+000 3.676070e+000 5.226948e+000 3.705980e+000 2.887156e+000 6.079782e+000 3.885982e+000 5.156547e+000 2.965213e+000 3.557527e+000 3.875598e+000 1.066821e+000
<GCONST> 1.074054e+002
<STATE> 4
<MEAN> 25
 6.562118e+000 -4.457760e+000 7.005349e+000 -4.095330e+000 1.138328e+001 -3.352364e+000 -9.259173e+000 1.447944e+000 -5.936447e+000 6.572870e+000 5.004249e-001 -2.324073e+000 -3.030071e-001 -9.589499e-002 4.559094e-002 -1.318672e+000 1.311585e-001 4.461532e-001 1.275739e+000 7.310363e-001 -8.566809e-001 4.821834e-001 -3.718454e-002 -2.559686e-001 1.078652e-001
<VARIANCE> 25
 6.386651e+001 4.071977e+001 7.034770e+001 1.442167e+002 9.720506e+001 1.985783e+001 1.379201e+002 1.400153e+002 7.513325e+001 5.924119e+001 4.752325e+001 4.752269e+001 3.160661e+000 2.259350e+000 1.281961e+001 1.416757e+001 3.883427e+000 3.237513e+000 9.860238e+000 7.906219e+000 1.003416e+001 6.562966e+000 2.821855e+000 4.470793e+000 1.621825e+000
<GCONST> 1.178538e+002
<TRANSP> 5
 0.000000e+000 1.000000e+000 0.000000e+000 0.000000e+000 0.000000e+000
 0.000000e+000 8.206621e-001 1.793379e-001 0.000000e+000 0.000000e+000
 0.000000e+000 0.000000e+000 5.256777e-001 4.743223e-001 0.000000e+000
 0.000000e+000 0.000000e+000 0.000000e+000 1.761018e-001 8.238981e-001
 0.000000e+000 0.000000e+000 0.000000e+000 0.000000e+000 0.000000e+000
<ENDHMM>
~h "z"
<BEGINHMM>
<NUMSTATES> 5
<STATE> 2
<MEAN> 25
 -3.848612e+000 -5.364472e+000 2.004448e+001 -3.689679e+000 4.592288e+000 4.385852e+000 6.327987e-001 -3.017315e+000 -6.899729e+000 6.290067e+000 -3.409205e+000 -2.162577e+000 -2.262847e+000 -2.085577e+000 4.682083e+000 -7.499295e-001 1.267779e-001 3.060708e-001 2.086909e+000 -1.956652e-002 -6.518086e-001 8.904258e-001 -2.976630e-001 -2.097097e-001 1.476724e+000
<VARIANCE> 25
 6.356662e+001 4.571230e+001 1.477575e+002 6.328214e+001 4.102684e+001 9.590627e+001 1.125837e+002 6.796999e+001 3.798333e+001 4.311913e+001 2.923259e+001 1.734186e+001 4.790445e+000 3.692710e+000 7.070069e+000 3.895011e+000 4.875330e+000 4.432586e+000 5.739732e+000 6.132147e+000 2.693706e+000 3.641053e+000 2.357926e+000 2.412013e+000 1.691218e+000
<GCONST> 1.112840e+002
<STATE> 3
<MEAN> 25
 -1.362904e+001 -1.571211e+001 3.197844e+001 -6.970033e+000 2.679401e+000 2.538139e+000 1.049826e+001 9.291468e-001 -7.535247e+000 7.507945e+000 1.575631e+000 -5.408205e-001 -3.573670e-001 -6.543303e-001 -2.004281e-001 2.577211e-001 -1.265764e-001 -4.477564e-002 2.687771e-001 4.208027e-001 1.552337e-001 -7.186112e-002 5.463876e-001 1.627724e-001 -4.369066e-002
<VARIANCE> 25
 1.096917e+001 2.773253e+001 1.508181e+001 3.441251e+001 1.763392e+001 5.037644e+001 5.016988e+001 4.512455e+001 2.262970e+001 2.746202e+001 3.693138e+001 2.134379e+001 7.577779e-001 7.682663e-001 1.358192e+000 9.510064e-001 1.095704e+000 1.338214e+000 2.506325e+000 1.469460e+000 1.614107e+000 1.552193e+000 1.395030e+000 1.762958e+000 2.678907e-001
<GCONST> 8.743517e+001
<STATE> 4
<MEAN> 25
 -1.092963e+001 -1.238237e+001 1.227561e+001 -1.762840e+000 -6.694113e+000 3.204985e+000 2.956872e+000 2.969666e+000 -5.275193e+000 2.302360e+000 4.693010e+000 -2.516229e+000 4.232211e-001 9.406214e-001 -1.252197e+000 6.078301e-001 -4.405602e-001 5.930605e-002 -7.040035e-001 -2.582750e-001 1.319090e-001 -5.493730e-001 -3.847858e-002 -2.946438e-001 -9.631009e-001
<VARIANCE> 25
 1.059042e+001 5.914497e+001 9.698050e+001 4.959298e+001 5.809935e+001 4.110263e+001 5.598649e+001 4.841492e+001 6.350243e+001 4.659164e+001 3.439954e+001 3.679802e+001 1.137376e+000 1.711690e+000 2.673779e+000 3.063618e+000 4.072457e+000 3.814353e+000 4.076828e+000 3.245031e+000 3.835800e+000 2.992223e+000 3.460608e+000 3.218757e+000 8.034371e-001
<GCONST> 1.044111e+002
<TRANSP> 5
 0.000000e+000 1.000000e+000 0.000000e+000 0.000000e+000 0.000000e+000
 0.000000e+000 8.009059e-001 1.990940e-001 0.000000e+000 0.000000e+000
 0.000000e+000 0.000000e+000 9.200340e-001 7.996602e-002 0.000000e+000
 0.000000e+000 0.000000e+000 0.000000e+000 9.135321e-001 8.646788e-002
 0.000000e+000 0.000000e+000 0.000000e+000 0.000000e+000 0.000000e+000
<ENDHMM>
~h "aa"
<BEGINHMM>
<NUMSTATES> 5
<STATE> 2
<MEAN> 25
 6.619080e+000 3.824205e+000 4.541134e+000 -2.100951e+000 -2.222698e+000 1.521694e+000 -1.892532e+000 5.559849e+000 3.273485e+000 -1.664640e+000 1.054204e+000 -9.324375e-001 2.052595e+000 -4.471554e-001 3.740059e-001 -1.123373e+000 -1.168424e+000 -1.011200e+000 -1.398752e+000 5.359131e-001 9.751790e-001 -7.302235e-001 1.764799e-001 4.516338e-001 2.013312e+000
<VARIANCE> 25
 6.955709e+001 9.753069e+001 6.427663e+001 1.072789e+002 7.970067e+001 8.161771e+001 4.875270e+001 4.593451e+001 5.115276e+001 3.205342e+001 2.074238e+001 2.397081e+001 7.102802e+000 6.081136e+000 6.093957e+000 9.586413e+000 8.135680e+000 5.922111e+000 2.652673e+000 3.633654e+000 5.168729e+000 5.806315e+000 4.024633e+000 2.898419e+000 4.149415e+000
<GCONST> 1.149686e+002
<STATE> 3
<MEAN> 25
 1.292681e+001 -3.427512e+000 3.054440e+000 -7.246426e+000 -1.167729e+001 -7.993109e+000 -4.910311e+000 8.938622e+000 1.065320e+001 -3.793081e+000 1.449956e+000 1.123447e+000 -1.623643e-001 1.309571e-001 -1.391862e-001 3.253424e-001 -2.711740e-001 2.205435e-001 1.106821e-001 -4.428954e-001 3.771738e-001 -1.540876e-001 -3.270161e-001 1.042254e-001 -3.295849e-001
<VARIANCE> 25
 1.739356e+001 3.620695e+001 5.330982e+001 4.649931e+001 4.162966e+001 5.283062e+001 2.750959e+001 3.208110e+001 4.910382e+001 3.792659e+001 2.078756e+001 2.945231e+001 5.435641e-001 1.420968e+000 1.222691e+000 1.724620e+000 2.253362e+000 3.408693e+000 2.243778e+000 2.294005e+000 4.899724e+000 2.579066e+000 1.913706e+000 1.182742e+000 7.769315e-001
<GCONST> 9.589935e+001
<STATE> 4
<MEAN> 25
 7.828827e+000 -8.641555e-001 -1.753429e+000 -4.548535e+000 -6.662021e+000 5.041118e+000 -1.380298e+000 -2.082313e+000 7.305056e+000 -3.033097e+000 2.472835e+000 6.184765e+000 -2.396825e-001 5.827457e-001 -1.439494e-001 6.649894e-001 1.930451e-001 1.304792e-001 7.776588e-001 -2.926513e-001 -4.550065e-001 1.910031e-001 -1.499087e-001 5.309827e-002 -5.777231e-001
<VARIANCE> 25
 5.871474e+001 5.264077e+001 4.633786e+001 9.619403e+001 1.603682e+002 9.870097e+001 1.333872e+002 5.471789e+001 8.810800e+001 5.039331e+001 4.045751e+001 3.603067e+001 1.592303e+000 3.676605e+000 2.832889e+000 4.447986e+000 1.013125e+001 4.130072e+000 4.519238e+000 4.842695e+000 8.160366e+000 6.874219e+000 3.185680e+000 2.965720e+000 2.797289e+000
<GCONST> 1.150556e+002
<TRANSP> 5
 0.000000e+000 1.000000e+000 0.000000e+000 0.000000e+000 0.000000e+000
 0.000000e+000 7.552374e-001 2.447626e-001 0.000000e+000 0.000000e+000
 0.000000e+000 0.000000e+000 8.529019e-001 1.470981e-001 0.000000e+000
 0.000000e+000 0.000000e+000 0.000000e+000 8.164387e-001 1.835613e-001
 0.000000e+000 0.000000e+000 0.000000e+000 0.000000e+000 0.000000e+000
<ENDHMM>
~h "ae"
<BEGINHMM>
<NUMSTATES> 5
<STATE> 2
<MEAN> 25
 3.404024e+000 2.400826e+000 1.405891e-001 -5.461748e-001 -1.903772e+000 4.942829e+000 -2.135313e-001 -2.863151e+000 5.647416e+000 1.013574e+000 -2.394690e+000 3.240989e+000 2.029659e+000 -2.042563e+000 1.209296e+000 -1.498546e+000 5.511858e-001 -4.065273e-001 -1.496101e+000 -1.569141e-001 9.035690e-003 1.172117e+000 -2.797123e-001 7.138978e-001 3.257716e+000
<VARIANCE> 25
 7.858377e+001 1.347030e+002 7.962703e+001 1.217844e+002 1.174872e+002 5.814260e+001 7.787392e+001 7.163834e+001 8.781541e+001 6.817319e+001 5.244991e+001 2.956340e+001 7.611873e+000 1.156924e+001 5.984644e+000 9.085117e+000 6.264332e+000 5.756003e+000 6.710534e+000 6.416275e+000 7.089826e+000 7.041122e+000 4.550578e+000 3.575555e+000 5.776423e+000
<GCONST> 1.221685e+002
<STATE> 3
<MEAN> 25
 9.618298e+000 -1.424204e+001 4.688379e+000 -9.791508e+000 3.214823e+000 2.767482e-001 -8.209036e+000 -4.763031e+000 2.654849e+000 6.789725e+000 1.587148e+000 5.671953e+000 -1.838025e-002 -7.631011e-002 9.181681e-003 1.583433e-002 5.500043e-002 1.467298e-001 1.482529e-001 1.843454e-001 -2.006754e-001 -4.046649e-001 2.585638e-001 5.842844e-003 4.075437e-002
<VARIANCE> 25
 1.073779e+001 2.040743e+001 1.924092e+001 3.826714e+001 6.370415e+001 3.553579e+001 5.049101e+001 2.651246e+001 5.223107e+001 3.957103e+001 3.148724e+001 4.419442e+001 2.491538e-001 1.786400e+000 8.171775e-001 1.745403e+000 1.791551e+000 1.548181e+000 1.670958e+000 2.052311e+000 2.891979e+000 2.249833e+000 2.704853e+000 1.662220e+000 9.753870e-001
<GCONST> 9.288359e+001
<STATE> 4
<MEAN> 25
 8.887364e+000 -5.457302e+000 3.494521e+000 -5.863045e+000 2.096314e+000 4.526795e+000 -7.794501e+000 -2.525721e+000 1.022598e+000 3.657522e+000 2.741414e+000 4.364371e+000 -3.494717e-001 1.813278e+000 -6.294463e-001 1.796775e+000 7.985809e-002 2.184788e-001 -1.488409e-001 5.558445e-002 5.277060e-001 -2.798486e-001 -3.164572e-002 -9.097010e-001 -1.822279e+000
<VARIANCE> 25
 1.788513e+001 2.771837e+001 3.563223e+001 6.206598e+001 4.984362e+001 3.131394e+001 4.306277e+001 5.085116e+001 9.572576e+001 6.138680e+001 2.799445e+001 3.113848e+001 6.462904e-001 2.566453e+000 1.979723e+000 3.798892e+000 3.869756e+000 2.555050e+000 3.818016e+000 3.552370e+000 6.218763e+000 6.934294e+000 4.544497e+000 1.298885e+000 9.972876e-001
<GCONST> 1.033071e+002
<TRANSP> 5
 0.000000e+000 1.000000e+000 0.000000e+000 0.000000e+000 0.000000e+000
 0.000000e+000 8.186275e-001 1.813725e-001 0.000000e+000 0.000000e+000
 0.000000e+000 0.000000e+000 8.592964e-001 1.407036e-001 0.000000e+000
 0.000000e+000 0.000000e+000 0.000000e+000 7.112756e-001 2.887244e-001
 0.000000e+000 0.000000e+000 0.000000e+000 0.000000e+000 0.000000e+000
<ENDHMM>
~h "ah"
<BEGINHMM>
<NUMSTATES> 5
<STATE> 2
<MEAN> 25
 5.037918e+000 -2.958381e-001 4.506124e+000 -2.892392e+000 2.828004e+000 1.830649e+000 -4.944982e+000 8.913897e-001 -2.065911e+000 9.227718e-001 2.814045e-001 2.821401e-001 1.270823e+000 -2.788171e-001 8.308169e-003 -1.183114e+000 9.375612e-002 -2.641737e-001 -6.625108e-001 -9.283692e-006 -5.004672e-001 -2.170727e-001 -1.869806e-001 3.568226e-001 1.366517e+000
<VARIANCE> 25
 6.130857e+001 9.662330e+001 6.370941e+001 9.051688e+001 9.250033e+001 6.014645e+001 5.372641e+001 8.083908e+001 7.607979e+001 8.660310e+001 3.755543e+001 4.586559e+001 4.525799e+000 8.317512e+000 5.789430e+000 9.206201e+000 9.413711e+000 6.354068e+000 6.936022e+000 8.558117e+000 8.683968e+000 6.216267e+000 5.485788e+000 4.503741e+000 4.621778e+000
<GCONST> 1.210440e+002
<STATE> 3
<MEAN> 25
 1.006778e+001 -4.303949e+000 2.857506e+000 -6.167897e+000 2.317142e+000 1.573953e+000 -5.593112e+000 -2.053105e-001 -1.930644e+000 -1.705239e-002 6.439674e-001 3.804040e+000 3.562977e-001 2.353291e-001 -8.138158e-001 3.150038e-002 -9.392913e-001 4.827660e-001 8.344176e-001 3.226979e-001 1.182722e+000 -8.624380e-001 -1.396463e-001 1.548011e-001 -1.716018e-001
<VARIANCE> 25
 2.039095e+001 6.705016e+001 5.600094e+001 7.164956e+001 6.049082e+001 4.237512e+001 4.206874e+001 7.205612e+001 7.056757e+001 7.012151e+001 4.608378e+001 4.816278e+001 7.972332e-001 2.394176e+000 2.673816e+000 4.018443e+000 4.891187e+000 3.327675e+000 4.358356e+000 5.294887e+000 3.837476e+000 4.303073e+000 3.396221e+000 3.578699e+000 1.454830e+000
<GCONST> 1.081683e+002
<STATE> 4
<MEAN> 25
 8.550281e+000 -4.935405e+000 -2.520104e+000 -6.857726e+000 -2.374371e+000 1.273009e+000 2.512806e-001 4.136540e+000 2.890379e+000 -2.761758e+000 2.055101e+000 4.092001e+000 -2.368913e-001 3.278558e-001 3.756199e-002 3.954117e-001 -5.193851e-002 -4.496592e-002 1.120619e-001 -1.189465e-001 2.505105e-002 -5.519033e-002 -1.412823e-001 -1.446240e-001 -4.128567e-001
<VARIANCE> 25
 4.152281e+001 6.935574e+001 5.119455e+001 1.028303e+002 4.820106e+001 4.737193e+001 5.484644e+001 5.246201e+001 6.249786e+001 4.999384e+001 3.938095e+001 4.489681e+001 3.905396e-001 1.223233e+000 1.563049e+000 2.461488e+000 2.633698e+000 2.163304e+000 2.853322e+000 2.668854e+000 3.833447e+000 3.531482e+000 2.614756e+000 2.024494e+000 4.966851e-001
<GCONST> 1.016549e+002
<TRANSP> 5
 0.000000e+000 1.000000e+000 0.000000e+000 0.000000e+000 0.000000e+000
 0.000000e+000 5.574362e-001 4.425638e-001 0.000000e+000 0.000000e+000
 0.000000e+000 0.000000e+000 5.247333e-001 4.752667e-001 0.000000e+000
 0.000000e+000 0.000000e+000 0.000000e+000 8.069550e-001 1.930450e-001
 0.000000e+000 0.000000e+000 0.000000e+000 0.000000e+000 0.000000e+000
<ENDHMM>
~h "ao"
<BEGINHMM>
<NUMSTATES> 5
<STATE> 2
<MEAN> 25
 5.501150e+000 6.074913e+000 5.630492e+000 -3.719698e+000 -8.938910e+000 -1.242058e+000 -5.341004e+000 5.213833e+000 7.588788e+000 -1.910230e+000 3.480793e+000 -6.890939e-001 4.719299e+000 1.102956e+000 1.946448e+000 -1.350830e-001 -2.498172e+000 -1.984897e+000 -1.822200e+000 -6.033694e-001 1.495695e+000 -1.619102e+000 -1.836318e-001 4.294340e-001 3.662368e+000
<VARIANCE> 25
 8.833870e+001 5.941955e+001 6.162392e+001 4.504126e+001 8.167054e+001 7.558445e+001 3.479729e+001 4.200130e+001 6.376594e+001 4.533340e+001 4.036539e+001 2.916997e+001 4.945294e+000 1.592706e+001 9.211060e+000 1.155229e+001 4.956419e+000 5.693592e+000 4.095074e+000 5.831593e+000 6.361821e+000 9.386141e+000 3.575239e+000 1.393793e+000 2.599416e+000
<GCONST> 1.156947e+002
<STATE> 3
<MEAN> 25
 1.138099e+001 -2.998817e+000 1.163038e+001 -6.660239e+000 -1.448260e+001 -1.117825e+001 -7.739032e+000 6.972980e+000 8.418026e+000 -9.566616e-001 3.417887e+000 4.980929e-002 -1.402350e-002 -4.397168e-001 2.349527e-001 -1.943582e-002 -3.100359e-001 -2.096340e-002 -3.031228e-002 -1.003809e-001 2.774504e-001 -3.289225e-001 -2.360209e-002 2.659954e-001 2.921345e-001
<VARIANCE> 25
 5.909773e+000 2.088276e+001 4.027668e+001 1.476188e+001 1.904843e+001 3.821665e+001 3.170461e+001 3.611557e+001 3.047562e+001 2.606854e+001 1.807115e+001 1.584291e+001 2.409061e-001 9.118037e-001 9.536743e-001 1.249143e+000 9.495171e-001 1.812085e+000 1.729808e+000 1.467382e+000 1.537818e+000 1.426274e+000 8.443091e-001 9.264343e-001 4.419433e-001
<GCONST> 8.297514e+001
<STATE> 4
<MEAN> 25
 1.311877e+001 -3.717200e-001 5.437687e+000 -8.115002e+000 -1.469886e+001 -4.941463e+000 -9.594545e+000 -2.788506e-001 1.444583e+001 -5.764884e+000 2.118093e+000 5.462686e+000 1.448374e-002 2.036099e-001 -5.411612e-001 -8.693385e-001 6.943002e-001 7.815084e-001 1.723916e-001 -3.693080e-001 -6.434705e-001 6.522723e-002 2.246946e-002 2.216183e-001 -3.317630e-002
<VARIANCE> 25
 3.227727e+000 1.792289e+001 3.651247e+001 9.851722e+001 8.304968e+001 5.254214e+001 3.463173e+001 2.495532e+001 5.252697e+001 3.828314e+001 1.437227e+001 2.208762e+001 1.669228e-001 5.103152e-001 7.191072e-001 2.092007e+000 1.801984e+000 2.579307e+000 1.681867e+000 2.083124e+000 2.787221e+000 1.520976e+000 1.160870e+000 1.387101e+000 1.887933e-001
<GCONST> 8.769152e+001
<TRANSP> 5
 0.000000e+000 1.000000e+000 0.000000e+000 0.000000e+000 0.000000e+000
 0.000000e+000 7.176668e-001 2.823332e-001 0.000000e+000 0.000000e+000
 0.000000e+000 0.000000e+000 8.822843e-001 1.177157e-001 0.000000e+000
 0.000000e+000 0.000000e+000 0.000000e+000 8.964330e-001 1.035671e-001
 0.000000e+000 0.000000e+000 0.000000e+000 0.000000e+000 0.000000e+000
<ENDHMM>
~h "aw"
<BEGINHMM>
<NUMSTATES> 5
<STATE> 2
<MEAN> 25
 2.028714e+000 3.454663e+000 -2.757299e+000 3.858373e+000 -6.706158e+000 4.004928e+000 6.372400e+000 5.919042e-003 1.182590e+001 4.790556e-001 -3.534610e+000 7.111523e+000 2.042222e+000 -1.635858e+000 1.538825e+000 -2.088690e+000 1.014712e-001 -7.978297e-002 -2.511902e+000 7.246035e-001 -4.343265e-001 -4.518702e-001 -5.973256e-001 -5.180258e-001 3.065681e+000
<VARIANCE> 25
 7.615784e+001 7.647388e+001 1.338975e+002 7.718908e+001 4.435330e+001 9.327048e+001 7.116209e+001 3.446407e+001 1.155181e+002 3.513484e+001 4.808002e+001 7.937029e+001 7.227726e+000 1.747224e+001 5.252230e+000 9.740177e+000 4.872098e+000 7.650317e+000 7.610148e+000 3.492457e+000 1.962784e+001 4.574450e+000 4.737176e+000 5.297587e+000 6.033765e+000
<GCONST> 1.217375e+002
<STATE> 3
<MEAN> 25
 -1.287782e+000 -5.506204e+000 -8.275929e+000 -3.787037e+000 -6.201141e+000 -1.216425e+000 6.727423e-001 1.485082e+000 4.158090e+000 5.838057e-001 5.816985e+000 6.449527e+000 7.281280e-001 -4.019787e-001 1.141158e-001 -4.843894e-001 -5.109956e-001 3.422828e-001 -1.422288e-001 -4.227333e-002 7.364528e-001 -2.651261e-001 1.618797e-001 -6.697754e-002 8.308551e-001
<VARIANCE> 25
 9.548169e+001 1.469591e+002 1.681440e+002 4.426170e+001 5.661394e+001 5.257765e+001 9.661515e+001 4.994256e+001 1.463804e+002 4.542569e+001 4.552450e+001 3.315043e+001 3.407143e+000 9.066718e+000 5.604970e+000 5.438191e+000 4.927419e+000 3.513966e+000 6.851011e+000 5.135027e+000 7.594092e+000 4.489398e+000 6.137589e+000 2.882030e+000 5.975352e+000
<GCONST> 1.184620e+002
<STATE> 4
<MEAN> 25
 1.129738e+001 -9.103241e+000 3.825064e+000 -1.214837e+001 -1.080301e+001 1.588642e+000 -1.295768e-001 4.911172e+000 1.051251e+001 -3.296423e+000 -1.477037e+000 2.048356e+000 -7.822644e-002 3.613695e-001 -1.516611e-001 2.165501e-001 5.893830e-002 -3.828902e-001 3.144107e-001 7.088944e-002 -3.276099e-001 -6.176012e-002 -4.349340e-001 -2.455511e-001 -2.696630e-001
<VARIANCE> 25
 5.835975e+000 5.283689e+001 2.411797e+001 4.344874e+001 2.364983e+001 3.012111e+001 2.885795e+001 3.371935e+001 5.747053e+001 1.945050e+001 1.873726e+001 1.666353e+001 3.425719e-001 1.966960e+000 1.922442e+000 1.862211e+000 2.442801e+000 2.032593e+000 2.583177e+000 2.718744e+000 4.599316e+000 1.923121e+000 1.624293e+000 1.198827e+000 8.562021e-001
<GCONST> 9.196789e+001
<TRANSP> 5
 0.000000e+000 1.000000e+000 0.000000e+000 0.000000e+000 0.000000e+000
 0.000000e+000 7.572471e-001 2.427529e-001 0.000000e+000 0.000000e+000
 0.000000e+000 0.000000e+000 8.674710e-001 1.325290e-001 0.000000e+000
 0.000000e+000 0.000000e+000 0.000000e+000 9.420869e-001 5.791312e-002
 0.000000e+000 0.000000e+000 0.000000e+000 0.000000e+000 0.000000e+000
<ENDHMM>
~h "ay"
<BEGINHMM>
<NUMSTATES> 5
<STATE> 2
<MEAN> 25
 4.590079e+000 -1.272922e+000 6.852204e-001 3.839869e+000 -1.801714e+000 2.233412e+000 -5.630956e+000 -6.945410e+000 2.613550e+000 3.051503e+000 2.385286e+000 -1.109689e+000 -2.081584e-001 1.014389e+000 -7.729464e-001 7.913321e-001 -5.301955e-001 4.818989e-001 3.710748e-001 -6.420644e-001 7.220105e-001 -5.674878e-001 4.386630e-002 1.567895e-001 -1.093411e+000
<VARIANCE> 25
 4.948353e+001 9.073904e+001 7.483416e+001 8.450379e+001 5.929055e+001 6.058715e+001 5.322641e+001 5.403759e+001 6.795581e+001 5.941078e+001 4.089606e+001 3.814169e+001 1.366750e+000 3.524463e+000 6.784521e+000 4.703712e+000 4.198455e+000 6.429301e+000 3.057168e+000 4.300713e+000 6.345399e+000 5.399259e+000 4.089880e+000 2.046517e+000 1.717276e+000
<GCONST> 1.120215e+002
<STATE> 3
<MEAN> 25
 -1.690165e+000 9.793915e+000 -1.003413e+001 1.025389e+001 -1.122558e+000 1.185852e+000 6.761581e+000 -1.626851e+000 5.444798e+000 -5.533965e+000 -1.229362e-001 1.164489e+000 -4.306892e-002 5.359131e-001 -6.668105e-001 4.033760e-001 4.643028e-001 -5.291925e-001 8.527883e-001 3.818073e-001 -1.635715e-001 1.179139e-001 -4.530839e-001 1.519761e-001 -4.191747e-001
<VARIANCE> 25
 5.404714e+001 8.359643e+001 4.396267e+001 6.991533e+001 2.538669e+001 4.707710e+001 9.000223e+001 7.294585e+001 4.695750e+001 8.317586e+001 4.082077e+001 3.370236e+001 7.373024e-001 1.467589e+000 3.503202e+000 2.857624e+000 1.974224e+000 5.201029e+000 3.692582e+000 2.667655e+000 3.973091e+000 5.926130e+000 2.761898e+000 3.043411e+000 5.821170e-001
<GCONST> 1.055117e+002
<STATE> 4
<MEAN> 25
 3.134747e+000 1.360624e+001 -5.923803e+000 9.536674e+000 1.233979e+000 2.618394e+000 1.891075e+000 -2.911500e+000 8.480411e+000 6.350075e-001 -1.940987e+000 -7.321888e-001 5.068247e-001 -1.060627e+000 1.771242e+000 -1.623645e+000 6.439022e-002 1.073810e-001 -1.283272e+000 2.544494e-001 -6.293607e-001 9.877332e-001 5.844221e-002 -1.818067e-001 1.643417e+000
<VARIANCE> 25
 5.841046e+001 1.153617e+002 1.108948e+002 1.279748e+002 5.656240e+001 7.961642e+001 1.242863e+002 7.168226e+001 8.943137e+001 7.832816e+001 3.860992e+001 4.360213e+001 5.926991e+000 7.451769e+000 6.039267e+000 1.166801e+001 5.550262e+000 8.313679e+000 1.254408e+001 7.364132e+000 1.258689e+001 7.086130e+000 4.245703e+000 4.175251e+000 4.036996e+000
<GCONST> 1.232754e+002
<TRANSP> 5
 0.000000e+000 1.000000e+000 0.000000e+000 0.000000e+000 0.000000e+000
 0.000000e+000 8.062305e-001 1.937694e-001 0.000000e+000 0.000000e+000
 0.000000e+000 0.000000e+000 7.145445e-001 2.854555e-001 0.000000e+000
 0.000000e+000 0.000000e+000 0.000000e+000 7.730839e-001 2.269161e-001
 0.000000e+000 0.000000e+000 0.000000e+000 0.000000e+000 0.000000e+000
<ENDHMM>
~h "ch"
<BEGINHMM>
<NUMSTATES> 5
<STATE> 2
<MEAN> 25
 -4.109258e+000 7.415176e+000 -1.329612e+001 9.868654e+000 2.146309e+000 -4.120259e+000 9.861407e+000 -1.070871e+000 -4.015589e+000 3.375563e+000 1.417270e+000 -4.361894e+000 -5.976129e-002 -2.682098e-001 -2.617541e-002 -6.237518e-002 -5.824099e-002 -7.251631e-002 -1.085530e-001 -1.416142e-001 1.322363e-001 -1.745530e-001 -1.572469e-001 5.475897e-002 1.051916e-001
<VARIANCE> 25
 8.063227e+000 5.116192e+001 9.339573e+001 3.384453e+001 5.205077e+001 2.717202e+001 6.260739e+001 6.160354e+001 4.677506e+001 4.866586e+001 5.223574e+001 2.906596e+001 7.136379e-001 3.063030e+000 3.173669e+000 4.363641e+000 6.688549e+000 3.027995e+000 6.641306e+000 7.894466e+000 5.859938e+000 6.321315e+000 4.955170e+000 3.654819e+000 6.082899e-001
<GCONST> 1.069850e+002
<STATE> 3
<MEAN> 25
 -4.601492e+000 -1.206531e+000 5.365710e+000 3.302861e+000 2.902088e+000 -3.618835e+000 4.669754e+000 2.575993e+000 -5.297117e+000 2.847320e+000 -4.131839e+000 -3.736627e+000 -1.236723e+000 -2.393128e+000 2.217817e+000 -1.255161e+000 2.631823e-001 -1.223081e+000 5.939851e-001 1.298715e+000 -1.659125e-001 -2.490633e-001 -3.516200e-001 1.304021e+000 1.489123e+000
<VARIANCE> 25
 9.158400e+000 1.597780e+002 1.404126e+002 6.969221e+001 5.019846e+001 3.905587e+001 6.319582e+001 3.389966e+001 3.282492e+001 8.671030e+001 2.334677e+001 3.991140e+001 2.692884e+000 1.059772e+001 1.422244e+001 7.815516e+000 7.570241e+000 2.509391e+000 7.771114e+000 2.424281e+000 5.244872e+000 5.314790e+000 2.795719e+000 2.929947e+000 4.690001e+000
<GCONST> 1.133842e+002
<STATE> 4
<MEAN> 25
 -8.983224e+000 -2.049087e+001 1.650628e+001 -2.362396e+000 3.203039e+000 -5.541592e-001 -2.574828e+000 4.049922e+000 3.647726e+000 -5.598594e-001 -1.655514e+000 6.067963e+000 1.037588e+000 3.652321e-001 -1.171526e+000 5.429426e-001 1.745799e-001 8.488269e-001 -8.202491e-001 -1.058024e+000 -3.944507e-003 -3.293743e-001 3.223820e-001 1.736561e-001 -6.323524e-003
<VARIANCE> 25
 3.179709e+001 2.802074e+001 5.403085e+001 2.716356e+001 2.148822e+001 4.477159e+001 5.323860e+001 8.506730e+001 7.050468e+001 5.402489e+001 3.051242e+001 1.433828e+001 4.882961e+000 4.203507e+000 4.188570e+000 3.121215e+000 3.585649e+000 3.430833e+000 3.689937e+000 4.703106e+000 8.053732e+000 3.237427e+000 2.894557e+000 1.476204e+000 1.019679e+000
<GCONST> 1.053327e+002
<TRANSP> 5
 0.000000e+000 1.000000e+000 0.000000e+000 0.000000e+000 0.000000e+000
 0.000000e+000 9.310190e-001 6.898094e-002 0.000000e+000 0.000000e+000
 0.000000e+000 0.000000e+000 8.072282e-001 1.927718e-001 0.000000e+000
 0.000000e+000 0.000000e+000 0.000000e+000 9.070841e-001 9.291583e-002
 0.000000e+000 0.000000e+000 0.000000e+000 0.000000e+000 0.000000e+000
<ENDHMM>
~h "dh"
<BEGINHMM>
<NUMSTATES> 5
<STATE> 2
<MEAN> 25
 7.465893e+000 -8.267082e+000 4.502980e+000 -1.976033e+000 1.135328e+001 -7.732470e-001 -1.338226e+001 -6.713320e+000 -8.805407e+000 1.765428e-001 -4.136958e-001 2.167742e+000 1.036361e+000 6.046185e-001 -2.614079e+000 -1.725781e+000 2.570226e+000 -4.775484e-001 -2.763658e+000 -1.434833e+000 -1.287657e-001 -1.602691e+000 -6.620818e-002 1.364044e+000 5.393907e-001
<VARIANCE> 25
 8.628392e+000 4.763023e+001 3.852145e+001 3.140227e+001 5.315636e+001 1.419680e+001 6.277565e+001 2.770512e+001 2.474476e+001 4.524199e+001 2.446684e+001 2.523730e+001 7.556382e-001 2.092990e+000 1.589556e+000 3.282559e+000 4.182506e+000 2.210845e+000 7.284418e+000 2.306460e+000 2.181396e+000 4.347388e+000 4.677577e+000 2.240292e+000 4.820096e-001
<GCONST> 9.762262e+001
<STATE> 3
<MEAN> 25
 9.580400e+000 -1.142075e+000 -1.963809e+000 -1.814349e+001 1.309503e+001 6.475208e+000 -1.516359e+001 -8.376859e+000 -8.201922e+000 -7.910323e+000 3.712002e+000 1.010206e+001 -9.939314e-003 8.976435e-001 5.825055e-002 -8.069183e-001 -7.882634e-001 4.547819e-001 5.768622e-001 3.470190e-001 -3.492641e-001 -7.799829e-001 5.234412e-002 9.604806e-002 -4.094440e-001
<VARIANCE> 25
 3.791218e+000 2.074574e+001 2.117627e+001 4.676149e+001 5.303946e+001 4.160473e+001 2.908578e+001 1.515533e+001 2.123200e+001 3.654964e+001 2.813895e+001 2.137302e+001 1.363015e-001 3.930816e-001 5.061006e-001 2.743081e+000 1.495464e+000 2.972319e+000 2.259014e+000 1.345536e+000 2.543675e+000 3.117010e+000 2.569493e+000 1.822313e+000 1.001783e-001
<GCONST> 8.536964e+001
<STATE> 4
<MEAN> 25
 -4.771411e-001 4.159452e+000 -4.257816e+000 1.109275e+000 -9.484993e-001 1.391443e+000 -3.552552e+000 -1.835337e+000 -2.963487e+000 -6.451705e+000 3.383682e+000 -8.790153e-001 -5.594048e-001 1.933308e-002 -1.091266e-001 8.218938e-001 -7.289400e-001 -9.344153e-002 8.050790e-001 2.119412e-001 5.846475e-001 2.454744e-001 -4.105680e-001 -3.599140e-001 -7.154743e-001
<VARIANCE> 25
 5.384177e+001 1.735111e+001 3.910294e+001 8.415938e+001 8.119783e+001 3.361972e+001 6.843529e+001 4.383709e+001 6.405293e+001 2.818713e+001 8.898448e+001 4.498254e+001 3.898437e-001 7.766904e-001 1.857310e+000 3.742589e+000 2.417632e+000 2.825798e+000 3.517072e+000 4.135033e+000 3.691228e+000 2.673569e+000 4.897738e+000 2.505969e+000 4.097100e-001
<GCONST> 1.018446e+002
<TRANSP> 5
 0.000000e+000 1.000000e+000 0.000000e+000 0.000000e+000 0.000000e+000
 0.000000e+000 7.726822e-001 2.273178e-001 0.000000e+000 0.000000e+000
 0.000000e+000 0.000000e+000 8.815543e-001 1.184456e-001 0.000000e+000
 0.000000e+000 0.000000e+000 0.000000e+000 9.212720e-001 7.872795e-002
 0.000000e+000 0.000000e+000 0.000000e+000 0.000000e+000 0.000000e+000
<ENDHMM>
~h "eh"
<BEGINHMM>
<NUMSTATES> 5
<STATE> 2
<MEAN> 25
 8.206336e+000 -7.183543e+000 5.985456e+000 -4.266726e+000 3.971715e+000 2.623369e-001 -7.864870e+000 -5.501733e+000 -3.043469e+000 6.339730e+000 2.152722e+000 3.415776e+000 1.418395e+000 -9.501932e-001 -4.505912e-001 -3.529120e-001 1.110420e-001 -8.068803e-001 -1.430599e+000 -1.704039e+000 1.673291e-001 7.985550e-001 5.696847e-001 1.228200e+000 1.629052e+000
<VARIANCE> 25
 1.518388e+001 5.415174e+001 3.803582e+001 5.233059e+001 5.517282e+001 5.125844e+001 3.536245e+001 5.200726e+001 5.745567e+001 4.052365e+001 2.387398e+001 3.502236e+001 5.310731e+000 5.000137e+000 2.793477e+000 4.485150e+000 1.664143e+000 3.958273e+000 4.264192e+000 2.841686e+000 4.014182e+000 4.533693e+000 2.101793e+000 1.630811e+000 4.206484e+000
<GCONST> 1.059580e+002
<STATE> 3
<MEAN> 25
 7.325590e+000 -5.878965e+000 9.286552e+000 4.214327e-001 7.823690e+000 1.282674e-001 -7.956944e+000 -4.105680e+000 -2.143978e+000 5.929931e+000 9.170663e-001 2.298159e+000 -2.055985e-001 -6.162890e-001 3.369461e-001 -1.972965e-001 -1.080407e-001 -3.110520e-002 2.465832e-001 2.348453e-001 1.103765e-001 6.050435e-001 1.171219e-001 4.675218e-002 2.743845e-001
<VARIANCE> 25
 1.885772e+001 5.877777e+001 5.948856e+001 6.480486e+001 4.514396e+001 5.018225e+001 4.853211e+001 4.941088e+001 3.990004e+001 4.540685e+001 3.329047e+001 3.677686e+001 2.184940e+000 6.716824e+000 4.547983e+000 5.860838e+000 2.911186e+000 5.563326e+000 6.012271e+000 4.559796e+000 4.497654e+000 4.374605e+000 3.811495e+000 3.724093e+000 3.509723e+000
<GCONST> 1.102876e+002
<STATE> 4
<MEAN> 25
 8.131516e+000 -1.145750e+001 5.535776e+000 -7.062047e+000 5.375026e+000 -2.276245e+000 -7.778851e+000 -4.133955e+000 -1.310459e+000 9.331744e+000 1.348685e+000 4.358677e+000 -2.007653e-001 2.488575e-001 -1.617579e-001 1.846144e-001 -1.485755e-001 3.406997e-001 7.281467e-004 -7.687670e-002 6.203828e-002 -5.179588e-001 1.304642e-001 -2.019213e-001 -4.021003e-001
<VARIANCE> 25
 2.969119e+001 4.852575e+001 2.771540e+001 5.819400e+001 2.981705e+001 4.185948e+001 2.307163e+001 3.073246e+001 4.820504e+001 3.461665e+001 3.087757e+001 3.423138e+001 8.839782e-001 2.906755e+000 1.719750e+000 2.405647e+000 2.064107e+000 2.459843e+000 2.408826e+000 2.252617e+000 4.080772e+000 3.231102e+000 1.920646e+000 1.615654e+000 1.121810e+000
<GCONST> 9.818813e+001
<TRANSP> 5
 0.000000e+000 1.000000e+000 0.000000e+000 0.000000e+000 0.000000e+000
 0.000000e+000 5.394148e-001 4.605852e-001 0.000000e+000 0.000000e+000
 0.000000e+000 0.000000e+000 6.170597e-001 3.829403e-001 0.000000e+000
 0.000000e+000 0.000000e+000 0.000000e+000 8.390513e-001 1.609487e-001
 0.000000e+000 0.000000e+000 0.000000e+000 0.000000e+000 0.000000e+000
<ENDHMM>
~h "er"
<BEGINHMM>
<NUMSTATES> 5
<STATE> 2
<MEAN> 25
 7.714456e+000 3.712278e+000 -1.527513e+000 -7.539737e+000 7.660684e+000 9.733908e+000 -2.483852e+000 -2.631261e+000 -4.470267e+000 -5.290109e+000 2.356607e+000 6.748717e+000 5.233964e-001 9.059287e-001 -1.156829e+000 -5.315477e-002 4.222832e-001 3.414468e-001 1.938230e-001 -3.646224e-001 -1.322671e-001 -3.451779e-001 3.172924e-001 4.151770e-002 -2.871302e-001
<VARIANCE> 25
 3.716700e+001 7.551013e+001 1.352267e+002 1.774154e+002 6.491496e+001 7.420937e+001 1.240695e+002 6.201263e+001 8.369836e+001 5.514866e+001 3.953270e+001 4.622305e+001 2.887197e+000 2.728949e+000 5.741354e+000 8.419284e+000 4.251986e+000 4.982274e+000 5.132655e+000 5.825152e+000 6.446754e+000 5.990398e+000 3.387283e+000 2.697658e+000 1.610839e+000
<GCONST> 1.160845e+002
<STATE> 3
<MEAN> 25
 7.654665e+000 1.209659e-001 -3.119365e+000 -6.156198e+000 3.434213e+000 4.131350e+000 -5.425574e+000 -2.980765e+000 -3.616487e+000 -4.847835e+000 9.554606e-001 4.134965e+000 1.615665e+000 -2.887203e-001 4.324178e-001 -2.290242e+000 1.249363e+000 2.281883e-002 -1.550622e+000 1.690082e-001 -6.973782e-001 -2.310501e-001 1.537711e-001 9.190248e-001 2.074487e+000
<VARIANCE> 25
 5.872656e+001 6.123972e+001 6.653745e+001 1.348338e+002 8.004480e+001 8.140922e+001 1.219986e+002 9.493954e+001 9.976765e+001 8.410973e+001 2.784136e+001 2.630791e+001 6.311806e+000 1.148521e+001 1.129720e+001 8.137397e+000 4.543026e+000 5.047899e+000 3.430016e+000 3.211386e+000 4.413203e+000 5.245421e+000 3.323757e+000 2.673521e+000 4.824286e+000
<GCONST> 1.182436e+002
<STATE> 4
<MEAN> 25
 1.038953e+001 1.925032e+000 -3.464369e+000 -1.416802e+001 8.632360e+000 8.121674e+000 -1.149751e+001 -3.755574e+000 -5.857155e+000 -8.103472e+000 4.209436e+000 5.493529e+000 -3.071806e-001 2.059848e-001 -1.188722e-001 4.736406e-001 -1.052720e-001 -1.291350e-001 1.750000e-001 8.115650e-002 1.804092e-001 4.275029e-002 1.074608e-001 -6.872769e-002 -4.641136e-001
<VARIANCE> 25
 1.595336e+001 4.290265e+001 4.014471e+001 1.003425e+002 7.790716e+001 7.289133e+001 5.222639e+001 5.061467e+001 6.783274e+001 5.526887e+001 3.611026e+001 3.565503e+001 3.696996e-001 1.499555e+000 1.582924e+000 4.130937e+000 2.891902e+000 3.141457e+000 2.353416e+000 2.792964e+000 2.897545e+000 3.113657e+000 1.965376e+000 2.618108e+000 7.538063e-001
<GCONST> 1.016233e+002
<TRANSP> 5
 0.000000e+000 1.000000e+000 0.000000e+000 0.000000e+000 0.000000e+000
 0.000000e+000 6.657650e-001 3.342350e-001 0.000000e+000 0.000000e+000
 0.000000e+000 0.000000e+000 4.642487e-001 5.357513e-001 0.000000e+000
 0.000000e+000 0.000000e+000 0.000000e+000 9.300346e-001 6.996543e-002
 0.000000e+000 0.000000e+000 0.000000e+000 0.000000e+000 0.000000e+000
<ENDHMM>
~h "ey"
<BEGINHMM>
<NUMSTATES> 5
<STATE> 2
<MEAN> 25
 6.607379e+000 -1.217445e+001 1.156628e+001 2.407268e+000 9.717690e+000 -1.070515e+001 -1.720134e+001 -1.234983e+000 2.790825e-002 6.268644e+000 -3.061254e+000 -2.903827e+000 -1.601443e-001 1.227615e-001 3.854514e-001 5.488989e-001 1.863738e-001 -3.232055e-001 -3.635512e-001 1.587684e-001 8.667972e-002 -2.436060e-001 -3.453309e-001 -3.007079e-001 -1.540573e-001
<VARIANCE> 25
 7.097687e+000 1.083673e+001 3.805028e+001 3.650571e+001 2.761402e+001 2.764342e+001 3.523127e+001 3.303064e+001 3.255154e+001 4.865093e+001 2.609521e+001 2.325100e+001 2.135334e-001 5.797912e-001 7.215366e-001 7.072405e-001 1.100638e+000 1.858722e+000 1.608981e+000 1.599578e+000 1.775219e+000 1.842709e+000 1.399267e+000 1.155526e+000 2.178755e-001
<GCONST> 8.403984e+001
<STATE> 3
<MEAN> 25
 5.389570e+000 -3.318274e+000 9.936335e+000 6.803005e+000 1.010707e+001 -4.946174e+000 -1.586833e+001 -2.128931e+000 -8.936990e-001 2.558158e+000 -3.376739e+000 -4.759218e+000 9.495042e-002 1.560376e+000 -1.168899e+000 9.095793e-001 -1.026405e+000 1.349876e+000 1.155084e+000 -4.149799e-001 7.689998e-001 -6.589879e-001 5.973259e-001 2.811829e-001 -1.476159e+000
<VARIANCE> 25
 9.044348e+000 4.291244e+001 4.820072e+001 5.676363e+001 4.333912e+001 3.654100e+001 5.090648e+001 2.966524e+001 3.601691e+001 4.554204e+001 3.325049e+001 2.425465e+001 3.893757e-001 1.496364e+000 1.641834e+000 3.016900e+000 3.568727e+000 2.824555e+000 2.492291e+000 1.511085e+000 3.746619e+000 3.250525e+000 1.635866e+000 1.598755e+000 8.002282e-001
<GCONST> 9.653992e+001
<STATE> 4
<MEAN> 25
 5.952713e+000 5.996894e+000 -3.592772e+000 2.091817e+001 9.603865e-001 -6.662288e+000 -4.071830e+000 -8.521260e+000 4.894921e+000 -2.277884e+000 -7.101973e+000 -3.917236e+000 -3.881654e-001 1.867205e-001 -7.969534e-001 -2.034362e-001 -2.992623e-001 2.056025e-001 1.133785e+000 -1.177251e-001 -2.433470e-001 -1.133837e-001 -1.263154e-001 3.286391e-001 -5.629714e-001
<VARIANCE> 25
 2.723079e+001 8.086541e+001 1.310566e+002 1.487514e+002 5.368217e+001 7.649244e+001 8.929788e+001 6.594178e+001 5.485963e+001 5.803459e+001 7.727425e+001 2.885439e+001 1.132676e+000 5.344148e+000 4.116920e+000 5.953140e+000 3.583645e+000 6.971319e+000 4.416145e+000 3.895020e+000 5.813254e+000 4.081801e+000 4.186240e+000 2.795171e+000 1.710662e+000
<GCONST> 1.135244e+002
<TRANSP> 5
 0.000000e+000 1.000000e+000 0.000000e+000 0.000000e+000 0.000000e+000
 0.000000e+000 9.257517e-001 7.424823e-002 0.000000e+000 0.000000e+000
 0.000000e+000 0.000000e+000 7.607368e-001 2.392632e-001 0.000000e+000
 0.000000e+000 0.000000e+000 0.000000e+000 7.654492e-001 2.345508e-001
 0.000000e+000 0.000000e+000 0.000000e+000 0.000000e+000 0.000000e+000
<ENDHMM>
~h "hh"
<BEGINHMM>
<NUMSTATES> 5
<STATE> 2
<MEAN> 25
 2.487937e-002 -9.821595e+000 -1.180969e+000 -3.924851e+000 8.225443e-001 6.924676e+000 -2.881031e+000 3.601417e+000 7.075881e+000 6.518765e+000 2.869276e+000 5.769664e-001 1.222810e+000 1.839536e-001 9.960285e-001 -9.943706e-001 4.935461e-001 1.621714e-001 -6.749390e-001 6.656638e-002 1.612778e-001 -1.201263e-002 -3.440596e-001 2.009304e-001 1.440167e+000
<VARIANCE> 25
 3.379201e+001 5.124432e+001 6.100136e+001 4.122083e+001 9.489285e+001 3.284325e+001 6.077298e+001 3.820969e+001 6.308105e+001 6.155142e+001 5.089713e+001 1.991512e+001 2.541815e+000 4.600527e+000 4.114937e+000 3.009377e+000 6.176930e+000 3.091820e+000 3.565721e+000 3.796054e+000 4.292852e+000 2.170623e+000 4.137087e+000 2.029523e+000 2.362310e+000
<GCONST> 1.079636e+002
<STATE> 3
<MEAN> 25
 1.096317e+001 -1.008746e+001 3.553024e+000 -1.209775e+001 1.654908e+000 6.068472e+000 -4.153273e+000 5.431002e+000 6.690546e+000 7.778120e-001 6.880354e-001 1.985278e+000 1.896219e-001 -3.757853e-001 -2.852716e-001 5.600583e-002 -8.590400e-001 -5.216655e-001 1.774731e-001 5.606613e-001 3.716181e-001 -7.663173e-001 1.538889e-001 -1.162798e-001 1.757987e-001
<VARIANCE> 25
 6.141008e+000 3.249728e+001 1.406869e+001 3.661539e+001 3.436908e+001 2.079267e+001 4.565821e+001 5.712663e+001 8.093989e+001 2.546269e+001 1.908759e+001 2.384851e+001 3.961223e-001 9.208852e-001 7.477093e-001 2.230859e+000 2.628301e+000 1.735404e+000 2.356698e+000 2.262756e+000 2.274069e+000 2.202506e+000 1.508681e+000 1.516561e+000 5.751892e-001
<GCONST> 9.025780e+001
<STATE> 4
<MEAN> 25
 1.199626e+001 -1.681397e+000 3.236397e+000 -6.004960e+000 -1.707181e+000 -1.256191e-001 -4.250196e+000 6.174698e+000 9.003687e-001 -7.879450e+000 9.723660e-001 -1.041325e+000 -1.583951e-001 7.489296e-001 -4.832445e-002 8.939376e-001 2.311302e-001 -2.376979e-001 6.447698e-002 -2.391927e-001 -3.575752e-001 2.242606e-001 -3.338960e-002 -2.295054e-001 -6.779573e-001
<VARIANCE> 25
 6.302943e+000 5.463104e+001 2.540727e+001 4.163939e+001 9.992126e+001 4.947388e+001 4.514448e+001 3.565887e+001 2.087917e+002 2.366401e+001 2.543917e+001 5.344605e+001 1.673385e-001 1.321867e+000 1.323786e+000 1.780633e+000 2.900553e+000 2.167510e+000 2.705674e+000 2.515642e+000 4.813252e+000 2.588795e+000 1.869901e+000 1.803154e+000 5.534188e-001
<GCONST> 9.661406e+001
<TRANSP> 5
 0.000000e+000 1.000000e+000 0.000000e+000 0.000000e+000 0.000000e+000
 0.000000e+000 8.629482e-001 1.370518e-001 0.000000e+000 0.000000e+000
 0.000000e+000 0.000000e+000 8.661497e-001 1.338504e-001 0.000000e+000
 0.000000e+000 0.000000e+000 0.000000e+000 8.791432e-001 1.208567e-001
 0.000000e+000 0.000000e+000 0.000000e+000 0.000000e+000 0.000000e+000
<ENDHMM>
~h "ih"
<BEGINHMM>
<NUMSTATES> 5
<STATE> 2
<MEAN> 25
 4.348125e+000 1.091525e+000 8.778631e+000 5.659065e+000 7.278853e+000 1.482156e+000 -5.923822e+000 -1.495404e+000 -1.207277e+000 3.413605e+000 -1.569703e+000 -3.274551e+000 1.955640e+000 -2.980563e-001 1.255765e+000 8.501711e-001 2.189767e+000 -1.297841e+000 -3.156274e+000 -1.051753e+000 -1.277178e+000 2.440456e-001 -3.426111e-002 -7.307195e-002 2.077515e+000
<VARIANCE> 25
 5.496868e+001 1.183705e+002 7.137798e+001 6.794788e+001 6.499078e+001 5.791845e+001 1.016056e+002 5.834263e+001 6.595074e+001 4.715122e+001 2.646585e+001 2.839756e+001 6.616520e+000 1.585840e+001 4.988429e+000 8.577910e+000 5.949234e+000 8.850437e+000 1.061098e+001 6.030048e+000 5.379998e+000 5.416077e+000 2.970652e+000 2.984613e+000 2.920487e+000
<GCONST> 1.179574e+002
<STATE> 3
<MEAN> 25
 7.064613e+000 -9.068888e+000 1.276108e+001 7.264947e+000 1.588921e+001 -8.436938e+000 -1.723713e+001 -3.445458e+000 -7.730584e+000 4.873045e+000 -7.193674e-001 -5.379483e+000 2.399961e-002 -1.871992e-001 -1.066940e-001 2.611201e-001 4.681465e-001 -9.374524e-001 -6.179622e-001 4.240210e-001 1.936430e-004 3.605335e-001 -4.957057e-002 -6.697596e-001 1.221217e-001
<VARIANCE> 25
 7.677730e+000 3.278852e+001 3.018735e+001 5.204016e+001 3.615607e+001 5.252055e+001 4.347551e+001 6.427075e+001 5.578610e+001 2.652834e+001 2.374608e+001 2.963341e+001 4.913122e-001 1.997766e+000 1.731101e+000 2.284034e+000 2.141749e+000 3.173747e+000 3.033137e+000 3.261523e+000 2.559728e+000 2.318954e+000 1.737896e+000 2.064775e+000 9.546582e-001
<GCONST> 9.675187e+001
<STATE> 4
<MEAN> 25
 6.578213e+000 -1.022474e+000 8.498281e+000 7.869004e+000 1.068486e+001 -1.175378e+000 -1.318507e+001 -1.581038e+000 -3.419921e+000 2.385203e+000 -6.962288e-001 -6.899113e+000 -1.975855e-001 1.034970e+000 -6.241868e-001 5.369640e-001 -1.080382e+000 1.095971e+000 9.877607e-001 -3.010915e-001 8.817694e-001 -8.825125e-001 -6.506414e-002 2.924767e-001 -1.144922e+000
<VARIANCE> 25
 1.677088e+001 4.265131e+001 4.175391e+001 8.135194e+001 4.707578e+001 6.025453e+001 3.118492e+001 8.130879e+001 6.283667e+001 5.504036e+001 4.453669e+001 4.387516e+001 5.682008e-001 1.853538e+000 2.439821e+000 4.212485e+000 3.176771e+000 2.679436e+000 3.073056e+000 3.921346e+000 4.721558e+000 2.941131e+000 3.394581e+000 2.431224e+000 1.115403e+000
<GCONST> 1.040281e+002
<TRANSP> 5
 0.000000e+000 1.000000e+000 0.000000e+000 0.000000e+000 0.000000e+000
 0.000000e+000 7.001405e-001 2.998595e-001 0.000000e+000 0.000000e+000
 0.000000e+000 0.000000e+000 7.920246e-001 2.079753e-001 0.000000e+000
 0.000000e+000 0.000000e+000 0.000000e+000 8.672014e-001 1.327986e-001
 0.000000e+000 0.000000e+000 0.000000e+000 0.000000e+000 0.000000e+000
<ENDHMM>
~h "iy"
<BEGINHMM>
<NUMSTATES> 5
<STATE> 2
<MEAN> 25
 3.723608e+000 -6.563941e+000 1.392044e+001 7.401467e+000 1.314195e+001 -1.285412e+000 -1.095012e+001 -2.950196e+000 -7.007203e+000 2.341296e+000 -2.445187e+000 -4.686095e+000 1.399242e+000 -3.931347e-001 1.041001e-001 2.067755e+000 1.622430e+000 -1.949898e+000 -2.586039e+000 -2.931161e-001 -3.696698e-002 1.313723e-002 -7.883281e-002 -6.056097e-001 1.082991e+000
<VARIANCE> 25
 4.213627e+001 4.649234e+001 1.009661e+002 8.761841e+001 4.778135e+001 5.790608e+001 6.131500e+001 5.110738e+001 6.536774e+001 4.788992e+001 2.907010e+001 2.854613e+001 4.316419e+000 7.515110e+000 4.984684e+000 1.094425e+001 5.343588e+000 4.561431e+000 6.630232e+000 5.260017e+000 7.464357e+000 5.285996e+000 3.738915e+000 2.905259e+000 3.183685e+000
<GCONST> 1.148029e+002
<STATE> 3
<MEAN> 25
 5.565697e+000 -1.114889e+001 1.432039e+001 1.336535e+001 1.647650e+001 -1.205566e+001 -1.891811e+001 -2.470340e+000 -5.185531e+000 1.549393e+000 -2.021093e+000 -6.081139e+000 -4.747758e-002 -1.084633e-001 -9.396611e-002 -2.913199e-002 2.137336e-001 -3.729320e-001 -9.313013e-002 7.120189e-003 -9.152643e-002 2.124607e-002 -1.675096e-001 -4.710314e-002 7.985351e-002
<VARIANCE> 25
 6.790654e+000 1.671737e+001 3.735213e+001 3.868001e+001 2.589353e+001 2.939379e+001 2.269696e+001 4.713628e+001 5.164338e+001 3.281484e+001 2.194357e+001 1.542686e+001 3.108373e-001 6.463811e-001 1.564671e+000 1.240083e+000 1.334891e+000 2.327924e+000 2.041514e+000 2.177312e+000 1.938049e+000 1.618631e+000 1.263868e+000 9.466017e-001 2.171908e-001
<GCONST> 8.630371e+001
<STATE> 4
<MEAN> 25
 7.499273e+000 -4.265801e+000 5.160256e+000 4.489658e+000 1.745238e+001 -5.280899e+000 -1.469009e+001 -4.115594e+000 -9.950494e+000 3.519250e+000 -1.788698e+000 -4.114493e+000 1.531752e-001 1.006013e+000 -1.043498e+000 -7.627303e-001 -5.951701e-001 1.146525e+000 7.064366e-001 -4.834119e-002 4.840489e-002 -4.833650e-001 3.509160e-001 6.256623e-001 -7.372221e-001
<VARIANCE> 25
 1.136419e+001 4.497107e+001 4.782055e+001 7.531458e+001 6.586943e+001 5.470347e+001 2.746232e+001 3.924566e+001 6.454990e+001 4.244952e+001 2.569768e+001 2.884593e+001 4.199828e-001 1.368247e+000 1.791821e+000 4.616276e+000 2.591570e+000 3.558401e+000 2.741672e+000 3.103899e+000 4.159221e+000 3.953104e+000 2.302429e+000 2.603845e+000 6.834840e-001
<GCONST> 1.002008e+002
<TRANSP> 5
 0.000000e+000 1.000000e+000 0.000000e+000 0.000000e+000 0.000000e+000
 0.000000e+000 7.494441e-001 2.505560e-001 0.000000e+000 0.000000e+000
 0.000000e+000 0.000000e+000 8.904153e-001 1.095847e-001 0.000000e+000
 0.000000e+000 0.000000e+000 0.000000e+000 8.774025e-001 1.225975e-001
 0.000000e+000 0.000000e+000 0.000000e+000 0.000000e+000 0.000000e+000
<ENDHMM>
~h "jh"
<BEGINHMM>
<NUMSTATES> 5
<STATE> 2
<MEAN> 25
 3.331359e+000 -1.263555e-001 5.986366e+000 4.003347e+000 3.633008e+000 1.494889e+000 2.719018e+000 3.376611e+000 -4.350627e+000 3.181699e+000 4.729237e-001 -3.516857e+000 -7.857674e-001 -1.872272e+000 3.491294e-001 -3.553142e-001 -1.733000e+000 -6.380950e-001 9.190673e-001 2.849042e-001 -7.659272e-001 1.599769e-001 9.402551e-001 2.498409e-001 2.822153e-001
<VARIANCE> 25
 3.055156e+001 1.765111e+002 8.675445e+001 1.369060e+002 3.638405e+001 3.859789e+001 3.974308e+001 2.199310e+001 1.140068e+002 2.019406e+001 6.849599e+001 2.474034e+001 3.001993e+000 1.027237e+001 1.118952e+001 1.477344e+001 4.660560e+000 6.986492e+000 8.339164e+000 5.356358e+000 8.556134e+000 1.623998e+000 6.548695e+000 3.033571e+000 7.252818e+000
<GCONST> 1.165403e+002
<STATE> 3
<MEAN> 25
 -4.264368e+000 8.884637e-001 -1.758963e+001 5.646190e-001 -7.592136e+000 -4.430130e+000 8.038486e+000 1.501390e-001 3.034683e+000 7.371325e-001 5.663016e+000 5.768023e+000 -2.969623e-001 3.863959e-001 -5.853925e-001 -3.244472e-001 -3.025589e-001 -3.138958e-001 -1.904299e-002 2.690804e-002 2.326185e-001 -3.132450e-001 -2.815766e-001 6.104217e-002 -5.281772e-001
<VARIANCE> 25
 1.985884e+001 9.147788e+001 1.095159e+002 1.339477e+002 3.816155e+001 3.545240e+001 1.111709e+002 3.853238e+001 8.100620e+001 5.784977e+001 7.376765e+001 2.160062e+001 9.223308e-001 2.154848e+000 8.020822e+000 6.306302e+000 3.258190e+000 3.894853e+000 5.656965e+000 4.188056e+000 8.392017e+000 4.370398e+000 4.252337e+000 3.785247e+000 1.022763e+000
<GCONST> 1.111634e+002
<STATE> 4
<MEAN> 25
 -6.736232e+000 -5.238926e+000 4.101674e+000 -1.625130e+000 1.274606e+000 -1.724318e+000 -3.874993e+000 4.567761e+000 2.266108e+000 9.915446e-001 -2.624814e-001 -1.482553e+000 3.383695e-001 -9.721417e-001 9.568591e-001 4.323681e-001 7.286789e-001 7.064493e-001 -9.510432e-001 -3.884900e-001 3.371536e-001 3.783835e-001 -2.170031e-001 -1.573715e-001 9.042147e-001
<VARIANCE> 25
 6.638651e+001 2.201938e+002 2.654063e+002 7.989712e+001 8.073239e+001 4.572123e+001 5.903303e+001 3.231796e+001 8.166076e+001 2.951396e+001 4.087683e+001 2.995760e+001 4.346007e+000 1.318501e+001 1.173971e+001 4.297974e+000 1.172097e+001 7.311076e+000 1.021172e+001 5.622835e+000 8.070142e+000 3.501244e+000 3.283374e+000 4.083034e+000 2.788004e+000
<GCONST> 1.195971e+002
<TRANSP> 5
 0.000000e+000 1.000000e+000 0.000000e+000 0.000000e+000 0.000000e+000
 0.000000e+000 8.787938e-001 1.212061e-001 0.000000e+000 0.000000e+000
 0.000000e+000 0.000000e+000 9.259800e-001 7.401995e-002 0.000000e+000
 0.000000e+000 0.000000e+000 0.000000e+000 8.986585e-001 1.013415e-001
 0.000000e+000 0.000000e+000 0.000000e+000 0.000000e+000 0.000000e+000
<ENDHMM>
~h "ng"
<BEGINHMM>
<NUMSTATES> 5
<STATE> 2
<MEAN> 25
 8.749591e+000 4.211333e+000 5.175425e-002 -2.131120e+000 5.507355e+000 2.785491e+000 -4.559768e+000 2.729350e+000 -5.481895e-001 -2.076023e+000 -4.681931e+000 -4.107515e+000 -5.107962e-001 -4.791098e-001 -1.228966e-001 -8.345204e-001 1.419100e-001 -1.575267e-001 4.843973e-001 -1.613333e-001 -1.542548e+000 5.849980e-001 3.824275e-001 1.090382e-001 -1.427697e-002
<VARIANCE> 25
 1.488878e+001 4.414985e+001 3.025060e+001 9.047295e+001 3.890393e+001 4.589899e+001 7.916316e+001 2.362944e+001 1.383994e+002 4.679563e+001 4.669340e+001 1.838737e+001 1.096150e+000 6.943748e+000 2.622741e+000 1.300791e+001 3.420749e+000 4.768425e+000 6.325669e+000 2.514646e+000 1.881927e+001 6.797190e+000 4.647019e+000 1.997022e+000 2.849341e+000
<GCONST> 1.101468e+002
<STATE> 3
<MEAN> 25
 7.027729e-001 -1.826532e+000 -5.223033e+000 -2.088086e+000 2.944505e+000 3.487486e+000 3.626267e-001 -1.198190e+000 -8.751118e+000 -1.239413e-001 4.182353e+000 -2.515254e+000 -4.295614e-001 9.174173e-001 -1.232663e+000 2.070211e+000 -8.775199e-001 8.881688e-001 1.816320e-002 -6.806901e-001 2.796616e+000 -7.644705e-001 3.657357e-001 2.496742e-001 -1.684764e+000
<VARIANCE> 25
 1.060663e+001 3.242821e+001 7.470749e+001 1.461126e+002 5.298075e+001 2.916316e+001 7.703019e+001 6.845237e+001 1.246926e+002 2.451217e+001 8.235674e+001 2.823098e+001 1.030144e+000 3.174391e+000 2.492940e+000 6.157087e+000 3.288943e+000 2.703142e+000 4.036473e+000 4.796575e+000 6.391041e+000 3.858116e+000 3.153641e+000 3.356875e+000 1.342047e+000
<GCONST> 1.076980e+002
<STATE> 4
<MEAN> 25
 -7.944472e+000 6.032953e+000 -1.080698e+001 3.024965e+000 -5.497701e+000 5.719867e+000 4.297706e+000 -4.079072e+000 4.292454e+000 -6.212316e+000 4.257439e-001 1.012808e+000 -4.166630e-001 1.051134e-001 -6.709015e-002 -7.929184e-002 -3.033307e-001 -3.242528e-001 8.317895e-002 1.270129e-001 5.447723e-002 -2.112971e-001 -1.640828e-001 5.873531e-002 -3.846976e-001
<VARIANCE> 25
 2.551427e+001 3.245634e+001 7.538212e+001 3.552572e+001 5.675734e+001 5.288260e+001 5.474562e+001 5.396198e+001 4.278559e+001 6.068654e+001 6.019458e+001 3.757173e+001 9.103628e-001 1.420755e+000 3.199248e+000 3.193023e+000 4.346956e+000 4.069095e+000 4.392270e+000 5.288596e+000 4.071939e+000 5.498116e+000 5.922949e+000 3.704820e+000 5.208606e-001
<GCONST> 1.062867e+002
<TRANSP> 5
 0.000000e+000 1.000000e+000 0.000000e+000 0.000000e+000 0.000000e+000
 0.000000e+000 9.095625e-001 9.043749e-002 0.000000e+000 0.000000e+000
 0.000000e+000 0.000000e+000 8.699682e-001 1.300318e-001 0.000000e+000
 0.000000e+000 0.000000e+000 0.000000e+000 9.476355e-001 5.236446e-002
 0.000000e+000 0.000000e+000 0.000000e+000 0.000000e+000 0.000000e+000
<ENDHMM>
~h "ow"
<BEGINHMM>
<NUMSTATES> 5
<STATE> 2
<MEAN> 25
 1.167009e+001 1.920595e+000 4.642636e+000 -1.080253e+001 -4.141701e+000 -9.492738e+000 -7.137051e+000 9.990901e+000 5.108598e-001 -2.665865e+000 1.088117e+000 -1.558325e+000 -4.802060e-002 4.354107e-001 -8.957768e-003 1.912440e-001 5.270824e-002 -1.198860e-001 2.910880e-002 1.726824e-001 -6.752944e-002 7.656951e-002 1.567587e-003 -2.392866e-001 -2.949743e-001
<VARIANCE> 25
 3.497286e+000 3.231441e+001 2.393600e+001 2.340878e+001 5.222070e+001 3.566376e+001 2.408238e+001 3.865099e+001 5.190174e+001 2.346065e+001 1.997167e+001 2.374485e+001 1.083503e-001 6.333053e-001 6.449654e-001 1.142896e+000 1.149201e+000 1.940478e+000 1.108095e+000 1.562141e+000 1.534662e+000 1.191282e+000 1.165845e+000 1.171322e+000 2.429152e-001
<GCONST> 8.250134e+001
<STATE> 3
<MEAN> 25
 7.076727e+000 1.506701e+001 -4.771926e-001 8.020030e-001 -5.445806e+000 -1.047486e+000 -9.427287e-001 2.906337e+000 2.114134e+000 -4.911700e+000 -8.932822e-001 -3.798798e+000 -5.262133e-001 2.200164e-001 -7.049069e-001 9.078613e-001 -2.242725e-001 8.872202e-001 7.687780e-001 -1.005251e+000 1.984577e-001 -3.987491e-001 -8.045034e-002 2.566467e-001 -9.452891e-001
<VARIANCE> 25
 1.885875e+001 6.361410e+001 6.736048e+001 5.967845e+001 8.270307e+001 5.308109e+001 6.844220e+001 1.240063e+002 6.231681e+001 4.142563e+001 3.489482e+001 3.348482e+001 3.958606e-001 2.017646e+000 2.699804e+000 3.478075e+000 4.154084e+000 4.533033e+000 4.025655e+000 4.959135e+000 3.878355e+000 4.122505e+000 3.742108e+000 2.838782e+000 5.862738e-001
<GCONST> 1.062340e+002
<STATE> 4
<MEAN> 25
 -8.989540e+000 1.211820e+000 -1.214303e+001 -2.191783e+000 -1.191828e+001 2.701723e+000 3.021904e+000 -2.076803e+000 5.554808e+000 -4.193965e+000 8.959709e-001 2.215678e+000 -4.089153e-001 -3.191352e-001 -2.352624e-001 -2.160484e-003 4.735444e-002 9.751400e-002 5.236319e-002 -8.807964e-002 9.405914e-002 2.074033e-001 1.591962e-001 7.837826e-002 -2.374565e-001
<VARIANCE> 25
 4.915109e+001 6.398542e+001 1.213335e+002 5.621581e+001 5.809857e+001 6.419511e+001 5.471327e+001 4.195414e+001 8.392504e+001 5.029902e+001 4.251226e+001 4.557376e+001 1.132619e+000 3.482740e+000 6.218419e+000 4.719214e+000 5.468281e+000 4.717527e+000 4.141368e+000 4.882514e+000 6.227549e+000 4.333930e+000 4.809752e+000 4.701865e+000 9.854898e-001
<GCONST> 1.121159e+002
<TRANSP> 5
 0.000000e+000 1.000000e+000 0.000000e+000 0.000000e+000 0.000000e+000
 0.000000e+000 9.525452e-001 4.745478e-002 0.000000e+000 0.000000e+000
 0.000000e+000 0.000000e+000 8.967966e-001 1.032034e-001 0.000000e+000
 0.000000e+000 0.000000e+000 0.000000e+000 9.299592e-001 7.004081e-002
 0.000000e+000 0.000000e+000 0.000000e+000 0.000000e+000 0.000000e+000
<ENDHMM>
~h "oy"
<BEGINHMM>
<NUMSTATES> 5
<STATE> 2
<MEAN> 25
 1.453559e+001 -5.862981e+000 3.206581e+000 -1.274026e+001 -4.072149e+000 -7.191121e+000 -1.010684e+001 6.367034e+000 1.648776e+000 -5.053794e+000 3.428575e+000 1.999956e+000 -6.216428e-003 -7.122318e-001 -3.734894e-001 -3.444350e-001 5.087825e-001 6.205407e-001 5.892982e-001 -1.787809e-001 -6.456019e-001 -1.805132e-001 3.846112e-001 7.858893e-002 4.239047e-001
<VARIANCE> 25
 1.659685e+000 2.340090e+001 9.721596e+000 1.142523e+001 1.477907e+001 6.723840e+001 2.667417e+001 2.257869e+001 5.291990e+001 1.670409e+001 3.146918e+001 1.652873e+001 2.413323e-001 1.077890e+000 1.116652e+000 1.677520e+000 1.849353e+000 5.183023e+000 2.750756e+000 2.918754e+000 4.443177e+000 1.525791e+000 2.215995e+000 3.009604e+000 5.249352e-001
<GCONST> 8.744845e+001
<STATE> 3
<MEAN> 25
 1.226605e+001 -1.054939e+001 1.225908e+000 -7.372237e+000 1.220851e+001 -2.365637e+000 -1.108066e+001 -7.985670e+000 -9.825743e+000 2.240667e+000 1.031949e+000 6.760500e+000 -5.557694e-001 1.378701e-001 8.484513e-001 1.246045e+000 1.462717e+000 -9.721859e-001 -1.020663e+000 -1.402941e+000 -3.485991e-001 1.984638e+000 -1.657817e+000 -3.245143e-001 -3.550874e-001
<VARIANCE> 25
 4.329359e+000 6.076617e+000 1.472036e+001 2.624744e+001 3.166139e+001 2.010557e+001 2.997872e+001 3.290287e+001 1.526178e+001 8.616648e+001 3.075509e+001 1.209807e+001 1.311129e-001 1.055952e+000 6.801137e-001 1.165690e+000 2.988471e+000 2.007293e+000 1.412063e+000 4.638373e+000 2.316694e+000 3.978931e+000 1.927455e+000 3.052464e+000 1.585812e-001
<GCONST> 8.523782e+001
<STATE> 4
<MEAN> 25
 1.122684e+001 -9.758639e+000 5.629521e+000 -3.337553e+000 1.038071e+001 -3.730181e+000 -1.353315e+001 -5.715619e+000 -8.868981e+000 5.691786e+000 -5.512866e+000 1.284078e+000 -6.462916e-001 6.648535e-001 1.807051e+000 5.692059e-001 -1.798731e+000 3.778250e-001 1.552722e+000 1.427652e+000 5.379573e-001 1.106226e+000 -1.325736e+000 -2.183886e+000 -7.768129e-001
<VARIANCE> 25
 7.396227e+000 8.988916e+000 6.669525e+000 2.544898e+001 8.671492e+001 2.566220e+001 2.094489e+000 7.651130e+001 1.600931e+001 8.432869e+001 1.648826e+001 6.124167e+000 5.214367e-001 6.473886e-001 7.498957e-001 9.687132e-001 6.591876e-001 4.195281e+000 3.331555e+000 3.650913e+000 1.405666e+000 1.270413e+000 4.697864e+000 1.241603e+000 8.866076e-002
<GCONST> 8.191576e+001
<TRANSP> 5
 0.000000e+000 1.000000e+000 0.000000e+000 0.000000e+000 0.000000e+000
 0.000000e+000 9.236738e-001 7.632618e-002 0.000000e+000 0.000000e+000
 0.000000e+000 0.000000e+000 8.443407e-001 1.556594e-001 0.000000e+000
 0.000000e+000 0.000000e+000 0.000000e+000 1.704674e-003 9.982953e-001
 0.000000e+000 0.000000e+000 0.000000e+000 0.000000e+000 0.000000e+000
<ENDHMM>
~h "sh"
<BEGINHMM>
<NUMSTATES> 5
<STATE> 2
<MEAN> 25
 -2.934977e+000 -1.530110e+001 2.058748e+001 3.215141e+000 8.966517e+000 4.851796e-001 -8.617577e+000 -3.822690e+000 -4.360950e+000 3.121721e+000 7.800413e-001 1.020806e-002 -2.362966e+000 -3.121847e+000 2.332574e+000 -7.606865e-001 -4.829082e-001 -8.722971e-003 1.744185e+000 6.268431e-001 -2.035393e-001 4.754680e-002 3.665383e-001 3.178209e-001 9.568245e-001
<VARIANCE> 25
 2.907879e+001 4.392609e+001 8.011672e+001 5.277361e+001 4.309943e+001 6.331182e+001 5.279364e+001 5.119932e+001 1.890383e+001 3.925389e+001 4.583934e+001 2.510403e+001 7.768938e-001 2.802403e+000 3.244236e+000 2.908591e+000 1.464627e+000 6.211845e+000 4.140971e+000 2.753115e+000 2.770943e+000 1.768995e+000 2.750451e+000 1.908762e+000 7.300019e-001
<GCONST> 1.015176e+002
<STATE> 3
<MEAN> 25
 -1.074188e+001 -2.653358e+001 2.519496e+001 3.511284e+000 4.184966e+000 -1.575022e+000 -2.727371e+000 2.676092e+000 1.295413e+000 -5.991373e-001 1.619403e+000 1.821616e+000 -3.899480e-001 -5.801281e-001 -1.927792e-001 -2.023545e-002 -5.606738e-001 -2.818627e-002 4.722580e-001 4.936452e-001 8.047655e-001 -2.659024e-002 -7.743828e-002 3.596999e-001 -9.897336e-002
<VARIANCE> 25
 1.005566e+001 1.317414e+001 2.597523e+001 2.916299e+001 3.208546e+001 1.230627e+001 2.698422e+001 3.160974e+001 2.978331e+001 3.935901e+001 1.939868e+001 1.720145e+001 3.926041e-001 7.220685e-001 1.187981e+000 8.920519e-001 1.209759e+000 1.196647e+000 2.059274e+000 2.295866e+000 1.386323e+000 1.530264e+000 1.650956e+000 9.983967e-001 2.333787e-001
<GCONST> 8.358506e+001
<STATE> 4
<MEAN> 25
 -7.560788e+000 -2.082900e+001 1.526571e+001 2.995816e+000 -1.885779e+000 -1.272853e+000 -6.669868e+000 1.227693e+000 5.231683e+000 -9.204838e-001 1.248526e+000 1.884432e+000 1.999516e+000 2.570940e+000 -2.040759e+000 4.057311e-001 -9.396093e-001 4.114312e-001 -7.912017e-001 -1.286136e+000 -6.652396e-001 -9.605028e-001 -1.699479e-001 -2.876634e-001 -9.328853e-001
<VARIANCE> 25
 2.590350e+001 5.712793e+001 5.342433e+001 3.641529e+001 6.452841e+001 3.154666e+001 5.678675e+001 6.832311e+001 4.969447e+001 4.554004e+001 2.525612e+001 2.579031e+001 4.336912e+000 3.493853e+000 1.591269e+000 2.554799e+000 3.068383e+000 3.390517e+000 2.706170e+000 5.847815e+000 4.576807e+000 3.902837e+000 2.192489e+000 2.007834e+000 1.448727e+000
<GCONST> 1.048654e+002
<TRANSP> 5
 0.000000e+000 1.000000e+000 0.000000e+000 0.000000e+000 0.000000e+000
 0.000000e+000 7.306511e-001 2.693489e-001 0.000000e+000 0.000000e+000
 0.000000e+000 0.000000e+000 8.815741e-001 1.184259e-001 0.000000e+000
 0.000000e+000 0.000000e+000 0.000000e+000 8.261582e-001 1.738418e-001
 0.000000e+000 0.000000e+000 0.000000e+000 0.000000e+000 0.000000e+000
<ENDHMM>
~h "sp"
<BEGINHMM>
<NUMSTATES> 3
<STATE> 2
~s "silst"
<TRANSP> 3
 0.000000e+000 1.851406e-001 8.148594e-001
 0.000000e+000 8.107086e-001 1.892914e-001
 0.000000e+000 0.000000e+000 0.000000e+000
<ENDHMM>
~h "th"
<BEGINHMM>
<NUMSTATES> 5
<STATE> 2
<MEAN> 25
 1.747378e+000 -1.299943e+001 8.557111e+000 -1.026222e+001 4.483667e+000 -5.212973e+000 -4.243618e+000 2.646954e+000 -8.952738e+000 7.638145e+000 1.345514e-001 3.107920e+000 6.033427e-002 6.907795e-001 -8.942819e-001 5.910274e-001 -4.329335e-001 9.645798e-001 1.725625e-002 -2.925166e-002 6.721269e-001 -5.207411e-001 5.573622e-001 -6.448146e-001 -8.494883e-001
<VARIANCE> 25
 5.507252e+001 4.619194e+001 4.585222e+001 5.709018e+001 2.453627e+001 8.127489e+001 2.991446e+001 2.453966e+001 2.511744e+001 3.228866e+001 4.868111e+001 3.468904e+001 7.739298e-001 1.564465e+000 2.815554e+000 1.409353e+000 1.178305e+000 1.080404e+000 2.458647e+000 8.394174e-001 1.500520e+000 1.260291e+000 1.727322e+000 1.919404e+000 3.736077e-001
<GCONST> 9.337178e+001
<STATE> 3
<MEAN> 25
 6.805642e+000 2.159999e-001 6.370795e+000 1.080191e+000 5.556496e+000 1.472205e-001 -6.883746e+000 1.322787e+000 -4.634401e+000 1.052522e+000 -3.235197e+000 -7.988543e+000 3.366080e-003 1.515542e+000 -9.021977e-001 2.055137e+000 -7.898488e-001 1.522650e+000 2.745431e-001 -8.414022e-001 1.201497e+000 -1.457996e+000 1.151483e+000 -6.583122e-001 -1.638087e+000
<VARIANCE> 25
 1.725651e+001 4.072116e+001 3.630006e+001 5.653034e+001 2.771992e+001 7.749343e+001 1.581311e+001 2.418856e+001 3.805017e+001 2.542939e+001 1.094800e+002 9.636806e+001 2.353889e-001 1.506350e+000 1.521707e+000 3.485512e+000 2.325888e+000 2.312920e+000 1.342110e+000 1.882800e+000 3.944272e+000 1.298511e+000 2.962329e+000 1.557029e+000 5.183333e-001
<GCONST> 9.563259e+001
<STATE> 4
<MEAN> 25
 1.516598e+000 5.713153e+000 -1.156831e+000 6.934214e+000 -1.068692e+000 8.032489e+000 -5.172625e+000 -4.547713e+000 3.547825e+000 -5.415340e+000 3.530714e+000 -5.149513e+000 -6.566407e-001 4.669396e-001 -5.100254e-001 2.309767e-001 -5.988232e-001 -1.519083e-001 6.956173e-001 -7.324305e-003 6.608602e-001 8.457701e-002 -1.641852e-001 1.218555e-001 -9.297253e-001
<VARIANCE> 25
 4.799284e+001 3.530328e+001 2.697764e+001 4.357455e+001 5.490967e+001 2.732319e+001 6.097490e+001 5.017946e+001 4.865907e+001 4.499374e+001 4.538784e+001 5.677502e+001 8.878068e-001 2.486471e+000 1.766773e+000 3.538387e+000 3.091863e+000 2.407138e+000 2.981317e+000 4.648308e+000 3.265095e+000 3.781685e+000 3.103353e+000 4.874274e+000 4.380071e-001
<GCONST> 1.030018e+002
<TRANSP> 5
 0.000000e+000 1.000000e+000 0.000000e+000 0.000000e+000 0.000000e+000
 0.000000e+000 6.136868e-001 3.863132e-001 0.000000e+000 0.000000e+000
 0.000000e+000 0.000000e+000 7.442762e-001 2.557238e-001 0.000000e+000
 0.000000e+000 0.000000e+000 0.000000e+000 8.720869e-001 1.279131e-001
 0.000000e+000 0.000000e+000 0.000000e+000 0.000000e+000 0.000000e+000
<ENDHMM>
~h "uh"
<BEGINHMM>
<NUMSTATES> 5
<STATE> 2
<MEAN> 25
 4.977833e+000 3.329765e+000 -6.512521e+000 -9.201888e-001 4.009068e+000 4.623220e+000 -7.718134e+000 -4.399809e-001 -1.440611e-001 -1.053974e+001 -2.774177e-001 -4.053645e+000 -4.719552e-001 -3.467551e-001 -3.824588e-001 7.616044e-001 -1.040720e+000 -5.282615e-001 6.224851e-001 -2.380123e-001 7.477466e-001 -1.997384e-001 -8.523724e-001 7.044538e-001 -5.483125e-001
<VARIANCE> 25
 2.245378e+001 2.267722e+001 5.786942e+001 8.010950e+001 6.122632e+001 1.487709e+001 8.048981e+001 9.263053e+000 6.194980e+001 2.313452e+001 2.700469e+001 3.090828e+001 2.469704e-001 3.938549e-001 8.341957e-001 1.202878e+000 1.176147e+000 1.796195e+000 3.034387e+000 8.993976e-001 2.624214e+000 1.793753e+000 3.259041e+000 3.083791e+000 1.185151e-001
<GCONST> 8.919361e+001
<STATE> 3
<MEAN> 25
