~o
<STREAMINFO> 1 25
<VECSIZE> 25<NULLD><MFCC_D_N_Z_0><DIAGC>
~s "silst"
<MEAN> 25
 -1.317847e+001 7.140637e+000 -1.251233e+001 3.649073e+000 -1.903129e+000 7.308348e-002 7.664196e+000 -1.270368e+000 4.784801e+000 1.964882e+000 2.841397e-001 1.304257e+000 3.530687e+000 -2.104666e+000 2.698768e+000 -1.704451e+000 -1.349105e+000 4.358204e-001 -2.882427e+000 4.872735e-001 -1.978575e+000 -1.470841e+000 -5.964040e-001 -2.335740e+000 4.478836e+000
<VARIANCE> 25
 8.982219e+001 5.026973e+001 5.590701e+001 4.572462e+001 4.146064e+001 2.917590e+001 7.009792e+001 3.064623e+001 4.333293e+001 3.855952e+001 2.739737e+001 4.831067e+001 7.841477e+000 3.412947e+000 4.830050e+000 2.806649e+000 3.015636e+000 3.855325e+000 5.674887e+000 3.371693e+000 3.566868e+000 3.463578e+000 2.808692e+000 4.000911e+000 8.269828e+000
<GCONST> 1.099326e+002
~h "b"
<BEGINHMM>
<NUMSTATES> 5
<STATE> 2
<MEAN> 25
 6.909975e-001 7.430117e+000 3.347784e+000 8.583188e+000 -6.709848e-001 4.535675e+000 2.657048e+000 1.307384e-002 1.948379e+000 -2.302002e+000 3.591304e-001 -2.617282e+000 1.019125e+000 7.628846e-001 3.510503e-001 4.300832e-001 2.744030e-001 3.475491e-001 -4.342470e-001 -1.861885e-001 3.494992e-001 3.732466e-002 1.365949e-001 -2.843391e-001 4.425713e-001
<VARIANCE> 25
 1.054738e+002 8.912601e+001 1.191293e+002 6.875796e+001 7.210824e+001 5.550875e+001 8.155090e+001 6.652554e+001 8.489452e+001 5.781161e+001 4.507653e+001 4.346825e+001 6.466018e+000 6.385880e+000 5.858247e+000 6.424357e+000 4.974589e+000 5.392206e+000 8.196614e+000 4.360990e+000 5.965887e+000 4.137626e+000 3.825828e+000 4.091142e+000 5.804392e+000
<GCONST> 1.190085e+002
<STATE> 3
<MEAN> 25
 -1.257878e+000 3.848516e+000 6.710575e-001 4.600708e+000 -2.134657e+000 2.391397e+000 2.872510e+000 4.136787e-001 6.338448e-001 -3.953759e-001 5.749886e-001 -2.252657e+000 -1.939681e-001 1.878903e-001 -4.649030e-001 -1.438979e-002 -6.405544e-002 -3.848837e-001 4.203987e-001 1.711260e-001 6.891827e-002 2.926373e-001 3.376417e-004 2.419556e-001 -3.228877e-001
<VARIANCE> 25
 7.807494e+001 9.310211e+001 6.640282e+001 8.380761e+001 5.251141e+001 4.122668e+001 6.165667e+001 5.735593e+001 6.275801e+001 5.730876e+001 4.757269e+001 3.318246e+001 6.945627e-001 2.551927e+000 2.227566e+000 2.659822e+000 2.585359e+000 2.544855e+000 3.101691e+000 3.500042e+000 4.063435e+000 3.330346e+000 3.876422e+000 2.345195e+000 1.058673e+000
<GCONST> 1.063552e+002
<STATE> 4
<MEAN> 25
 -3.271944e+000 4.573540e+000 -7.751180e+000 6.417220e+000 -1.427830e+000 -5.699287e-001 9.243974e+000 -9.898619e-002 1.387164e+000 4.449981e+000 2.210516e+000 1.425304e+000 1.785748e-001 -9.092620e-003 2.529434e-001 -2.238142e-001 1.165002e-001 5.309516e-002 -8.851533e-002 1.543384e-001 6.613455e-003 5.015636e-002 8.791166e-003 1.268693e-001 2.742211e-001
<VARIANCE> 25
 6.124436e+001 1.045437e+002 1.295970e+002 9.848969e+001 6.082144e+001 6.719071e+001 6.963941e+001 6.366540e+001 5.888606e+001 5.969050e+001 4.537088e+001 5.367199e+001 2.154927e+000 4.197839e+000 3.709026e+000 4.980975e+000 4.235108e+000 4.071035e+000 5.001668e+000 5.570964e+000 6.541353e+000 3.965523e+000 3.697531e+000 4.711611e+000 1.454749e+000
<GCONST> 1.146225e+002
<TRANSP> 5
 0.000000e+000 1.000000e+000 0.000000e+000 0.000000e+000 0.000000e+000
 0.000000e+000 7.561979e-001 2.438021e-001 0.000000e+000 0.000000e+000
 0.000000e+000 0.000000e+000 7.681917e-001 2.318083e-001 0.000000e+000
 0.000000e+000 0.000000e+000 0.000000e+000 8.982077e-001 1.017923e-001
 0.000000e+000 0.000000e+000 0.000000e+000 0.000000e+000 0.000000e+000
<ENDHMM>
~h "d"
<BEGINHMM>
<NUMSTATES> 5
<STATE> 2
<MEAN> 25
 2.813726e+000 -1.275646e+000 2.975246e+000 -1.035922e+000 -5.625217e+000 1.240863e+000 -3.714349e+000 -1.942501e+000 -2.759687e+000 -1.317716e+000 3.024102e+000 -1.779814e+000 -2.570242e-001 7.782430e-001 -6.897030e-001 7.453820e-001 -7.973276e-001 4.364649e-001 1.381553e-001 -4.671305e-001 8.823667e-001 -6.274263e-001 2.989358e-001 -1.455286e-001 -1.056187e+000
<VARIANCE> 25
 5.593007e+001 6.159532e+001 7.505462e+001 7.917772e+001 1.177551e+002 3.731530e+001 5.570418e+001 5.371647e+001 8.294631e+001 4.380302e+001 3.042918e+001 3.150765e+001 5.359473e-001 2.058303e+000 2.364820e+000 2.670207e+000 4.065478e+000 3.181767e+000 2.787642e+000 3.552542e+000 4.480452e+000 3.914426e+000 2.328269e+000 2.658610e+000 9.472362e-001
<GCONST> 1.056638e+002
<STATE> 3
<MEAN> 25
 -9.131311e-001 6.280255e-001 -1.732459e+000 3.188469e+000 -4.983587e+000 3.195030e+000 -9.424689e-001 -3.411811e+000 1.047075e+000 -1.783521e+000 2.681705e+000 -2.057718e+000 -4.314521e-001 2.986716e-001 -5.815953e-001 3.843891e-001 3.799939e-001 3.611792e-001 1.073728e+000 2.441118e-001 4.859612e-001 2.275296e-001 -4.736691e-001 -1.311139e-001 -6.387579e-001
<VARIANCE> 25
 5.426159e+001 5.051978e+001 8.013643e+001 4.585951e+001 1.062223e+002 4.174276e+001 6.469167e+001 6.237506e+001 7.050089e+001 5.726229e+001 3.305194e+001 3.117920e+001 4.384604e-001 2.185651e+000 1.905774e+000 2.646244e+000 4.113225e+000 2.903176e+000 3.017432e+000 4.042015e+000 4.321115e+000 3.721724e+000 3.420073e+000 2.787624e+000 7.000740e-001
<GCONST> 1.052460e+002
<STATE> 4
<MEAN> 25
 -5.432456e+000 5.124587e+000 -6.335341e+000 5.354888e+000 -3.524777e+000 1.250762e+000 7.741802e+000 3.030768e-001 2.293572e+000 -9.624269e-002 -3.031277e-001 -2.688281e+000 -7.400072e-002 -1.230960e-001 2.494638e-001 -1.042724e-002 4.313534e-001 1.338854e-001 9.698643e-002 4.854676e-001 2.904619e-001 6.286248e-003 -1.486931e-001 2.764824e-001 1.178639e-001
<VARIANCE> 25
 4.121524e+001 6.322991e+001 7.833541e+001 6.480151e+001 6.178404e+001 7.188554e+001 9.314020e+001 5.281500e+001 5.857626e+001 6.029013e+001 3.698249e+001 5.083727e+001 1.334396e+000 5.086046e+000 3.361794e+000 3.857471e+000 5.249765e+000 4.903198e+000 6.310373e+000 5.893536e+000 5.753861e+000 5.459573e+000 4.732340e+000 4.160406e+000 1.285966e+000
<GCONST> 1.129734e+002
<TRANSP> 5
 0.000000e+000 1.000000e+000 0.000000e+000 0.000000e+000 0.000000e+000
 0.000000e+000 6.706321e-001 3.293680e-001 0.000000e+000 0.000000e+000
 0.000000e+000 0.000000e+000 7.000059e-001 2.999941e-001 0.000000e+000
 0.000000e+000 0.000000e+000 0.000000e+000 8.328681e-001 1.671319e-001
 0.000000e+000 0.000000e+000 0.000000e+000 0.000000e+000 0.000000e+000
<ENDHMM>
~h "f"
<BEGINHMM>
<NUMSTATES> 5
<STATE> 2
<MEAN> 25
 -8.608227e+000 1.651161e+000 2.305781e+000 -4.235312e+000 1.206062e+001 2.955650e+000 -1.143591e+000 6.030374e+000 -6.560445e+000 5.828771e+000 -3.159115e+000 -2.837023e+000 -1.282908e+000 -1.482102e+000 1.029069e+000 -1.546971e+000 1.292297e+000 -5.315679e-002 -3.501719e-001 6.861195e-001 -9.119214e-001 1.251658e+000 -4.962371e-001 2.124024e-001 4.392917e-001
<VARIANCE> 25
 6.539625e+001 6.969865e+001 5.355437e+001 6.546580e+001 7.795233e+001 5.948339e+001 5.599776e+001 6.269459e+001 8.171547e+001 6.529329e+001 4.735566e+001 4.001595e+001 1.318896e+000 4.971948e+000 3.448430e+000 4.481133e+000 4.681739e+000 5.079729e+000 5.020695e+000 3.716372e+000 5.520725e+000 5.213646e+000 4.523646e+000 2.948803e+000 1.346997e+000
<GCONST> 1.122303e+002
<STATE> 3
<MEAN> 25
 -1.423632e+001 -5.920719e+000 5.369130e+000 -1.121240e+001 1.397918e+001 2.031155e+000 -1.533417e+000 9.266505e+000 -6.965063e+000 9.167062e+000 -4.602866e+000 -5.610579e-001 4.091360e-002 -8.814168e-001 -4.662806e-001 -6.809641e-002 -4.300340e-001 8.752718e-002 6.053856e-002 9.676607e-002 4.711142e-001 5.612561e-002 2.324371e-001 2.567794e-002 2.530767e-001
<VARIANCE> 25
 3.803449e+001 7.276772e+001 3.135231e+001 4.245568e+001 5.180037e+001 5.165182e+001 3.614569e+001 3.669077e+001 4.381388e+001 4.015351e+001 4.621503e+001 3.879725e+001 1.237586e+000 2.568370e+000 2.056618e+000 2.003455e+000 2.916533e+000 2.369130e+000 2.583037e+000 2.858133e+000 2.514720e+000 2.774429e+000 4.029279e+000 2.670137e+000 6.284585e-001
<GCONST> 1.014710e+002
<STATE> 4
<MEAN> 25
 1.469200e+000 -7.367414e+000 1.610292e+000 -8.539566e+000 -9.524789e-002 2.065670e+000 -3.141368e+000 5.661624e+000 4.596540e+000 2.035020e+000 1.690209e+000 3.716100e-001 1.345377e+000 7.746702e-001 -3.230454e-001 2.819793e-001 -1.353920e+000 -2.068972e-001 -3.611234e-001 -3.114536e-001 9.198506e-001 -9.708478e-001 5.715867e-001 -1.412892e-001 4.059098e-001
<VARIANCE> 25
 1.432425e+002 1.130535e+002 6.751420e+001 5.142397e+001 1.442830e+002 6.057553e+001 4.799702e+001 4.916961e+001 1.205870e+002 1.385396e+002 3.870957e+001 3.092707e+001 7.314194e+000 7.007290e+000 2.810924e+000 3.138247e+000 8.480677e+000 4.202318e+000 3.824176e+000 2.851802e+000 4.697032e+000 7.448425e+000 3.435255e+000 2.698634e+000 2.531107e+000
<GCONST> 1.162322e+002
<TRANSP> 5
 0.000000e+000 1.000000e+000 0.000000e+000 0.000000e+000 0.000000e+000
 0.000000e+000 7.816238e-001 2.183762e-001 0.000000e+000 0.000000e+000
 0.000000e+000 0.000000e+000 8.509313e-001 1.490687e-001 0.000000e+000
 0.000000e+000 0.000000e+000 0.000000e+000 8.784445e-001 1.215555e-001
 0.000000e+000 0.000000e+000 0.000000e+000 0.000000e+000 0.000000e+000
<ENDHMM>
~h "g"
<BEGINHMM>
<NUMSTATES> 5
<STATE> 2
<MEAN> 25
 -3.656576e+000 1.240103e+001 -8.626685e+000 5.674611e+000 -3.543600e+000 9.845535e-002 9.607102e+000 -4.642906e-001 2.575607e+000 -2.424994e+000 -2.609057e+000 5.597790e-001 5.224133e-001 1.663729e-001 9.659714e-001 1.509478e-001 9.115541e-001 -2.764205e-003 -6.428027e-001 3.546150e-001 6.126710e-002 7.900493e-001 8.308984e-002 -6.531432e-001 6.557413e-001
<VARIANCE> 25
 4.100699e+001 6.778715e+001 9.989539e+001 6.081577e+001 6.518285e+001 6.203674e+001 9.741796e+001 7.854675e+001 6.864513e+001 1.031862e+002 5.237452e+001 6.815478e+001 3.421093e+000 1.031739e+001 8.339383e+000 7.199328e+000 7.412832e+000 8.578318e+000 9.758933e+000 1.003953e+001 8.935742e+000 1.000308e+001 4.540559e+000 5.210846e+000 3.754630e+000
<GCONST> 1.222580e+002
<STATE> 3
<MEAN> 25
 6.323578e+000 7.029085e+000 5.187259e+000 5.600417e+000 7.816121e+000 2.090095e-001 -1.784717e+000 4.567187e-001 -3.532477e+000 8.890738e+000 2.928447e+000 -6.049613e+000 -4.528398e-001 -3.061968e+000 1.107174e+000 -1.632467e+000 1.388946e+000 -7.001942e-001 -8.381113e-001 6.581275e-001 -8.965168e-001 5.980593e-001 -1.555702e+000 9.360284e-002 1.947828e+000
<VARIANCE> 25
 1.245136e+001 1.458613e+002 5.826631e+001 7.295094e+001 7.975527e+001 6.346166e+001 7.577953e+001 4.853492e+001 5.657254e+001 4.905974e+001 6.932329e+001 2.931956e+001 1.865856e+000 1.846192e+001 7.572211e+000 8.242341e+000 5.234810e+000 6.383691e+000 1.514785e+001 4.535250e+000 8.513691e+000 8.356302e+000 5.340494e+000 2.848825e+000 6.247710e+000
<GCONST> 1.183225e+002
<STATE> 4
<MEAN> 25
 4.433657e+000 -1.112642e+001 1.226483e+001 -5.095423e+000 1.282401e+001 -4.884147e+000 -1.654571e+001 -7.114873e-001 -2.828333e+000 9.160685e+000 -3.124760e+000 -3.137072e+000 2.600369e-001 -8.252517e-001 8.265916e-001 -8.719953e-001 -2.863721e-001 -5.051605e-001 -2.012331e+000 -6.190959e-001 7.772313e-001 -6.163517e-001 2.318301e-001 4.536319e-001 1.093717e+000
<VARIANCE> 25
 9.939644e+000 5.066404e+001 2.571807e+001 5.180389e+001 6.937600e+001 6.028507e+001 9.014949e+001 3.127126e+001 3.060588e+001 2.701657e+001 3.722637e+001 2.014149e+001 3.897876e-001 3.416661e+000 4.363271e+000 3.290423e+000 2.297407e+000 3.228852e+000 8.648736e+000 2.024038e+000 2.433625e+000 1.862157e+000 3.374668e+000 2.038042e+000 1.292159e+000
<GCONST> 1.004965e+002
<TRANSP> 5
 0.000000e+000 1.000000e+000 0.000000e+000 0.000000e+000 0.000000e+000
 0.000000e+000 9.018935e-001 9.810653e-002 0.000000e+000 0.000000e+000
 0.000000e+000 0.000000e+000 7.744635e-001 2.255365e-001 0.000000e+000
 0.000000e+000 0.000000e+000 0.000000e+000 6.782444e-001 3.217556e-001
 0.000000e+000 0.000000e+000 0.000000e+000 0.000000e+000 0.000000e+000
<ENDHMM>
~h "k"
<BEGINHMM>
<NUMSTATES> 5
<STATE> 2
<MEAN> 25
 -2.315867e+000 1.737314e+000 -4.486768e+000 -1.928316e-001 2.211600e-001 -8.991556e-001 9.540979e-001 3.949455e-001 -2.280244e+000 2.460791e+000 3.884641e-001 -2.666843e+000 3.879487e-001 -1.353478e+000 7.296674e-001 -3.774319e+000 2.483184e-001 -1.005636e+000 -2.752475e-001 1.448218e+000 -2.006840e+000 9.620078e-001 9.234461e-002 9.694903e-002 1.965276e+000
<VARIANCE> 25
 4.458839e+001 9.780840e+001 1.040941e+002 2.289681e+002 1.036355e+002 8.500377e+001 7.600155e+001 1.403709e+002 1.350759e+002 6.611274e+001 6.303715e+001 5.414007e+001 4.443951e+000 8.345738e+000 1.114905e+001 2.073320e+001 9.065543e+000 1.027893e+001 1.068767e+001 9.931645e+000 1.633893e+001 6.578161e+000 7.443458e+000 5.284631e+000 6.825779e+000
<GCONST> 1.285233e+002
<STATE> 3
<MEAN> 25
 -1.872126e+000 -4.626294e+000 1.592278e+000 -8.535862e+000 -3.728025e-001 -2.819477e+000 -1.576383e+000 3.288291e+000 -8.319917e+000 4.165245e+000 9.092187e-001 -3.779792e+000 -1.316523e-002 4.846254e-001 1.654315e-001 8.354337e-001 -1.065769e-001 4.384134e-001 2.980825e-001 -7.390656e-002 7.968784e-001 -4.098691e-001 1.220457e-002 1.660996e-001 -3.548923e-001
<VARIANCE> 25
 2.664368e+001 9.471218e+001 1.092520e+002 2.071832e+002 9.389424e+001 6.281852e+001 7.266355e+001 6.934898e+001 9.022280e+001 6.388165e+001 4.985855e+001 4.492368e+001 2.359843e+000 4.622637e+000 6.038192e+000 1.287616e+001 5.075624e+000 4.075994e+000 5.086617e+000 4.040350e+000 7.782147e+000 3.477932e+000 3.733862e+000 3.046442e+000 3.124515e+000
<GCONST> 1.170530e+002
<STATE> 4
<MEAN> 25
 -1.380301e+000 2.043383e+000 -7.789560e-001 -3.694981e+000 -2.507650e+000 -3.606505e+000 2.709724e+000 4.811406e+000 -2.811617e+000 2.070903e+000 -1.651043e-002 -1.438828e+000 7.003899e-001 -1.206864e-001 8.787947e-001 -3.548771e-001 8.333584e-003 6.081316e-001 -4.357230e-001 -1.280403e-001 6.269271e-001 -1.340145e-001 1.195299e-001 4.457597e-001 9.109122e-001
<VARIANCE> 25
 4.271064e+001 7.887466e+001 1.209111e+002 2.626651e+002 8.079437e+001 7.959188e+001 1.097777e+002 1.019472e+002 1.030118e+002 8.855736e+001 5.577042e+001 5.075950e+001 4.671655e+000 7.120066e+000 4.370946e+000 2.496379e+001 5.834922e+000 7.539037e+000 7.251106e+000 6.781278e+000 1.152274e+001 6.735578e+000 4.721980e+000 4.971358e+000 5.085374e+000
<GCONST> 1.246039e+002
<TRANSP> 5
 0.000000e+000 1.000000e+000 0.000000e+000 0.000000e+000 0.000000e+000
 0.000000e+000 7.646008e-001 2.353992e-001 0.000000e+000 0.000000e+000
 0.000000e+000 0.000000e+000 6.558301e-001 3.441699e-001 0.000000e+000
 0.000000e+000 0.000000e+000 0.000000e+000 7.393467e-001 2.606533e-001
 0.000000e+000 0.000000e+000 0.000000e+000 0.000000e+000 0.000000e+000
<ENDHMM>
~h "l"
<BEGINHMM>
<NUMSTATES> 5
<STATE> 2
<MEAN> 25
 9.191227e+000 -9.254625e-001 7.490812e+000 -5.501953e+000 -1.039681e+001 -1.092736e+000 -2.918187e+000 4.123828e+000 3.867089e+000 -5.331258e+000 -2.351744e+000 5.177174e-001 4.014096e-002 3.677680e-001 -1.984182e-001 3.303143e-001 -9.185487e-001 -4.581583e-002 3.176835e-001 -7.183540e-002 5.605893e-001 -3.396585e-001 -7.189152e-002 -6.681611e-002 -3.748874e-001
<VARIANCE> 25
 2.406508e+001 3.993805e+001 5.249308e+001 6.157241e+001 5.856334e+001 5.558738e+001 4.219572e+001 3.729392e+001 5.775031e+001 4.897657e+001 2.898925e+001 3.544617e+001 8.890376e-001 2.077926e+000 1.836851e+000 2.967290e+000 4.889763e+000 2.935198e+000 2.711441e+000 3.066245e+000 4.138905e+000 4.121111e+000 2.875038e+000 2.167386e+000 1.204186e+000
<GCONST> 1.031708e+002
<STATE> 3
<MEAN> 25
 6.271523e+000 1.547467e-001 4.634109e+000 -3.489687e+000 -1.038314e+001 -4.933459e-002 -1.554597e-001 1.607913e+000 2.993821e+000 -4.301858e+000 -2.632188e+000 4.014753e-001 -2.909558e-001 -1.583987e-001 -3.017409e-001 6.886475e-002 4.771022e-001 -1.032560e-001 1.265981e-001 -4.540315e-001 -3.757331e-001 6.880379e-001 2.656248e-001 2.503009e-001 -1.486040e-001
<VARIANCE> 25
 7.262433e+001 5.829497e+001 7.458717e+001 7.345654e+001 6.617723e+001 5.289857e+001 5.354730e+001 5.076256e+001 7.114077e+001 5.933746e+001 3.555976e+001 4.479181e+001 1.498624e+000 3.270036e+000 2.800107e+000 3.383841e+000 5.335485e+000 2.870098e+000 4.362489e+000 3.271917e+000 4.820073e+000 5.347306e+000 3.704009e+000 3.470414e+000 1.457945e+000
<GCONST> 1.101012e+002
<STATE> 4
<MEAN> 25
 3.439586e+000 1.649358e+000 1.868962e-001 -2.161161e+000 -7.677767e+000 5.819907e-001 -1.213711e-001 5.594762e-003 3.468797e+000 -2.224252e+000 -3.852266e-001 1.435056e+000 -5.045912e-001 -9.421571e-002 -2.903585e-001 1.736484e-001 6.475180e-001 1.117712e-001 6.203586e-002 -2.511701e-001 -4.237496e-001 3.253565e-001 7.835099e-002 -4.729823e-002 -3.883519e-001
<VARIANCE> 25
 6.913873e+001 7.924190e+001 8.748160e+001 7.173048e+001 6.915665e+001 4.485802e+001 4.628598e+001 6.051577e+001 6.281036e+001 5.423449e+001 3.663855e+001 5.456638e+001 5.579957e-001 2.108822e+000 2.346742e+000 2.893253e+000 3.710504e+000 3.138933e+000 3.278827e+000 3.161180e+000 3.995478e+000 4.010050e+000 3.041732e+000 3.285854e+000 6.459793e-001
<GCONST> 1.065221e+002
<TRANSP> 5
 0.000000e+000 1.000000e+000 0.000000e+000 0.000000e+000 0.000000e+000
 0.000000e+000 7.471333e-001 2.528667e-001 0.000000e+000 0.000000e+000
 0.000000e+000 0.000000e+000 6.300381e-001 3.699618e-001 0.000000e+000
 0.000000e+000 0.000000e+000 0.000000e+000 8.697181e-001 1.302819e-001
 0.000000e+000 0.000000e+000 0.000000e+000 0.000000e+000 0.000000e+000
<ENDHMM>
~h "m"
<BEGINHMM>
<NUMSTATES> 5
<STATE> 2
<MEAN> 25
 6.746655e+000 8.785402e+000 1.352662e+000 4.778666e+000 6.988931e+000 5.447282e+000 -2.412187e+000 9.452243e-001 1.117310e+000 -3.286734e+000 -2.518954e+000 -4.295731e+000 4.421448e-001 3.620544e-001 9.308396e-001 7.592651e-001 7.281895e-001 1.042232e+000 -1.117099e+000 2.198279e-001 1.132982e+000 -6.521578e-001 -3.586167e-001 -6.765500e-001 2.282274e-001
<VARIANCE> 25
 4.739747e+001 7.454919e+001 5.244647e+001 7.801299e+001 6.953729e+001 4.450643e+001 6.394920e+001 4.574036e+001 7.559887e+001 7.839677e+001 2.967656e+001 2.883726e+001 3.244883e+000 4.007493e+000 6.210801e+000 6.646706e+000 6.186397e+000 4.577420e+000 7.014473e+000 4.561419e+000 4.538491e+000 5.122662e+000 2.582224e+000 2.482389e+000 3.654101e+000
<GCONST> 1.132862e+002
<STATE> 3
<MEAN> 25
 6.174180e+000 6.118701e+000 3.306551e+000 3.805459e+000 6.174860e+000 6.410841e+000 -3.731476e+000 1.670487e+000 1.523690e+000 -2.381449e+000 -2.787791e+000 -5.775446e+000 -4.124589e-001 -2.182350e-001 8.073526e-002 5.035709e-001 -1.681736e-001 -1.865748e-001 2.669007e-001 -7.608623e-002 5.602833e-002 1.889670e-001 -4.468983e-002 1.188970e-001 -2.986601e-001
<VARIANCE> 25
 4.791698e+001 4.662298e+001 4.492517e+001 3.525420e+001 6.061259e+001 4.641076e+001 4.080557e+001 4.497816e+001 5.801181e+001 5.630206e+001 2.763731e+001 2.018612e+001 4.804876e-001 1.991518e+000 1.441424e+000 2.407536e+000 2.022032e+000 1.952083e+000 2.616472e+000 2.454426e+000 2.985747e+000 2.901168e+000 1.968070e+000 1.547042e+000 7.965062e-001
<GCONST> 9.837638e+001
<STATE> 4
<MEAN> 25
 -5.524021e-001 2.597496e+000 -2.608726e-001 4.109468e+000 1.787366e+000 2.684358e+000 1.326349e+000 2.483390e+000 1.025524e+000 -1.193859e+000 -3.485796e+000 -4.160096e+000 -3.538187e-001 -1.186420e+000 1.214133e-001 -7.966836e-001 -2.615241e-001 -3.340100e-001 -1.786476e-002 4.405088e-001 -1.430440e-001 3.365500e-001 8.211500e-002 4.931427e-001 4.592302e-001
<VARIANCE> 25
 7.570187e+001 6.620996e+001 9.471415e+001 4.480650e+001 6.341991e+001 8.540998e+001 6.383635e+001 6.071571e+001 5.922958e+001 6.696058e+001 4.395520e+001 3.151008e+001 1.202584e+000 4.797474e+000 4.126603e+000 3.025014e+000 3.267739e+000 4.538891e+000 4.365397e+000 3.585910e+000 4.848633e+000 5.050795e+000 4.125313e+000 4.443803e+000 1.248907e+000
<GCONST> 1.112521e+002
<TRANSP> 5
 0.000000e+000 1.000000e+000 0.000000e+000 0.000000e+000 0.000000e+000
 0.000000e+000 5.872957e-001 4.127043e-001 0.000000e+000 0.000000e+000
 0.000000e+000 0.000000e+000 7.551327e-001 2.448673e-001 0.000000e+000
 0.000000e+000 0.000000e+000 0.000000e+000 7.207400e-001 2.792600e-001
 0.000000e+000 0.000000e+000 0.000000e+000 0.000000e+000 0.000000e+000
<ENDHMM>
~h "n"
<BEGINHMM>
<NUMSTATES> 5
<STATE> 2
<MEAN> 25
 1.032630e+001 -3.246748e+000 -4.156089e-001 -8.739275e-001 6.561778e+000 -1.970236e+000 -6.200433e+000 -9.140410e-001 1.889039e+000 1.993954e+000 -1.654088e+000 2.515331e+000 1.384354e-001 3.333833e-001 -1.319710e-001 9.230374e-002 -4.513952e-002 7.781375e-003 3.591660e-002 2.795925e-001 1.039301e-001 -4.040930e-001 2.753237e-004 -1.592287e-001 -1.124386e-001
<VARIANCE> 25
 1.645921e+001 1.278458e+002 9.180741e+001 1.392784e+002 7.143070e+001 6.926137e+001 6.654962e+001 6.706629e+001 6.828725e+001 9.252763e+001 4.691035e+001 4.174751e+001 8.675986e-001 2.370145e+000 1.803753e+000 2.437939e+000 1.904802e+000 3.163546e+000 2.797300e+000 2.709823e+000 4.494194e+000 3.097176e+000 2.370459e+000 2.692626e+000 1.192736e+000
<GCONST> 1.069828e+002
<STATE> 3
<MEAN> 25
 9.399878e+000 -2.521755e+000 1.444155e+000 -2.617178e+000 2.127908e+000 7.374110e-001 -5.321446e+000 -6.566489e-001 7.978922e-001 -3.403130e+000 -1.167797e+000 2.254039e+000 -6.490151e-002 6.974289e-001 -2.191820e-001 3.921891e-001 -2.773091e-002 2.105576e-002 2.721337e-001 2.989804e-001 5.975860e-002 -3.337290e-001 -1.191356e-001 -3.653563e-001 -5.233863e-001
<VARIANCE> 25
 1.809798e+001 8.524513e+001 5.085963e+001 1.286167e+002 7.225759e+001 7.141393e+001 7.383530e+001 9.548860e+001 5.239220e+001 7.616185e+001 3.552896e+001 4.003856e+001 3.017640e-001 1.488227e+000 1.054707e+000 2.179171e+000 2.031253e+000 2.267642e+000 2.381048e+000 2.432881e+000 3.052175e+000 2.701876e+000 2.277479e+000 1.767120e+000 6.281237e-001
<GCONST> 1.013884e+002
<STATE> 4
<MEAN> 25
 1.030552e+001 2.387447e+000 2.124655e+000 -3.453626e+000 -4.759779e-001 -2.419221e+000 -3.619988e+000 5.896852e+000 -7.101941e-001 -3.027165e+000 1.438820e+000 -1.256956e+000 -1.877332e-001 4.530490e-001 1.614728e-002 4.671851e-001 1.256212e-001 1.655543e-001 1.290834e-001 -1.420787e-001 -9.260693e-002 2.422808e-002 3.536426e-002 -1.734134e-001 -4.585327e-001
<VARIANCE> 25
 1.007835e+001 7.609591e+001 3.919145e+001 9.415812e+001 7.486518e+001 8.182257e+001 5.072891e+001 6.611721e+001 5.025413e+001 4.237582e+001 2.601302e+001 2.964034e+001 3.270732e-001 1.264663e+000 1.110255e+000 1.916288e+000 2.023262e+000 2.584153e+000 2.368233e+000 2.480683e+000 2.962361e+000 2.641100e+000 1.995773e+000 1.504204e+000 5.387940e-001
<GCONST> 9.778737e+001
<TRANSP> 5
 0.000000e+000 1.000000e+000 0.000000e+000 0.000000e+000 0.000000e+000
 0.000000e+000 7.962734e-001 2.037266e-001 0.000000e+000 0.000000e+000
 0.000000e+000 0.000000e+000 6.261382e-001 3.738618e-001 0.000000e+000
 0.000000e+000 0.000000e+000 0.000000e+000 9.342854e-001 6.571458e-002
 0.000000e+000 0.000000e+000 0.000000e+000 0.000000e+000 0.000000e+000
<ENDHMM>
~h "p"
<BEGINHMM>
<NUMSTATES> 5
<STATE> 2
<MEAN> 25
 -1.895168e+000 2.541964e+000 -2.536639e+000 6.981174e+000 -4.679891e+000 -3.052343e-001 1.052693e-001 -4.986482e+000 3.522303e+000 -1.409537e+000 -2.550806e+000 1.495866e+000 -3.055898e-001 1.477116e-001 -1.419084e-001 -7.448869e-001 -1.511732e-001 -4.910049e-001 4.666102e-001 -1.756102e-001 -4.197392e-001 6.328665e-001 -2.262041e-001 6.083495e-001 -1.561690e-001
<VARIANCE> 25
 8.250710e+001 6.874281e+001 7.900151e+001 1.897011e+002 8.582209e+001 9.373396e+001 7.407792e+001 9.463683e+001 9.019000e+001 9.276263e+001 7.036572e+001 4.765149e+001 4.665972e+000 7.691216e+000 5.373481e+000 1.145429e+001 5.193358e+000 5.884230e+000 5.396817e+000 7.150231e+000 7.442020e+000 7.323166e+000 4.886475e+000 3.961440e+000 2.981265e+000
<GCONST> 1.220290e+002
<STATE> 3
<MEAN> 25
 -7.238782e-001 7.642603e+000 -4.121861e+000 1.559817e+000 -1.534212e+000 -3.607712e+000 3.527416e+000 -2.161104e+000 -4.790708e+000 8.294645e-001 -1.258525e+000 1.356853e+000 1.852341e-002 5.884666e-001 -4.910727e-001 1.027781e-001 1.935394e-001 -7.375432e-001 9.900005e-001 5.825874e-001 -7.134020e-001 4.705049e-001 2.174944e-001 -2.151450e-001 -2.956792e-001
<VARIANCE> 25
 7.161205e+001 8.123661e+001 1.346061e+002 1.571805e+002 8.080152e+001 1.499316e+002 8.346734e+001 7.489553e+001 1.516298e+002 1.698377e+002 1.217555e+002 7.561169e+001 2.892915e+000 6.949362e+000 4.199254e+000 6.375773e+000 6.757613e+000 5.475554e+000 5.967752e+000 5.326307e+000 8.250502e+000 7.361272e+000 5.415371e+000 4.690323e+000 2.200301e+000
<GCONST> 1.234901e+002
<STATE> 4
<MEAN> 25
 -2.292151e+000 8.844852e+000 -9.877496e+000 4.370941e+000 -2.617828e+000 -1.611636e+000 7.425229e+000 -4.583994e-001 4.265749e+000 -1.496189e+000 -2.452422e+000 2.813401e+000 1.258375e-001 -5.232346e-001 6.422442e-001 -6.275922e-001 4.699412e-002 2.842255e-001 -4.960228e-001 3.305313e-001 8.690781e-002 -9.086365e-002 -3.154628e-002 -8.070108e-002 6.045267e-001
<VARIANCE> 25
 6.153443e+001 9.065363e+001 1.133624e+002 1.217638e+002 5.741582e+001 1.223914e+002 8.410519e+001 8.600495e+001 1.131888e+002 5.131347e+001 5.061694e+001 4.283963e+001 3.100465e+000 6.517767e+000 7.735534e+000 9.226774e+000 6.847542e+000 9.522777e+000 7.631700e+000 7.349649e+000 1.137258e+001 7.138089e+000 6.069571e+000 4.021591e+000 3.822268e+000
<GCONST> 1.226100e+002
<TRANSP> 5
 0.000000e+000 1.000000e+000 0.000000e+000 0.000000e+000 0.000000e+000
 0.000000e+000 5.942909e-001 4.057091e-001 0.000000e+000 0.000000e+000
 0.000000e+000 0.000000e+000 6.428205e-001 3.571795e-001 0.000000e+000
 0.000000e+000 0.000000e+000 0.000000e+000 9.245558e-001 7.544421e-002
 0.000000e+000 0.000000e+000 0.000000e+000 0.000000e+000 0.000000e+000
<ENDHMM>
~h "r"
<BEGINHMM>
<NUMSTATES> 5
<STATE> 2
<MEAN> 25
 9.728317e-001 2.837647e+000 -2.669074e+000 -5.668442e+000 -5.640899e-001 5.787097e+000 -1.405042e-002 6.561474e-001 4.901568e-001 -3.391539e+000 6.160588e-001 2.448037e+000 6.447029e-001 -5.470830e-001 5.089843e-001 -1.336667e+000 3.874300e-001 6.175991e-002 -4.435198e-001 7.542532e-002 -6.384180e-001 1.400538e-001 -1.126055e-001 3.487103e-001 1.225023e+000
<VARIANCE> 25
 1.070499e+002 1.166982e+002 8.555547e+001 1.550516e+002 9.757816e+001 8.860275e+001 6.435883e+001 9.128629e+001 9.960936e+001 8.193603e+001 4.107685e+001 5.661210e+001 6.569687e+000 1.169638e+001 8.779363e+000 1.007359e+001 6.638155e+000 8.048577e+000 5.377403e+000 8.834845e+000 9.462693e+000 7.463103e+000 3.615453e+000 5.504766e+000 5.177232e+000
<GCONST> 1.249306e+002
<STATE> 3
<MEAN> 25
 9.314399e+000 1.988168e+000 -2.919753e+000 -1.353197e+001 3.934763e+000 9.660911e+000 -5.219891e+000 -1.153139e+000 -9.673977e-001 -6.380413e+000 3.819741e+000 8.623295e+000 -2.231335e-001 -7.658457e-001 1.437907e-001 3.753899e-001 4.535086e-001 -5.389948e-001 -2.227238e-001 1.413781e-001 -1.333133e-001 5.421588e-001 2.139121e-001 -1.371124e-001 2.532631e-001
<VARIANCE> 25
 5.772271e+001 1.411189e+002 7.230737e+001 1.156630e+002 8.815048e+001 6.502493e+001 4.860822e+001 4.835534e+001 8.031547e+001 9.208775e+001 5.460742e+001 4.353758e+001 1.233893e+000 7.266915e+000 3.978168e+000 5.828075e+000 6.173554e+000 4.500476e+000 5.173897e+000 4.802044e+000 7.448468e+000 5.455990e+000 3.150945e+000 4.417084e+000 3.003151e+000
<GCONST> 1.163942e+002
<STATE> 4
<MEAN> 25
 6.293147e+000 -6.265659e+000 2.373189e+000 -8.042941e+000 9.756799e+000 3.244796e+000 -8.993098e+000 -1.341897e+000 -4.487845e+000 3.050478e-001 1.413951e+000 3.017394e+000 1.429262e-001 3.599389e-001 4.324982e-003 6.798456e-001 2.672968e-001 -2.355477e-001 -3.043398e-001 -2.760129e-001 -2.962137e-001 1.726016e-001 -7.930933e-002 -4.281033e-001 -1.867440e-001
<VARIANCE> 25
 7.678413e+001 1.295957e+002 6.648592e+001 1.096011e+002 8.089064e+001 1.060541e+002 5.486757e+001 5.126172e+001 7.899040e+001 1.028074e+002 4.367961e+001 4.151702e+001 2.258102e+000 5.250378e+000 2.191584e+000 2.650274e+000 4.225468e+000 5.786138e+000 3.257481e+000 3.591715e+000 4.209912e+000 5.045577e+000 4.053905e+000 3.293133e+000 1.293521e+000
<GCONST> 1.133434e+002
<TRANSP> 5
 0.000000e+000 1.000000e+000 0.000000e+000 0.000000e+000 0.000000e+000
 0.000000e+000 7.648828e-001 2.351172e-001 0.000000e+000 0.000000e+000
 0.000000e+000 0.000000e+000 7.474751e-001 2.525248e-001 0.000000e+000
 0.000000e+000 0.000000e+000 0.000000e+000 8.521954e-001 1.478046e-001
 0.000000e+000 0.000000e+000 0.000000e+000 0.000000e+000 0.000000e+000
<ENDHMM>
~h "s"
<BEGINHMM>
<NUMSTATES> 5
<STATE> 2
<MEAN> 25
 -5.613236e+000 -7.450067e+000 1.346446e+001 -5.645960e+000 8.256886e-001 4.100674e+000 2.250268e+000 -4.101090e+000 -6.585798e+000 6.104489e+000 -1.823128e+000 -2.523547e-001 -2.823382e+000 -3.267480e+000 4.905244e+000 -1.285985e+000 7.315277e-002 5.482982e-001 1.694372e+000 2.534111e-001 -6.600139e-001 1.420991e+000 2.639081e-001 1.342501e-001 1.597876e+000
<VARIANCE> 25
 6.280587e+001 6.479103e+001 1.656643e+002 9.831926e+001 5.852713e+001 7.002807e+001 7.287070e+001 7.714735e+001 7.260458e+001 4.764861e+001 4.995934e+001 2.825072e+001 1.810848e+000 3.900785e+000 5.447231e+000 6.040333e+000 4.261987e+000 3.903360e+000 5.734384e+000 6.396167e+000 4.170572e+000 5.598135e+000 4.602639e+000 3.200684e+000 1.798579e+000
<GCONST> 1.146001e+002
<STATE> 3
<MEAN> 25
 -1.494786e+001 -1.722136e+001 2.882934e+001 -8.486218e+000 1.353860e+000 4.372432e+000 9.796157e+000 8.810273e-001 -6.552910e+000 7.191042e+000 2.194314e+000 -5.489074e-001 -6.662601e-001 -4.965889e-001 4.316459e-001 -8.366916e-002 -1.158985e-001 2.477830e-002 6.042938e-001 6.056935e-001 4.859550e-001 -3.840478e-002 4.490291e-001 1.932154e-001 1.121145e-001
<VARIANCE> 25
 1.651114e+001 2.165397e+001 2.728793e+001 3.891141e+001 2.416681e+001 4.430169e+001 4.506634e+001 5.978891e+001 4.638414e+001 3.030171e+001 3.652795e+001 2.683331e+001 8.504859e-001 1.129765e+000 2.236929e+000 1.428673e+000 1.257393e+000 1.727081e+000 2.275853e+000 1.897014e+000 2.322883e+000 2.182587e+000 1.951107e+000 1.546606e+000 4.617458e-001
<GCONST> 9.311979e+001
<STATE> 4
<MEAN> 25
 -1.596592e+001 -1.456631e+001 2.164458e+001 -8.299121e+000 -1.169429e+000 7.170194e+000 8.763390e+000 1.770967e+000 -2.061386e+000 6.988492e+000 2.068046e+000 1.063985e+000 6.906204e-001 5.586137e-001 -9.517828e-001 5.139096e-001 -1.089922e-001 -1.219902e-001 -7.013648e-001 -2.173866e-001 -2.092923e-001 -2.140059e-001 -1.193896e-001 -2.564885e-001 -4.299617e-001
<VARIANCE> 25
 3.695689e+001 4.517798e+001 9.304184e+001 4.403407e+001 5.360310e+001 5.532133e+001 5.474559e+001 5.572071e+001 8.284599e+001 3.975067e+001 3.171386e+001 3.111988e+001 3.396618e+000 2.685510e+000 3.191670e+000 2.272138e+000 2.916990e+000 2.415436e+000 4.581946e+000 3.308112e+000 2.932498e+000 2.583189e+000 2.258345e+000 2.682321e+000 2.156569e+000
<GCONST> 1.061549e+002
<TRANSP> 5
 0.000000e+000 1.000000e+000 0.000000e+000 0.000000e+000 0.000000e+000
 0.000000e+000 7.221209e-001 2.778791e-001 0.000000e+000 0.000000e+000
 0.000000e+000 0.000000e+000 8.789200e-001 1.210800e-001 0.000000e+000
 0.000000e+000 0.000000e+000 0.000000e+000 9.201165e-001 7.988349e-002
 0.000000e+000 0.000000e+000 0.000000e+000 0.000000e+000 0.000000e+000
<ENDHMM>
~h "t"
<BEGINHMM>
<NUMSTATES> 5
<STATE> 2
<MEAN> 25
 -1.674546e+000 4.673738e+000 -3.207384e+000 5.057572e+000 -1.443359e+000 -1.720754e+000 1.678946e+000 -8.814956e-001 2.615903e-002 -3.270447e-001 -1.763160e+000 -1.329353e+000 -7.878380e-001 -2.608301e+000 1.306344e+000 -2.192274e+000 8.665533e-001 -7.463542e-001 2.297843e-001 1.327325e+000 -1.593890e+000 1.378907e+000 -5.480679e-001 1.023297e-001 1.615180e+000
<VARIANCE> 25
 6.815553e+001 1.370421e+002 1.725486e+002 1.062482e+002 8.560601e+001 6.892154e+001 8.157360e+001 8.997483e+001 6.742732e+001 6.581822e+001 4.017501e+001 4.918501e+001 3.982350e+000 1.259134e+001 1.379158e+001 1.442211e+001 6.825317e+000 8.714384e+000 8.185586e+000 9.049470e+000 1.121509e+001 6.663664e+000 5.003358e+000 5.060143e+000 5.903467e+000
<GCONST> 1.253954e+002
<STATE> 3
<MEAN> 25
 -5.975737e+000 -1.201005e+001 8.480022e+000 -4.549375e+000 1.222318e+000 -3.872451e+000 1.068044e+000 2.578951e+000 -7.542244e+000 6.751346e+000 -2.591841e+000 -2.378969e-001 -4.067300e-001 -2.565933e+000 1.912297e+000 -2.063204e+000 7.966077e-001 -4.019376e-001 -4.939893e-001 2.732337e-001 -1.129701e+000 1.078973e+000 -1.423530e-001 2.875590e-001 2.082873e+000
<VARIANCE> 25
 5.508121e+001 9.309010e+001 1.340065e+002 6.707397e+001 8.029951e+001 5.890097e+001 7.611394e+001 4.403360e+001 7.348312e+001 4.967369e+001 3.471326e+001 2.846367e+001 4.581872e+000 1.162044e+001 1.258407e+001 1.081284e+001 6.859451e+000 5.989644e+000 9.112228e+000 5.722620e+000 7.852206e+000 5.207332e+000 4.836991e+000 3.181742e+000 6.748892e+000
<GCONST> 1.201818e+002
<STATE> 4
<MEAN> 25
 -2.269833e+000 -1.031868e+001 8.308627e+000 -3.785735e+000 2.949816e+000 -2.480886e+000 -3.061526e+000 -8.854667e-001 -7.506468e+000 5.833366e+000 -7.327929e-001 -8.761774e-001 1.127321e+000 1.118893e+000 -1.030726e+000 7.657025e-001 8.495428e-003 7.059711e-001 -7.473456e-001 -7.733451e-001 4.297163e-001 -1.000870e+000 5.720111e-001 -1.276903e-001 -2.066037e-001
<VARIANCE> 25
 5.903265e+001 9.200381e+001 9.836805e+001 7.004041e+001 7.004837e+001 5.673310e+001 7.116344e+001 5.643772e+001 5.866451e+001 5.694211e+001 3.761974e+001 3.252512e+001 4.249107e+000 6.920314e+000 5.115070e+000 7.125847e+000 5.997966e+000 4.678905e+000 5.849665e+000 5.339904e+000 5.233402e+000 4.835715e+000 3.932718e+000 3.444272e+000 3.223547e+000
<GCONST> 1.159545e+002
<TRANSP> 5
 0.000000e+000 1.000000e+000 0.000000e+000 0.000000e+000 0.000000e+000
 0.000000e+000 7.224478e-001 2.775522e-001 0.000000e+000 0.000000e+000
 0.000000e+000 0.000000e+000 5.965516e-001 4.034484e-001 0.000000e+000
 0.000000e+000 0.000000e+000 0.000000e+000 8.264455e-001 1.735545e-001
 0.000000e+000 0.000000e+000 0.000000e+000 0.000000e+000 0.000000e+000
<ENDHMM>
~h "v"
<BEGINHMM>
<NUMSTATES> 5
<STATE> 2
<MEAN> 25
 5.832868e+000 -6.402049e+000 3.675745e+000 -4.423729e+000 8.459506e+000 -2.889105e+000 -6.752893e+000 -3.349072e+000 -3.038635e+000 8.645041e+000 -3.497713e-001 3.433633e+000 -1.296632e-001 -3.147449e-001 7.707663e-002 -5.518533e-001 2.073093e-001 -3.699580e-001 -2.413646e-001 -5.081080e-001 -3.133352e-001 8.382671e-001 -2.502346e-001 2.945980e-001 2.238964e-001
<VARIANCE> 25
 5.062045e+001 4.257626e+001 7.409978e+001 4.307376e+001 6.866311e+001 6.280646e+001 5.520669e+001 5.149416e+001 5.194437e+001 6.825657e+001 4.230824e+001 3.507379e+001 2.066825e+000 2.026906e+000 2.357151e+000 2.446027e+000 2.456557e+000 3.159309e+000 3.286469e+000 3.699682e+000 4.880076e+000 4.007121e+000 2.764682e+000 2.574485e+000 1.686181e+000
<GCONST> 1.066785e+002
<STATE> 3
<MEAN> 25
 7.253378e+000 -5.922030e+000 2.460274e+000 -6.007571e+000 5.685488e+000 -2.290848e+000 -6.443736e+000 -3.681602e+000 -6.074295e+000 5.669299e+000 1.407210e+000 4.739905e+000 -1.729051e-001 3.341809e-001 -7.503986e-003 -3.861736e-002 -1.195491e-001 3.963014e-001 5.854013e-002 1.820000e-001 -9.439730e-002 -2.403329e-001 1.475525e-001 -7.358310e-002 -3.965298e-001
<VARIANCE> 25
 4.471950e+001 5.318510e+001 6.723146e+001 3.671022e+001 4.648267e+001 6.250787e+001 5.224983e+001 6.173236e+001 6.420542e+001 7.604955e+001 3.080058e+001 4.279860e+001 6.968565e-001 1.305643e+000 2.016917e+000 2.078001e+000 1.339735e+000 2.614431e+000 2.264301e+000 2.441029e+000 3.574228e+000 2.589010e+000 1.273204e+000 2.101373e+000 6.547859e-001
<GCONST> 1.003504e+002
<STATE> 4
<MEAN> 25
 1.033702e+000 -1.969076e+000 1.381062e+000 1.829296e+000 3.825475e+000 2.453537e+000 -3.638936e+000 -6.749680e+000 -4.900030e+000 3.198129e+000 -4.473153e-001 -5.302835e-001 -2.632456e-001 2.640804e-001 -5.771070e-001 3.676194e-001 -6.111158e-001 2.507529e-002 3.980865e-001 -7.733770e-002 3.978631e-001 -3.067105e-001 -2.260030e-002 -1.641190e-001 -6.319599e-001
<VARIANCE> 25
 7.442142e+001 9.002642e+001 2.506737e+002 1.273889e+002 5.603477e+001 1.134027e+002 8.865441e+001 1.057131e+002 8.741466e+001 7.656992e+001 4.061718e+001 5.799141e+001 1.739927e+000 3.974135e+000 4.942101e+000 6.032961e+000 4.120622e+000 4.535988e+000 4.460246e+000 5.736105e+000 6.807772e+000 4.995709e+000 2.365230e+000 3.992664e+000 1.567538e+000
<GCONST> 1.173241e+002
<TRANSP> 5
 0.000000e+000 1.000000e+000 0.000000e+000 0.000000e+000 0.000000e+000
 0.000000e+000 6.706712e-001 3.293288e-001 0.000000e+000 0.000000e+000
 0.000000e+000 0.000000e+000 7.858634e-001 2.141366e-001 0.000000e+000
 0.000000e+000 0.000000e+000 0.000000e+000 7.875282e-001 2.124718e-001
 0.000000e+000 0.000000e+000 0.000000e+000 0.000000e+000 0.000000e+000
<ENDHMM>
~h "w"
<BEGINHMM>
<NUMSTATES> 5
<STATE> 2
<MEAN> 25
 8.215196e+000 5.564592e+000 -6.293765e-002 -5.799669e-001 -1.446615e+000 -6.756813e-001 -2.773122e+000 1.119784e+000 1.010661e+000 -3.637732e+000 -5.683669e-001 -1.597714e+000 1.291400e+000 1.579416e+000 3.629580e-002 2.361320e-002 -1.955023e+000 -8.177030e-001 -4.328382e-001 2.135551e-001 2.182355e+000 -7.284048e-001 6.019370e-001 1.402909e-001 1.663224e-001
<VARIANCE> 25
 4.427950e+001 1.100426e+002 4.794311e+001 1.272905e+002 1.164138e+002 4.842397e+001 6.294549e+001 7.011674e+001 1.269010e+002 5.681740e+001 4.294036e+001 7.736407e+001 3.111930e+000 5.178944e+000 2.728156e+000 6.241138e+000 3.001615e+000 3.718302e+000 6.108248e+000 6.594951e+000 4.958967e+000 4.313126e+000 5.914112e+000 6.682731e+000 2.466931e+000
<GCONST> 1.165417e+002
<STATE> 3
<MEAN> 25
 1.297202e+001 1.213148e+001 -2.332240e+000 4.599600e-003 -6.444471e+000 -5.465352e+000 -4.539771e+000 -2.060835e-001 6.975928e+000 -3.508164e+000 1.509166e+000 1.658352e-001 1.280350e-001 -9.851124e-001 -2.429090e-001 -1.080988e+000 -1.175112e-001 -4.239508e-001 3.402777e-001 1.087477e+000 -8.575641e-002 -1.024855e-001 6.778337e-002 -1.013569e-001 7.589024e-001
<VARIANCE> 25
 1.389318e+001 1.775049e+002 7.109971e+001 8.626830e+001 4.635238e+001 6.496847e+001 4.698890e+001 6.872514e+001 5.807057e+001 4.761336e+001 2.976235e+001 4.808739e+001 1.893382e-001 4.672648e+000 1.147675e+000 6.005877e+000 5.020881e+000 3.277820e+000 3.876676e+000 9.293802e+000 6.546288e+000 4.277342e+000 4.156307e+000 5.124974e+000 1.806451e+000
<GCONST> 1.089355e+002
<STATE> 4
<MEAN> 25
 1.218871e+001 -5.566928e+000 -4.409018e+000 -8.739399e+000 -4.252878e+000 -3.217614e+000 -7.835523e-001 5.124809e+000 3.366742e+000 -5.152452e+000 3.522720e+000 4.558223e+000 -1.623505e-001 -2.527478e-001 -8.237801e-002 -3.812070e-002 3.880184e-001 1.744336e-001 -5.403737e-002 -5.269741e-001 -3.047242e-001 2.232938e-001 -8.962855e-002 3.663443e-001 3.123832e-002
<VARIANCE> 25
 9.350821e+000 1.262499e+002 4.662988e+001 6.908433e+001 6.233584e+001 5.611345e+001 9.470457e+001 1.068632e+002 7.068835e+001 6.829652e+001 3.437098e+001 3.379635e+001 3.081115e-001 3.051755e+000 1.258371e+000 2.883927e+000 2.358735e+000 2.262014e+000 3.487477e+000 3.489977e+000 4.297861e+000 3.241064e+000 2.002282e+000 1.590551e+000 1.109345e+000
<GCONST> 1.033172e+002
<TRANSP> 5
 0.000000e+000 1.000000e+000 0.000000e+000 0.000000e+000 0.000000e+000
 0.000000e+000 5.891155e-001 4.108845e-001 0.000000e+000 0.000000e+000
 0.000000e+000 0.000000e+000 5.955090e-001 4.044910e-001 0.000000e+000
 0.000000e+000 0.000000e+000 0.000000e+000 9.263421e-001 7.365787e-002
 0.000000e+000 0.000000e+000 0.000000e+000 0.000000e+000 0.000000e+000
<ENDHMM>
~h "y"
<BEGINHMM>
<NUMSTATES> 5
<STATE> 2
<MEAN> 25
 5.064228e+000 -4.411377e+000 1.534812e+001 8.186362e+000 9.611220e+000 -2.800860e+000 -1.385661e+001 1.377388e+000 -1.188460e+000 5.008726e+000 5.255891e-001 -5.129984e+000 6.549847e-001 -4.898218e-001 -1.884844e-002 -8.395392e-002 7.112122e-001 -2.115401e-001 -1.044670e+000 -2.687816e-001 -3.711936e-001 4.091157e-002 5.276498e-001 -6.455496e-002 8.327509e-001
<VARIANCE> 25
 3.306538e+001 6.100168e+001 1.076664e+002 7.793237e+001 8.242461e+001 4.775553e+001 9.842879e+001 6.039342e+001 6.544289e+001 4.166560e+001 3.640916e+001 4.178891e+001 1.094146e+000 4.038764e+000 5.106885e+000 5.282135e+000 3.894561e+000 4.070687e+000 5.735962e+000 4.075006e+000 4.698729e+000 4.042400e+000 2.433908e+000 2.229206e+000 1.343837e+000
<GCONST> 1.104243e+002
<STATE> 3
<MEAN> 25
 6.880223e+000 -3.565014e+000 4.043842e+000 4.203799e+000 7.142644e+000 -5.313056e-001 -9.050178e+000 -2.159045e+000 -2.603239e+000 2.455470e+000 2.195316e+000 -1.112618e-001 2.692672e-001 2.841664e-001 -5.928453e-001 -3.175129e-001 7.138427e-001 9.873338e-002 -1.932464e-001 -6.261016e-001 -2.475456e-001 -2.113207e-001 -2.829780e-001 4.034382e-001 1.255949e-001
<VARIANCE> 25
 3.856587e+001 7.073261e+001 1.288547e+002 8.572855e+001 1.622854e+002 4.763925e+001 1.453642e+002 9.671301e+001 1.497984e+002 5.095688e+001 3.405567e+001 6.430992e+001 1.113986e+000 3.086647e+000 7.420524e+000 6.251177e+000 6.168489e+000 3.912053e+000 6.580248e+000 4.885688e+000 6.227774e+000 3.741981e+000 3.862769e+000 3.635827e+000 1.658906e+000
<GCONST> 1.163270e+002
<STATE> 4
<MEAN> 25
 4.437140e+000 -1.196134e+000 1.055512e+001 6.628176e+000 1.091107e+001 -3.203002e+000 -1.064479e+001 7.410380e-001 -1.941390e+000 4.567934e+000 -9.956560e-001 -3.046561e+000 6.168389e-001 -3.939258e-001 3.809673e-001 -9.604499e-001 9.146541e-001 -2.009201e-001 -4.920933e-001 2.380342e-001 -5.959629e-001 4.372276e-001 2.515583e-001 -2.482371e-001 1.131890e+000
<VARIANCE> 25
 4.764399e+001 7.409006e+001 1.159104e+002 1.679687e+002 1.066881e+002 4.982634e+001 1.358702e+002 1.134036e+002 5.820443e+001 4.219580e+001 2.931676e+001 3.705579e+001 3.344299e+000 3.980935e+000 1.515221e+001 1.185668e+001 7.679282e+000 4.263988e+000 1.612101e+001 7.292649e+000 7.436396e+000 4.425709e+000 3.455591e+000 4.353962e+000 4.340673e+000
<GCONST> 1.207190e+002
<TRANSP> 5
 0.000000e+000 1.000000e+000 0.000000e+000 0.000000e+000 0.000000e+000
 0.000000e+000 7.340914e-001 2.659086e-001 0.000000e+000 0.000000e+000
 0.000000e+000 0.000000e+000 4.196801e-001 5.803199e-001 0.000000e+000
 0.000000e+000 0.000000e+000 0.000000e+000 7.489305e-001 2.510695e-001
 0.000000e+000 0.000000e+000 0.000000e+000 0.000000e+000 0.000000e+000
<ENDHMM>
~h "z"
<BEGINHMM>
<NUMSTATES> 5
<STATE> 2
<MEAN> 25
 -4.417477e+000 -4.750512e+000 1.640432e+001 -3.184617e+000 3.627829e+000 3.755858e+000 2.223896e-001 -2.575518e+000 -5.899111e+000 6.343394e+000 -2.758569e+000 -1.729089e+000 -2.026379e+000 -2.213741e+000 5.065333e+000 -7.196516e-001 2.208873e-001 6.957595e-001 2.149606e+000 4.649320e-001 -8.217089e-001 1.011018e+000 -3.153466e-001 -4.089161e-001 1.688046e+000
<VARIANCE> 25
 7.394432e+001 5.012585e+001 1.850914e+002 6.104748e+001 5.345473e+001 9.378377e+001 1.127360e+002 7.089130e+001 4.526499e+001 4.532150e+001 2.785607e+001 2.219560e+001 5.543048e+000 4.228334e+000 7.676318e+000 3.707795e+000 5.080555e+000 5.312310e+000 5.608150e+000 6.321582e+000 3.068217e+000 3.718037e+000 2.109527e+000 2.812905e+000 2.170913e+000
<GCONST> 1.134133e+002
<STATE> 3
<MEAN> 25
 -1.240559e+001 -1.264656e+001 3.218362e+001 -5.542238e+000 3.000193e+000 6.210566e+000 9.803032e+000 -1.718972e+000 -6.606040e+000 7.794206e+000 -3.688069e-001 -1.648798e+000 -5.219552e-001 -7.065122e-001 3.643166e-001 1.784718e-001 -2.647860e-002 -1.668988e-001 5.204693e-001 2.043444e-001 3.303034e-002 1.561152e-001 4.980403e-001 2.314268e-002 2.584742e-001
<VARIANCE> 25
 1.889715e+001 3.487924e+001 2.788338e+001 4.664952e+001 2.217191e+001 6.015239e+001 7.011239e+001 4.016742e+001 2.426841e+001 2.552098e+001 2.922455e+001 1.920104e+001 1.934643e+000 1.118827e+000 1.991184e+000 1.854499e+000 1.476027e+000 1.419748e+000 4.677269e+000 2.321659e+000 1.944861e+000 1.203215e+000 1.626227e+000 1.416889e+000 2.876211e-001
<GCONST> 9.314822e+001
<STATE> 4
<MEAN> 25
 -1.205871e+001 -1.552273e+001 2.069600e+001 -3.193267e+000 -2.594571e+000 2.165143e+000 5.994066e+000 2.622928e+000 -6.791661e+000 4.945807e+000 3.946497e+000 -1.821356e+000 3.655492e-001 4.407159e-001 -1.165014e+000 6.674672e-001 -3.679342e-001 6.105871e-002 -7.731114e-001 -1.430497e-001 1.797719e-001 -3.823105e-001 1.585107e-001 -9.912876e-002 -7.795563e-001
<VARIANCE> 25
 1.633211e+001 4.304572e+001 1.179212e+002 5.043111e+001 7.347120e+001 4.027407e+001 6.420299e+001 4.890508e+001 4.818138e+001 3.409532e+001 4.099644e+001 3.560953e+001 1.126970e+000 1.655211e+000 2.323682e+000 2.214495e+000 2.958962e+000 3.160204e+000 3.765612e+000 2.735245e+000 3.073421e+000 2.367004e+000 2.990953e+000 3.162170e+000 6.954895e-001
<GCONST> 1.026251e+002
<TRANSP> 5
 0.000000e+000 1.000000e+000 0.000000e+000 0.000000e+000 0.000000e+000
 0.000000e+000 7.718266e-001 2.281734e-001 0.000000e+000 0.000000e+000
 0.000000e+000 0.000000e+000 8.746814e-001 1.253186e-001 0.000000e+000
 0.000000e+000 0.000000e+000 0.000000e+000 9.287733e-001 7.122673e-002
 0.000000e+000 0.000000e+000 0.000000e+000 0.000000e+000 0.000000e+000
<ENDHMM>
~h "aa"
<BEGINHMM>
<NUMSTATES> 5
<STATE> 2
<MEAN> 25
 7.431707e+000 -1.730331e-001 5.023227e+000 -5.105587e+000 -5.991884e+000 -5.442615e-001 -3.603105e+000 5.814416e+000 4.721845e+000 -1.793689e+000 1.154195e+000 -1.580904e+000 1.669603e+000 -4.810467e-001 -1.225412e-001 -9.337325e-001 -1.176535e+000 -9.502831e-001 -8.905110e-001 5.490243e-001 1.564597e+000 -4.151985e-001 6.925596e-002 6.614513e-001 1.584445e+000
<VARIANCE> 25
 7.356496e+001 5.068378e+001 4.515062e+001 6.784408e+001 4.587827e+001 1.002226e+002 3.482614e+001 3.582580e+001 6.039058e+001 2.187956e+001 1.914058e+001 3.105910e+001 4.922920e+000 4.292156e+000 4.826190e+000 5.766874e+000 3.573181e+000 6.181246e+000 3.524053e+000 2.694626e+000 5.403882e+000 2.911253e+000 3.310667e+000 2.353147e+000 4.940347e+000
<GCONST> 1.094632e+002
<STATE> 3
<MEAN> 25
 1.085850e+001 -2.505113e+000 1.740287e+000 -6.261040e+000 -1.080288e+001 -5.792571e+000 -4.621762e+000 7.351094e+000 1.050871e+001 -4.287065e+000 9.299749e-001 1.556542e+000 -3.079601e-001 5.038039e-001 -1.331511e-001 3.895280e-001 3.665675e-002 5.065573e-001 1.591791e-001 -6.182193e-001 -3.863626e-002 -1.877310e-002 -2.645752e-001 4.791183e-002 -6.369985e-001
<VARIANCE> 25
 5.659856e+001 3.977924e+001 5.743466e+001 6.070823e+001 5.912628e+001 6.479065e+001 3.229166e+001 3.945051e+001 7.424697e+001 4.234182e+001 2.890242e+001 2.866806e+001 6.713302e-001 1.520695e+000 1.363347e+000 3.738812e+000 3.255726e+000 3.024347e+000 2.615202e+000 2.532243e+000 6.032468e+000 3.467155e+000 2.462586e+000 1.329746e+000 1.027325e+000
<GCONST> 1.020771e+002
<STATE> 4
<MEAN> 25
 9.173103e+000 -3.555959e-002 -1.085490e+000 -2.273650e+000 -4.169805e+000 4.209480e+000 -1.837223e+000 -1.471816e+000 4.484470e+000 -4.833467e+000 1.168149e+000 5.297370e+000 -2.201245e-001 3.159867e-001 4.574393e-002 2.965998e-001 3.086531e-001 -5.509888e-002 2.090666e-001 6.305016e-002 -5.147230e-001 1.452378e-001 -8.382629e-002 -1.469479e-001 -3.359817e-001
<VARIANCE> 25
 4.590309e+001 5.748213e+001 4.170541e+001 1.039139e+002 1.491561e+002 7.904589e+001 1.063500e+002 5.179930e+001 1.124506e+002 7.189610e+001 3.900270e+001 3.364637e+001 1.250029e+000 3.975328e+000 3.132568e+000 6.790480e+000 8.478604e+000 4.727975e+000 4.815194e+000 4.439198e+000 9.259857e+000 6.459892e+000 4.006720e+000 3.012289e+000 2.935553e+000
<GCONST> 1.154383e+002
<TRANSP> 5
 0.000000e+000 1.000000e+000 0.000000e+000 0.000000e+000 0.000000e+000
 0.000000e+000 8.007557e-001 1.992443e-001 0.000000e+000 0.000000e+000
 0.000000e+000 0.000000e+000 8.428769e-001 1.571231e-001 0.000000e+000
 0.000000e+000 0.000000e+000 0.000000e+000 8.702737e-001 1.297263e-001
 0.000000e+000 0.000000e+000 0.000000e+000 0.000000e+000 0.000000e+000
<ENDHMM>
~h "ae"
<BEGINHMM>
<NUMSTATES> 5
<STATE> 2
<MEAN> 25
 4.261408e+000 2.272588e+000 2.015066e+000 -1.101278e+000 4.302174e-001 3.651763e+000 -2.074300e+000 -2.848938e+000 3.718410e+000 2.722295e+000 -1.614872e+000 3.165396e+000 2.128710e+000 -2.132004e+000 1.325067e+000 -1.728555e+000 7.127051e-001 -6.215376e-001 -1.575500e+000 -2.583217e-002 -2.568446e-001 1.262067e+000 -2.377962e-001 8.463604e-001 3.498714e+000
<VARIANCE> 25
 6.656417e+001 1.512205e+002 7.603387e+001 1.290671e+002 9.589363e+001 5.868143e+001 7.357124e+001 5.335696e+001 7.685484e+001 6.049203e+001 5.410827e+001 3.355014e+001 7.678726e+000 1.192703e+001 6.107653e+000 9.207261e+000 5.934043e+000 5.469897e+000 6.252163e+000 5.094805e+000 5.773425e+000 5.658036e+000 4.687660e+000 3.770960e+000 5.232776e+000
<GCONST> 1.207159e+002
<STATE> 3
<MEAN> 25
 8.690507e+000 -1.387477e+001 5.454900e+000 -9.508478e+000 4.463166e+000 4.131814e-002 -8.639865e+000 -4.244249e+000 1.145108e+000 6.904878e+000 1.602883e+000 5.237697e+000 -6.998975e-002 1.199535e-002 5.338343e-003 8.397444e-003 3.709443e-002 2.110115e-001 1.817582e-001 2.163886e-001 -1.967707e-001 -3.557229e-001 7.709190e-002 -5.781074e-003 -7.449353e-002
<VARIANCE> 25
 1.989229e+001 2.320292e+001 2.027759e+001 3.829852e+001 6.625124e+001 3.617384e+001 4.830386e+001 3.027548e+001 6.096006e+001 4.002220e+001 3.071397e+001 4.628899e+001 4.283748e-001 1.952887e+000 1.009964e+000 2.044361e+000 2.407871e+000 1.757992e+000 1.913116e+000 2.191089e+000 2.996001e+000 2.845525e+000 2.766262e+000 1.909420e+000 1.085386e+000
<GCONST> 9.617724e+001
<STATE> 4
<MEAN> 25
 7.040032e+000 -5.644892e+000 2.953899e+000 -6.198263e+000 -7.615950e-001 3.256237e+000 -6.765099e+000 -1.506013e+000 1.174530e+000 3.025364e+000 1.248392e+000 1.815950e+000 -1.387542e-001 1.278687e+000 -5.956327e-001 1.211278e+000 -5.879275e-001 1.115370e-001 7.773481e-002 1.586693e-001 6.264178e-001 -6.472784e-001 1.263553e-002 -7.335117e-001 -1.292227e+000
<VARIANCE> 25
 4.242882e+001 3.986930e+001 4.570339e+001 7.189547e+001 6.894179e+001 2.696597e+001 4.873391e+001 7.162477e+001 9.583007e+001 6.517281e+001 3.023516e+001 4.509710e+001 4.158829e-001 2.870054e+000 1.849647e+000 4.136936e+000 4.132113e+000 2.523852e+000 3.245816e+000 3.509355e+000 5.454085e+000 4.739767e+000 3.595088e+000 1.749489e+000 1.560092e+000
<GCONST> 1.056461e+002
<TRANSP> 5
 0.000000e+000 1.000000e+000 0.000000e+000 0.000000e+000 0.000000e+000
 0.000000e+000 7.911418e-001 2.088582e-001 0.000000e+000 0.000000e+000
 0.000000e+000 0.000000e+000 8.735878e-001 1.264122e-001 0.000000e+000
 0.000000e+000 0.000000e+000 0.000000e+000 7.883948e-001 2.116052e-001
 0.000000e+000 0.000000e+000 0.000000e+000 0.000000e+000 0.000000e+000
<ENDHMM>
~h "ah"
<BEGINHMM>
<NUMSTATES> 5
<STATE> 2
<MEAN> 25
 6.551194e+000 -1.517666e+000 3.147817e+000 -4.027802e+000 -1.652166e-001 1.765967e+000 -4.670114e+000 -5.213789e-001 -2.604345e-001 6.056053e-001 3.006907e-001 1.577750e+000 8.154063e-001 -2.815063e-001 -2.492439e-001 -7.491187e-001 -2.151147e-001 2.230804e-002 -3.080283e-002 6.488983e-002 -4.169222e-002 -3.262335e-001 -8.381067e-002 3.856429e-001 8.204104e-001
<VARIANCE> 25
 4.752624e+001 1.088390e+002 6.464339e+001 9.588769e+001 7.054477e+001 5.694938e+001 5.222850e+001 6.452525e+001 6.560194e+001 6.656927e+001 3.714643e+001 5.131846e+001 3.018251e+000 7.942656e+000 5.037341e+000 8.201579e+000 6.100469e+000 4.985069e+000 6.417129e+000 5.755222e+000 6.041135e+000 4.561592e+000 4.203069e+000 3.801633e+000 4.672076e+000
<GCONST> 1.171371e+002
<STATE> 3
<MEAN> 25
 8.329199e+000 -2.345904e+000 2.095922e+000 -4.478124e+000 1.583263e-001 1.592312e+000 -4.157189e+000 -5.638726e-001 -1.068783e-001 -3.210915e-001 -6.164412e-001 2.353677e+000 1.086152e-001 2.193296e-001 -4.489736e-001 8.857540e-002 -1.335721e-001 3.602633e-001 4.657685e-001 3.507754e-001 4.515924e-001 -5.056852e-001 -1.458182e-001 -4.419766e-002 -1.997090e-001
<VARIANCE> 25
 4.058179e+001 8.183521e+001 7.535781e+001 9.639629e+001 7.393526e+001 5.476726e+001 4.985081e+001 7.564944e+001 7.201960e+001 6.429295e+001 4.629769e+001 5.428215e+001 9.869349e-001 2.499816e+000 3.005184e+000 4.441002e+000 4.918880e+000 3.788718e+000 4.683153e+000 4.736218e+000 4.034799e+000 4.244152e+000 3.351798e+000 3.705354e+000 1.591996e+000
<GCONST> 1.111001e+002
<STATE> 4
<MEAN> 25
 4.955366e+000 -8.948219e-001 -3.620004e+000 -2.398378e+000 -1.442024e+000 2.106129e+000 1.055271e+000 1.865570e+000 1.002998e+000 -3.175228e+000 1.246582e+000 2.062721e+000 -3.397276e-001 2.220089e-001 -9.586539e-002 2.740417e-001 -1.640933e-001 -4.324294e-002 1.864154e-001 3.409079e-002 2.795343e-002 -1.714303e-001 -3.135737e-002 -1.262899e-001 -4.782132e-001
<VARIANCE> 25
 6.143105e+001 8.299671e+001 1.039910e+002 1.296095e+002 4.890961e+001 4.828566e+001 6.299104e+001 6.256388e+001 6.131809e+001 6.015811e+001 4.121433e+001 4.929758e+001 6.521973e-001 2.119802e+000 3.160259e+000 3.554088e+000 3.434059e+000 3.033607e+000 3.848661e+000 3.661815e+000 4.355340e+000 4.381149e+000 3.099346e+000 2.916793e+000 8.227457e-001
<GCONST> 1.085556e+002
<TRANSP> 5
 0.000000e+000 1.000000e+000 0.000000e+000 0.000000e+000 0.000000e+000
 0.000000e+000 5.173845e-001 4.826155e-001 0.000000e+000 0.000000e+000
 0.000000e+000 0.000000e+000 4.166667e-001 5.833333e-001 0.000000e+000
 0.000000e+000 0.000000e+000 0.000000e+000 8.194529e-001 1.805471e-001
 0.000000e+000 0.000000e+000 0.000000e+000 0.000000e+000 0.000000e+000
<ENDHMM>
~h "ao"
<BEGINHMM>
<NUMSTATES> 5
<STATE> 2
<MEAN> 25
 3.296827e+000 5.987363e+000 4.436831e+000 -4.346695e+000 -8.716619e+000 -7.650148e-001 -4.611825e+000 5.255271e+000 7.074043e+000 -1.162805e+000 3.905107e+000 -1.251547e+000 5.005363e+000 1.752076e+000 2.133417e+000 2.841035e-001 -2.456952e+000 -1.690407e+000 -1.888830e+000 -6.385634e-001 1.762650e+000 -1.915384e+000 -1.280443e-001 3.913699e-001 3.531462e+000
<VARIANCE> 25
 9.119936e+001 6.489481e+001 6.475539e+001 5.053197e+001 5.966776e+001 7.335118e+001 3.261436e+001 4.130446e+001 6.421146e+001 4.580871e+001 3.874601e+001 2.846179e+001 4.196623e+000 1.370564e+001 9.693432e+000 1.328816e+001 5.047945e+000 7.243835e+000 3.997787e+000 5.904892e+000 6.313874e+000 8.923188e+000 3.643770e+000 1.553474e+000 3.270866e+000
<GCONST> 1.159290e+002
<STATE> 3
<MEAN> 25
 1.174527e+001 -2.792748e-001 1.139019e+001 -6.239495e+000 -1.352745e+001 -1.030179e+001 -8.164713e+000 6.224599e+000 7.886361e+000 -1.363125e+000 3.354095e+000 4.083078e-001 2.543256e-001 -1.227499e+000 5.851291e-001 -6.990057e-002 -4.477275e-001 -6.034016e-001 -3.553848e-001 -2.819526e-001 3.916901e-001 -5.848290e-002 7.061350e-002 4.268653e-001 1.065142e+000
<VARIANCE> 25
 9.195829e+000 3.175986e+001 5.319233e+001 2.770595e+001 3.117555e+001 5.683365e+001 3.048891e+001 4.087128e+001 3.736507e+001 4.341406e+001 2.455385e+001 1.988358e+001 1.056450e+000 1.812454e+000 1.838310e+000 2.328374e+000 1.288985e+000 3.093877e+000 2.448328e+000 1.319827e+000 2.052787e+000 2.227183e+000 1.188810e+000 9.696206e-001 1.416662e+000
<GCONST> 9.377942e+001
<STATE> 4
<MEAN> 25
 1.271157e+001 4.220393e-001 6.191813e+000 -9.666711e+000 -1.265176e+001 -4.002454e+000 -8.097463e+000 1.461811e+000 1.000039e+001 -4.752449e+000 1.884962e+000 4.430710e+000 -1.523333e-002 2.462821e-001 -3.648042e-001 -3.884806e-001 3.678539e-001 6.627725e-001 2.384863e-001 -2.790715e-001 -4.001678e-001 -2.299128e-001 -1.584564e-001 3.452834e-001 -1.598095e-001
<VARIANCE> 25
 5.006276e+000 3.561606e+001 5.546832e+001 1.002531e+002 8.249126e+001 8.989668e+001 3.585479e+001 5.367379e+001 6.347515e+001 3.645381e+001 1.827216e+001 4.306752e+001 1.604172e-001 8.007959e-001 7.298777e-001 1.849835e+000 1.683406e+000 2.149252e+000 1.774166e+000 1.990371e+000 2.368521e+000 1.608798e+000 1.336412e+000 1.651534e+000 3.108567e-001
<GCONST> 9.239923e+001
<TRANSP> 5
 0.000000e+000 1.000000e+000 0.000000e+000 0.000000e+000 0.000000e+000
 0.000000e+000 6.916246e-001 3.083754e-001 0.000000e+000 0.000000e+000
 0.000000e+000 0.000000e+000 7.478247e-001 2.521753e-001 0.000000e+000
 0.000000e+000 0.000000e+000 0.000000e+000 9.512463e-001 4.875369e-002
 0.000000e+000 0.000000e+000 0.000000e+000 0.000000e+000 0.000000e+000
<ENDHMM>
~h "aw"
<BEGINHMM>
<NUMSTATES> 5
<STATE> 2
<MEAN> 25
 4.529361e+000 3.561497e+000 -1.718876e+000 3.431384e+000 -5.687035e+000 3.321843e+000 4.155806e+000 1.584124e-001 9.498172e+000 -7.820926e-001 -1.813139e+000 6.856716e+000 9.316436e-001 -1.320820e+000 8.228773e-001 -1.303165e+000 3.945982e-001 -5.374551e-001 -1.620885e+000 6.961864e-001 -3.923135e-001 7.703758e-004 -2.990707e-001 -2.244760e-001 1.837942e+000
<VARIANCE> 25
 7.062146e+001 1.074044e+002 9.640784e+001 8.058649e+001 5.793282e+001 8.158209e+001 8.684486e+001 4.049816e+001 1.303693e+002 4.513626e+001 5.888602e+001 6.839133e+001 6.289623e+000 1.673500e+001 5.109414e+000 9.845033e+000 5.080712e+000 5.872706e+000 9.242353e+000 3.023064e+000 1.729944e+001 4.014222e+000 3.924226e+000 4.826943e+000 8.149076e+000
<GCONST> 1.220261e+002
<STATE> 3
<MEAN> 25
 3.320271e+000 -5.137135e+000 -2.007601e+000 -6.432563e+000 -2.578632e+000 -1.744119e-001 -2.816905e+000 -1.132368e-002 1.296781e+000 1.473374e+000 2.596402e+000 8.289020e+000 1.253248e+000 -2.192085e+000 2.705397e-001 -1.419935e+000 -5.023880e-001 3.354653e-001 -9.406099e-001 7.864926e-001 1.057902e+000 -2.047827e-001 3.768948e-001 -2.151791e-001 2.263298e+000
<VARIANCE> 25
 6.939680e+001 1.597564e+002 1.488369e+002 4.702419e+001 8.265625e+001 5.749049e+001 6.681505e+001 6.454267e+001 1.143679e+002 4.923130e+001 3.093825e+001 6.656890e+001 6.423767e+000 1.040542e+001 4.379627e+000 5.361762e+000 6.311994e+000 8.096304e+000 6.039896e+000 4.953871e+000 1.658812e+001 3.485881e+000 4.407157e+000 2.621094e+000 6.218565e+000
<GCONST> 1.202384e+002
<STATE> 4
<MEAN> 25
 6.053741e+000 -5.252844e+000 -3.196871e+000 -6.792673e+000 -9.738213e+000 -5.677518e-002 1.411980e+000 3.291381e+000 9.775475e+000 -2.385717e+000 1.226755e+000 4.459128e+000 1.212027e-001 2.733483e-001 -2.259387e-001 1.781063e-001 -2.124880e-001 -1.026706e-001 3.935348e-001 -1.906446e-001 2.402441e-001 -5.194717e-002 -2.708267e-001 -5.850299e-002 -9.946511e-002
<VARIANCE> 25
 9.040161e+001 1.061154e+002 1.217589e+002 8.817860e+001 4.226463e+001 3.525470e+001 5.683540e+001 4.676498e+001 1.071525e+002 3.114649e+001 4.842674e+001 2.895323e+001 1.280099e+000 4.327535e+000 4.199502e+000 3.303177e+000 3.495908e+000 2.495223e+000 4.562680e+000 3.916219e+000 5.431011e+000 3.298882e+000 3.456139e+000 2.154575e+000 2.631738e+000
<GCONST> 1.101995e+002
<TRANSP> 5
 0.000000e+000 1.000000e+000 0.000000e+000 0.000000e+000 0.000000e+000
 0.000000e+000 7.849482e-001 2.150518e-001 0.000000e+000 0.000000e+000
 0.000000e+000 0.000000e+000 6.029615e-001 3.970385e-001 0.000000e+000
 0.000000e+000 0.000000e+000 0.000000e+000 9.354655e-001 6.453446e-002
 0.000000e+000 0.000000e+000 0.000000e+000 0.000000e+000 0.000000e+000
<ENDHMM>
~h "ay"
<BEGINHMM>
<NUMSTATES> 5
<STATE> 2
<MEAN> 25
 3.950089e+000 1.555463e+000 -3.144876e+000 3.944544e+000 -5.050564e+000 2.746506e+000 -1.272814e+000 -5.030090e+000 4.495887e+000 -4.027301e-001 3.608974e+000 -1.574202e-001 -1.117110e-001 7.834991e-001 -7.941191e-001 9.789824e-001 -2.509856e-001 -8.942720e-002 6.384161e-001 -7.598493e-001 5.091308e-001 -4.032546e-001 -3.217884e-001 5.429908e-001 -8.246040e-001
<VARIANCE> 25
 7.251182e+001 1.361438e+002 7.105679e+001 9.238104e+001 7.115993e+001 5.281482e+001 7.762952e+001 1.173692e+002 8.165542e+001 7.495452e+001 4.580307e+001 3.444809e+001 1.324724e+000 3.619009e+000 6.367839e+000 4.963076e+000 3.584172e+000 5.943493e+000 3.247702e+000 5.015135e+000 5.563644e+000 5.494302e+000 3.230383e+000 2.661459e+000 1.446077e+000
<GCONST> 1.141762e+002
<STATE> 3
<MEAN> 25
 3.046832e+000 1.000589e+001 -8.879311e+000 9.602569e+000 -3.756650e+000 6.701555e-001 6.505470e+000 -5.424166e+000 3.801867e+000 -3.870768e+000 1.046133e+000 3.178764e+000 -7.646278e-002 5.626775e-001 -9.783895e-002 5.574427e-001 3.454167e-001 -6.085801e-001 2.489079e-001 -1.219016e-001 -4.074072e-001 -1.310863e-002 -7.094215e-001 -5.128644e-002 -3.432949e-001
<VARIANCE> 25
 6.207944e+001 1.851256e+002 6.130816e+001 1.217360e+002 6.785415e+001 5.662340e+001 9.988266e+001 1.018507e+002 9.338638e+001 9.891733e+001 4.839607e+001 3.451717e+001 2.458566e+000 3.027596e+000 7.405393e+000 5.159881e+000 2.553108e+000 5.212605e+000 4.728197e+000 3.079997e+000 4.996130e+000 7.233827e+000 3.800067e+000 2.683211e+000 1.257237e+000
<GCONST> 1.153030e+002
<STATE> 4
<MEAN> 25
 -4.206327e+000 9.685686e+000 -9.342408e+000 7.070163e+000 -5.486418e+000 2.280474e-001 7.965008e+000 -2.670563e+000 4.332899e+000 -1.572766e+000 -2.856767e+000 6.921150e-001 4.262095e-002 -6.900789e-001 6.502081e-001 -9.697154e-001 5.493286e-002 7.152523e-002 -5.801570e-001 4.889988e-001 -1.204603e-001 3.810639e-001 4.695650e-002 -1.767719e-001 6.854463e-001
<VARIANCE> 25
 8.905635e+001 9.518701e+001 9.974577e+001 1.081512e+002 8.233961e+001 7.845807e+001 1.380183e+002 6.394081e+001 1.017360e+002 9.218578e+001 4.362983e+001 4.805822e+001 3.778907e+000 5.074488e+000 5.578403e+000 7.518812e+000 5.400076e+000 6.634110e+000 9.139434e+000 6.808721e+000 9.496717e+000 5.653808e+000 4.983595e+000 5.290693e+000 3.835389e+000
<GCONST> 1.219304e+002
<TRANSP> 5
 0.000000e+000 1.000000e+000 0.000000e+000 0.000000e+000 0.000000e+000
 0.000000e+000 8.291498e-001 1.708502e-001 0.000000e+000 0.000000e+000
 0.000000e+000 0.000000e+000 5.710569e-001 4.289431e-001 0.000000e+000
 0.000000e+000 0.000000e+000 0.000000e+000 8.946230e-001 1.053770e-001
 0.000000e+000 0.000000e+000 0.000000e+000 0.000000e+000 0.000000e+000
<ENDHMM>
~h "ch"
<BEGINHMM>
<NUMSTATES> 5
<STATE> 2
<MEAN> 25
 -4.310943e+000 7.281934e+000 -1.252224e+001 9.460692e+000 2.617373e+000 -4.139911e+000 9.884385e+000 -3.067380e-001 -4.517172e+000 3.194847e+000 1.104983e+000 -4.410864e+000 -2.905509e-002 -2.283208e-001 -1.165497e-001 6.865627e-002 -2.097188e-001 -1.568587e-002 1.396817e-001 -1.732688e-001 1.529499e-001 -1.748142e-001 -3.075138e-002 7.348444e-002 4.838476e-002
<VARIANCE> 25
 8.931955e+000 5.682824e+001 1.069720e+002 3.858030e+001 5.523059e+001 2.727069e+001 6.261037e+001 7.064082e+001 4.321759e+001 4.961673e+001 5.177540e+001 3.013905e+001 1.123863e+000 3.258062e+000 4.094633e+000 5.681203e+000 7.943012e+000 3.651556e+000 7.115639e+000 8.644597e+000 6.055300e+000 6.238791e+000 5.275695e+000 3.851474e+000 7.507715e-001
<GCONST> 1.095251e+002
<STATE> 3
<MEAN> 25
 -4.852501e+000 1.139753e+000 1.923575e+000 4.313165e+000 3.444785e+000 -4.166367e+000 5.628920e+000 2.174092e+000 -4.679693e+000 4.131890e+000 -4.258986e+000 -4.501418e+000 -9.312730e-001 -2.172756e+000 1.976866e+000 -1.220126e+000 3.057113e-001 -9.809296e-001 2.188140e-001 1.095671e+000 -2.996099e-001 -8.036076e-002 -4.373192e-001 1.013306e+000 1.442366e+000
<VARIANCE> 25
 7.411222e+000 1.517287e+002 1.226073e+002 6.973956e+001 4.359167e+001 3.641496e+001 6.232140e+001 2.673116e+001 4.493335e+001 7.377391e+001 2.143199e+001 3.388970e+001 2.403833e+000 1.081365e+001 1.412797e+001 7.973237e+000 7.913662e+000 2.824312e+000 8.956841e+000 3.160599e+000 4.910873e+000 5.028939e+000 2.380308e+000 2.985922e+000 4.930583e+000
<GCONST> 1.127033e+002
<STATE> 4
<MEAN> 25
 -9.164041e+000 -2.021766e+001 1.682423e+001 -2.066771e+000 3.038240e+000 -5.790681e-001 -2.426801e+000 4.220475e+000 3.539113e+000 -6.159711e-001 -1.845756e+000 5.707219e+000 1.022661e+000 3.637983e-001 -1.000397e+000 6.498830e-001 2.457639e-001 7.988569e-001 -9.124674e-001 -1.133259e+000 1.303221e-001 -2.919639e-001 3.321350e-001 2.077000e-001 4.861895e-002
<VARIANCE> 25
 2.487443e+001 3.002664e+001 5.339669e+001 2.883810e+001 2.162033e+001 4.377179e+001 5.389592e+001 8.296300e+001 6.722561e+001 5.349669e+001 3.044216e+001 1.479414e+001 5.507082e+000 4.547400e+000 5.002728e+000 3.071460e+000 3.721838e+000 3.493004e+000 3.556315e+000 4.797450e+000 7.766059e+000 3.119368e+000 3.008255e+000 1.547918e+000 1.110891e+000
<GCONST> 1.056434e+002
<TRANSP> 5
 0.000000e+000 1.000000e+000 0.000000e+000 0.000000e+000 0.000000e+000
 0.000000e+000 9.330193e-001 6.698069e-002 0.000000e+000 0.000000e+000
 0.000000e+000 0.000000e+000 7.929955e-001 2.070045e-001 0.000000e+000
 0.000000e+000 0.000000e+000 0.000000e+000 9.103022e-001 8.969778e-002
 0.000000e+000 0.000000e+000 0.000000e+000 0.000000e+000 0.000000e+000
<ENDHMM>
~h "dh"
<BEGINHMM>
<NUMSTATES> 5
<STATE> 2
<MEAN> 25
 7.703133e+000 -8.384521e+000 3.013887e+000 -3.071059e+000 1.301298e+001 -1.147509e+000 -1.525978e+001 -6.440423e+000 -8.835125e+000 -3.047700e-001 -4.711177e-001 2.922666e+000 8.483940e-001 9.425390e-001 -2.298845e+000 -2.239659e+000 2.467108e+000 -1.275173e-001 -2.345389e+000 -1.357303e+000 1.347653e-001 -1.477855e+000 2.474284e-001 1.673740e+000 4.441742e-001
<VARIANCE> 25
 7.910032e+000 4.057413e+001 3.905662e+001 2.960500e+001 4.655856e+001 1.476488e+001 4.188751e+001 3.237492e+001 2.760735e+001 4.133579e+001 2.547504e+001 3.005755e+001 5.726806e-001 1.825693e+000 1.243062e+000 2.825296e+000 4.406416e+000 2.198747e+000 7.865500e+000 2.413603e+000 1.458196e+000 4.243182e+000 4.513399e+000 1.798843e+000 5.192178e-001
<GCONST> 9.597366e+001
<STATE> 3
<MEAN> 25
 9.377748e+000 -3.430797e+000 -2.499304e+000 -1.614240e+001 1.577934e+001 5.664012e+000 -1.740306e+001 -8.843592e+000 -8.057886e+000 -6.972189e+000 4.856277e+000 8.955708e+000 1.157232e-001 8.512020e-001 -1.537822e-001 -1.647382e+000 -9.052046e-001 1.227257e+000 4.438335e-001 2.994954e-001 -1.839041e-002 -1.402730e+000 3.670279e-001 6.251630e-001 -2.398379e-001
<VARIANCE> 25
 3.771846e+000 1.728289e+001 2.578869e+001 5.314872e+001 3.775827e+001 3.659261e+001 2.881127e+001 1.475241e+001 2.476899e+001 4.031060e+001 3.114529e+001 2.378992e+001 1.749135e-001 5.830461e-001 6.116258e-001 2.074465e+000 1.328092e+000 2.853261e+000 2.702088e+000 1.408359e+000 2.700330e+000 3.448874e+000 3.362866e+000 1.417216e+000 8.878431e-002
<GCONST> 8.613973e+001
<STATE> 4
<MEAN> 25
 1.960343e+000 3.832286e+000 -3.592238e+000 -3.849741e+000 1.632730e+000 2.592597e+000 -5.957925e+000 -2.797169e+000 -4.055468e+000 -7.315966e+000 3.468898e+000 1.876453e+000 -4.788741e-001 2.399761e-001 9.533124e-003 7.861080e-001 -6.253168e-001 -2.091850e-001 7.132613e-001 2.770222e-001 2.616034e-001 1.426747e-001 -3.526668e-001 -5.061007e-001 -7.070891e-001
<VARIANCE> 25
 6.196801e+001 1.520689e+001 2.962625e+001 1.513620e+002 9.487164e+001 3.917241e+001 6.834947e+001 4.121276e+001 5.814174e+001 3.014130e+001 7.379135e+001 6.535474e+001 3.532723e-001 7.814963e-001 1.427117e+000 3.183061e+000 2.225404e+000 2.546391e+000 3.097852e+000 3.410033e+000 3.478694e+000 2.408384e+000 4.038919e+000 2.443482e+000 3.464548e-001
<GCONST> 1.009909e+002
<TRANSP> 5
 0.000000e+000 1.000000e+000 0.000000e+000 0.000000e+000 0.000000e+000
 0.000000e+000 7.389134e-001 2.610866e-001 0.000000e+000 0.000000e+000
 0.000000e+000 0.000000e+000 7.816759e-001 2.183241e-001 0.000000e+000
 0.000000e+000 0.000000e+000 0.000000e+000 9.375392e-001 6.246076e-002
 0.000000e+000 0.000000e+000 0.000000e+000 0.000000e+000 0.000000e+000
<ENDHMM>
~h "eh"
<BEGINHMM>
<NUMSTATES> 5
<STATE> 2
<MEAN> 25
 8.278602e+000 -5.165014e+000 4.560097e+000 -3.495135e+000 3.789035e+000 1.017661e+000 -6.840108e+000 -5.660999e+000 -1.752545e+000 3.855651e+000 1.809625e+000 4.379568e+000 1.578128e-001 -3.464962e-001 -3.205520e-002 1.297433e-001 1.970948e-001 -4.563837e-001 -3.614195e-001 -8.981101e-001 3.172497e-001 6.700766e-001 1.176458e-001 7.734805e-001 4.248625e-001
<VARIANCE> 25
 1.473266e+001 8.984200e+001 4.521137e+001 7.522166e+001 5.025720e+001 5.527827e+001 4.487734e+001 5.868439e+001 4.938410e+001 7.554281e+001 3.328986e+001 3.835302e+001 2.201926e+000 6.045839e+000 2.723446e+000 4.072538e+000 3.401708e+000 3.639627e+000 4.422781e+000 3.278771e+000 4.636752e+000 4.441736e+000 3.984301e+000 2.872133e+000 3.366817e+000
<GCONST> 1.093106e+002
<STATE> 3
<MEAN> 25
 7.173659e+000 -4.154397e+000 4.179065e+000 -6.167817e-001 4.301526e+000 -9.005448e-001 -5.925581e+000 -5.933778e+000 -1.669427e+000 5.724258e+000 7.483428e-001 3.628073e+000 -3.392204e-001 -7.710344e-001 9.375934e-002 -2.580429e-002 -1.824457e-001 -6.269294e-001 1.690012e-001 6.567229e-002 1.873584e-001 1.050263e+000 1.469707e-001 -1.058299e-001 2.110584e-001
<VARIANCE> 25
 1.831529e+001 8.787415e+001 7.174221e+001 6.921610e+001 5.627234e+001 6.758092e+001 3.938673e+001 7.578500e+001 4.517948e+001 6.836108e+001 3.231938e+001 3.945832e+001 1.275267e+000 7.244439e+000 4.099380e+000 6.656837e+000 3.285118e+000 7.198274e+000 5.115335e+000 4.202738e+000 4.617491e+000 6.904675e+000 4.093079e+000 4.040465e+000 4.715033e+000
<GCONST> 1.128517e+002
<STATE> 4
<MEAN> 25
 5.392559e+000 -8.054751e+000 5.765141e+000 -2.216454e+000 3.485567e+000 -6.205715e-001 -7.081350e+000 -6.203475e+000 -1.800117e+000 6.830570e+000 1.820663e+000 2.733557e+000 -2.287087e-001 7.234408e-002 -3.722858e-001 1.587132e-001 -2.341276e-001 7.461717e-002 -3.144788e-002 -1.710677e-001 -2.766197e-003 -3.753028e-001 1.617465e-001 -1.000617e-001 -3.863072e-001
<VARIANCE> 25
 4.404974e+001 8.310594e+001 8.959801e+001 7.296788e+001 4.343774e+001 4.736608e+001 3.994394e+001 4.398291e+001 5.597639e+001 5.319725e+001 3.484554e+001 4.119452e+001 1.898630e+000 4.165498e+000 4.176493e+000 3.476482e+000 2.574574e+000 3.364372e+000 4.831166e+000 3.340195e+000 4.499448e+000 4.010724e+000 2.398285e+000 2.372663e+000 2.109157e+000
<GCONST> 1.083679e+002
<TRANSP> 5
 0.000000e+000 1.000000e+000 0.000000e+000 0.000000e+000 0.000000e+000
 0.000000e+000 5.543538e-001 4.456462e-001 0.000000e+000 0.000000e+000
 0.000000e+000 0.000000e+000 5.405166e-001 4.594834e-001 0.000000e+000
 0.000000e+000 0.000000e+000 0.000000e+000 8.297319e-001 1.702681e-001
 0.000000e+000 0.000000e+000 0.000000e+000 0.000000e+000 0.000000e+000
<ENDHMM>
~h "er"
<BEGINHMM>
<NUMSTATES> 5
<STATE> 2
<MEAN> 25
 8.622283e+000 4.536608e+000 -4.813228e+000 -7.636993e+000 7.665655e+000 8.189866e+000 -3.766893e+000 -3.573337e+000 -4.175275e+000 -6.621071e+000 3.329098e+000 6.505233e+000 4.512415e-001 7.548152e-001 -6.834048e-001 -6.775661e-001 2.522206e-002 4.485077e-001 2.694329e-001 -1.651031e-001 2.634721e-002 -5.013143e-001 2.023606e-001 5.322059e-001 -5.442949e-002
<VARIANCE> 25
 4.427214e+001 7.242008e+001 1.073242e+002 1.915624e+002 7.678323e+001 6.901156e+001 1.396033e+002 6.839614e+001 9.613108e+001 5.445048e+001 3.477684e+001 4.417248e+001 2.593647e+000 2.913963e+000 5.587804e+000 9.690139e+000 5.439789e+000 4.732778e+000 4.540068e+000 4.823181e+000 5.881841e+000 5.770917e+000 3.608710e+000 3.078493e+000 2.353113e+000
<GCONST> 1.167274e+002
<STATE> 3
<MEAN> 25
 7.942287e+000 6.865276e-001 -2.618245e+000 -8.016498e+000 4.259431e+000 5.069271e+000 -5.474659e+000 -2.580361e+000 -3.775552e+000 -5.333358e+000 1.751256e+000 4.797523e+000 8.076562e-001 -7.035918e-001 9.467555e-001 -1.637419e+000 5.482477e-001 1.075037e-001 -9.997328e-001 3.148842e-001 -5.491148e-001 -1.223183e-001 -9.773829e-002 7.172204e-001 1.572276e+000
<VARIANCE> 25
 6.291376e+001 6.269623e+001 6.928210e+001 1.649815e+002 8.634692e+001 7.783943e+001 1.278096e+002 1.022328e+002 9.850842e+001 6.650931e+001 3.694897e+001 2.903054e+001 5.712799e+000 9.179997e+000 8.871001e+000 5.457079e+000 4.966207e+000 4.985725e+000 4.053353e+000 3.262738e+000 4.450100e+000 4.859522e+000 3.664461e+000 2.573564e+000 5.137762e+000
<GCONST> 1.182124e+002
<STATE> 4
<MEAN> 25
 9.436233e+000 2.091020e+000 -2.922269e+000 -1.284771e+001 7.633943e+000 8.610325e+000 -1.047416e+001 -3.480283e+000 -5.067992e+000 -8.202651e+000 4.010162e+000 5.536203e+000 -3.897781e-001 8.923462e-002 -2.458218e-002 7.034730e-001 -5.047083e-002 -3.882905e-001 2.348267e-001 8.776993e-002 1.703869e-001 3.168952e-001 -5.739103e-002 -1.459962e-001 -4.603556e-001
<VARIANCE> 25
 2.360269e+001 4.846838e+001 5.832182e+001 1.198294e+002 7.743844e+001 7.831995e+001 6.483538e+001 5.830695e+001 6.566936e+001 5.566328e+001 3.594852e+001 4.029143e+001 5.580520e-001 1.841467e+000 1.848235e+000 3.532430e+000 2.833764e+000 3.144420e+000 2.492660e+000 3.317930e+000 3.111153e+000 3.112386e+000 1.998657e+000 2.581763e+000 9.132615e-001
<GCONST> 1.042953e+002
<TRANSP> 5
 0.000000e+000 1.000000e+000 0.000000e+000 0.000000e+000 0.000000e+000
 0.000000e+000 6.889153e-001 3.110847e-001 0.000000e+000 0.000000e+000
 0.000000e+000 0.000000e+000 4.336468e-001 5.663532e-001 0.000000e+000
 0.000000e+000 0.000000e+000 0.000000e+000 9.290942e-001 7.090581e-002
 0.000000e+000 0.000000e+000 0.000000e+000 0.000000e+000 0.000000e+000
<ENDHMM>
~h "ey"
<BEGINHMM>
<NUMSTATES> 5
<STATE> 2
<MEAN> 25
 6.243665e+000 -1.050254e+001 1.080745e+001 2.117940e+000 9.329617e+000 -9.919909e+000 -1.578158e+001 -1.384721e+000 -8.653611e-001 6.387175e+000 -3.431549e+000 -3.770044e+000 -1.484917e-001 2.773582e-001 1.729343e-001 5.294615e-001 1.305497e-001 -1.906028e-001 -3.226177e-001 1.305415e-001 2.073806e-001 -3.027345e-001 -2.588418e-001 -2.417332e-001 -3.049817e-001
<VARIANCE> 25
 9.771005e+000 4.005451e+001 3.526900e+001 3.517125e+001 3.362259e+001 3.503220e+001 4.346740e+001 3.159868e+001 3.263108e+001 5.193392e+001 2.586723e+001 2.057694e+001 2.528097e-001 8.807148e-001 1.039693e+000 8.038909e-001 1.298596e+000 2.364674e+000 1.790805e+000 1.492028e+000 2.029252e+000 1.992699e+000 1.427326e+000 1.274784e+000 4.154081e-001
<GCONST> 8.858926e+001
<STATE> 3
<MEAN> 25
 3.562087e+000 -2.473090e-001 5.009771e+000 6.881744e+000 4.774876e+000 -2.910534e+000 -8.852158e+000 -1.498366e+000 1.909776e+000 2.960949e-001 -2.602842e+000 -3.138059e+000 -3.770874e-002 9.208554e-001 -7.883270e-001 1.192970e-001 -2.314106e-001 1.061743e+000 1.104135e+000 -4.492182e-001 -8.532664e-002 -2.177285e-001 4.934420e-001 4.258116e-001 -7.963723e-001
<VARIANCE> 25
 2.480239e+001 1.053803e+002 1.124809e+002 4.684093e+001 1.092008e+002 7.953475e+001 1.593318e+002 3.401032e+001 7.462950e+001 6.923153e+001 3.571910e+001 2.697873e+001 7.526861e-001 1.421362e+000 2.478388e+000 2.575638e+000 2.488916e+000 3.030863e+000 2.811927e+000 2.966898e+000 3.347160e+000 3.838299e+000 2.891867e+000 2.478310e+000 9.403399e-001
<GCONST> 1.059971e+002
<STATE> 4
<MEAN> 25
 4.723041e+000 4.641895e+000 2.669490e-001 1.507726e+001 3.603788e+000 -6.787797e+000 -7.097342e+000 -5.873860e+000 2.042168e+000 -8.479552e-001 -4.608101e+000 -3.713076e+000 -3.396450e-002 -2.419744e-002 -3.509986e-001 2.716213e-002 -2.340384e-001 3.041114e-002 3.551058e-001 -1.922608e-001 1.659616e-002 -5.162273e-002 1.432648e-003 1.777927e-001 -1.339860e-001
<VARIANCE> 25
 3.211176e+001 1.741414e+002 1.393555e+002 1.395963e+002 7.323890e+001 6.392106e+001 1.679345e+002 6.939916e+001 6.473449e+001 5.941731e+001 7.537484e+001 2.888600e+001 1.815921e+000 7.638732e+000 4.730471e+000 6.519634e+000 4.564910e+000 5.023687e+000 8.259948e+000 3.687223e+000 5.561563e+000 5.118847e+000 3.969968e+000 2.734410e+000 4.712827e+000
<GCONST> 1.180986e+002
<TRANSP> 5
 0.000000e+000 1.000000e+000 0.000000e+000 0.000000e+000 0.000000e+000
 0.000000e+000 9.209354e-001 7.906459e-002 0.000000e+000 0.000000e+000
 0.000000e+000 0.000000e+000 4.752467e-001 5.247532e-001 0.000000e+000
 0.000000e+000 0.000000e+000 0.000000e+000 8.809637e-001 1.190363e-001
 0.000000e+000 0.000000e+000 0.000000e+000 0.000000e+000 0.000000e+000
<ENDHMM>
~h "hh"
<BEGINHMM>
<NUMSTATES> 5
<STATE> 2
<MEAN> 25
 1.141348e+000 -1.050337e+001 1.739838e+000 -5.281029e+000 3.871146e+000 6.925965e+000 -4.659505e+000 2.603295e+000 5.849657e+000 7.783349e+000 2.157727e+000 1.919370e+000 1.118037e+000 -4.799305e-002 6.097334e-001 -7.972511e-001 7.267898e-001 3.932060e-001 -5.415552e-001 2.026921e-001 2.579663e-001 5.262625e-002 -1.781793e-001 1.073792e-001 1.335746e+000
<VARIANCE> 25
 3.614558e+001 5.367447e+001 6.151975e+001 4.021329e+001 1.096328e+002 3.999131e+001 4.528729e+001 3.144426e+001 6.970514e+001 6.058186e+001 6.044970e+001 2.149346e+001 2.519329e+000 4.117148e+000 4.214648e+000 3.836830e+000 8.367455e+000 3.064477e+000 2.556220e+000 4.465433e+000 3.159070e+000 2.784074e+000 5.060434e+000 2.153282e+000 2.665082e+000
<GCONST> 1.088402e+002
<STATE> 3
<MEAN> 25
 9.016908e+000 -8.563667e+000 4.175196e+000 -9.489628e+000 2.175856e+000 5.693490e+000 -4.384320e+000 3.985846e+000 3.242570e+000 2.321691e+000 1.662831e+000 1.827612e+000 1.836419e-001 -8.439516e-002 -2.616695e-001 -3.322886e-003 -7.211224e-001 -3.069178e-001 4.842277e-002 2.855860e-001 4.198046e-001 -4.964237e-001 2.257613e-002 -6.491002e-002 2.985254e-002
<VARIANCE> 25
 1.628631e+001 3.214662e+001 1.316688e+001 5.994059e+001 3.888138e+001 2.038687e+001 4.956493e+001 5.512931e+001 9.796735e+001 2.700470e+001 2.459653e+001 2.404901e+001 5.774843e-001 1.205810e+000 8.370561e-001 2.233308e+000 2.739633e+000 1.891404e+000 1.838530e+000 2.179343e+000 2.564332e+000 2.429792e+000 1.991934e+000 1.487872e+000 7.807013e-001
<GCONST> 9.369556e+001
<STATE> 4
<MEAN> 25
 1.081548e+001 -6.313275e-001 2.973429e+000 -5.063420e+000 -1.153793e-001 -3.918462e-001 -5.201726e+000 5.334013e+000 1.927394e-001 -6.588620e+000 -2.703097e-001 -1.035975e+000 -1.439319e-001 5.168804e-001 -1.202256e-001 5.264896e-001 -4.297743e-002 -3.139799e-002 2.246511e-003 -3.353122e-001 -1.679389e-001 -1.369949e-001 8.713914e-002 -1.236389e-001 -5.113102e-001
<VARIANCE> 25
 1.614892e+001 6.946951e+001 2.443168e+001 3.510741e+001 7.876580e+001 5.207330e+001 4.590836e+001 4.750639e+001 1.449277e+002 2.880937e+001 3.301684e+001 4.195532e+001 5.175022e-001 1.535746e+000 1.209836e+000 2.597300e+000 2.513028e+000 2.182309e+000 2.302840e+000 2.662997e+000 3.216579e+000 2.293515e+000 1.975203e+000 1.817775e+000 8.692739e-001
<GCONST> 9.886845e+001
<TRANSP> 5
 0.000000e+000 1.000000e+000 0.000000e+000 0.000000e+000 0.000000e+000
 0.000000e+000 8.328389e-001 1.671611e-001 0.000000e+000 0.000000e+000
 0.000000e+000 0.000000e+000 8.931698e-001 1.068302e-001 0.000000e+000
 0.000000e+000 0.000000e+000 0.000000e+000 9.425562e-001 5.744381e-002
 0.000000e+000 0.000000e+000 0.000000e+000 0.000000e+000 0.000000e+000
<ENDHMM>
~h "ih"
<BEGINHMM>
<NUMSTATES> 5
<STATE> 2
<MEAN> 25
 4.573023e+000 5.835094e-002 9.604162e+000 4.826954e+000 6.215139e+000 4.827128e-001 -6.211514e+000 -9.551885e-001 -1.328311e+000 3.380225e+000 -1.545830e+000 -3.704170e+000 1.760747e+000 -2.960615e-001 1.376889e+000 1.032719e+000 1.726974e+000 -1.367849e+000 -2.468552e+000 -7.233487e-001 -1.022767e+000 3.375962e-001 -2.677881e-001 -3.525136e-001 1.907266e+000
<VARIANCE> 25
 5.276872e+001 1.289275e+002 7.320482e+001 6.743498e+001 9.907139e+001 7.345015e+001 1.041715e+002 5.296854e+001 6.762032e+001 4.601436e+001 3.061461e+001 3.111048e+001 7.131887e+000 1.582611e+001 5.275218e+000 8.008161e+000 6.381033e+000 8.334999e+000 1.200161e+001 6.329060e+000 5.926468e+000 5.281599e+000 3.095539e+000 2.860629e+000 3.744514e+000
<GCONST> 1.194052e+002
<STATE> 3
<MEAN> 25
 7.085584e+000 -4.693790e+000 1.124112e+001 6.561210e+000 1.400204e+001 -5.914436e+000 -1.468998e+001 -8.325585e-001 -5.388193e+000 4.602864e+000 -7.728053e-001 -4.667019e+000 1.337225e-001 -4.649107e-001 1.735708e-001 7.657607e-002 5.450344e-001 -4.916525e-001 -8.892149e-001 1.127271e-001 -2.433262e-001 1.285606e-002 1.072350e-001 -2.811513e-001 4.292977e-001
<VARIANCE> 25
 1.191101e+001 7.178995e+001 4.239608e+001 6.784473e+001 4.529208e+001 7.254268e+001 6.474185e+001 5.808847e+001 5.840033e+001 3.088961e+001 2.838394e+001 4.293026e+001 1.102185e+000 4.032469e+000 2.390119e+000 3.970705e+000 4.504089e+000 4.914820e+000 5.250580e+000 3.864869e+000 3.646294e+000 2.975884e+000 2.204002e+000 3.127349e+000 1.825911e+000
<GCONST> 1.063615e+002
<STATE> 4
<MEAN> 25
 6.424912e+000 -3.279426e+000 1.044334e+001 7.866585e+000 1.190302e+001 -2.201526e+000 -1.364008e+001 -2.832453e+000 -4.594276e+000 2.660000e+000 -8.226492e-001 -5.963936e+000 -1.746316e-001 6.152495e-001 -5.014873e-001 2.742886e-001 -6.046402e-001 4.728060e-001 6.279742e-001 -1.088740e-001 4.231093e-001 -3.121646e-001 -4.855417e-002 5.410603e-002 -7.466562e-001
<VARIANCE> 25
 1.531030e+001 6.153662e+001 4.365908e+001 7.235600e+001 5.064963e+001 6.439761e+001 4.131059e+001 6.684644e+001 6.767785e+001 4.610550e+001 3.831339e+001 3.758789e+001 7.494459e-001 2.432682e+000 2.447354e+000 3.745718e+000 3.375120e+000 3.439158e+000 3.268246e+000 3.417336e+000 4.416141e+000 3.217650e+000 3.028344e+000 2.401339e+000 1.293236e+000
<GCONST> 1.047609e+002
<TRANSP> 5
 0.000000e+000 1.000000e+000 0.000000e+000 0.000000e+000 0.000000e+000
 0.000000e+000 7.162504e-001 2.837496e-001 0.000000e+000 0.000000e+000
 0.000000e+000 0.000000e+000 6.618868e-001 3.381132e-001 0.000000e+000
 0.000000e+000 0.000000e+000 0.000000e+000 9.044965e-001 9.550351e-002
 0.000000e+000 0.000000e+000 0.000000e+000 0.000000e+000 0.000000e+000
<ENDHMM>
~h "iy"
<BEGINHMM>
<NUMSTATES> 5
<STATE> 2
<MEAN> 25
 4.914925e+000 -5.788237e+000 1.270099e+001 7.145192e+000 1.367466e+001 -1.718353e+000 -1.161438e+001 -3.149137e+000 -7.223536e+000 1.408285e+000 -2.891611e+000 -4.207872e+000 9.718652e-001 -8.044747e-001 2.279105e-001 1.884351e+000 1.429295e+000 -1.981358e+000 -2.260562e+000 -1.581299e-001 1.776554e-001 3.814683e-001 1.455514e-002 -5.819951e-001 1.081115e+000
<VARIANCE> 25
 3.548199e+001 4.520359e+001 9.598409e+001 9.608581e+001 5.060088e+001 4.502434e+001 4.750056e+001 5.002754e+001 7.843543e+001 4.713565e+001 3.272598e+001 2.895785e+001 3.790817e+000 7.508677e+000 5.164788e+000 1.163060e+001 4.498016e+000 5.057197e+000 7.000490e+000 4.563779e+000 6.055824e+000 5.296509e+000 4.055592e+000 3.049750e+000 3.623432e+000
<GCONST> 1.143337e+002
<STATE> 3
<MEAN> 25
 6.026963e+000 -1.003605e+001 1.447899e+001 1.235084e+001 1.671757e+001 -8.736493e+000 -1.820055e+001 -1.384228e+000 -4.834915e+000 1.163260e+000 -2.089948e+000 -6.104095e+000 4.224723e-003 -4.754874e-001 -5.047439e-002 4.277778e-001 4.784451e-001 -1.131442e+000 -6.067652e-001 2.753207e-001 7.497406e-003 -2.317827e-001 2.521012e-001 -1.166498e-001 3.439223e-001
<VARIANCE> 25
 1.104930e+001 1.787329e+001 6.448853e+001 5.099051e+001 3.736983e+001 3.591601e+001 2.230040e+001 7.929092e+001 6.821310e+001 2.542866e+001 2.300450e+001 2.110669e+001 7.450680e-001 1.293975e+000 2.497591e+000 2.289652e+000 1.966239e+000 3.485119e+000 2.693160e+000 2.292882e+000 2.725758e+000 2.019167e+000 1.812382e+000 1.455676e+000 6.349055e-001
<GCONST> 9.532787e+001
<STATE> 4
<MEAN> 25
 6.712101e+000 -6.759275e+000 8.410433e+000 7.497880e+000 1.654749e+001 -7.774278e+000 -1.645132e+001 -3.699386e+000 -7.470785e+000 2.950100e+000 -1.454865e+000 -4.223440e+000 3.293430e-002 5.013070e-001 -5.852724e-001 -5.600395e-001 -2.746803e-001 5.505936e-001 4.194261e-001 -6.493001e-002 -4.677097e-002 -1.488909e-001 -5.812220e-003 3.005033e-001 -3.762203e-001
<VARIANCE> 25
 1.044979e+001 5.129862e+001 5.485172e+001 8.606652e+001 4.731935e+001 6.338182e+001 3.235426e+001 3.156257e+001 6.380567e+001 4.041288e+001 2.565625e+001 2.791814e+001 3.680464e-001 1.244749e+000 1.736230e+000 3.021602e+000 2.079247e+000 3.129810e+000 2.506189e+000 2.486278e+000 3.129012e+000 2.997414e+000 1.905294e+000 1.949462e+000 5.751766e-001
<GCONST> 9.763179e+001
<TRANSP> 5
 0.000000e+000 1.000000e+000 0.000000e+000 0.000000e+000 0.000000e+000
 0.000000e+000 6.903637e-001 3.096363e-001 0.000000e+000 0.000000e+000
 0.000000e+000 0.000000e+000 7.528472e-001 2.471528e-001 0.000000e+000
 0.000000e+000 0.000000e+000 0.000000e+000 9.361506e-001 6.384934e-002
 0.000000e+000 0.000000e+000 0.000000e+000 0.000000e+000 0.000000e+000
<ENDHMM>
~h "jh"
<BEGINHMM>
<NUMSTATES> 5
<STATE> 2
<MEAN> 25
 8.104901e-001 -5.438344e+000 2.094514e+000 -1.422102e+000 7.972920e-001 1.302104e+000 3.136667e+000 4.007246e+000 -7.565652e+000 4.779859e+000 4.449079e+000 -8.757706e-001 -5.990262e-001 -1.254081e+000 -2.708980e-001 -9.537276e-001 -1.428313e+000 -5.569322e-001 2.930010e-001 4.363841e-001 -1.557961e-001 2.160941e-001 1.292188e+000 5.893298e-001 6.840224e-002
<VARIANCE> 25
 3.134899e+001 1.318747e+002 7.833218e+001 9.961587e+001 5.170690e+001 4.745008e+001 3.918019e+001 2.487716e+001 7.627879e+001 2.620110e+001 8.433606e+001 2.342303e+001 2.962102e+000 1.064922e+001 1.264909e+001 1.191732e+001 5.064583e+000 5.650980e+000 8.630965e+000 6.560920e+000 9.746087e+000 1.609158e+000 4.635056e+000 1.843637e+000 7.690971e+000
<GCONST> 1.159079e+002
<STATE> 3
<MEAN> 25
 -2.829793e+000 3.576074e+000 -1.580764e+001 4.412869e+000 -6.240069e+000 -3.435454e+000 1.200120e+001 1.164064e+000 2.733139e+000 2.197079e+000 6.805668e+000 4.963098e+000 -5.886762e-001 3.646727e-001 -1.255680e-001 -5.450193e-001 -2.052290e-001 -5.731254e-001 2.677004e-002 1.914716e-001 -3.410541e-001 -4.568099e-001 -3.940370e-001 -1.824349e-001 -5.156727e-001
<VARIANCE> 25
 2.163715e+001 7.479900e+001 1.445829e+002 1.283238e+002 4.645967e+001 4.189931e+001 1.105948e+002 4.720253e+001 7.168760e+001 3.375786e+001 6.351875e+001 2.518428e+001 1.332873e+000 3.238523e+000 9.555672e+000 7.990389e+000 3.133313e+000 4.857397e+000 7.671807e+000 4.631432e+000 9.342861e+000 4.547709e+000 3.984340e+000 2.905164e+000 1.116378e+000
<GCONST> 1.128668e+002
<STATE> 4
<MEAN> 25
 -7.045820e+000 -2.781228e+000 -2.556183e+000 -3.438311e+000 -9.616839e-001 -2.785594e+000 -2.887957e+000 3.057539e+000 3.861895e+000 -6.630399e-001 -1.360052e+000 3.136401e-001 1.745463e-001 -7.562180e-001 8.881316e-001 1.431165e-001 9.153191e-001 5.213177e-001 -8.774903e-001 -6.677386e-002 4.006233e-001 3.797998e-001 -3.377116e-001 -2.327305e-002 7.694783e-001
<VARIANCE> 25
 5.365579e+001 1.631092e+002 3.827939e+002 5.714658e+001 1.019336e+002 4.302194e+001 4.512705e+001 3.813793e+001 7.272079e+001 5.074091e+001 3.504911e+001 4.647126e+001 3.476146e+000 1.085253e+001 9.145598e+000 4.003317e+000 9.151280e+000 6.009787e+000 9.699893e+000 5.618705e+000 7.175619e+000 4.251270e+000 4.584069e+000 5.279516e+000 2.473639e+000
<GCONST> 1.192090e+002
<TRANSP> 5
 0.000000e+000 1.000000e+000 0.000000e+000 0.000000e+000 0.000000e+000
 0.000000e+000 8.786796e-001 1.213204e-001 0.000000e+000 0.000000e+000
 0.000000e+000 0.000000e+000 8.905177e-001 1.094823e-001 0.000000e+000
 0.000000e+000 0.000000e+000 0.000000e+000 9.191543e-001 8.084564e-002
 0.000000e+000 0.000000e+000 0.000000e+000 0.000000e+000 0.000000e+000
<ENDHMM>
~h "ng"
<BEGINHMM>
<NUMSTATES> 5
<STATE> 2
<MEAN> 25
 9.120957e+000 2.539453e+000 -3.504587e-001 -3.731795e+000 5.286721e+000 2.626636e+000 -4.458923e+000 3.444109e+000 -8.854625e-001 -2.256428e+000 -3.878403e+000 -3.449327e+000 -4.158326e-001 4.586434e-002 -1.424694e-001 -2.118233e-001 2.429238e-001 -8.016100e-002 3.297473e-001 -3.572837e-001 -1.151432e+000 4.797034e-001 2.482631e-001 -1.481642e-001 -3.195188e-001
<VARIANCE> 25
 1.441154e+001 5.915619e+001 2.061530e+001 1.120847e+002 3.453795e+001 4.433656e+001 6.620877e+001 2.448765e+001 1.387582e+002 4.748936e+001 4.669474e+001 2.209551e+001 8.293760e-001 6.006036e+000 2.508627e+000 1.153647e+001 3.397423e+000 4.086630e+000 5.657536e+000 1.958325e+000 1.758310e+001 6.470356e+000 3.627817e+000 1.816691e+000 2.571715e+000
<GCONST> 1.084687e+002
<STATE> 3
<MEAN> 25
 1.923095e+000 -3.805048e-001 -5.788241e+000 -1.821845e+000 2.127765e+000 3.918615e+000 2.385557e+000 7.966894e-002 -8.904030e+000 -1.726496e+000 4.385938e+000 -2.629260e+000 -4.512981e-001 8.689096e-001 -1.171593e+000 1.798409e+000 -6.914439e-001 5.631635e-001 7.276998e-003 -4.348622e-001 2.255132e+000 -8.139908e-001 1.461367e-002 1.183326e-001 -1.567331e+000
<VARIANCE> 25
 2.262546e+001 3.739928e+001 5.866739e+001 1.289147e+002 8.168479e+001 3.997412e+001 7.254919e+001 7.234008e+001 1.084369e+002 3.467431e+001 8.992857e+001 3.146788e+001 1.095230e+000 3.626439e+000 3.008744e+000 9.402275e+000 3.963542e+000 4.290848e+000 4.894498e+000 5.771982e+000 1.056489e+001 4.619936e+000 4.627048e+000 2.879855e+000 1.838403e+000
<GCONST> 1.124385e+002
<STATE> 4
<MEAN> 25
 -6.128983e+000 4.899605e+000 -1.015996e+001 3.062495e+000 -4.735518e+000 4.922512e+000 3.498868e+000 -3.201748e+000 2.951126e+000 -6.782862e+000 4.726404e-001 -2.732381e-002 -6.168326e-001 1.254738e-001 -2.652266e-001 2.118899e-002 -3.874932e-001 -4.856956e-001 1.261943e-001 -2.329645e-002 2.712425e-001 1.040250e-002 -2.516423e-001 4.591401e-002 -6.166617e-001
<VARIANCE> 25
 2.982110e+001 4.790773e+001 9.413907e+001 3.703352e+001 5.499541e+001 6.796131e+001 8.307088e+001 5.742345e+001 4.723335e+001 6.511534e+001 7.309022e+001 3.443597e+001 8.875028e-001 1.827003e+000 3.701423e+000 3.441651e+000 4.520916e+000 3.972955e+000 5.749049e+000 5.320977e+000 5.033952e+000 5.635999e+000 6.860452e+000 4.068725e+000 7.025546e-001
<GCONST> 1.095848e+002
<TRANSP> 5
 0.000000e+000 1.000000e+000 0.000000e+000 0.000000e+000 0.000000e+000
 0.000000e+000 9.202472e-001 7.975280e-002 0.000000e+000 0.000000e+000
 0.000000e+000 0.000000e+000 8.572658e-001 1.427342e-001 0.000000e+000
 0.000000e+000 0.000000e+000 0.000000e+000 9.178764e-001 8.212360e-002
 0.000000e+000 0.000000e+000 0.000000e+000 0.000000e+000 0.000000e+000
<ENDHMM>
~h "ow"
<BEGINHMM>
<NUMSTATES> 5
<STATE> 2
<MEAN> 25
 1.036862e+001 2.350970e+000 2.900992e+000 -1.003485e+001 -3.645977e+000 -6.419499e+000 -6.653377e+000 8.215647e+000 9.270971e-001 -3.864886e+000 -5.693836e-001 -1.798265e+000 -1.160228e-001 3.854390e-001 -1.018229e-001 2.596301e-001 -2.042524e-001 -2.474777e-001 1.583052e-001 1.521418e-001 2.219687e-001 2.319321e-001 -1.003544e-001 -1.995514e-001 -3.747259e-001
<VARIANCE> 25
 1.319831e+001 4.834116e+001 3.345832e+001 4.906362e+001 7.398394e+001 5.812675e+001 3.523594e+001 4.778429e+001 7.111501e+001 2.785431e+001 1.684187e+001 3.739768e+001 2.322224e-001 1.021959e+000 9.375916e-001 1.531179e+000 1.771345e+000 2.732312e+000 1.422765e+000 2.048730e+000 2.371287e+000 1.848907e+000 1.543957e+000 1.770734e+000 4.097925e-001
<GCONST> 9.280235e+001
<STATE> 3
<MEAN> 25
 5.892417e+000 1.019783e+001 -1.619158e+000 -7.585428e-001 -4.505964e+000 3.979464e-001 -2.964323e+000 2.426118e+000 4.576880e+000 -3.674583e+000 -1.027301e+000 -2.078934e+000 -5.270408e-001 -9.661021e-002 -6.614724e-001 9.844993e-001 -4.256025e-001 7.806942e-001 6.559436e-001 -1.143073e+000 4.849311e-001 -3.903212e-001 -7.312775e-002 2.038192e-001 -8.038940e-001
<VARIANCE> 25
 3.921613e+001 9.383218e+001 7.360856e+001 5.826490e+001 9.550828e+001 6.448539e+001 5.197765e+001 6.300029e+001 5.176722e+001 4.380056e+001 3.023807e+001 2.286155e+001 3.649812e-001 1.561078e+000 2.640619e+000 3.798164e+000 4.497592e+000 5.402819e+000 3.834637e+000 4.788170e+000 3.733151e+000 4.273377e+000 3.349916e+000 2.468726e+000 6.544247e-001
<GCONST> 1.059078e+002
<STATE> 4
<MEAN> 25
 -7.566607e+000 2.253850e+000 -1.315170e+001 8.167151e-001 -5.880134e+000 2.327908e+000 4.586543e+000 -2.668272e+000 3.196921e+000 -8.418522e-001 -2.092182e-001 2.199529e+000 -3.270019e-001 -3.211482e-001 -1.319496e-001 -1.799853e-001 -1.830919e-002 4.882529e-002 1.356151e-002 8.378583e-003 -9.774599e-004 1.670001e-001 8.273336e-002 1.061086e-001 -1.152656e-001
<VARIANCE> 25
 5.309273e+001 6.932173e+001 1.368793e+002 8.696717e+001 1.304895e+002 6.343676e+001 6.309110e+001 6.652670e+001 8.484158e+001 6.739794e+001 3.822201e+001 4.599170e+001 1.090334e+000 3.141680e+000 5.797854e+000 4.716748e+000 5.615140e+000 4.853327e+000 4.258676e+000 5.056340e+000 5.675661e+000 4.224550e+000 3.580450e+000 4.403543e+000 9.340459e-001
<GCONST> 1.138105e+002
<TRANSP> 5
 0.000000e+000 1.000000e+000 0.000000e+000 0.000000e+000 0.000000e+000
 0.000000e+000 9.283916e-001 7.160836e-002 0.000000e+000 0.000000e+000
 0.000000e+000 0.000000e+000 7.556529e-001 2.443471e-001 0.000000e+000
 0.000000e+000 0.000000e+000 0.000000e+000 9.417185e-001 5.828157e-002
 0.000000e+000 0.000000e+000 0.000000e+000 0.000000e+000 0.000000e+000
<ENDHMM>
~h "oy"
<BEGINHMM>
<NUMSTATES> 5
<STATE> 2
<MEAN> 25
 1.475482e+001 -6.085480e+000 3.437050e+000 -1.188024e+001 -4.454674e+000 -6.243138e+000 -9.592968e+000 5.933047e+000 7.482311e-001 -5.447891e+000 2.736392e+000 2.191187e+000 -1.675019e-003 -3.791029e-001 -2.238738e-001 -2.199116e-001 2.575777e-001 4.376398e-001 5.272444e-001 -1.015861e-001 -5.176951e-001 -1.375690e-001 1.332643e-001 -7.429760e-002 2.266431e-001
<VARIANCE> 25
 1.763673e+000 2.151028e+001 1.217579e+001 1.402924e+001 2.648718e+001 6.085968e+001 2.244060e+001 2.453544e+001 5.134608e+001 1.585779e+001 3.481109e+001 1.565559e+001 2.932787e-001 1.394047e+000 1.067392e+000 1.764018e+000 2.306690e+000 4.734099e+000 2.552307e+000 3.355611e+000 4.298874e+000 1.528997e+000 2.909322e+000 2.619694e+000 4.630969e-001
<GCONST> 8.884344e+001
<STATE> 3
<MEAN> 25
 9.605078e+000 -7.574779e+000 7.515844e+000 -7.903261e+000 7.260398e+000 -2.339034e+000 -6.624522e+000 -5.495675e+000 -9.573759e+000 3.440515e-001 -1.374344e+000 4.105038e+000 -1.598846e+000 -1.525136e-001 1.816190e+000 3.239828e-001 1.880411e+000 -4.623687e-001 1.108301e-001 -1.838136e+000 -1.139841e+000 1.993396e+000 -6.186246e-001 1.401272e-001 -2.257379e-002
<VARIANCE> 25
 4.495058e+001 2.918354e+001 1.011650e+002 3.561117e+001 8.203085e+001 1.446916e+001 7.634428e+001 6.172429e+001 2.545161e+001 3.676302e+001 3.824632e+001 2.741771e+001 2.691514e+000 2.114738e+000 3.500544e+000 2.103615e+000 4.509831e+000 1.240755e+000 4.653587e+000 4.890003e+000 2.925654e+000 3.534276e+000 3.748833e+000 2.265368e+000 4.115090e-001
<GCONST> 1.028188e+002
<STATE> 4
<MEAN> 25
 -6.891679e+000 -1.636703e+001 1.978993e+001 -7.019835e+000 9.443256e-001 1.014188e+000 2.434810e+000 -1.697871e-001 -1.385577e+001 5.185728e-001 5.918163e+000 1.256264e+000 5.541176e-002 -3.214174e-002 -1.050478e+000 3.944618e-001 -2.719281e-001 4.797288e-001 -2.488928e-001 1.080882e-001 -2.630549e-003 -2.430262e-001 1.307379e-001 -4.360414e-002 -7.213698e-001
<VARIANCE> 25
 4.290184e+001 2.983932e+001 1.417511e+002 1.673633e+001 4.214301e+001 2.469586e+001 4.587328e+001 3.429716e+001 2.622308e+001 3.795341e+001 2.881056e+001 1.969460e+001 6.158476e-001 2.284360e+000 2.210525e+000 1.430156e+000 2.246379e+000 3.010577e+000 1.718112e+000 2.665924e+000 2.707384e+000 3.486764e+000 2.624187e+000 1.606184e+000 5.947927e-001
<GCONST> 9.651568e+001
<TRANSP> 5
 0.000000e+000 1.000000e+000 0.000000e+000 0.000000e+000 0.000000e+000
 0.000000e+000 9.357847e-001 6.421527e-002 0.000000e+000 0.000000e+000
 0.000000e+000 0.000000e+000 8.306336e-001 1.693664e-001 0.000000e+000
 0.000000e+000 0.000000e+000 0.000000e+000 8.882737e-001 1.117263e-001
 0.000000e+000 0.000000e+000 0.000000e+000 0.000000e+000 0.000000e+000
<ENDHMM>
~h "sh"
<BEGINHMM>
<NUMSTATES> 5
<STATE> 2
<MEAN> 25
 -3.075838e+000 -1.375018e+001 1.809151e+001 4.805921e+000 9.148786e+000 7.811419e-001 -9.677647e+000 -5.033024e+000 -5.131837e+000 2.829341e+000 9.958073e-001 -1.543602e+000 -2.121127e+000 -2.547016e+000 1.689087e+000 -7.614654e-001 -7.802340e-001 3.317476e-001 1.684061e+000 2.807642e-001 1.919952e-001 1.806264e-001 4.502785e-001 3.508057e-001 5.660297e-001
<VARIANCE> 25
 2.104089e+001 5.776058e+001 1.363272e+002 4.953152e+001 3.051014e+001 4.821303e+001 3.802740e+001 5.097284e+001 2.912273e+001 3.824725e+001 3.709474e+001 1.798209e+001 1.075557e+000 3.339394e+000 3.480215e+000 2.453943e+000 1.826133e+000 6.257873e+000 4.645838e+000 3.368134e+000 4.212525e+000 1.607203e+000 2.503215e+000 1.723069e+000 9.225376e-001
<GCONST> 1.021525e+002
<STATE> 3
<MEAN> 25
 -9.784374e+000 -2.091608e+001 2.156908e+001 4.107964e+000 4.901225e+000 4.637481e-003 -2.602251e+000 4.250779e-001 -9.561924e-001 8.769457e-001 2.503203e+000 2.737086e-001 -9.264834e-001 -1.562586e+000 8.536698e-001 -2.516793e-001 -7.169113e-001 -7.168967e-002 1.056800e+000 7.926492e-001 6.830224e-001 -1.757294e-001 -1.190623e-001 3.094108e-001 5.099490e-001
<VARIANCE> 25
 1.820766e+001 9.438293e+001 1.374043e+002 4.014578e+001 5.838699e+001 2.004862e+001 4.037677e+001 3.512444e+001 3.275404e+001 3.369903e+001 2.684397e+001 1.670443e+001 1.119293e+000 3.045870e+000 4.143291e+000 1.691919e+000 1.502388e+000 3.118513e+000 2.527303e+000 2.679375e+000 2.371709e+000 1.680968e+000 2.000374e+000 1.036073e+000 1.705524e+000
<GCONST> 9.872280e+001
<STATE> 4
<MEAN> 25
 -8.623365e+000 -2.278943e+001 1.868188e+001 2.702278e+000 -7.048150e-001 -1.733477e+000 -4.892603e+000 2.116727e+000 4.122853e+000 -1.548965e+000 1.235566e+000 2.309528e+000 1.161920e+000 1.363305e+000 -1.369727e+000 1.207805e-001 -6.357038e-001 2.346782e-001 -4.899476e-001 -7.600894e-001 -1.705046e-001 -4.764123e-001 -1.868658e-001 4.608211e-002 -5.366900e-001
<VARIANCE> 25
 2.400673e+001 6.046776e+001 6.331243e+001 2.840797e+001 4.657008e+001 2.261547e+001 4.166560e+001 5.229519e+001 3.992974e+001 4.644738e+001 2.257133e+001 2.221023e+001 4.409892e+000 4.414829e+000 2.235716e+000 2.017666e+000 2.425791e+000 2.195141e+000 2.589580e+000 5.057227e+000 3.860483e+000 3.546092e+000 1.894874e+000 1.728201e+000 1.122336e+000
<GCONST> 1.017493e+002
<TRANSP> 5
 0.000000e+000 1.000000e+000 0.000000e+000 0.000000e+000 0.000000e+000
 0.000000e+000 5.781454e-001 4.218546e-001 0.000000e+000 0.000000e+000
 0.000000e+000 0.000000e+000 8.287171e-001 1.712829e-001 0.000000e+000
 0.000000e+000 0.000000e+000 0.000000e+000 9.080807e-001 9.191933e-002
 0.000000e+000 0.000000e+000 0.000000e+000 0.000000e+000 0.000000e+000
<ENDHMM>
~h "sp"
<BEGINHMM>
<NUMSTATES> 3
<STATE> 2
~s "silst"
<TRANSP> 3
 0.000000e+000 7.000000e-001 3.000000e-001
 0.000000e+000 9.000000e-001 9.999999e-002
 0.000000e+000 0.000000e+000 0.000000e+000
<ENDHMM>
~h "th"
<BEGINHMM>
<NUMSTATES> 5
<STATE> 2
<MEAN> 25
 5.768575e+000 -1.260295e+001 5.478527e+000 -8.453424e+000 2.551508e+000 -3.481219e+000 -6.051208e+000 2.198101e-001 -4.343217e+000 4.730577e+000 2.506491e+000 2.014324e+000 4.034734e-002 4.989450e-001 -4.643575e-001 3.628149e-001 8.710252e-002 7.341166e-001 -8.425163e-002 -7.244007e-001 -3.391288e-001 -1.069416e-001 2.860810e-001 -1.391896e-001 -5.235851e-001
<VARIANCE> 25
 4.786788e+001 4.228371e+001 6.636672e+001 6.220549e+001 5.532951e+001 7.731920e+001 2.675367e+001 5.044276e+001 9.914282e+001 4.352418e+001 1.056068e+002 6.912408e+001 4.249953e-001 1.089564e+000 2.140179e+000 1.369546e+000 1.521374e+000 2.458046e+000 2.358418e+000 1.654204e+000 2.990388e+000 2.469266e+000 2.203175e+000 1.259647e+000 4.178376e-001
<GCONST> 9.985283e+001
<STATE> 3
<MEAN> 25
 6.419472e+000 -2.943784e+000 4.123436e+000 -9.241275e-001 4.270220e+000 1.400475e+000 -5.978300e+000 -1.237910e+000 -4.674101e+000 6.602728e-001 -1.117378e+000 -4.598592e+000 -1.263190e-002 1.327786e+000 -5.996597e-001 1.458998e+000 -6.792209e-001 9.768034e-001 3.422706e-001 -2.528342e-001 8.477536e-001 -1.007338e+000 5.029589e-001 -8.141800e-001 -1.297621e+000
<VARIANCE> 25
 2.747746e+001 6.742988e+001 3.385223e+001 1.105049e+002 3.912654e+001 6.518202e+001 1.888894e+001 3.235569e+001 7.038089e+001 3.722945e+001 9.079527e+001 1.325467e+002 3.851401e-001 1.316674e+000 1.820993e+000 3.276649e+000 2.106536e+000 1.986066e+000 1.596610e+000 1.954864e+000 3.118150e+000 1.910422e+000 3.763895e+000 2.850285e+000 5.894636e-001
<GCONST> 1.005298e+002
<STATE> 4
<MEAN> 25
 5.936309e+000 2.051392e+000 8.969173e-001 3.881062e+000 6.920443e+000 4.389987e+000 -8.247764e+000 -5.219241e+000 -7.138465e+000 -3.471761e+000 3.977660e+000 -2.490459e+000 -4.181076e-001 4.362411e-001 -2.546667e-001 2.751689e-001 -5.981526e-001 1.953328e-001 3.263915e-001 -1.373955e-002 6.905239e-001 -1.041527e-001 -1.206699e-001 -8.924820e-002 -7.438702e-001
<VARIANCE> 25
 4.176614e+001 4.607350e+001 1.558060e+001 3.278929e+001 1.167623e+002 4.094085e+001 3.789397e+001 5.072124e+001 1.342318e+002 3.276792e+001 3.252506e+001 3.743598e+001 5.406101e-001 1.324004e+000 1.163752e+000 2.477390e+000 2.087138e+000 1.854562e+000 2.456458e+000 2.895333e+000 2.308146e+000 2.571624e+000 2.460358e+000 2.377740e+000 5.284501e-001
<GCONST> 9.822180e+001
<TRANSP> 5
 0.000000e+000 1.000000e+000 0.000000e+000 0.000000e+000 0.000000e+000
 0.000000e+000 7.545091e-001 2.454909e-001 0.000000e+000 0.000000e+000
 0.000000e+000 0.000000e+000 7.313114e-001 2.686886e-001 0.000000e+000
 0.000000e+000 0.000000e+000 0.000000e+000 9.198177e-001 8.018225e-002
 0.000000e+000 0.000000e+000 0.000000e+000 0.000000e+000 0.000000e+000
<ENDHMM>
~h "uh"
<BEGINHMM>
<NUMSTATES> 5
<STATE> 2
<MEAN> 25
 4.223844e+000 2.508059e+000 -5.929279e+000 -6.120104e-001 1.625097e+000 3.566710e+000 -6.466674e+000 3.274561e-001 -8.340260e-001 -1.098245e+001 2.669275e-001 -3.182523e+000 -4.182727e-001 -1.639436e-001 -3.839866e-001 6.159308e-001 -1.321202e+000 -3.467658e-001 6.265388e-001 -3.563531e-001 9.684098e-001 -5.808425e-001 -6.782548e-001 6.289143e-001 -6.003641e-001
<VARIANCE> 25
 1.851043e+001 1.262509e+001 9.511182e+001 5.679485e+001 6.838512e+001 1.381797e+001 8.467144e+001 1.218237e+001 3.908802e+001 2.571145e+001 3.698060e+001 2.835493e+001 3.307119e-001 7.576647e-001 7.682483e-001 1.225720e+000 1.614863e+000 2.148447e+000 3.102762e+000 6.712104e-001 3.846486e+000 2.636266e+000 3.183021e+000 3.659885e+000 3.039625e-001
<GCONST> 9.176770e+001
<STATE> 3
<MEAN> 25
