~o
<STREAMINFO> 1 25
<VECSIZE> 25<NULLD><MFCC_D_N_Z_0><DIAGC>
~h "proto"
<BEGINHMM>
<NUMSTATES> 5
<STATE> 2
<MEAN> 25
 -1.857849e-007 1.005353e-007 3.214271e-009 -1.233566e-007 1.143566e-007 6.135687e-008 1.913920e-007 -3.807126e-008 7.585680e-008 -4.067839e-008 1.732135e-009 -1.301780e-008 2.249026e-002 -8.010614e-003 5.420805e-003 -8.737097e-003 -1.315160e-002 -1.366910e-003 -1.519509e-002 1.260077e-003 -6.163605e-003 -1.676167e-002 -2.294310e-003 -5.178459e-003 2.270229e-002
<VARIANCE> 25
 1.073371e+002 1.186120e+002 1.711466e+002 1.179226e+002 1.040354e+002 7.332415e+001 1.311392e+002 7.031215e+001 8.488276e+001 7.012038e+001 4.288164e+001 4.695639e+001 2.017395e+000 3.881950e+000 4.122045e+000 4.906562e+000 4.079430e+000 4.153577e+000 4.822362e+000 4.444739e+000 5.195010e+000 4.373366e+000 3.452294e+000 3.172124e+000 2.232075e+000
<GCONST> 1.169589e+002
<STATE> 3
<MEAN> 25
 -1.857849e-007 1.005353e-007 3.214271e-009 -1.233566e-007 1.143566e-007 6.135687e-008 1.913920e-007 -3.807126e-008 7.585680e-008 -4.067839e-008 1.732135e-009 -1.301780e-008 2.249026e-002 -8.010614e-003 5.420805e-003 -8.737097e-003 -1.315160e-002 -1.366910e-003 -1.519509e-002 1.260077e-003 -6.163605e-003 -1.676167e-002 -2.294310e-003 -5.178459e-003 2.270229e-002
<VARIANCE> 25
 1.073371e+002 1.186120e+002 1.711466e+002 1.179226e+002 1.040354e+002 7.332415e+001 1.311392e+002 7.031215e+001 8.488276e+001 7.012038e+001 4.288164e+001 4.695639e+001 2.017395e+000 3.881950e+000 4.122045e+000 4.906562e+000 4.079430e+000 4.153577e+000 4.822362e+000 4.444739e+000 5.195010e+000 4.373366e+000 3.452294e+000 3.172124e+000 2.232075e+000
<GCONST> 1.169589e+002
<STATE> 4
<MEAN> 25
 -1.857849e-007 1.005353e-007 3.214271e-009 -1.233566e-007 1.143566e-007 6.135687e-008 1.913920e-007 -3.807126e-008 7.585680e-008 -4.067839e-008 1.732135e-009 -1.301780e-008 2.249026e-002 -8.010614e-003 5.420805e-003 -8.737097e-003 -1.315160e-002 -1.366910e-003 -1.519509e-002 1.260077e-003 -6.163605e-003 -1.676167e-002 -2.294310e-003 -5.178459e-003 2.270229e-002
<VARIANCE> 25
 1.073371e+002 1.186120e+002 1.711466e+002 1.179226e+002 1.040354e+002 7.332415e+001 1.311392e+002 7.031215e+001 8.488276e+001 7.012038e+001 4.288164e+001 4.695639e+001 2.017395e+000 3.881950e+000 4.122045e+000 4.906562e+000 4.079430e+000 4.153577e+000 4.822362e+000 4.444739e+000 5.195010e+000 4.373366e+000 3.452294e+000 3.172124e+000 2.232075e+000
<GCONST> 1.169589e+002
<TRANSP> 5
 0.000000e+000 1.000000e+000 0.000000e+000 0.000000e+000 0.000000e+000
 0.000000e+000 6.000000e-001 4.000000e-001 0.000000e+000 0.000000e+000
 0.000000e+000 0.000000e+000 6.000000e-001 4.000000e-001 0.000000e+000
 0.000000e+000 0.000000e+000 0.000000e+000 7.000000e-001 3.000000e-001
 0.000000e+000 0.000000e+000 0.000000e+000 0.000000e+000 0.000000e+000
<ENDHMM>
