~o
<STREAMINFO> 1 25
<VECSIZE> 25<NULLD><MFCC_D_N_Z_0><DIAGC>
~h "b"
<BEGINHMM>
<NUMSTATES> 5
<STATE> 2
<MEAN> 25
 3.539530e-001 -3.764812e-001 1.121132e-001 1.175323e+000 6.545154e-002 -3.173079e-001 1.536766e-001 9.252208e-002 -2.229423e-001 2.537073e-001 -1.192499e-001 -8.314025e-001 4.466679e-002 -4.583472e-002 2.021244e-002 -7.024047e-003 6.369745e-003 -2.354897e-002 -1.720800e-002 2.455354e-002 -7.790752e-003 -8.484691e-003 -2.826326e-003 2.419250e-003 6.927648e-002
<VARIANCE> 25
 8.407221e+001 1.224196e+002 1.612355e+002 1.021787e+002 9.312868e+001 5.215592e+001 1.259770e+002 5.888082e+001 7.572019e+001 6.330679e+001 4.418802e+001 4.324199e+001 2.010193e+000 4.152602e+000 3.775295e+000 4.682218e+000 4.102372e+000 3.652086e+000 4.979984e+000 4.303601e+000 5.203992e+000 3.917684e+000 3.417619e+000 3.150329e+000 2.464251e+000
<GCONST> 1.153850e+002
<STATE> 3
<MEAN> 25
 4.144211e-001 -4.577524e-001 1.223147e-001 1.218603e+000 1.470703e-001 -4.199839e-001 2.096634e-001 1.992221e-001 -1.561505e-001 2.687813e-001 -1.091371e-001 -7.201716e-001 1.209382e-002 -9.846395e-003 -6.080026e-003 9.614348e-003 1.694089e-002 -2.281220e-002 1.608175e-002 2.314193e-002 1.773797e-002 1.254800e-003 2.375291e-003 2.755050e-002 1.896202e-002
<VARIANCE> 25
 8.407613e+001 1.247837e+002 1.646149e+002 1.048734e+002 9.505806e+001 5.327901e+001 1.256776e+002 5.911541e+001 7.578279e+001 6.460508e+001 4.545839e+001 4.291072e+001 1.807744e+000 4.131558e+000 3.730316e+000 4.717509e+000 4.140121e+000 3.706112e+000 4.942332e+000 4.277590e+000 5.241763e+000 3.967160e+000 3.484930e+000 3.123144e+000 2.196993e+000
<GCONST> 1.153465e+002
<STATE> 4
<MEAN> 25
 5.252002e-001 -4.410900e-001 2.765170e-001 1.354513e+000 3.019018e-001 -4.773535e-001 3.327473e-001 3.781999e-001 1.391995e-001 3.321124e-001 -5.810080e-002 -4.447357e-001 2.304204e-003 -1.178559e-004 -9.728972e-004 8.962523e-004 5.182652e-003 -1.409259e-003 1.448306e-002 2.440033e-002 3.218827e-002 -1.082836e-002 9.469165e-003 3.346397e-002 6.072001e-003
<VARIANCE> 25
 8.605332e+001 1.295466e+002 1.705063e+002 1.112424e+002 9.523181e+001 5.573827e+001 1.266197e+002 5.952698e+001 7.546317e+001 6.587644e+001 4.601435e+001 4.292493e+001 1.756805e+000 4.163921e+000 3.804002e+000 4.807211e+000 4.102086e+000 3.921829e+000 5.006538e+000 4.239761e+000 5.239551e+000 4.019270e+000 3.510284e+000 3.146462e+000 2.104135e+000
<GCONST> 1.156435e+002
<TRANSP> 5
 0.000000e+000 1.000000e+000 0.000000e+000 0.000000e+000 0.000000e+000
 0.000000e+000 7.774110e-001 2.225890e-001 0.000000e+000 0.000000e+000
 0.000000e+000 0.000000e+000 7.774109e-001 2.225890e-001 0.000000e+000
 0.000000e+000 0.000000e+000 0.000000e+000 9.073901e-001 9.260993e-002
 0.000000e+000 0.000000e+000 0.000000e+000 0.000000e+000 0.000000e+000
<ENDHMM>
~h "d"
<BEGINHMM>
<NUMSTATES> 5
<STATE> 2
<MEAN> 25
 5.597833e-001 3.575200e-001 3.004093e-001 4.687631e-001 -1.867332e-001 1.012219e+000 2.151440e-001 -3.137765e-001 -2.864033e-001 -2.921717e-001 -1.280770e-001 -1.294349e-002 1.053593e-002 4.412601e-002 -2.004411e-002 6.641018e-002 -1.767188e-002 5.899218e-004 5.473223e-002 -3.368204e-003 1.047673e-003 -2.508060e-002 -7.221556e-003 -1.110039e-002 -2.948594e-002
<VARIANCE> 25
 8.886531e+001 9.860077e+001 1.396822e+002 1.073670e+002 1.039679e+002 6.697955e+001 1.304145e+002 6.328304e+001 7.601927e+001 6.865813e+001 4.136779e+001 4.668379e+001 1.720294e+000 4.041451e+000 3.563708e+000 3.966276e+000 3.951007e+000 3.876613e+000 4.512641e+000 4.336706e+000 5.093438e+000 4.022128e+000 3.303263e+000 3.028482e+000 2.143863e+000
<GCONST> 1.150096e+002
<STATE> 3
<MEAN> 25
 5.591398e-001 6.224288e-001 1.570258e-001 8.484471e-001 -1.951948e-001 9.750404e-001 5.427337e-001 -3.391850e-001 -2.523450e-001 -3.366379e-001 -1.637050e-001 -1.009966e-002 -1.814332e-003 4.591381e-002 -2.467212e-002 7.358494e-002 -6.786939e-004 -5.768922e-003 6.157439e-002 -7.426729e-003 6.314441e-003 -6.288914e-003 -8.069294e-003 2.245877e-003 -3.992121e-002
<VARIANCE> 25
 8.675842e+001 1.010248e+002 1.428103e+002 1.087159e+002 1.028616e+002 6.751142e+001 1.373389e+002 6.322105e+001 7.724604e+001 6.941160e+001 4.124844e+001 4.634433e+001 1.660609e+000 4.036138e+000 3.540979e+000 3.968449e+000 3.975345e+000 3.874554e+000 4.564462e+000 4.354027e+000 5.146335e+000 4.132900e+000 3.356713e+000 3.041309e+000 1.979205e+000
<GCONST> 1.150656e+002
<STATE> 4
<MEAN> 25
 1.680882e-001 1.481245e+000 -5.919822e-001 1.881243e+000 -2.656719e-001 9.077848e-001 1.799018e+000 -3.470394e-001 -1.480800e-001 -1.063422e-001 -3.287447e-001 -5.302723e-002 2.444870e-003 2.216370e-002 -6.719185e-003 4.279737e-002 1.618002e-002 -9.313375e-003 2.704623e-002 -2.004537e-004 -4.436780e-004 1.106514e-002 -7.718043e-003 1.613862e-003 -1.418466e-002
<VARIANCE> 25
 8.540150e+001 1.057778e+002 1.491727e+002 1.125813e+002 9.642716e+001 6.667600e+001 1.564825e+002 6.154045e+001 7.728763e+001 6.887463e+001 4.090932e+001 4.469958e+001 1.632829e+000 3.988403e+000 3.621881e+000 3.954064e+000 3.946744e+000 3.877602e+000 4.653802e+000 4.386200e+000 5.181712e+000 4.336802e+000 3.455091e+000 3.049914e+000 1.927979e+000
<GCONST> 1.152202e+002
<TRANSP> 5
 0.000000e+000 1.000000e+000 0.000000e+000 0.000000e+000 0.000000e+000
 0.000000e+000 7.803096e-001 2.196904e-001 0.000000e+000 0.000000e+000
 0.000000e+000 0.000000e+000 7.803094e-001 2.196905e-001 0.000000e+000
 0.000000e+000 0.000000e+000 0.000000e+000 9.116144e-001 8.838562e-002
 0.000000e+000 0.000000e+000 0.000000e+000 0.000000e+000 0.000000e+000
<ENDHMM>
~h "f"
<BEGINHMM>
<NUMSTATES> 5
<STATE> 2
<MEAN> 25
 1.998617e-001 -7.636464e-001 1.253703e+000 -2.071962e+000 1.773074e+000 1.251623e+000 -2.262514e+000 -1.770227e-001 -4.671624e-002 4.620911e-001 -4.021085e-002 8.407957e-001 4.060328e-002 -6.683550e-003 -4.125842e-002 -3.843514e-003 -8.513526e-003 -7.248184e-003 1.319199e-002 7.132392e-004 -4.625392e-003 -2.433415e-002 -6.472789e-003 1.289648e-002 2.403422e-002
<VARIANCE> 25
 1.254771e+002 1.234128e+002 1.514384e+002 1.284877e+002 1.324620e+002 9.003441e+001 1.219721e+002 7.464816e+001 1.004154e+002 8.079025e+001 4.015549e+001 4.969020e+001 2.716598e+000 4.745794e+000 3.948678e+000 4.839409e+000 4.425598e+000 4.070682e+000 4.397348e+000 3.767362e+000 5.016934e+000 4.410423e+000 3.246465e+000 2.851730e+000 2.034644e+000
<GCONST> 1.178114e+002
<STATE> 3
<MEAN> 25
 3.096354e-001 -7.471149e-001 1.003518e+000 -2.022250e+000 1.795239e+000 1.155494e+000 -2.150789e+000 -1.562793e-001 -3.067015e-002 4.140893e-001 -4.760866e-002 9.721670e-001 1.982870e-002 1.705726e-003 -5.511587e-002 1.265718e-002 2.307832e-003 -2.315150e-002 2.359126e-002 4.050441e-003 4.669268e-003 -7.396791e-003 -7.439876e-004 2.711770e-002 -5.523475e-004
<VARIANCE> 25
 1.251119e+002 1.243251e+002 1.558693e+002 1.319969e+002 1.332573e+002 8.951920e+001 1.236941e+002 7.667519e+001 1.021962e+002 8.109882e+001 4.072937e+001 5.066740e+001 2.657798e+000 4.790532e+000 4.042935e+000 4.900695e+000 4.488554e+000 4.100153e+000 4.392342e+000 3.888711e+000 5.119201e+000 4.461915e+000 3.314889e+000 2.877320e+000 1.931171e+000
<GCONST> 1.180527e+002
<STATE> 4
<MEAN> 25
 3.004767e-001 -1.052989e+000 6.219210e-001 -2.047271e+000 1.911042e+000 8.077831e-001 -2.096615e+000 -1.287077e-001 4.272059e-003 7.101783e-001 9.063940e-003 1.248104e+000 1.134884e-002 2.567754e-003 -5.239612e-002 1.723679e-002 -7.985014e-003 -2.212086e-002 2.578769e-002 -9.352706e-004 8.146950e-003 1.884090e-003 5.455408e-003 2.574094e-002 -9.661659e-003
<VARIANCE> 25
 1.285828e+002 1.244035e+002 1.622424e+002 1.403262e+002 1.361707e+002 8.982715e+001 1.259085e+002 7.979336e+001 1.087740e+002 8.325986e+001 4.163888e+001 5.109631e+001 2.750152e+000 4.731949e+000 4.167886e+000 4.974422e+000 4.546289e+000 4.214652e+000 4.309652e+000 3.912611e+000 5.177113e+000 4.486590e+000 3.374097e+000 2.940019e+000 1.866533e+000
<GCONST> 1.185005e+002
<TRANSP> 5
 0.000000e+000 1.000000e+000 0.000000e+000 0.000000e+000 0.000000e+000
 0.000000e+000 7.954512e-001 2.045489e-001 0.000000e+000 0.000000e+000
 0.000000e+000 0.000000e+000 7.954512e-001 2.045489e-001 0.000000e+000
 0.000000e+000 0.000000e+000 0.000000e+000 9.307376e-001 6.926246e-002
 0.000000e+000 0.000000e+000 0.000000e+000 0.000000e+000 0.000000e+000
<ENDHMM>
~h "g"
<BEGINHMM>
<NUMSTATES> 5
<STATE> 2
<MEAN> 25
 1.096001e+000 4.372594e-001 -9.411052e-001 -4.154269e-002 6.308120e-001 3.372511e-001 -2.450738e-001 -8.524611e-001 5.200974e-002 1.307407e+000 4.082531e-001 1.335465e-001 1.000480e-001 -1.622064e-002 -3.601638e-002 2.497983e-002 5.428362e-002 -8.059955e-004 -1.367078e-002 1.580063e-002 -9.404825e-003 -3.935893e-002 1.684073e-003 -9.148858e-003 7.709006e-002
<VARIANCE> 25
 6.539311e+001 1.106191e+002 1.617893e+002 1.213406e+002 1.156122e+002 6.438256e+001 1.783445e+002 6.223627e+001 7.177795e+001 8.324174e+001 4.105782e+001 4.898119e+001 1.897813e+000 5.607121e+000 4.950862e+000 5.323644e+000 4.245174e+000 4.353312e+000 6.574007e+000 4.448206e+000 5.268634e+000 5.221606e+000 3.652679e+000 3.942912e+000 3.016683e+000
<GCONST> 1.182647e+002
<STATE> 3
<MEAN> 25
 1.439013e+000 4.504414e-001 -1.137006e+000 1.110207e-001 9.134861e-001 3.507960e-001 -2.047213e-001 -7.775795e-001 6.287155e-002 1.195350e+000 4.342676e-001 1.198327e-001 7.051276e-002 7.435598e-003 -4.431418e-002 3.588288e-002 5.872206e-002 2.199684e-003 1.670947e-002 2.022400e-002 2.603607e-003 -2.569863e-002 6.095625e-003 -5.648233e-003 3.973796e-002
<VARIANCE> 25
 6.327330e+001 1.102389e+002 1.684044e+002 1.230984e+002 1.145918e+002 6.508820e+001 1.846606e+002 6.150773e+001 7.109354e+001 8.268958e+001 4.106336e+001 4.921239e+001 1.757514e+000 5.519299e+000 4.852085e+000 5.237978e+000 4.234343e+000 4.246027e+000 6.332181e+000 4.313304e+000 5.210509e+000 5.171909e+000 3.556422e+000 3.885418e+000 2.803826e+000
<GCONST> 1.179365e+002
<STATE> 4
<MEAN> 25
 1.892102e+000 4.970542e-001 -1.186531e+000 3.072725e-001 1.407781e+000 4.515921e-001 -1.428127e-001 -7.115820e-001 -6.279653e-003 1.158150e+000 4.814341e-001 1.339294e-001 5.398296e-002 1.102520e-002 -1.157031e-002 1.631521e-002 4.254320e-002 1.146723e-002 9.517118e-003 2.089764e-002 -5.012753e-003 -1.770353e-002 5.902336e-003 -5.996642e-003 3.512178e-002
<VARIANCE> 25
 6.219749e+001 1.110049e+002 1.753869e+002 1.251992e+002 1.110688e+002 6.589228e+001 1.972249e+002 5.992567e+001 7.049408e+001 7.798371e+001 4.107432e+001 4.858792e+001 1.703347e+000 5.381202e+000 4.707604e+000 5.112488e+000 4.171547e+000 4.099176e+000 5.974874e+000 4.063736e+000 5.098628e+000 5.023852e+000 3.398850e+000 3.680444e+000 2.687518e+000
<GCONST> 1.174535e+002
<TRANSP> 5
 0.000000e+000 1.000000e+000 0.000000e+000 0.000000e+000 0.000000e+000
 0.000000e+000 7.725086e-001 2.274914e-001 0.000000e+000 0.000000e+000
 0.000000e+000 0.000000e+000 7.725087e-001 2.274913e-001 0.000000e+000
 0.000000e+000 0.000000e+000 0.000000e+000 9.002503e-001 9.974968e-002
 0.000000e+000 0.000000e+000 0.000000e+000 0.000000e+000 0.000000e+000
<ENDHMM>
~h "k"
<BEGINHMM>
<NUMSTATES> 5
<STATE> 2
<MEAN> 25
 1.298922e-001 -1.170184e+000 1.473281e+000 -3.256906e-001 -5.895317e-001 -2.284427e-001 -8.653722e-002 -6.534554e-002 -2.020587e-001 7.346576e-001 5.165373e-002 -7.263901e-001 4.463833e-002 -1.593159e-002 2.384735e-002 -1.658422e-002 -3.992499e-002 1.220652e-002 7.377678e-004 -7.569812e-003 -2.541474e-002 -1.215939e-002 -2.396060e-004 -4.488173e-003 4.563110e-002
<VARIANCE> 25
 1.027508e+002 1.186780e+002 1.687847e+002 1.370339e+002 1.006904e+002 7.217915e+001 1.177701e+002 7.209838e+001 8.255220e+001 6.671529e+001 4.323296e+001 4.405571e+001 2.342819e+000 3.799918e+000 4.273379e+000 6.188320e+000 3.957943e+000 4.223980e+000 4.852488e+000 4.586142e+000 5.440990e+000 4.382841e+000 3.353224e+000 3.203327e+000 2.618760e+000
<GCONST> 1.173973e+002
<STATE> 3
<MEAN> 25
 1.952462e-001 -1.144981e+000 1.457075e+000 -3.116174e-001 -7.160895e-001 -2.002671e-001 4.373512e-002 -1.265960e-001 -2.456244e-001 7.383119e-001 7.485359e-002 -6.482010e-001 1.106656e-002 8.171373e-003 -6.328399e-003 6.222694e-003 -2.552070e-002 3.778849e-003 3.186964e-002 -1.369300e-002 -8.614686e-003 2.678493e-003 5.609072e-003 1.928609e-002 -9.757908e-004
<VARIANCE> 25
 1.004676e+002 1.193111e+002 1.684080e+002 1.377836e+002 1.009631e+002 7.264027e+001 1.187451e+002 7.341544e+001 8.217445e+001 6.710117e+001 4.329828e+001 4.401626e+001 2.158909e+000 3.768130e+000 4.210727e+000 6.134329e+000 3.919215e+000 4.240949e+000 4.760626e+000 4.643553e+000 5.470480e+000 4.379100e+000 3.388505e+000 3.149769e+000 2.375468e+000
<GCONST> 1.171951e+002
<STATE> 4
<MEAN> 25
 3.435414e-001 -1.149013e+000 1.684523e+000 -3.196974e-001 -9.423113e-001 -2.093429e-001 1.452903e-001 -3.142191e-001 -1.515581e-001 8.564148e-001 1.519464e-001 -4.203925e-001 1.626244e-003 1.980607e-002 -1.324306e-002 2.224729e-003 -2.196036e-002 3.806495e-003 3.027843e-002 -6.746612e-003 3.200242e-003 -1.588332e-004 8.320167e-003 2.380789e-002 -1.511691e-002
<VARIANCE> 25
 1.026629e+002 1.217577e+002 1.735533e+002 1.437367e+002 1.051162e+002 7.566146e+001 1.207902e+002 7.766997e+001 8.374010e+001 6.863044e+001 4.370570e+001 4.404425e+001 2.113013e+000 3.684716e+000 4.180994e+000 6.182258e+000 3.908919e+000 4.386245e+000 4.676760e+000 4.778844e+000 5.497860e+000 4.373315e+000 3.417379e+000 3.073331e+000 2.279128e+000
<GCONST> 1.174603e+002
<TRANSP> 5
 0.000000e+000 1.000000e+000 0.000000e+000 0.000000e+000 0.000000e+000
 0.000000e+000 7.792926e-001 2.207074e-001 0.000000e+000 0.000000e+000
 0.000000e+000 0.000000e+000 7.792923e-001 2.207077e-001 0.000000e+000
 0.000000e+000 0.000000e+000 0.000000e+000 9.109398e-001 8.906028e-002
 0.000000e+000 0.000000e+000 0.000000e+000 0.000000e+000 0.000000e+000
<ENDHMM>
~h "l"
<BEGINHMM>
<NUMSTATES> 5
<STATE> 2
<MEAN> 25
 7.374512e-001 4.601929e-001 4.130622e-001 -1.865648e-001 -1.134787e+000 -2.342827e-001 2.788361e-001 -3.716788e-002 3.604539e-001 -8.316895e-002 -8.468247e-002 2.601591e-001 6.818273e-003 4.811858e-003 5.227245e-003 -2.247701e-002 1.005385e-003 -1.754352e-002 -5.167385e-003 5.987841e-003 -1.514881e-002 2.070514e-003 4.843576e-003 1.346793e-003 1.157212e-002
<VARIANCE> 25
 9.138186e+001 1.114246e+002 1.653277e+002 1.118606e+002 1.082521e+002 6.921303e+001 1.259690e+002 6.536868e+001 7.815593e+001 7.411815e+001 4.547887e+001 4.675692e+001 1.730358e+000 3.489416e+000 3.899715e+000 4.715940e+000 4.474011e+000 4.107018e+000 4.931437e+000 4.394017e+000 5.024867e+000 4.609121e+000 3.692729e+000 3.240656e+000 2.062218e+000
<GCONST> 1.163099e+002
<STATE> 3
<MEAN> 25
 7.771109e-001 4.636771e-001 4.461076e-001 -3.098377e-001 -1.136636e+000 -3.059272e-001 2.436467e-001 -5.271813e-003 2.963427e-001 -7.821718e-002 -6.184882e-002 2.644965e-001 8.026676e-003 3.713204e-003 4.693696e-003 -2.362072e-002 -1.718740e-003 -1.663227e-002 -3.097443e-003 5.659794e-003 -1.631937e-002 1.512236e-003 5.381120e-003 -2.552690e-003 1.272500e-002
<VARIANCE> 25
 9.152554e+001 1.127550e+002 1.654889e+002 1.122548e+002 1.085916e+002 6.960255e+001 1.247351e+002 6.581157e+001 7.823327e+001 7.443404e+001 4.611714e+001 4.662078e+001 1.724454e+000 3.509191e+000 3.883567e+000 4.719448e+000 4.511991e+000 4.097990e+000 4.959104e+000 4.410903e+000 5.026715e+000 4.658780e+000 3.724159e+000 3.246402e+000 2.056585e+000
<GCONST> 1.163829e+002
<STATE> 4
<MEAN> 25
 1.025835e+000 4.339185e-001 5.099898e-001 -5.780882e-001 -1.368219e+000 -4.781962e-001 2.753927e-001 1.242850e-001 2.895980e-001 -7.203495e-002 9.145838e-003 3.555130e-001 1.050576e-002 -5.011811e-004 4.916644e-003 -2.451940e-002 -2.020246e-003 -1.551458e-002 -3.463191e-003 7.005324e-003 -1.216376e-002 -1.467808e-003 3.123008e-003 -4.633246e-003 1.697469e-002
<VARIANCE> 25
 9.194565e+001 1.154586e+002 1.661336e+002 1.147530e+002 1.089094e+002 7.049746e+001 1.229452e+002 6.663770e+001 7.833266e+001 7.335641e+001 4.661757e+001 4.632145e+001 1.718450e+000 3.502944e+000 3.808518e+000 4.743829e+000 4.442921e+000 4.020245e+000 4.957394e+000 4.410010e+000 5.005778e+000 4.679661e+000 3.744925e+000 3.204157e+000 2.036296e+000
<GCONST> 1.163699e+002
<TRANSP> 5
 0.000000e+000 1.000000e+000 0.000000e+000 0.000000e+000 0.000000e+000
 0.000000e+000 7.763258e-001 2.236741e-001 0.000000e+000 0.000000e+000
 0.000000e+000 0.000000e+000 7.763258e-001 2.236742e-001 0.000000e+000
 0.000000e+000 0.000000e+000 0.000000e+000 9.068279e-001 9.317215e-002
 0.000000e+000 0.000000e+000 0.000000e+000 0.000000e+000 0.000000e+000
<ENDHMM>
~h "m"
<BEGINHMM>
<NUMSTATES> 5
<STATE> 2
<MEAN> 25
 -4.819055e-002 -1.538456e-001 6.244745e-001 4.337402e-001 7.987642e-002 7.925411e-001 -2.274137e-001 1.307938e-001 -1.474594e-001 2.770579e-001 -7.062728e-001 -1.396885e+000 1.789249e-002 7.294208e-004 -1.860922e-002 5.077890e-002 -7.540487e-003 -2.035946e-002 6.989287e-003 -1.511354e-003 2.136427e-002 -8.405802e-003 -1.553087e-002 -7.220852e-003 4.285715e-004
<VARIANCE> 25
 8.775024e+001 1.131059e+002 1.409371e+002 9.293127e+001 9.585205e+001 6.899058e+001 1.345074e+002 7.029391e+001 7.501396e+001 6.938342e+001 4.251032e+001 4.297485e+001 1.834269e+000 4.160401e+000 3.957477e+000 4.461788e+000 4.061186e+000 4.289363e+000 4.595662e+000 4.868515e+000 5.228372e+000 4.473619e+000 3.611391e+000 3.161968e+000 2.092762e+000
<GCONST> 1.158437e+002
<STATE> 3
<MEAN> 25
 -5.950082e-002 -5.676955e-002 4.692165e-001 7.000743e-001 8.649293e-002 6.835576e-001 -8.819680e-002 1.234491e-001 -3.177024e-003 2.918630e-001 -7.570200e-001 -1.347695e+000 -6.400034e-003 2.562506e-002 -3.643630e-002 5.824805e-002 3.628716e-003 -2.335678e-002 3.516568e-002 4.033519e-004 3.004139e-002 3.603636e-004 -9.341237e-003 1.306193e-002 -3.365825e-002
<VARIANCE> 25
 8.673447e+001 1.140383e+002 1.417955e+002 9.310751e+001 9.680614e+001 6.982578e+001 1.385391e+002 6.997746e+001 7.558443e+001 6.977726e+001 4.260223e+001 4.251588e+001 1.701462e+000 4.150900e+000 3.935202e+000 4.507248e+000 4.063559e+000 4.346933e+000 4.650791e+000 4.877814e+000 5.214552e+000 4.465790e+000 3.610699e+000 3.089638e+000 1.914635e+000
<GCONST> 1.157379e+002
<STATE> 4
<MEAN> 25
 -9.231505e-002 2.722316e-001 2.043021e-001 1.146743e+000 5.920868e-002 5.581918e-001 4.458055e-001 1.482091e-001 2.010809e-001 3.587280e-001 -8.226089e-001 -1.175350e+000 -2.814845e-003 3.299936e-002 -2.661189e-002 4.115573e-002 3.524499e-003 -1.625770e-002 3.860273e-002 2.561969e-003 1.553425e-002 -5.829092e-003 2.130454e-003 1.747591e-002 -2.872802e-002
<VARIANCE> 25
 8.763950e+001 1.165111e+002 1.443977e+002 9.528459e+001 9.804582e+001 7.300826e+001 1.505638e+002 7.058739e+001 7.626776e+001 6.972476e+001 4.271188e+001 4.297775e+001 1.692825e+000 4.146096e+000 4.051080e+000 4.653444e+000 4.079368e+000 4.542922e+000 4.821282e+000 4.951846e+000 5.293081e+000 4.433476e+000 3.608258e+000 3.099425e+000 1.894807e+000
<GCONST> 1.161354e+002
<TRANSP> 5
 0.000000e+000 1.000000e+000 0.000000e+000 0.000000e+000 0.000000e+000
 0.000000e+000 7.701567e-001 2.298433e-001 0.000000e+000 0.000000e+000
 0.000000e+000 0.000000e+000 7.701567e-001 2.298433e-001 0.000000e+000
 0.000000e+000 0.000000e+000 0.000000e+000 8.983455e-001 1.016544e-001
 0.000000e+000 0.000000e+000 0.000000e+000 0.000000e+000 0.000000e+000
<ENDHMM>
~h "n"
<BEGINHMM>
<NUMSTATES> 5
<STATE> 2
<MEAN> 25
 1.948274e+000 2.224936e-001 6.086808e-001 7.467345e-002 1.058730e+000 -1.915968e-001 -8.488650e-001 4.055867e-001 -2.694376e-001 -3.318729e-001 -1.649703e-001 -3.354133e-002 -8.365883e-003 -2.334627e-003 2.273436e-002 -1.912639e-002 -1.366566e-002 -1.074770e-002 -3.131668e-004 2.236385e-002 -1.138133e-002 -1.195589e-002 3.243603e-003 -4.333650e-003 3.848166e-003
<VARIANCE> 25
 9.194505e+001 1.226545e+002 1.779667e+002 1.245607e+002 9.140786e+001 8.260204e+001 1.145058e+002 7.686227e+001 7.615742e+001 6.784999e+001 4.099989e+001 4.861507e+001 1.743592e+000 3.685477e+000 4.003593e+000 4.497811e+000 3.580942e+000 4.304632e+000 4.542732e+000 4.079153e+000 4.969741e+000 4.098741e+000 3.104532e+000 3.014014e+000 1.986007e+000
<GCONST> 1.157857e+002
<STATE> 3
<MEAN> 25
 1.912817e+000 2.156895e-001 7.167807e-001 -1.449535e-002 9.911920e-001 -2.479812e-001 -8.581889e-001 5.151229e-001 -3.267273e-001 -3.970660e-001 -1.493945e-001 -6.379401e-002 -8.022237e-003 -3.321524e-003 1.865081e-002 -1.556798e-002 -1.327430e-002 -1.332440e-002 -8.663016e-004 2.024337e-002 -1.495539e-002 -1.291340e-002 6.089744e-003 -5.953676e-003 2.755627e-003
<VARIANCE> 25
 9.270292e+001 1.226964e+002 1.773016e+002 1.223503e+002 9.202122e+001 8.278163e+001 1.136287e+002 7.697047e+001 7.649533e+001 6.795876e+001 4.116687e+001 4.909269e+001 1.747776e+000 3.697533e+000 4.036973e+000 4.513531e+000 3.584067e+000 4.318940e+000 4.526779e+000 4.074406e+000 4.969819e+000 4.094020e+000 3.120378e+000 3.029795e+000 1.993269e+000
<GCONST> 1.158248e+002
<STATE> 4
<MEAN> 25
 2.294718e+000 3.583212e-001 8.879962e-001 -1.073899e-001 9.611309e-001 -4.826643e-001 -1.012914e+000 8.881360e-001 -5.106091e-001 -6.881652e-001 -6.006183e-002 -1.942277e-001 -8.146922e-003 -5.490234e-003 1.566267e-002 -1.178664e-002 -1.173181e-002 -1.893011e-002 -5.181390e-003 1.740887e-002 -2.072977e-002 -1.258577e-002 1.042392e-002 -1.115218e-002 2.417912e-003
<VARIANCE> 25
 9.389733e+001 1.246966e+002 1.725774e+002 1.200699e+002 9.400333e+001 8.370686e+001 1.113752e+002 7.879560e+001 7.814039e+001 6.734486e+001 4.125688e+001 4.882164e+001 1.748077e+000 3.687871e+000 4.045903e+000 4.450827e+000 3.539196e+000 4.255685e+000 4.446510e+000 4.031302e+000 4.896625e+000 4.035554e+000 3.079892e+000 2.966170e+000 2.017814e+000
<GCONST> 1.157313e+002
<TRANSP> 5
 0.000000e+000 1.000000e+000 0.000000e+000 0.000000e+000 0.000000e+000
 0.000000e+000 7.864105e-001 2.135896e-001 0.000000e+000 0.000000e+000
 0.000000e+000 0.000000e+000 7.864099e-001 2.135901e-001 0.000000e+000
 0.000000e+000 0.000000e+000 0.000000e+000 9.200696e-001 7.993041e-002
 0.000000e+000 0.000000e+000 0.000000e+000 0.000000e+000 0.000000e+000
<ENDHMM>
~h "p"
<BEGINHMM>
<NUMSTATES> 5
<STATE> 2
<MEAN> 25
 1.501647e-001 4.578720e-001 -1.411032e-002 -4.693995e-001 -1.088119e+000 1.820847e-001 7.139007e-001 1.340778e-001 2.775572e-001 -5.370845e-001 -1.198074e-001 3.873381e-001 -6.591437e-003 3.228198e-002 -2.676274e-002 4.106912e-002 -1.469412e-002 -1.851932e-002 4.835848e-002 2.494784e-002 -7.522000e-004 -3.907305e-002 -8.587411e-003 8.902362e-003 -3.532058e-002
<VARIANCE> 25
 9.633347e+001 1.234195e+002 1.424968e+002 1.243547e+002 9.206667e+001 7.644791e+001 1.465517e+002 7.191869e+001 1.014673e+002 7.729581e+001 5.328432e+001 5.361831e+001 2.049508e+000 4.126911e+000 4.380741e+000 5.467980e+000 4.625119e+000 4.986756e+000 5.439680e+000 5.241851e+000 6.088795e+000 4.736621e+000 3.854401e+000 3.521563e+000 2.323146e+000
<GCONST> 1.187725e+002
<STATE> 3
<MEAN> 25
 1.232261e-001 5.963563e-001 -1.584807e-001 -2.879044e-001 -1.117599e+000 1.192189e-001 9.335329e-001 2.303433e-001 2.883954e-001 -6.826948e-001 -1.685568e-001 4.256448e-001 -4.480699e-003 2.816144e-002 -3.372516e-002 4.477291e-002 -4.598960e-003 -1.251237e-002 4.544152e-002 1.971064e-002 7.892569e-003 -3.043049e-002 -1.349551e-002 5.991106e-003 -3.435608e-002
<VARIANCE> 25
 9.657488e+001 1.248317e+002 1.432572e+002 1.263516e+002 8.953716e+001 7.717787e+001 1.495014e+002 7.230325e+001 1.028428e+002 7.757679e+001 5.405158e+001 5.446317e+001 1.998148e+000 4.150699e+000 4.419077e+000 5.491715e+000 4.567963e+000 5.070169e+000 5.431372e+000 5.287372e+000 6.169558e+000 4.776004e+000 3.868259e+000 3.581699e+000 2.268813e+000
<GCONST> 1.188846e+002
<STATE> 4
<MEAN> 25
 2.239730e-001 8.475912e-001 -5.002676e-001 2.934099e-002 -1.066329e+000 1.384298e-001 1.183364e+000 2.805577e-001 4.389821e-001 -8.480254e-001 -2.310922e-001 4.897838e-001 1.198863e-002 1.590591e-002 -3.054044e-002 3.567096e-002 1.047050e-002 -4.142394e-004 2.300750e-002 1.065687e-002 1.137793e-002 -1.847052e-002 -9.444845e-003 7.475055e-004 -1.349981e-002
<VARIANCE> 25
 9.637826e+001 1.249783e+002 1.412644e+002 1.296349e+002 8.656525e+001 7.745758e+001 1.497547e+002 7.247186e+001 1.037437e+002 7.759190e+001 5.448655e+001 5.475244e+001 1.981160e+000 4.225533e+000 4.477499e+000 5.678591e+000 4.529404e+000 5.143868e+000 5.408270e+000 5.288023e+000 6.257853e+000 4.834859e+000 3.882941e+000 3.626592e+000 2.288578e+000
<GCONST> 1.190006e+002
<TRANSP> 5
 0.000000e+000 1.000000e+000 0.000000e+000 0.000000e+000 0.000000e+000
 0.000000e+000 7.696883e-001 2.303117e-001 0.000000e+000 0.000000e+000
 0.000000e+000 0.000000e+000 7.696884e-001 2.303116e-001 0.000000e+000
 0.000000e+000 0.000000e+000 0.000000e+000 8.978513e-001 1.021487e-001
 0.000000e+000 0.000000e+000 0.000000e+000 0.000000e+000 0.000000e+000
<ENDHMM>
~h "r"
<BEGINHMM>
<NUMSTATES> 5
<STATE> 2
<MEAN> 25
 1.791034e+000 -6.501841e-001 7.867500e-001 -1.269195e+000 1.150927e+000 1.408742e-001 -2.394010e+000 -1.644947e-001 -9.376329e-001 -3.934035e-001 5.329119e-001 2.222420e-001 1.276521e-002 -6.667685e-003 -1.309469e-003 1.501523e-002 6.965458e-003 6.494766e-003 -1.353058e-002 -3.733821e-003 7.203891e-003 -7.277162e-003 -7.777381e-004 5.732768e-003 8.815242e-003
<VARIANCE> 25
 1.012068e+002 1.200583e+002 1.530617e+002 1.302263e+002 1.209272e+002 8.162463e+001 1.124686e+002 7.339220e+001 1.033826e+002 6.964838e+001 4.097883e+001 5.100362e+001 2.209251e+000 4.610638e+000 4.450644e+000 5.205088e+000 4.228808e+000 4.477975e+000 4.539440e+000 4.659712e+000 5.178799e+000 4.371514e+000 3.464465e+000 3.123619e+000 2.108509e+000
<GCONST> 1.176986e+002
<STATE> 3
<MEAN> 25
 1.808578e+000 -6.766271e-001 7.712488e-001 -1.198096e+000 1.183694e+000 1.594063e-001 -2.440346e+000 -1.740339e-001 -8.808518e-001 -4.102969e-001 5.156029e-001 2.475465e-001 5.116699e-003 -5.165535e-003 -2.217010e-003 1.549184e-002 9.029281e-003 3.163583e-003 -1.009053e-002 -3.233999e-004 1.204094e-002 -3.281675e-003 -4.483764e-003 3.729537e-003 2.407759e-003
<VARIANCE> 25
 1.003598e+002 1.199347e+002 1.523779e+002 1.307780e+002 1.224151e+002 8.204805e+001 1.129688e+002 7.314696e+001 1.040565e+002 7.018562e+001 4.126160e+001 5.086322e+001 2.172660e+000 4.607939e+000 4.428416e+000 5.201816e+000 4.254706e+000 4.493650e+000 4.519385e+000 4.669248e+000 5.209579e+000 4.384848e+000 3.480545e+000 3.121175e+000 2.067935e+000
<GCONST> 1.177034e+002
<STATE> 4
<MEAN> 25
 1.724866e+000 -8.439842e-001 8.548074e-001 -1.240667e+000 1.358294e+000 5.910962e-002 -2.877556e+000 -1.795052e-001 -7.380273e-001 -3.633583e-001 4.343601e-001 2.574922e-001 -4.097620e-003 -7.371722e-003 -4.027024e-003 1.084746e-002 5.138963e-003 -3.260240e-003 -8.433056e-003 5.782321e-003 1.826145e-002 2.515081e-003 -5.977739e-003 -1.785022e-003 -3.065627e-003
<VARIANCE> 25
 1.033617e+002 1.213835e+002 1.514566e+002 1.325983e+002 1.311352e+002 8.492802e+001 1.139868e+002 7.303890e+001 1.096277e+002 7.255791e+001 4.090849e+001 5.116479e+001 2.201884e+000 4.557748e+000 4.356257e+000 5.109495e+000 4.282098e+000 4.458577e+000 4.395623e+000 4.519731e+000 5.091599e+000 4.405488e+000 3.410649e+000 3.074985e+000 2.037365e+000
<GCONST> 1.177842e+002
<TRANSP> 5
 0.000000e+000 1.000000e+000 0.000000e+000 0.000000e+000 0.000000e+000
 0.000000e+000 7.863351e-001 2.136650e-001 0.000000e+000 0.000000e+000
 0.000000e+000 0.000000e+000 7.863348e-001 2.136652e-001 0.000000e+000
 0.000000e+000 0.000000e+000 0.000000e+000 9.205754e-001 7.942456e-002
 0.000000e+000 0.000000e+000 0.000000e+000 0.000000e+000 0.000000e+000
<ENDHMM>
~h "s"
<BEGINHMM>
<NUMSTATES> 5
<STATE> 2
<MEAN> 25
 -1.256119e+000 -4.055907e+000 5.840539e+000 -2.111154e+000 3.688245e-001 2.845994e-001 8.716578e-003 -1.487100e-001 -1.290222e+000 2.150552e+000 -1.019267e-002 -7.060411e-002 1.445991e-002 -2.150657e-002 3.910220e-002 -3.079380e-002 -5.214763e-003 1.324894e-002 -3.943159e-002 4.800122e-004 1.784979e-002 -8.124724e-003 -6.186965e-003 5.864328e-003 3.724409e-002
<VARIANCE> 25
 1.332508e+002 1.228695e+002 2.187616e+002 1.335001e+002 9.529554e+001 8.269018e+001 1.324083e+002 7.364874e+001 8.443747e+001 6.717053e+001 4.146300e+001 4.229016e+001 2.586183e+000 3.664714e+000 4.325527e+000 5.496713e+000 3.852971e+000 4.057174e+000 4.725467e+000 3.963331e+000 4.730829e+000 3.796920e+000 2.935431e+000 2.636311e+000 2.160174e+000
<GCONST> 1.170040e+002
<STATE> 3
<MEAN> 25
 -1.195289e+000 -4.150905e+000 6.028843e+000 -2.253042e+000 3.493398e-001 3.464839e-001 -1.738200e-001 -1.461611e-001 -1.202255e+000 2.113906e+000 -3.296524e-002 -3.393599e-002 1.824400e-002 -1.650201e-002 3.481446e-002 -2.696818e-002 -3.665186e-003 1.559287e-002 -4.232247e-002 -2.161389e-003 2.299633e-002 -1.055656e-002 -5.109248e-003 7.931585e-003 3.545214e-002
<VARIANCE> 25
 1.337802e+002 1.205365e+002 2.143188e+002 1.316841e+002 9.469300e+001 8.316345e+001 1.299372e+002 7.289453e+001 8.458083e+001 6.728400e+001 4.099805e+001 4.193195e+001 2.588689e+000 3.632783e+000 4.267418e+000 5.420529e+000 3.834897e+000 4.038982e+000 4.643714e+000 3.940655e+000 4.656296e+000 3.773441e+000 2.907633e+000 2.622816e+000 2.123211e+000
<GCONST> 1.167867e+002
<STATE> 4
<MEAN> 25
 -1.047741e+000 -4.543678e+000 6.715857e+000 -2.541138e+000 3.865831e-001 4.674439e-001 -6.310408e-001 -3.638355e-001 -1.065920e+000 2.221111e+000 -1.623280e-002 -1.553566e-002 1.830317e-002 -1.750183e-002 3.128056e-002 -2.195023e-002 -1.998767e-003 1.572585e-002 -4.007737e-002 -2.445956e-003 2.049271e-002 -1.074183e-002 -3.463168e-003 5.998453e-003 3.401293e-002
<VARIANCE> 25
 1.378868e+002 1.145013e+002 2.042152e+002 1.329622e+002 9.248644e+001 8.621068e+001 1.252202e+002 7.316711e+001 8.500109e+001 6.743031e+001 4.017331e+001 4.096096e+001 2.622205e+000 3.498561e+000 4.140275e+000 5.373477e+000 3.634341e+000 3.979874e+000 4.458558e+000 3.868554e+000 4.412468e+000 3.663304e+000 2.783768e+000 2.519941e+000 2.099556e+000
<GCONST> 1.163000e+002
<TRANSP> 5
 0.000000e+000 1.000000e+000 0.000000e+000 0.000000e+000 0.000000e+000
 0.000000e+000 7.890885e-001 2.109115e-001 0.000000e+000 0.000000e+000
 0.000000e+000 0.000000e+000 7.890887e-001 2.109114e-001 0.000000e+000
 0.000000e+000 0.000000e+000 0.000000e+000 9.229093e-001 7.709073e-002
 0.000000e+000 0.000000e+000 0.000000e+000 0.000000e+000 0.000000e+000
<ENDHMM>
~h "t"
<BEGINHMM>
<NUMSTATES> 5
<STATE> 2
<MEAN> 25
 1.084494e+000 -3.477692e-001 1.066549e+000 3.427516e-002 9.113644e-001 -4.259637e-001 -1.015779e+000 3.341676e-001 -6.263635e-001 -2.534403e-001 -1.354268e-001 -2.146865e-001 -1.527671e-002 -4.574533e-003 8.901331e-003 1.396743e-003 -2.213862e-003 -5.790284e-003 -5.294100e-003 -2.531157e-003 -4.637862e-003 5.109519e-003 7.661432e-003 -1.343382e-002 -5.991963e-003
<VARIANCE> 25
 9.276878e+001 1.241442e+002 1.710113e+002 1.232717e+002 1.065654e+002 7.583591e+001 1.258969e+002 7.608794e+001 9.188063e+001 7.370085e+001 4.358529e+001 4.856525e+001 2.075412e+000 4.925367e+000 4.644812e+000 5.671766e+000 4.386215e+000 4.453149e+000 4.993116e+000 4.752689e+000 5.582092e+000 4.750871e+000 3.572287e+000 3.382664e+000 2.414456e+000
<GCONST> 1.182833e+002
<STATE> 3
<MEAN> 25
 1.007673e+000 -3.738798e-001 1.097971e+000 3.829989e-002 9.121782e-001 -4.557376e-001 -1.040974e+000 3.167221e-001 -6.601331e-001 -2.326852e-001 -1.016402e-001 -2.772672e-001 -1.892689e-002 -7.680370e-003 5.167369e-003 -3.294611e-003 -3.353373e-003 -7.825916e-003 -5.298629e-003 -4.270660e-003 -7.240608e-003 6.047742e-003 8.924196e-003 -1.205809e-002 -7.486840e-003
<VARIANCE> 25
 9.372059e+001 1.232521e+002 1.716631e+002 1.235864e+002 1.071569e+002 7.550098e+001 1.249843e+002 7.610732e+001 9.145180e+001 7.323666e+001 4.353738e+001 4.857503e+001 2.081276e+000 4.902732e+000 4.623959e+000 5.687626e+000 4.372130e+000 4.452701e+000 4.964423e+000 4.765804e+000 5.557784e+000 4.772441e+000 3.581169e+000 3.400085e+000 2.400994e+000
<GCONST> 1.182672e+002
<STATE> 4
<MEAN> 25
 1.014486e+000 -4.402394e-001 1.288689e+000 2.171558e-002 1.089291e+000 -5.192887e-001 -1.243183e+000 2.791959e-001 -8.844787e-001 -3.076481e-001 -8.723740e-002 -4.408700e-001 -2.605439e-002 -9.011472e-003 -9.806718e-004 -6.573630e-003 -8.932929e-004 -5.816282e-003 -2.191043e-003 -6.297329e-003 -8.378131e-003 5.607384e-003 7.347142e-003 -8.011273e-003 -1.323987e-002
<VARIANCE> 25
 9.689499e+001 1.231100e+002 1.731386e+002 1.253548e+002 1.086320e+002 7.638087e+001 1.208189e+002 7.569080e+001 9.306779e+001 7.217484e+001 4.343726e+001 4.835013e+001 2.062754e+000 4.791669e+000 4.540710e+000 5.628887e+000 4.267493e+000 4.395314e+000 4.812091e+000 4.629004e+000 5.434085e+000 4.697068e+000 3.503679e+000 3.334421e+000 2.367334e+000
<GCONST> 1.180522e+002
<TRANSP> 5
 0.000000e+000 1.000000e+000 0.000000e+000 0.000000e+000 0.000000e+000
 0.000000e+000 7.808357e-001 2.191644e-001 0.000000e+000 0.000000e+000
 0.000000e+000 0.000000e+000 7.808365e-001 2.191635e-001 0.000000e+000
 0.000000e+000 0.000000e+000 0.000000e+000 9.129002e-001 8.709979e-002
 0.000000e+000 0.000000e+000 0.000000e+000 0.000000e+000 0.000000e+000
<ENDHMM>
~h "v"
<BEGINHMM>
<NUMSTATES> 5
<STATE> 2
<MEAN> 25
 7.686893e-001 -2.410097e+000 2.234586e+000 -7.381279e-001 1.758741e+000 -3.831144e-002 -1.752163e+000 -9.065639e-001 -5.877910e-001 6.399273e-001 -2.558661e-001 4.606054e-001 1.303603e-002 2.084137e-002 -5.928624e-002 1.488454e-003 7.859577e-003 1.331097e-002 -3.619784e-003 -5.471283e-003 8.241079e-003 -1.188353e-002 8.550259e-003 -1.612221e-003 -2.139182e-002
<VARIANCE> 25
 1.223574e+002 1.071783e+002 1.690431e+002 1.249894e+002 1.074203e+002 8.597902e+001 1.278817e+002 7.943088e+001 8.444119e+001 8.362761e+001 4.203827e+001 4.660653e+001 2.377192e+000 3.265995e+000 3.420551e+000 4.489132e+000 3.804616e+000 3.727122e+000 4.516999e+000 4.253330e+000 4.754408e+000 4.443862e+000 3.128223e+000 2.892103e+000 1.997408e+000
<GCONST> 1.165196e+002
<STATE> 3
<MEAN> 25
 7.787661e-001 -2.274561e+000 1.936504e+000 -6.855696e-001 1.798999e+000 -1.764145e-003 -1.742461e+000 -9.401826e-001 -5.256075e-001 5.951168e-001 -2.102061e-001 4.796514e-001 2.522404e-003 3.195419e-002 -6.425612e-002 9.837050e-003 1.006974e-002 6.705509e-003 9.658465e-004 -5.024601e-003 1.272065e-002 -1.022439e-002 1.308586e-002 4.537145e-003 -3.715896e-002
<VARIANCE> 25
 1.234166e+002 1.072841e+002 1.683273e+002 1.254792e+002 1.065583e+002 8.527325e+001 1.290965e+002 7.968786e+001 8.522034e+001 8.331892e+001 4.227692e+001 4.644867e+001 2.302525e+000 3.227201e+000 3.387941e+000 4.518858e+000 3.774079e+000 3.703797e+000 4.531845e+000 4.279488e+000 4.852875e+000 4.420496e+000 3.134392e+000 2.876259e+000 1.947762e+000
<GCONST> 1.164678e+002
<STATE> 4
<MEAN> 25
 6.439140e-001 -2.405010e+000 1.807328e+000 -6.308928e-001 1.791868e+000 2.975424e-002 -1.726470e+000 -1.037853e+000 -3.233005e-001 6.883107e-001 -7.459746e-002 5.775252e-001 -1.583451e-005 4.390182e-002 -5.937291e-002 2.343525e-002 4.780237e-003 -5.190087e-003 1.560128e-003 -4.007975e-003 1.744420e-002 -7.516107e-003 1.031038e-002 4.069267e-005 -4.629133e-002
<VARIANCE> 25
 1.329891e+002 1.088192e+002 1.680443e+002 1.288847e+002 1.086033e+002 8.584809e+001 1.332463e+002 7.979552e+001 8.798433e+001 8.488351e+001 4.261661e+001 4.569019e+001 2.346974e+000 3.183417e+000 3.390837e+000 4.609997e+000 3.720519e+000 3.683437e+000 4.575677e+000 4.206021e+000 4.996560e+000 4.442678e+000 3.110002e+000 2.832015e+000 1.908880e+000
<GCONST> 1.166720e+002
<TRANSP> 5
 0.000000e+000 1.000000e+000 0.000000e+000 0.000000e+000 0.000000e+000
 0.000000e+000 7.911786e-001 2.088214e-001 0.000000e+000 0.000000e+000
 0.000000e+000 0.000000e+000 7.911786e-001 2.088214e-001 0.000000e+000
 0.000000e+000 0.000000e+000 0.000000e+000 9.259685e-001 7.403146e-002
 0.000000e+000 0.000000e+000 0.000000e+000 0.000000e+000 0.000000e+000
<ENDHMM>
~h "w"
<BEGINHMM>
<NUMSTATES> 5
<STATE> 2
<MEAN> 25
 1.744828e+000 1.776717e+000 -2.862028e+000 9.758317e-001 -1.754599e+000 -5.244855e-001 1.734664e+000 -1.772624e-001 9.414381e-001 -4.806908e-001 2.654774e-001 1.066107e+000 8.381174e-003 -7.133197e-003 1.426988e-002 -1.762085e-003 2.821105e-002 -8.312902e-003 -4.088172e-002 2.789895e-004 -5.038504e-003 -2.897928e-002 -7.619895e-003 1.657086e-002 1.837058e-002
<VARIANCE> 25
 9.367061e+001 1.257228e+002 1.443355e+002 1.260933e+002 1.014255e+002 7.448550e+001 1.928556e+002 7.860358e+001 7.711829e+001 6.806133e+001 3.755112e+001 4.851163e+001 1.586913e+000 4.160273e+000 4.303062e+000 5.238387e+000 3.947110e+000 4.296038e+000 5.086206e+000 5.197241e+000 5.913822e+000 4.232845e+000 3.406751e+000 3.270212e+000 2.089458e+000
<GCONST> 1.172352e+002
<STATE> 3
<MEAN> 25
 1.799513e+000 1.733819e+000 -2.793214e+000 9.291720e-001 -1.628895e+000 -5.854014e-001 1.537167e+000 -1.484517e-001 9.219261e-001 -6.080111e-001 2.268393e-001 1.148409e+000 5.401085e-003 -4.840207e-003 1.392750e-002 -5.764436e-003 3.219068e-002 -1.691145e-002 -4.114964e-002 1.046515e-002 -1.388923e-003 -2.580269e-002 -1.002744e-002 1.770130e-002 1.705167e-002
<VARIANCE> 25
 9.137115e+001 1.262049e+002 1.471804e+002 1.257933e+002 1.010670e+002 7.401741e+001 1.914480e+002 7.915445e+001 7.587872e+001 6.916411e+001 3.788131e+001 4.919875e+001 1.567452e+000 4.178338e+000 4.296351e+000 5.243530e+000 3.915792e+000 4.328985e+000 5.145212e+000 5.205215e+000 5.907124e+000 4.255437e+000 3.419625e+000 3.301187e+000 2.114079e+000
<GCONST> 1.172771e+002
<STATE> 4
<MEAN> 25
 2.577807e+000 1.645831e+000 -2.593273e+000 6.199256e-001 -1.645099e+000 -9.907723e-001 1.271311e+000 6.779322e-001 1.098244e+000 -1.013189e+000 3.825919e-001 1.311633e+000 1.095098e-002 -2.444509e-003 2.205741e-002 -2.454431e-002 3.089369e-002 -2.373632e-002 -4.686998e-002 2.403430e-002 -4.038690e-003 -2.354824e-002 -6.853999e-003 1.460433e-002 2.627422e-002
<VARIANCE> 25
 8.792973e+001 1.300891e+002 1.464971e+002 1.273479e+002 9.467075e+001 7.359215e+001 1.772213e+002 8.215686e+001 7.270795e+001 6.790273e+001 3.724470e+001 4.854099e+001 1.426743e+000 4.030567e+000 3.995911e+000 4.903433e+000 3.679114e+000 4.120386e+000 5.035336e+000 5.005590e+000 5.654365e+000 4.066954e+000 3.290084e+000 3.135641e+000 2.049833e+000
<GCONST> 1.164220e+002
<TRANSP> 5
 0.000000e+000 1.000000e+000 0.000000e+000 0.000000e+000 0.000000e+000
 0.000000e+000 7.827314e-001 2.172687e-001 0.000000e+000 0.000000e+000
 0.000000e+000 0.000000e+000 7.827311e-001 2.172689e-001 0.000000e+000
 0.000000e+000 0.000000e+000 0.000000e+000 9.178237e-001 8.217635e-002
 0.000000e+000 0.000000e+000 0.000000e+000 0.000000e+000 0.000000e+000
<ENDHMM>
~h "y"
<BEGINHMM>
<NUMSTATES> 5
<STATE> 2
<MEAN> 25
 1.393181e+000 -5.848376e-001 5.068293e-001 6.670202e-001 1.002976e+000 1.739608e-001 -5.464308e-001 8.882519e-002 -9.338117e-002 -1.198054e-001 -4.041181e-003 1.584440e-001 -1.148925e-002 2.865197e-002 -2.610876e-002 4.495977e-002 8.930576e-003 2.810791e-002 6.561575e-002 -1.771526e-002 -1.656182e-002 5.199673e-003 -8.706373e-003 7.178945e-003 -3.857784e-002
<VARIANCE> 25
 8.619078e+001 9.684179e+001 1.563221e+002 1.220261e+002 1.155087e+002 6.255321e+001 1.474553e+002 7.971633e+001 8.803844e+001 7.152939e+001 4.481804e+001 5.066448e+001 1.693713e+000 3.392097e+000 4.585423e+000 5.836182e+000 3.769756e+000 3.865672e+000 5.211864e+000 4.822995e+000 5.767921e+000 4.502157e+000 3.355198e+000 3.362485e+000 2.073083e+000
<GCONST> 1.169137e+002
<STATE> 3
<MEAN> 25
 1.350960e+000 -4.444794e-001 3.939654e-001 8.311262e-001 1.040752e+000 3.023893e-001 -2.702822e-001 1.526960e-002 -1.728719e-001 -1.022343e-001 -5.665266e-002 1.697265e-001 -1.176881e-002 3.493786e-002 -2.224945e-002 3.790930e-002 1.572612e-003 2.695924e-002 6.408722e-002 -1.748988e-002 -1.747991e-002 4.074707e-003 -1.145899e-002 4.792475e-004 -4.040724e-002
<VARIANCE> 25
 8.523441e+001 9.835183e+001 1.578633e+002 1.227414e+002 1.136362e+002 6.300066e+001 1.492887e+002 8.102499e+001 9.008054e+001 7.122404e+001 4.516770e+001 5.021191e+001 1.714249e+000 3.476058e+000 4.626816e+000 6.003290e+000 3.816754e+000 3.970030e+000 5.304778e+000 4.965823e+000 5.947871e+000 4.596354e+000 3.390293e+000 3.370188e+000 2.110028e+000
<GCONST> 1.172119e+002
<STATE> 4
<MEAN> 25
 1.614646e+000 -2.833296e-001 3.729279e-001 9.192677e-001 1.185753e+000 3.837106e-001 -1.216709e-001 -2.122748e-002 -3.323428e-001 -1.103167e-001 -2.055984e-001 1.266517e-001 -8.843034e-003 3.544094e-002 -1.509438e-002 1.480119e-002 2.688360e-003 2.440333e-002 4.223825e-002 -9.783684e-003 -1.946419e-002 2.892887e-003 -1.444016e-002 -1.323015e-002 -3.309479e-002
<VARIANCE> 25
 8.391568e+001 1.001693e+002 1.602894e+002 1.243516e+002 1.136222e+002 6.425874e+001 1.506518e+002 8.178912e+001 9.328097e+001 7.024528e+001 4.490776e+001 4.948482e+001 1.756864e+000 3.611476e+000 4.827996e+000 6.328680e+000 3.957507e+000 4.150226e+000 5.629203e+000 5.099974e+000 6.332963e+000 4.729218e+000 3.435106e+000 3.340981e+000 2.239945e+000
<GCONST> 1.177619e+002
<TRANSP> 5
 0.000000e+000 1.000000e+000 0.000000e+000 0.000000e+000 0.000000e+000
 0.000000e+000 7.764553e-001 2.235447e-001 0.000000e+000 0.000000e+000
 0.000000e+000 0.000000e+000 7.764553e-001 2.235447e-001 0.000000e+000
 0.000000e+000 0.000000e+000 0.000000e+000 9.068977e-001 9.310234e-002
 0.000000e+000 0.000000e+000 0.000000e+000 0.000000e+000 0.000000e+000
<ENDHMM>
~h "z"
<BEGINHMM>
<NUMSTATES> 5
<STATE> 2
<MEAN> 25
 7.618362e-001 -7.550610e-001 1.892627e+000 -7.473714e-001 1.448440e+000 -2.886843e-001 -1.616434e+000 -2.406514e-001 -1.550560e+000 -1.856180e-001 4.695641e-001 -2.160587e-001 4.756372e-002 -5.695262e-003 7.364040e-003 -2.210227e-002 2.490007e-002 2.208482e-003 -6.037770e-002 4.395551e-003 4.409284e-002 -4.893618e-003 -1.022181e-002 1.226439e-002 4.734155e-002
<VARIANCE> 25
 1.100886e+002 1.313613e+002 2.435200e+002 1.247755e+002 1.287068e+002 6.873203e+001 1.347748e+002 7.575158e+001 9.005831e+001 7.365602e+001 4.303173e+001 4.812180e+001 2.214335e+000 3.923817e+000 5.149353e+000 5.387353e+000 4.607831e+000 4.479995e+000 5.419167e+000 4.901861e+000 4.865375e+000 4.559225e+000 3.344784e+000 3.092653e+000 2.075146e+000
<GCONST> 1.185599e+002
<STATE> 3
<MEAN> 25
 9.744447e-001 -7.809048e-001 1.895759e+000 -8.342246e-001 1.560775e+000 -2.735458e-001 -1.891008e+000 -2.262510e-001 -1.339167e+000 -2.112017e-001 4.245804e-001 -1.515638e-001 3.814519e-002 -7.072075e-003 5.814340e-003 -2.143247e-002 1.698652e-002 8.041963e-003 -4.978643e-002 5.169525e-003 4.804981e-002 -5.096757e-003 -9.061642e-003 1.906335e-002 3.871690e-002
<VARIANCE> 25
 1.090883e+002 1.322786e+002 2.413595e+002 1.256730e+002 1.299869e+002 6.847126e+001 1.311395e+002 7.597060e+001 9.247619e+001 7.475362e+001 4.371424e+001 4.856927e+001 2.219329e+000 3.893697e+000 5.075960e+000 5.324439e+000 4.641189e+000 4.425516e+000 5.423251e+000 4.968925e+000 4.870962e+000 4.589782e+000 3.328479e+000 3.060640e+000 2.078137e+000
<GCONST> 1.185756e+002
<STATE> 4
<MEAN> 25
 1.434442e+000 -8.889216e-001 1.963730e+000 -1.059247e+000 1.804052e+000 -2.814669e-001 -2.330715e+000 -4.463579e-002 -1.165602e+000 -3.292123e-001 3.764507e-001 -5.038536e-002 1.339978e-002 1.862511e-004 -2.766742e-002 -1.130915e-002 -1.565976e-003 1.171808e-002 -2.445067e-002 -2.424030e-003 4.752019e-002 -1.059312e-002 -5.398748e-003 2.538734e-002 8.254225e-004
<VARIANCE> 25
 1.081453e+002 1.376298e+002 2.391495e+002 1.284518e+002 1.326691e+002 6.672697e+001 1.213949e+002 7.645699e+001 9.851646e+001 7.554365e+001 4.548664e+001 4.893468e+001 2.126392e+000 3.652253e+000 4.949648e+000 5.114883e+000 4.528913e+000 4.298221e+000 5.327137e+000 4.958172e+000 4.807281e+000 4.572181e+000 3.262116e+000 2.990427e+000 1.964720e+000
<GCONST> 1.183017e+002
<TRANSP> 5
 0.000000e+000 1.000000e+000 0.000000e+000 0.000000e+000 0.000000e+000
 0.000000e+000 7.855075e-001 2.144925e-001 0.000000e+000 0.000000e+000
 0.000000e+000 0.000000e+000 7.855077e-001 2.144923e-001 0.000000e+000
 0.000000e+000 0.000000e+000 0.000000e+000 9.196385e-001 8.036149e-002
 0.000000e+000 0.000000e+000 0.000000e+000 0.000000e+000 0.000000e+000
<ENDHMM>
~h "aa"
<BEGINHMM>
<NUMSTATES> 5
<STATE> 2
<MEAN> 25
 3.648319e+000 -1.652982e+000 2.054501e+000 -1.602778e+000 -6.965060e-001 1.954266e-001 -1.063067e+000 1.291139e+000 8.742191e-001 -7.020209e-001 3.657781e-001 3.846472e-001 2.048046e-002 2.795192e-002 -4.576385e-002 1.831108e-002 2.085154e-002 1.318467e-002 -2.732684e-002 -2.912469e-002 3.035373e-003 -3.358296e-003 1.817695e-002 8.844635e-003 -1.581369e-002
<VARIANCE> 25
 8.844353e+001 1.127703e+002 1.313837e+002 9.969191e+001 1.085048e+002 7.451353e+001 1.007245e+002 7.209153e+001 9.388931e+001 6.738991e+001 3.936301e+001 4.670156e+001 1.934518e+000 3.663684e+000 4.021252e+000 5.148047e+000 4.792866e+000 4.460488e+000 4.437644e+000 4.240235e+000 6.023908e+000 4.558778e+000 3.459934e+000 3.081377e+000 2.313329e+000
<GCONST> 1.162959e+002
<STATE> 3
<MEAN> 25
 3.716682e+000 -1.536547e+000 1.855347e+000 -1.516429e+000 -6.096928e-001 2.549127e-001 -1.172187e+000 1.152525e+000 8.749308e-001 -7.107611e-001 4.544937e-001 4.200123e-001 1.254529e-002 3.207027e-002 -4.968396e-002 2.225780e-002 1.966839e-002 1.150324e-002 -1.810042e-002 -2.949099e-002 -1.472412e-003 -1.404649e-003 2.086409e-002 7.115259e-003 -2.505117e-002
<VARIANCE> 25
 8.803437e+001 1.124370e+002 1.298701e+002 1.007217e+002 1.087325e+002 7.473788e+001 1.003411e+002 7.166577e+001 9.469353e+001 6.742270e+001 3.964145e+001 4.762976e+001 1.918880e+000 3.695569e+000 4.048706e+000 5.191238e+000 4.782450e+000 4.439491e+000 4.403246e+000 4.279057e+000 6.087810e+000 4.620296e+000 3.467563e+000 3.101772e+000 2.311151e+000
<GCONST> 1.163601e+002
<STATE> 4
<MEAN> 25
 3.791180e+000 -1.441243e+000 1.656311e+000 -1.382281e+000 -5.517749e-001 2.981633e-001 -1.381428e+000 9.696226e-001 8.891075e-001 -6.889212e-001 6.939269e-001 4.610231e-001 -2.565293e-003 3.033978e-002 -4.455501e-002 2.546949e-002 1.418804e-002 9.665504e-003 -8.394104e-003 -2.926464e-002 -5.735750e-003 -1.878965e-004 2.317663e-002 5.173236e-003 -3.430065e-002
<VARIANCE> 25
 8.819634e+001 1.128728e+002 1.282393e+002 1.016188e+002 1.080144e+002 7.471629e+001 1.002635e+002 7.094769e+001 9.633229e+001 6.752132e+001 3.984747e+001 4.868201e+001 1.959895e+000 3.783842e+000 4.131122e+000 5.241375e+000 4.757565e+000 4.413435e+000 4.341536e+000 4.342555e+000 6.183209e+000 4.694935e+000 3.431167e+000 3.139301e+000 2.322808e+000
<GCONST> 1.164920e+002
<TRANSP> 5
 0.000000e+000 1.000000e+000 0.000000e+000 0.000000e+000 0.000000e+000
 0.000000e+000 7.714205e-001 2.285796e-001 0.000000e+000 0.000000e+000
 0.000000e+000 0.000000e+000 7.714202e-001 2.285799e-001 0.000000e+000
 0.000000e+000 0.000000e+000 0.000000e+000 8.994262e-001 1.005738e-001
 0.000000e+000 0.000000e+000 0.000000e+000 0.000000e+000 0.000000e+000
<ENDHMM>
~h "ae"
<BEGINHMM>
<NUMSTATES> 5
<STATE> 2
<MEAN> 25
 8.114178e-001 -1.264968e+000 4.065567e-001 -2.062752e+000 4.590496e-001 6.321185e-001 -9.283809e-001 -1.004051e+000 -7.141922e-001 1.407439e+000 -4.084377e-001 -1.943649e-001 5.886602e-002 -4.210824e-002 2.359917e-002 -2.716176e-003 -2.305282e-002 -2.255255e-002 1.810505e-003 9.055510e-003 -2.650525e-002 -1.496937e-002 -2.319401e-002 3.107370e-003 7.223973e-002
<VARIANCE> 25
 8.070872e+001 1.063491e+002 1.482916e+002 1.067185e+002 9.258744e+001 6.269050e+001 1.208550e+002 6.746005e+001 7.629726e+001 7.240128e+001 4.288795e+001 4.864928e+001 2.064700e+000 4.208237e+000 3.798099e+000 4.833936e+000 4.072567e+000 3.779982e+000 5.039698e+000 4.882948e+000 5.298889e+000 4.212784e+000 3.649032e+000 3.360512e+000 2.667848e+000
<GCONST> 1.162092e+002
<STATE> 3
<MEAN> 25
 9.669659e-001 -1.347547e+000 4.341510e-001 -2.008346e+000 3.906462e-001 5.307385e-001 -8.169309e-001 -9.433351e-001 -7.553031e-001 1.380833e+000 -4.665257e-001 -1.084662e-001 2.665872e-002 -1.531100e-002 -8.396144e-005 1.876274e-002 -1.529509e-002 -2.078372e-002 3.216170e-002 1.500906e-002 -6.422628e-003 -5.777091e-003 -8.942614e-003 1.780550e-002 2.562160e-002
<VARIANCE> 25
 7.884190e+001 1.080120e+002 1.477818e+002 1.095123e+002 9.434985e+001 6.406461e+001 1.242717e+002 6.810854e+001 7.688706e+001 7.369299e+001 4.290762e+001 4.814949e+001 1.891362e+000 4.254803e+000 3.779466e+000 4.893522e+000 4.124839e+000 3.783954e+000 5.027115e+000 4.849551e+000 5.241490e+000 4.237711e+000 3.621355e+000 3.250108e+000 2.472076e+000
<GCONST> 1.161301e+002
<STATE> 4
<MEAN> 25
 1.037003e+000 -1.176818e+000 3.769002e-001 -1.831501e+000 2.668873e-001 4.861631e-001 -3.190511e-001 -7.094681e-001 -6.649366e-001 1.465308e+000 -4.395010e-001 6.211434e-002 1.211805e-002 9.320951e-003 -1.104413e-002 2.722502e-002 -1.234186e-002 -4.716881e-003 3.638420e-002 2.151605e-002 1.521519e-002 -5.549952e-003 7.037779e-003 1.387092e-002 -3.976380e-003
<VARIANCE> 25
 7.944757e+001 1.127743e+002 1.456293e+002 1.141354e+002 9.765344e+001 6.648227e+001 1.352215e+002 6.799581e+001 7.873756e+001 7.439814e+001 4.192627e+001 4.839525e+001 1.819646e+000 4.349199e+000 3.896899e+000 4.933086e+000 4.220534e+000 3.884882e+000 5.043530e+000 4.745771e+000 5.207820e+000 4.280932e+000 3.522902e+000 3.148738e+000 2.371497e+000
<GCONST> 1.163328e+002
<TRANSP> 5
 0.000000e+000 1.000000e+000 0.000000e+000 0.000000e+000 0.000000e+000
 0.000000e+000 7.727334e-001 2.272666e-001 0.000000e+000 0.000000e+000
 0.000000e+000 0.000000e+000 7.727334e-001 2.272666e-001 0.000000e+000
 0.000000e+000 0.000000e+000 0.000000e+000 9.014844e-001 9.851556e-002
 0.000000e+000 0.000000e+000 0.000000e+000 0.000000e+000 0.000000e+000
<ENDHMM>
~h "ah"
<BEGINHMM>
<NUMSTATES> 5
<STATE> 2
<MEAN> 25
 1.034416e+000 -3.319710e-001 1.040613e-001 -2.441232e-002 1.624840e-001 2.649045e-002 -1.709169e-001 2.049800e-002 -1.505209e-001 2.857623e-002 -9.094485e-002 -1.331935e-002 -6.066918e-003 7.978343e-003 -1.425971e-002 -5.266844e-004 1.760864e-003 3.147069e-003 2.133269e-003 -3.989010e-003 -1.026800e-002 -8.910594e-003 7.411760e-003 -3.518139e-003 -1.241970e-002
<VARIANCE> 25
 8.800443e+001 1.171250e+002 1.795106e+002 1.151476e+002 9.363155e+001 6.725430e+001 1.359358e+002 6.553108e+001 7.902003e+001 6.770796e+001 4.254118e+001 4.553746e+001 1.800404e+000 3.868717e+000 4.216556e+000 4.904862e+000 4.133316e+000 4.060787e+000 5.031400e+000 4.330178e+000 5.321197e+000 4.378583e+000 3.567268e+000 3.251032e+000 2.139750e+000
<GCONST> 1.163523e+002
<STATE> 3
<MEAN> 25
 9.837770e-001 -2.788027e-001 2.656455e-002 -2.968421e-002 1.837102e-001 4.385795e-002 -1.531849e-001 1.410374e-002 -1.794320e-001 -5.077322e-003 -5.455484e-002 -2.155967e-002 -1.416153e-002 1.144289e-002 -1.756405e-002 2.159817e-004 2.593970e-003 3.849758e-003 4.736246e-003 -2.985830e-003 -4.020472e-003 -6.832075e-003 9.105163e-003 8.794346e-004 -2.152960e-002
<VARIANCE> 25
 8.815059e+001 1.174040e+002 1.806482e+002 1.147913e+002 9.415306e+001 6.740137e+001 1.351808e+002 6.571999e+001 7.958188e+001 6.878780e+001 4.287050e+001 4.545821e+001 1.766188e+000 3.850851e+000 4.196005e+000 4.938315e+000 4.188737e+000 4.094251e+000 5.019578e+000 4.372803e+000 5.344194e+000 4.423311e+000 3.595483e+000 3.247687e+000 2.086735e+000
<GCONST> 1.163968e+002
<STATE> 4
<MEAN> 25
 1.204543e+000 -1.513457e-001 -1.113569e-001 -2.635734e-002 1.972408e-001 4.334639e-002 -1.395891e-001 1.555912e-001 -1.306666e-001 -1.301898e-001 4.797520e-002 3.436207e-002 -1.320675e-002 8.879928e-003 -1.228605e-002 -5.040254e-003 -3.705762e-003 2.780152e-003 -2.183229e-003 3.352687e-003 2.969751e-003 -9.846124e-003 1.146247e-002 2.213040e-003 -1.860701e-002
<VARIANCE> 25
 8.928883e+001 1.183889e+002 1.779553e+002 1.171690e+002 9.345786e+001 6.853136e+001 1.332301e+002 6.623218e+001 7.995786e+001 6.957935e+001 4.296583e+001 4.507318e+001 1.727860e+000 3.776632e+000 4.091732e+000 4.911263e+000 4.147570e+000 4.078466e+000 4.991210e+000 4.358437e+000 5.333718e+000 4.416865e+000 3.565678e+000 3.157778e+000 2.056033e+000
<GCONST> 1.162864e+002
<TRANSP> 5
 0.000000e+000 1.000000e+000 0.000000e+000 0.000000e+000 0.000000e+000
 0.000000e+000 7.806420e-001 2.193581e-001 0.000000e+000 0.000000e+000
 0.000000e+000 0.000000e+000 7.806426e-001 2.193574e-001 0.000000e+000
 0.000000e+000 0.000000e+000 0.000000e+000 9.127479e-001 8.725216e-002
 0.000000e+000 0.000000e+000 0.000000e+000 0.000000e+000 0.000000e+000
<ENDHMM>
~h "ao"
<BEGINHMM>
<NUMSTATES> 5
<STATE> 2
<MEAN> 25
 1.804628e+000 -1.772817e-001 2.666714e+000 -1.907797e+000 -1.986416e+000 -1.050942e+000 -2.942315e+000 -3.734456e-001 8.937057e-001 -1.029870e+000 1.448821e-001 8.431157e-001 1.749732e-002 -4.757436e-003 -5.519507e-003 -7.082848e-003 -5.466006e-002 -1.836644e-002 -9.654930e-004 -1.970851e-002 -2.844861e-003 -1.522541e-002 1.972241e-003 1.758732e-002 1.022500e-002
<VARIANCE> 25
 1.145993e+002 1.206752e+002 1.499141e+002 1.450642e+002 1.547328e+002 9.063466e+001 1.022847e+002 8.102790e+001 1.029412e+002 7.579707e+001 3.920409e+001 5.194807e+001 2.718420e+000 4.424181e+000 4.845706e+000 5.756507e+000 4.028796e+000 4.272305e+000 4.963626e+000 4.357703e+000 4.889725e+000 4.236717e+000 3.510744e+000 2.859631e+000 2.472167e+000
<GCONST> 1.185988e+002
<STATE> 3
<MEAN> 25
 1.843585e+000 -1.594148e-001 2.594229e+000 -1.898162e+000 -2.196946e+000 -1.143059e+000 -2.879283e+000 -4.705940e-001 8.796021e-001 -1.055821e+000 1.673955e-001 9.368466e-001 6.346321e-003 -4.626306e-004 -1.116671e-002 4.566505e-003 -3.349974e-002 -1.993410e-002 1.324235e-002 -1.723271e-002 -1.014258e-002 -1.151494e-003 4.416081e-003 1.524191e-002 -7.555082e-004
<VARIANCE> 25
 1.128955e+002 1.207830e+002 1.517892e+002 1.452499e+002 1.549501e+002 9.068513e+001 1.021057e+002 8.237243e+001 1.029525e+002 7.545012e+001 3.931043e+001 5.208751e+001 2.656276e+000 4.427408e+000 4.897816e+000 5.683939e+000 4.046349e+000 4.304044e+000 5.021121e+000 4.403054e+000 4.891674e+000 4.236478e+000 3.539678e+000 2.832337e+000 2.408108e+000
<GCONST> 1.185980e+002
<STATE> 4
<MEAN> 25
 1.929612e+000 -2.847077e-001 2.648700e+000 -2.144237e+000 -2.329046e+000 -1.229210e+000 -2.901232e+000 -5.983199e-001 8.699078e-001 -8.122624e-001 2.502995e-001 1.242671e+000 5.966052e-003 -1.404256e-003 -1.109173e-002 6.000526e-003 -5.911256e-003 -1.152098e-002 1.790678e-002 -8.260084e-003 -1.780726e-002 4.391368e-003 4.187060e-003 1.271218e-002 2.126368e-003
<VARIANCE> 25
 1.141102e+002 1.229642e+002 1.513185e+002 1.491924e+002 1.581785e+002 9.361293e+001 1.033769e+002 8.413644e+001 1.062793e+002 7.645078e+001 3.945588e+001 5.259206e+001 2.668625e+000 4.311960e+000 4.745357e+000 5.622403e+000 4.014221e+000 4.327380e+000 4.827039e+000 4.298228e+000 4.744644e+000 4.267599e+000 3.493248e+000 2.827775e+000 2.372123e+000
<GCONST> 1.186111e+002
<TRANSP> 5
 0.000000e+000 1.000000e+000 0.000000e+000 0.000000e+000 0.000000e+000
 0.000000e+000 7.916496e-001 2.083504e-001 0.000000e+000 0.000000e+000
 0.000000e+000 0.000000e+000 7.916504e-001 2.083495e-001 0.000000e+000
 0.000000e+000 0.000000e+000 0.000000e+000 9.261186e-001 7.388138e-002
 0.000000e+000 0.000000e+000 0.000000e+000 0.000000e+000 0.000000e+000
<ENDHMM>
~h "aw"
<BEGINHMM>
<NUMSTATES> 5
<STATE> 2
<MEAN> 25
 1.980775e+000 -5.685190e-001 2.158491e-001 -6.199770e-001 1.862825e-001 2.014459e-001 -4.022587e-001 6.543902e-001 -6.885324e-001 -3.364266e-001 2.724765e-001 1.010488e+000 -3.124027e-002 -3.221046e-002 -1.146635e-003 2.504071e-002 1.667668e-002 1.778009e-002 2.679365e-002 -1.024990e-002 1.590911e-002 5.077528e-002 3.063834e-002 4.095612e-002 -1.221966e-002
<VARIANCE> 25
 8.849372e+001 1.070651e+002 1.244692e+002 1.443228e+002 1.170022e+002 6.769427e+001 8.675001e+001 7.030490e+001 1.118842e+002 7.884408e+001 4.357472e+001 5.133885e+001 1.944948e+000 5.611628e+000 4.759420e+000 5.228157e+000 4.541291e+000 4.296824e+000 5.226953e+000 4.213290e+000 6.044476e+000 4.377347e+000 3.470219e+000 3.006002e+000 2.806394e+000
<GCONST> 1.177101e+002
<STATE> 3
<MEAN> 25
 1.827759e+000 -7.003464e-001 2.233394e-001 -5.357188e-001 2.090456e-001 2.775955e-001 -2.683847e-001 6.142151e-001 -6.167035e-001 -1.407739e-001 3.977236e-001 1.192590e+000 -3.603786e-002 -2.782692e-002 1.836174e-003 2.351306e-002 3.771012e-003 1.444614e-002 3.120755e-002 -1.179363e-002 1.599994e-002 4.133336e-002 2.329813e-002 3.676138e-002 -1.754945e-002
<VARIANCE> 25
 8.988231e+001 1.071968e+002 1.258696e+002 1.450467e+002 1.139646e+002 6.855956e+001 8.662186e+001 7.078059e+001 1.099360e+002 7.828262e+001 4.256694e+001 5.119116e+001 1.953303e+000 5.610414e+000 4.874185e+000 5.223742e+000 4.362294e+000 4.275898e+000 5.222210e+000 4.148381e+000 5.978211e+000 4.302779e+000 3.407065e+000 2.988386e+000 2.808449e+000
<GCONST> 1.175975e+002
<STATE> 4
<MEAN> 25
 1.618705e+000 -7.567453e-001 3.181133e-001 -5.477812e-001 6.925443e-002 4.249613e-001 1.189461e-002 7.064025e-001 -4.040413e-001 4.613931e-002 5.344175e-001 1.404134e+000 -4.384936e-002 -1.313064e-002 1.287603e-002 1.552899e-002 -1.072149e-002 6.630743e-003 3.170069e-002 -8.460051e-003 1.182379e-002 2.550117e-002 6.455911e-003 2.174594e-002 -2.652210e-002
<VARIANCE> 25
 9.145305e+001 1.071813e+002 1.256908e+002 1.428902e+002 1.080038e+002 7.089713e+001 8.701681e+001 7.042202e+001 1.063115e+002 7.610357e+001 4.150467e+001 5.183505e+001 1.985032e+000 5.658810e+000 5.066812e+000 5.211574e+000 4.165937e+000 4.280235e+000 5.205405e+000 4.073319e+000 5.998144e+000 4.261615e+000 3.323176e+000 3.055045e+000 2.822469e+000
<GCONST> 1.174935e+002
<TRANSP> 5
 0.000000e+000 1.000000e+000 0.000000e+000 0.000000e+000 0.000000e+000
 0.000000e+000 7.791852e-001 2.208148e-001 0.000000e+000 0.000000e+000
 0.000000e+000 0.000000e+000 7.791854e-001 2.208146e-001 0.000000e+000
 0.000000e+000 0.000000e+000 0.000000e+000 9.082575e-001 9.174252e-002
 0.000000e+000 0.000000e+000 0.000000e+000 0.000000e+000 0.000000e+000
<ENDHMM>
~h "ay"
<BEGINHMM>
<NUMSTATES> 5
<STATE> 2
<MEAN> 25
 -1.990662e-001 1.433913e+000 -2.302100e+000 1.320866e+000 -5.259916e-001 2.461573e-001 2.373326e+000 3.681908e-001 3.560096e-001 3.274627e-002 7.567224e-002 9.199068e-003 -5.434659e-003 2.354332e-002 2.283340e-003 6.303992e-003 -6.692039e-003 -1.824373e-002 3.761555e-002 1.756929e-002 9.995402e-003 1.900332e-002 -3.092512e-003 1.451547e-002 -1.220996e-002
<VARIANCE> 25
 1.068969e+002 1.251929e+002 1.524006e+002 1.321604e+002 1.050492e+002 7.456689e+001 1.566342e+002 7.862175e+001 9.145112e+001 7.184816e+001 4.478052e+001 4.028495e+001 2.029098e+000 3.728591e+000 4.602232e+000 4.755571e+000 4.139758e+000 4.690449e+000 4.707137e+000 4.792644e+000 5.307025e+000 4.542290e+000 3.582746e+000 3.170100e+000 1.897676e+000
<GCONST> 1.174768e+002
<STATE> 3
<MEAN> 25
 -2.373373e-001 1.507905e+000 -2.274429e+000 1.295427e+000 -5.689064e-001 1.575963e-001 2.499616e+000 4.558333e-001 3.891557e-001 1.251570e-001 7.103912e-002 6.787489e-002 -6.424437e-003 1.344141e-002 8.564617e-003 -7.109019e-003 -7.245580e-003 -1.642675e-002 2.216644e-002 1.601565e-002 7.815240e-003 1.978091e-002 -1.111973e-003 1.241545e-002 -4.723023e-003
<VARIANCE> 25
 1.078485e+002 1.265975e+002 1.562981e+002 1.326463e+002 1.040205e+002 7.441039e+001 1.580136e+002 7.924220e+001 9.092804e+001 7.235740e+001 4.454361e+001 4.060083e+001 2.046494e+000 3.728306e+000 4.662926e+000 4.713436e+000 4.122776e+000 4.740759e+000 4.731120e+000 4.817340e+000 5.310578e+000 4.566833e+000 3.598176e+000 3.217962e+000 1.906975e+000
<GCONST> 1.175939e+002
<STATE> 4
<MEAN> 25
 -4.618039e-001 1.594105e+000 -2.340829e+000 1.191753e+000 -7.887676e-001 -5.479603e-002 2.711769e+000 5.763829e-001 4.946510e-001 3.449642e-001 8.870456e-002 1.667390e-001 -9.464768e-003 -3.522481e-003 1.441600e-002 -2.449159e-002 -1.058432e-002 -1.272021e-002 -5.154863e-004 9.620607e-003 4.551050e-003 1.365359e-002 5.558331e-003 1.182658e-002 4.618310e-003
<VARIANCE> 25
 1.141521e+002 1.288883e+002 1.635149e+002 1.318524e+002 1.035876e+002 7.508904e+001 1.570271e+002 8.215690e+001 8.977741e+001 7.444994e+001 4.371501e+001 4.159750e+001 2.107859e+000 3.631719e+000 4.643861e+000 4.563029e+000 4.013869e+000 4.721299e+000 4.699119e+000 4.809958e+000 5.299631e+000 4.575430e+000 3.568786e+000 3.273933e+000 1.861304e+000
<GCONST> 1.176760e+002
<TRANSP> 5
 0.000000e+000 1.000000e+000 0.000000e+000 0.000000e+000 0.000000e+000
 0.000000e+000 7.976160e-001 2.023840e-001 0.000000e+000 0.000000e+000
 0.000000e+000 0.000000e+000 7.976168e-001 2.023832e-001 0.000000e+000
 0.000000e+000 0.000000e+000 0.000000e+000 9.320296e-001 6.797034e-002
 0.000000e+000 0.000000e+000 0.000000e+000 0.000000e+000 0.000000e+000
<ENDHMM>
~h "ch"
<BEGINHMM>
<NUMSTATES> 5
<STATE> 2
<MEAN> 25
 -1.894735e+000 -1.125022e+000 1.806679e+000 4.233636e-001 1.062734e+000 -8.794782e-001 9.263527e-001 5.648745e-001 -1.720785e+000 2.569532e-001 1.962849e-001 -6.244205e-002 2.198752e-002 -3.005996e-002 8.068191e-002 3.877356e-002 9.523293e-002 -3.023997e-002 -7.656309e-002 9.476897e-004 -4.165618e-002 7.541459e-002 9.141357e-003 -6.040671e-002 5.639732e-002
<VARIANCE> 25
 8.210898e+001 1.258889e+002 1.591835e+002 8.868557e+001 6.840755e+001 5.798289e+001 1.152773e+002 6.449456e+001 6.249901e+001 7.314352e+001 4.267016e+001 3.678636e+001 1.989118e+000 3.421426e+000 4.496429e+000 5.345339e+000 5.566396e+000 3.614001e+000 5.326804e+000 5.737135e+000 5.448426e+000 4.564296e+000 2.538260e+000 2.781616e+000 1.659241e+000
<GCONST> 1.149243e+002
<STATE> 3
<MEAN> 25
 -1.756802e+000 -1.261974e+000 2.114973e+000 5.812445e-001 1.461106e+000 -9.971378e-001 5.539579e-001 5.626335e-001 -1.920086e+000 5.937271e-001 3.175614e-001 -3.549897e-001 3.471069e-002 -3.489723e-002 7.307075e-002 3.853341e-002 9.166133e-002 -3.076291e-002 -8.605465e-002 8.793644e-004 -4.722851e-002 7.951383e-002 2.633658e-002 -7.238293e-002 6.436918e-002
<VARIANCE> 25
 8.188875e+001 1.250857e+002 1.578423e+002 9.003383e+001 6.772783e+001 5.812465e+001 1.192176e+002 6.452492e+001 6.344962e+001 7.310509e+001 4.344711e+001 3.795456e+001 1.981141e+000 3.451010e+000 4.489956e+000 5.398638e+000 5.555926e+000 3.591010e+000 5.192217e+000 5.709245e+000 5.435537e+000 4.349432e+000 2.572772e+000 2.710903e+000 1.679032e+000
<GCONST> 1.149356e+002
<STATE> 4
<MEAN> 25
 -1.220639e+000 -2.703111e+000 3.428246e+000 1.797750e-001 1.971994e+000 -1.085941e+000 -4.221693e-001 4.159457e-001 -2.659845e+000 1.028978e+000 1.180231e+000 -6.086013e-001 4.335732e-002 -2.279607e-002 1.996764e-002 2.633949e-002 5.618180e-002 -1.876604e-002 -7.075726e-002 -1.579631e-002 -4.467802e-002 6.014725e-002 4.600206e-002 -6.125171e-002 4.594844e-002
<VARIANCE> 25
 8.561755e+001 1.276560e+002 1.701274e+002 8.949239e+001 6.382922e+001 5.798062e+001 1.185820e+002 6.208529e+001 6.656163e+001 7.047215e+001 4.539587e+001 3.852241e+001 1.975334e+000 3.244636e+000 4.181759e+000 4.953631e+000 4.936935e+000 3.566258e+000 4.705112e+000 5.293207e+000 5.170911e+000 3.972811e+000 2.794278e+000 2.596704e+000 1.629983e+000
<GCONST> 1.143821e+002
<TRANSP> 5
 0.000000e+000 1.000000e+000 0.000000e+000 0.000000e+000 0.000000e+000
 0.000000e+000 7.765181e-001 2.234819e-001 0.000000e+000 0.000000e+000
 0.000000e+000 0.000000e+000 7.765183e-001 2.234818e-001 0.000000e+000
 0.000000e+000 0.000000e+000 0.000000e+000 9.086534e-001 9.134661e-002
 0.000000e+000 0.000000e+000 0.000000e+000 0.000000e+000 0.000000e+000
<ENDHMM>
~h "dh"
<BEGINHMM>
<NUMSTATES> 5
<STATE> 2
<MEAN> 25
 6.254238e-002 1.495638e+000 -3.569316e+000 -1.194353e-001 -8.368549e-001 -1.231919e+000 2.506670e+000 2.042251e-001 -5.374770e-001 -2.009183e-001 2.451845e-001 1.286242e+000 1.880032e-002 -8.005375e-003 -1.291026e-003 -4.206898e-002 3.831248e-002 1.334577e-002 -5.490937e-002 -1.917922e-002 -1.628389e-002 3.331025e-003 -7.116996e-003 -1.149974e-002 2.705094e-002
<VARIANCE> 25
 1.059730e+002 7.609930e+001 1.601763e+002 1.285676e+002 1.235989e+002 6.578384e+001 1.874698e+002 6.519926e+001 7.258487e+001 6.909254e+001 4.517580e+001 4.572710e+001 1.465169e+000 2.797277e+000 3.833336e+000 4.913179e+000 5.036909e+000 4.395989e+000 4.891277e+000 4.209198e+000 5.116528e+000 4.609575e+000 3.536488e+000 3.463989e+000 1.731001e+000
<GCONST> 1.161262e+002
<STATE> 3
<MEAN> 25
 1.367632e-001 1.473883e+000 -3.534183e+000 -2.799410e-001 -6.810154e-001 -1.147199e+000 2.236219e+000 9.603575e-002 -5.945072e-001 -2.236819e-001 1.924571e-001 1.217066e+000 1.305720e-002 -9.073367e-003 2.034952e-002 -4.269503e-002 3.318781e-002 2.755487e-002 -7.319920e-002 -2.412422e-002 -1.136751e-002 -1.229775e-002 -6.954846e-003 -1.292510e-002 2.639230e-002
<VARIANCE> 25
 1.073808e+002 7.548077e+001 1.574028e+002 1.296121e+002 1.225730e+002 6.534766e+001 1.868857e+002 6.348929e+001 7.265456e+001 6.885196e+001 4.481421e+001 4.753012e+001 1.467004e+000 2.723291e+000 3.877421e+000 4.935920e+000 5.061560e+000 4.410052e+000 4.928718e+000 4.132815e+000 5.133764e+000 4.580016e+000 3.523723e+000 3.495505e+000 1.756703e+000
<GCONST> 1.161103e+002
<STATE> 4
<MEAN> 25
 4.394889e-001 1.326601e+000 -3.091883e+000 -5.618753e-001 -3.656325e-001 -8.589253e-001 1.361498e+000 -1.262828e-001 -6.231185e-001 -5.084315e-001 5.171143e-002 1.045978e+000 1.237449e-002 -1.141047e-002 5.772810e-002 -3.515983e-002 2.371363e-002 4.411224e-002 -9.229700e-002 -1.718388e-002 2.958088e-003 -3.115380e-002 -8.856463e-003 -1.585356e-002 3.204494e-002
<VARIANCE> 25
 1.064509e+002 7.349238e+001 1.501074e+002 1.300064e+002 1.225610e+002 6.532861e+001 1.827367e+002 6.097504e+001 7.304881e+001 7.047414e+001 4.452773e+001 5.028014e+001 1.512068e+000 2.641057e+000 4.069257e+000 5.007323e+000 5.078226e+000 4.455015e+000 5.047454e+000 4.026684e+000 5.169921e+000 4.588787e+000 3.550361e+000 3.542382e+000 1.861405e+000
<GCONST> 1.162069e+002
<TRANSP> 5
 0.000000e+000 1.000000e+000 0.000000e+000 0.000000e+000 0.000000e+000
 0.000000e+000 7.727213e-001 2.272787e-001 0.000000e+000 0.000000e+000
 0.000000e+000 0.000000e+000 7.727214e-001 2.272786e-001 0.000000e+000
 0.000000e+000 0.000000e+000 0.000000e+000 9.005351e-001 9.946487e-002
 0.000000e+000 0.000000e+000 0.000000e+000 0.000000e+000 0.000000e+000
<ENDHMM>
~h "eh"
<BEGINHMM>
<NUMSTATES> 5
<STATE> 2
<MEAN> 25
 7.621807e-001 -4.714247e-001 5.418938e-001 1.979132e-001 4.031864e-001 5.100439e-001 1.440956e-001 -1.055863e+000 -2.146506e-001 2.246154e-001 1.682567e-001 8.178041e-001 -1.671827e-002 4.548103e-002 -4.752365e-002 2.441647e-002 3.670140e-004 -2.282923e-002 3.241684e-002 6.382953e-003 7.208002e-003 -2.158143e-002 -1.044338e-002 1.469625e-002 -4.982549e-002
<VARIANCE> 25
 9.535339e+001 1.237095e+002 1.589750e+002 1.087681e+002 8.987801e+001 7.664777e+001 1.363747e+002 6.890125e+001 7.383791e+001 7.397715e+001 4.361674e+001 4.443518e+001 1.728889e+000 4.040732e+000 3.937716e+000 4.711264e+000 4.558705e+000 4.275006e+000 4.849832e+000 4.390134e+000 5.224620e+000 4.496829e+000 3.523331e+000 3.050241e+000 2.177092e+000
<GCONST> 1.164432e+002
<STATE> 3
<MEAN> 25
 6.886784e-001 -2.754538e-001 3.463457e-001 2.866373e-001 3.992416e-001 4.123057e-001 2.662720e-001 -1.014901e+000 -1.834401e-001 1.206447e-001 1.241079e-001 8.808728e-001 -1.805466e-002 4.642684e-002 -4.222893e-002 1.865197e-002 -1.873323e-003 -2.672121e-002 2.884611e-002 1.439920e-002 5.869383e-003 -2.127248e-002 -1.202379e-002 1.079674e-002 -4.920715e-002
<VARIANCE> 25
 9.532317e+001 1.243914e+002 1.623102e+002 1.098384e+002 8.964385e+001 7.691296e+001 1.386282e+002 6.954488e+001 7.373572e+001 7.361405e+001 4.386869e+001 4.483299e+001 1.710460e+000 4.033853e+000 3.980757e+000 4.684386e+000 4.603859e+000 4.341451e+000 4.922441e+000 4.422242e+000 5.228038e+000 4.524096e+000 3.563285e+000 3.099128e+000 2.138388e+000
<GCONST> 1.165700e+002
<STATE> 4
<MEAN> 25
 7.167242e-001 -4.702625e-001 6.172552e-001 2.123616e-001 5.419359e-001 2.781264e-001 1.952121e-001 -1.026802e+000 -2.886983e-001 1.745904e-001 9.265003e-002 9.627169e-001 -1.529762e-002 3.777696e-002 -3.202483e-002 1.208890e-002 -3.363145e-003 -2.623001e-002 1.643107e-002 2.332540e-002 9.085030e-003 -2.136891e-002 -1.624070e-002 1.940713e-003 -4.054746e-002
<VARIANCE> 25
 9.803964e+001 1.253787e+002 1.690629e+002 1.120462e+002 8.711916e+001 7.839605e+001 1.395786e+002 6.970100e+001 7.319837e+001 7.419113e+001 4.339936e+001 4.478561e+001 1.759933e+000 3.952730e+000 3.977526e+000 4.615530e+000 4.506005e+000 4.352169e+000 4.974621e+000 4.363004e+000 5.161006e+000 4.517587e+000 3.497710e+000 3.062086e+000 2.097792e+000
<GCONST> 1.165614e+002
<TRANSP> 5
 0.000000e+000 1.000000e+000 0.000000e+000 0.000000e+000 0.000000e+000
 0.000000e+000 7.760817e-001 2.239182e-001 0.000000e+000 0.000000e+000
 0.000000e+000 0.000000e+000 7.760819e-001 2.239181e-001 0.000000e+000
 0.000000e+000 0.000000e+000 0.000000e+000 9.067810e-001 9.321905e-002
 0.000000e+000 0.000000e+000 0.000000e+000 0.000000e+000 0.000000e+000
<ENDHMM>
~h "er"
<BEGINHMM>
<NUMSTATES> 5
<STATE> 2
<MEAN> 25
 2.525329e-001 -8.919864e-002 -8.275089e-001 -1.201494e+000 -3.437418e-001 -2.621536e-001 2.120382e-001 1.668376e-001 -4.148642e-001 -2.033786e-001 3.568639e-001 6.667764e-001 -7.386921e-003 -4.899186e-002 6.923546e-002 -4.566195e-002 -2.318049e-002 1.159512e-003 -2.049070e-002 2.243794e-002 -4.020145e-003 1.233883e-002 -3.678967e-003 -1.019224e-002 4.263547e-002
<VARIANCE> 25
 1.096708e+002 1.156882e+002 1.532744e+002 1.208564e+002 1.087635e+002 7.436231e+001 1.377583e+002 7.016026e+001 8.179222e+001 7.225153e+001 4.360386e+001 4.942696e+001 1.995964e+000 4.211444e+000 4.458292e+000 5.464397e+000 4.401446e+000 4.329582e+000 4.873405e+000 4.614582e+000 5.776773e+000 4.978718e+000 3.588145e+000 3.426831e+000 1.989898e+000
<GCONST> 1.176953e+002
<STATE> 3
<MEAN> 25
 2.380074e-001 -3.183752e-001 -4.978324e-001 -1.400913e+000 -4.339386e-001 -2.503060e-001 1.010878e-001 2.608954e-001 -4.328899e-001 -1.555183e-001 3.325653e-001 6.284149e-001 1.744779e-003 -4.604524e-002 7.171337e-002 -4.214932e-002 -1.167324e-002 1.457842e-003 -2.785301e-002 1.795671e-002 -5.138065e-003 6.173403e-003 -1.097850e-002 -1.016419e-003 5.005531e-002
<VARIANCE> 25
 1.097729e+002 1.142492e+002 1.514963e+002 1.183061e+002 1.087015e+002 7.312097e+001 1.363765e+002 6.924373e+001 8.119717e+001 7.226867e+001 4.318267e+001 4.868825e+001 1.989567e+000 4.175519e+000 4.417048e+000 5.438385e+000 4.375157e+000 4.285398e+000 4.873414e+000 4.516253e+000 5.728767e+000 4.894941e+000 3.566177e+000 3.419279e+000 1.993222e+000
<GCONST> 1.174826e+002
<STATE> 4
<MEAN> 25
 4.914779e-001 -7.212604e-001 7.522085e-002 -1.744478e+000 -3.438685e-001 -1.394218e-001 -3.551783e-001 1.919540e-001 -5.454922e-001 -1.134364e-001 2.289127e-001 6.396052e-001 7.324259e-003 -4.122643e-002 6.841742e-002 -3.608992e-002 7.298031e-003 4.689055e-003 -4.451661e-002 -5.807039e-004 -8.329256e-003 5.217711e-003 -1.263763e-002 2.016995e-003 5.228713e-002
<VARIANCE> 25
 1.082301e+002 1.120478e+002 1.461343e+002 1.153728e+002 1.078112e+002 7.254416e+001 1.331430e+002 6.820366e+001 7.978884e+001 7.315882e+001 4.253552e+001 4.739040e+001 1.957779e+000 4.116154e+000 4.349610e+000 5.309766e+000 4.325802e+000 4.202854e+000 4.849539e+000 4.325867e+000 5.532825e+000 4.750948e+000 3.497108e+000 3.348876e+000 1.989643e+000
<GCONST> 1.170299e+002
<TRANSP> 5
 0.000000e+000 1.000000e+000 0.000000e+000 0.000000e+000 0.000000e+000
 0.000000e+000 7.741199e-001 2.258802e-001 0.000000e+000 0.000000e+000
 0.000000e+000 0.000000e+000 7.741194e-001 2.258806e-001 0.000000e+000
 0.000000e+000 0.000000e+000 0.000000e+000 9.031056e-001 9.689444e-002
 0.000000e+000 0.000000e+000 0.000000e+000 0.000000e+000 0.000000e+000
<ENDHMM>
~h "ey"
<BEGINHMM>
<NUMSTATES> 5
<STATE> 2
<MEAN> 25
 7.329156e-001 4.803381e-001 4.074851e-001 2.912278e+000 6.321786e-002 -1.322162e+000 -3.447949e-001 -2.034810e-001 8.510954e-001 -3.376398e-002 -8.291304e-001 -6.314927e-001 -1.414343e-002 5.148699e-002 -3.904096e-002 5.357446e-003 6.506663e-003 6.522920e-003 4.268121e-002 -1.296687e-002 -1.612168e-003 3.848775e-003 -7.682271e-003 1.520054e-002 -4.488717e-002
<VARIANCE> 25
 8.186479e+001 1.452117e+002 1.647718e+002 1.193722e+002 9.779861e+001 7.597098e+001 1.670122e+002 6.354259e+001 6.793498e+001 6.396991e+001 4.538731e+001 4.330620e+001 1.667400e+000 4.124960e+000 3.723213e+000 4.541331e+000 3.567090e+000 4.099557e+000 5.041610e+000 4.307869e+000 5.468675e+000 4.409389e+000 3.147042e+000 3.186118e+000 2.078444e+000
<GCONST> 1.160971e+002
<STATE> 3
<MEAN> 25
 6.752405e-001 6.764540e-001 2.717099e-001 2.899977e+000 1.020132e-001 -1.278428e+000 -1.951216e-001 -2.617605e-001 8.325420e-001 -2.088594e-002 -8.729241e-001 -5.751956e-001 -1.218104e-002 4.106897e-002 -2.234305e-002 -1.174428e-002 9.844430e-003 7.497350e-003 2.502965e-002 -9.953883e-003 -7.764862e-003 2.181675e-003 -9.929160e-003 1.133543e-002 -3.040724e-002
<VARIANCE> 25
 8.271906e+001 1.454134e+002 1.664763e+002 1.201101e+002 9.925914e+001 7.579060e+001 1.703815e+002 6.412085e+001 6.739898e+001 6.391255e+001 4.539159e+001 4.331987e+001 1.683899e+000 4.120482e+000 3.762167e+000 4.604440e+000 3.623313e+000 4.153802e+000 5.121952e+000 4.377888e+000 5.500682e+000 4.431780e+000 3.189380e+000 3.208008e+000 2.068286e+000
<GCONST> 1.162783e+002
<STATE> 4
<MEAN> 25
 9.198044e-001 7.781612e-001 2.860718e-001 2.775530e+000 3.990246e-001 -1.278351e+000 -5.394579e-001 -3.094952e-001 8.332278e-001 -9.293477e-002 -9.686295e-001 -5.181129e-001 -1.086728e-002 1.576273e-002 -1.529266e-003 -3.337367e-002 1.575062e-002 1.097365e-002 -1.364033e-003 -4.402730e-003 -1.275444e-002 9.917683e-004 -1.164605e-002 3.544434e-003 -7.654177e-003
<VARIANCE> 25
 8.469586e+001 1.454262e+002 1.671587e+002 1.219177e+002 1.023854e+002 7.670090e+001 1.717361e+002 6.520563e+001 6.695428e+001 6.342917e+001 4.656127e+001 4.251544e+001 1.687078e+000 4.141125e+000 3.809159e+000 4.695630e+000 3.635291e+000 4.207676e+000 5.157917e+000 4.405056e+000 5.454204e+000 4.384739e+000 3.233019e+000 3.152175e+000 2.092970e+000
<GCONST> 1.164382e+002
<TRANSP> 5
 0.000000e+000 1.000000e+000 0.000000e+000 0.000000e+000 0.000000e+000
 0.000000e+000 7.771881e-001 2.228119e-001 0.000000e+000 0.000000e+000
 0.000000e+000 0.000000e+000 7.771880e-001 2.228120e-001 0.000000e+000
 0.000000e+000 0.000000e+000 0.000000e+000 9.089452e-001 9.105478e-002
 0.000000e+000 0.000000e+000 0.000000e+000 0.000000e+000 0.000000e+000
<ENDHMM>
~h "hh"
<BEGINHMM>
<NUMSTATES> 5
<STATE> 2
<MEAN> 25
 1.318121e+000 -2.248532e+000 1.863742e+000 -1.202597e+000 3.002356e-001 8.648550e-001 -7.547149e-001 9.493994e-001 -1.008747e-001 4.534975e-001 5.505248e-001 1.584659e-002 6.996793e-002 7.985516e-003 -1.323675e-002 -1.009620e-002 -4.466425e-002 1.628690e-002 -2.658773e-002 1.588311e-002 3.030124e-002 -6.702898e-002 -2.239267e-003 -1.156554e-002 3.950299e-002
<VARIANCE> 25
 9.279112e+001 1.243150e+002 1.128262e+002 9.531874e+001 7.732809e+001 5.848407e+001 9.097188e+001 7.577927e+001 1.022831e+002 6.355029e+001 4.083805e+001 3.743710e+001 1.611158e+000 3.275382e+000 3.224225e+000 3.439041e+000 4.221255e+000 3.443026e+000 4.417345e+000 4.279322e+000 4.858596e+000 3.423349e+000 3.230779e+000 2.823231e+000 1.915514e+000
<GCONST> 1.133073e+002
<STATE> 3
<MEAN> 25
 1.554026e+000 -2.147655e+000 1.738244e+000 -1.204136e+000 1.364402e-001 9.377068e-001 -7.870356e-001 9.768960e-001 5.510551e-002 2.055740e-001 5.205006e-001 -2.624879e-002 5.647231e-002 3.367994e-002 -3.419335e-002 4.459504e-003 -3.875945e-002 1.294166e-002 -7.137744e-003 2.452254e-003 3.489025e-002 -5.878265e-002 -9.946175e-003 -1.132177e-002 9.378867e-003
<VARIANCE> 25
 9.078403e+001 1.218822e+002 1.083175e+002 9.618236e+001 7.938642e+001 5.828404e+001 9.043649e+001 7.476990e+001 1.037387e+002 6.384414e+001 4.083125e+001 3.800064e+001 1.494725e+000 3.261913e+000 3.200181e+000 3.443150e+000 4.210711e+000 3.410517e+000 4.341623e+000 4.254293e+000 4.852819e+000 3.450870e+000 3.248723e+000 2.786930e+000 1.811567e+000
<GCONST> 1.130940e+002
<STATE> 4
<MEAN> 25
 2.064500e+000 -1.866977e+000 1.699225e+000 -1.247772e+000 -8.247920e-002 1.125765e+000 -8.003190e-001 1.005354e+000 1.866133e-001 -2.254629e-001 4.076062e-001 -1.292460e-001 5.282782e-002 5.796584e-002 -3.637487e-002 1.551702e-002 -3.492123e-002 1.000724e-002 -7.813607e-003 -1.462518e-002 2.435039e-002 -5.787089e-002 -1.933431e-002 -1.195275e-002 -7.996643e-003
<VARIANCE> 25
 8.870478e+001 1.177798e+002 1.024651e+002 9.958473e+001 8.249875e+001 5.779690e+001 9.220557e+001 7.435431e+001 1.055918e+002 6.514475e+001 4.142525e+001 3.938463e+001 1.453092e+000 3.221876e+000 3.158579e+000 3.526033e+000 4.229548e+000 3.375856e+000 4.377142e+000 4.203759e+000 4.854321e+000 3.543851e+000 3.294316e+000 2.790715e+000 1.793817e+000
<GCONST> 1.131406e+002
<TRANSP> 5
 0.000000e+000 1.000000e+000 0.000000e+000 0.000000e+000 0.000000e+000
 0.000000e+000 7.688354e-001 2.311646e-001 0.000000e+000 0.000000e+000
 0.000000e+000 0.000000e+000 7.688361e-001 2.311639e-001 0.000000e+000
 0.000000e+000 0.000000e+000 0.000000e+000 8.960726e-001 1.039274e-001
 0.000000e+000 0.000000e+000 0.000000e+000 0.000000e+000 0.000000e+000
<ENDHMM>
~h "ih"
<BEGINHMM>
<NUMSTATES> 5
<STATE> 2
<MEAN> 25
 -3.764980e-002 -7.896008e-001 2.011521e+000 2.325249e-001 1.255091e+000 4.285141e-001 -9.452302e-001 -6.116294e-002 -1.794490e-001 6.355284e-001 -3.016363e-001 -4.265647e-001 1.047621e-002 1.153759e-002 1.370161e-002 -2.519705e-002 -5.898374e-003 2.569767e-002 -9.385678e-003 7.103493e-004 6.386782e-003 -3.658236e-002 9.484895e-003 1.105114e-003 1.089824e-002
<VARIANCE> 25
 9.745464e+001 1.069530e+002 1.593773e+002 1.306868e+002 1.043752e+002 7.718413e+001 1.260724e+002 6.831966e+001 8.574236e+001 7.378579e+001 5.235543e+001 5.096725e+001 1.986109e+000 4.295072e+000 4.027647e+000 5.397830e+000 3.911532e+000 4.275046e+000 4.855116e+000 4.537716e+000 5.596068e+000 4.125711e+000 3.769993e+000 3.184511e+000 2.327026e+000
<GCONST> 1.174410e+002
<STATE> 3
<MEAN> 25
 -3.508310e-002 -7.611046e-001 2.061912e+000 1.292872e-001 1.231875e+000 5.388504e-001 -9.816581e-001 -8.877976e-002 -1.519586e-001 4.976480e-001 -2.396407e-001 -4.013578e-001 -4.356389e-004 1.576497e-004 1.260296e-002 -2.721307e-002 -6.610916e-003 2.664430e-002 -8.292798e-003 -9.855188e-003 2.485729e-003 -2.642114e-002 1.583810e-002 6.998632e-003 7.943050e-003
<VARIANCE> 25
 9.838956e+001 1.062658e+002 1.592021e+002 1.302494e+002 1.054118e+002 7.822853e+001 1.255354e+002 6.862539e+001 8.654208e+001 7.350426e+001 5.198065e+001 5.070409e+001 1.963097e+000 4.282191e+000 3.957819e+000 5.401647e+000 3.926554e+000 4.295842e+000 4.790380e+000 4.596219e+000 5.598761e+000 4.102909e+000 3.732034e+000 3.125645e+000 2.267565e+000
<GCONST> 1.173732e+002
<STATE> 4
<MEAN> 25
 -2.367671e-001 -1.147482e+000 2.683887e+000 -1.016872e-001 1.116516e+000 7.516295e-001 -1.121961e+000 -3.734857e-001 -1.263258e-001 4.840334e-001 -2.219276e-001 -4.384409e-001 -7.126166e-003 -1.642639e-002 1.537716e-002 -2.529636e-002 -9.532923e-003 1.718832e-002 -1.608366e-002 -1.893912e-002 -7.859777e-003 -1.791797e-002 1.134986e-002 2.994150e-003 1.059265e-002
<VARIANCE> 25
 1.039375e+002 1.072890e+002 1.643205e+002 1.329085e+002 1.066705e+002 8.152545e+001 1.263831e+002 7.113644e+001 8.748163e+001 7.315285e+001 5.150037e+001 5.008953e+001 2.014989e+000 4.215969e+000 3.899042e+000 5.507856e+000 3.873858e+000 4.330033e+000 4.723873e+000 4.643178e+000 5.468279e+000 4.022941e+000 3.614079e+000 2.995565e+000 2.231587e+000
<GCONST> 1.174416e+002
<TRANSP> 5
 0.000000e+000 1.000000e+000 0.000000e+000 0.000000e+000 0.000000e+000
 0.000000e+000 7.802371e-001 2.197628e-001 0.000000e+000 0.000000e+000
 0.000000e+000 0.000000e+000 7.802382e-001 2.197618e-001 0.000000e+000
 0.000000e+000 0.000000e+000 0.000000e+000 9.114054e-001 8.859461e-002
 0.000000e+000 0.000000e+000 0.000000e+000 0.000000e+000 0.000000e+000
<ENDHMM>
~h "iy"
<BEGINHMM>
<NUMSTATES> 5
<STATE> 2
<MEAN> 25
 2.003054e+000 -1.733143e+000 2.651357e+000 -1.249376e-001 2.158317e+000 -1.053382e+000 -3.275234e+000 1.418251e-001 -1.410966e+000 3.950752e-001 -1.822631e-001 -1.263131e+000 -4.137189e-003 -1.827093e-002 1.055751e-003 5.832939e-003 -1.134397e-002 -2.880562e-003 -2.582406e-002 -1.914511e-003 1.549216e-002 -9.794260e-003 2.023325e-003 -9.600500e-003 1.634367e-003
<VARIANCE> 25
 9.575437e+001 1.194020e+002 1.744685e+002 1.305027e+002 1.246724e+002 8.251550e+001 1.210129e+002 7.563085e+001 9.166941e+001 6.578795e+001 4.341503e+001 4.852367e+001 1.920270e+000 4.247398e+000 4.115316e+000 5.387357e+000 4.054623e+000 4.195311e+000 4.583847e+000 4.459541e+000 4.823637e+000 4.181184e+000 3.318066e+000 2.864986e+000 2.118860e+000
<GCONST> 1.170982e+002
<STATE> 3
<MEAN> 25
 1.957868e+000 -1.814164e+000 2.621277e+000 -9.387779e-002 2.094481e+000 -1.061622e+000 -3.378491e+000 1.236813e-001 -1.324652e+000 3.472650e-001 -1.661348e-001 -1.290916e+000 -1.548171e-002 -1.400918e-002 -1.037203e-002 6.727980e-003 -1.798854e-002 -1.791804e-004 -1.337891e-002 -4.126681e-003 1.929643e-002 -1.064361e-002 3.160477e-003 -5.029007e-003 -1.327126e-002
<VARIANCE> 25
 9.574232e+001 1.188926e+002 1.753690e+002 1.295518e+002 1.255403e+002 8.190641e+001 1.192381e+002 7.492361e+001 9.281151e+001 6.592099e+001 4.362308e+001 4.786555e+001 1.884555e+000 4.220776e+000 4.055031e+000 5.353127e+000 4.014171e+000 4.176167e+000 4.530227e+000 4.399064e+000 4.821966e+000 4.169032e+000 3.345497e+000 2.860010e+000 2.096565e+000
<GCONST> 1.169789e+002
<STATE> 4
<MEAN> 25
 1.785766e+000 -2.051798e+000 2.701572e+000 -1.297070e-001 2.329909e+000 -1.100165e+000 -3.798300e+000 1.927377e-001 -1.332276e+000 1.429028e-001 -2.088613e-002 -1.278799e+000 -3.142287e-002 -5.269666e-003 -2.723446e-002 5.968517e-003 -2.532390e-002 2.375048e-003 1.572174e-003 -5.047496e-003 2.612646e-002 -8.714839e-003 2.884172e-003 3.242981e-003 -3.563324e-002
<VARIANCE> 25
 9.863750e+001 1.185037e+002 1.763451e+002 1.286153e+002 1.326044e+002 8.250204e+001 1.169404e+002 7.320752e+001 9.677685e+001 6.660441e+001 4.310592e+001 4.633513e+001 1.883278e+000 4.053146e+000 3.951973e+000 5.137931e+000 3.939853e+000 4.054391e+000 4.374569e+000 4.205669e+000 4.702292e+000 4.103583e+000 3.293926e+000 2.815537e+000 1.982353e+000
<GCONST> 1.166665e+002
<TRANSP> 5
 0.000000e+000 1.000000e+000 0.000000e+000 0.000000e+000 0.000000e+000
 0.000000e+000 7.887979e-001 2.112021e-001 0.000000e+000 0.000000e+000
 0.000000e+000 0.000000e+000 7.887980e-001 2.112020e-001 0.000000e+000
 0.000000e+000 0.000000e+000 0.000000e+000 9.230738e-001 7.692621e-002
 0.000000e+000 0.000000e+000 0.000000e+000 0.000000e+000 0.000000e+000
<ENDHMM>
~h "jh"
<BEGINHMM>
<NUMSTATES> 5
<STATE> 2
<MEAN> 25
 7.623196e-002 -1.784475e+000 -9.063770e-001 -2.124403e-001 -4.545238e-001 -1.517171e-001 1.120524e+000 1.294525e+000 -2.180105e-001 7.278962e-001 1.293298e+000 3.604884e-001 -3.080694e-002 2.195424e-002 -9.737045e-002 -5.142594e-003 -1.449794e-002 -2.305032e-002 -9.004736e-002 2.740687e-002 1.033582e-001 -4.713185e-002 -1.574281e-002 -2.825783e-003 -7.333586e-002
<VARIANCE> 25
 6.854990e+001 1.209939e+002 2.293182e+002 1.088106e+002 9.174725e+001 5.294785e+001 1.177466e+002 4.903576e+001 8.981626e+001 5.607229e+001 5.003750e+001 3.635892e+001 2.216308e+000 4.870950e+000 6.759366e+000 4.838080e+000 4.759398e+000 5.142230e+000 6.294495e+000 3.801458e+000 5.799671e+000 3.730384e+000 3.517928e+000 3.189814e+000 2.568545e+000
<GCONST> 1.169497e+002
<STATE> 3
<MEAN> 25
 -5.990906e-002 -1.697624e+000 -1.256697e+000 -2.367631e-001 -4.989614e-001 -2.882400e-001 6.570206e-001 1.421365e+000 2.621281e-001 5.157664e-001 1.189407e+000 3.314181e-001 -2.045910e-002 2.323444e-002 -5.487859e-002 1.644094e-003 -8.181212e-004 -2.415538e-002 -1.061044e-001 2.764704e-002 1.045504e-001 -4.644925e-002 -2.729268e-002 -1.129789e-002 -5.230694e-002
<VARIANCE> 25
 7.122931e+001 1.202954e+002 2.324431e+002 1.042752e+002 9.379210e+001 5.268072e+001 1.181908e+002 4.914285e+001 8.890681e+001 5.482681e+001 4.894359e+001 3.664411e+001 2.241703e+000 4.953604e+000 6.814742e+000 4.776848e+000 4.919519e+000 5.206409e+000 6.320483e+000 3.874334e+000 5.912077e+000 3.727737e+000 3.454195e+000 3.214391e+000 2.506194e+000
<GCONST> 1.170048e+002
<STATE> 4
<MEAN> 25
 -1.290391e-001 -1.487356e+000 -1.296939e+000 -1.998757e-001 -3.074775e-001 -5.529681e-001 -4.296727e-001 1.531899e+000 1.003240e+000 2.161706e-001 8.933817e-001 2.289751e-001 5.194638e-003 1.443744e-002 3.810262e-002 4.012349e-004 2.934331e-002 -1.836800e-002 -1.254888e-001 2.540442e-002 8.734161e-002 -3.547150e-002 -4.899441e-002 -2.213405e-002 5.008049e-003
<VARIANCE> 25
 7.702706e+001 1.200562e+002 2.375347e+002 9.701266e+001 9.899396e+001 5.234109e+001 1.174406e+002 4.872874e+001 8.558968e+001 5.299055e+001 4.858499e+001 3.837002e+001 2.313884e+000 5.385540e+000 6.821558e+000 4.743131e+000 5.182272e+000 5.218366e+000 6.423001e+000 3.975745e+000 6.106862e+000 3.753530e+000 3.428044e+000 3.314519e+000 2.384253e+000
<GCONST> 1.172478e+002
<TRANSP> 5
 0.000000e+000 1.000000e+000 0.000000e+000 0.000000e+000 0.000000e+000
 0.000000e+000 7.785494e-001 2.214506e-001 0.000000e+000 0.000000e+000
 0.000000e+000 0.000000e+000 7.785493e-001 2.214507e-001 0.000000e+000
 0.000000e+000 0.000000e+000 0.000000e+000 9.071244e-001 9.287564e-002
 0.000000e+000 0.000000e+000 0.000000e+000 0.000000e+000 0.000000e+000
<ENDHMM>
~h "ng"
<BEGINHMM>
<NUMSTATES> 5
<STATE> 2
<MEAN> 25
 1.211055e+000 6.521373e-001 -2.470403e+000 -1.008177e+000 -5.994893e-001 1.068949e+000 2.249956e-001 8.242251e-001 -1.758879e-001 -2.200964e+000 7.318910e-002 -5.958950e-001 -1.174761e-001 2.973121e-002 -7.062839e-002 1.789794e-002 -1.057807e-001 1.611775e-002 2.779384e-002 -6.945182e-002 3.100625e-002 -4.540577e-002 3.634790e-002 1.316191e-002 -1.442430e-001
<VARIANCE> 25
 9.401389e+001 7.624769e+001 1.256461e+002 1.136354e+002 1.163885e+002 6.273577e+001 1.288698e+002 6.445863e+001 1.033638e+002 6.147601e+001 5.035017e+001 4.701006e+001 1.439193e+000 3.193043e+000 3.845991e+000 5.968824e+000 4.079549e+000 4.257838e+000 5.354130e+000 4.663152e+000 8.246110e+000 5.283027e+000 4.080348e+000 3.130557e+000 2.180621e+000
<GCONST> 1.166700e+002
<STATE> 3
<MEAN> 25
 6.101221e-001 8.053583e-001 -2.821377e+000 -9.097788e-001 -1.149431e+000 1.165735e+000 3.916255e-001 4.858149e-001 1.635118e-002 -2.419279e+000 2.604306e-001 -4.990290e-001 -1.140938e-001 2.740256e-002 -5.445820e-002 2.274125e-002 -1.107645e-001 2.424462e-002 3.378124e-002 -6.343243e-002 4.714836e-002 -4.754893e-002 3.643026e-002 2.888032e-002 -1.372961e-001
<VARIANCE> 25
 9.843517e+001 7.572707e+001 1.257691e+002 1.081911e+002 1.157506e+002 6.298797e+001 1.253242e+002 6.397397e+001 9.919362e+001 6.172674e+001 4.897270e+001 4.701974e+001 1.460268e+000 3.166612e+000 3.879936e+000 5.823743e+000 4.109311e+000 4.269689e+000 5.195156e+000 4.812017e+000 7.917508e+000 5.331416e+000 4.136187e+000 3.153555e+000 2.092853e+000
<GCONST> 1.165094e+002
<STATE> 4
<MEAN> 25
 -4.657937e-001 1.186794e+000 -3.571167e+000 -6.992171e-001 -2.118353e+000 1.493870e+000 9.717782e-001 1.627294e-002 5.062536e-001 -2.760709e+000 3.856599e-001 -2.144312e-001 -1.136805e-001 2.908162e-002 -4.774399e-002 2.316169e-002 -1.152429e-001 2.993896e-002 5.069844e-002 -4.906847e-002 7.041041e-002 -4.498626e-002 3.849107e-002 5.225418e-002 -1.354068e-001
<VARIANCE> 25
 1.030167e+002 7.371602e+001 1.251052e+002 9.981342e+001 1.128726e+002 6.289621e+001 1.183830e+002 6.296981e+001 9.254356e+001 6.220127e+001 4.738952e+001 4.586761e+001 1.477794e+000 3.064595e+000 4.040409e+000 5.703071e+000 4.159986e+000 4.305505e+000 5.060046e+000 4.975574e+000 7.521771e+000 5.418271e+000 4.254003e+000 3.160953e+000 2.008890e+000
<GCONST> 1.162041e+002
<TRANSP> 5
 0.000000e+000 1.000000e+000 0.000000e+000 0.000000e+000 0.000000e+000
 0.000000e+000 7.922196e-001 2.077805e-001 0.000000e+000 0.000000e+000
 0.000000e+000 0.000000e+000 7.922200e-001 2.077800e-001 0.000000e+000
 0.000000e+000 0.000000e+000 0.000000e+000 9.240246e-001 7.597531e-002
 0.000000e+000 0.000000e+000 0.000000e+000 0.000000e+000 0.000000e+000
<ENDHMM>
~h "ow"
<BEGINHMM>
<NUMSTATES> 5
<STATE> 2
<MEAN> 25
 -9.120240e-001 1.615328e+000 -1.953153e+000 -8.512582e-001 -1.465340e+000 3.625090e-001 1.279792e-001 8.674437e-001 6.503143e-001 -8.109604e-001 1.508420e-001 -2.472385e-001 1.153176e-002 -1.827474e-002 -8.230898e-003 7.857698e-003 2.347896e-002 -1.004486e-002 -2.225718e-003 1.627002e-003 -3.774923e-003 1.130760e-002 1.173048e-003 -4.478869e-005 1.789204e-002
<VARIANCE> 25
 1.048976e+002 1.075864e+002 2.058887e+002 1.016022e+002 1.195731e+002 8.174436e+001 1.033571e+002 7.815201e+001 8.065517e+001 5.712670e+001 3.754078e+001 4.435186e+001 1.573217e+000 3.188891e+000 4.542527e+000 4.348207e+000 3.960659e+000 3.971356e+000 4.438725e+000 4.386487e+000 4.581303e+000 3.906955e+000 3.252481e+000 3.083168e+000 1.622776e+000
<GCONST> 1.152587e+002
<STATE> 3
<MEAN> 25
 -8.560374e-001 1.520173e+000 -1.978462e+000 -8.276647e-001 -1.365848e+000 3.333316e-001 1.236526e-001 8.587788e-001 6.278312e-001 -7.515892e-001 1.485598e-001 -2.619806e-001 1.620056e-002 -1.600076e-002 -8.733546e-003 5.559428e-003 1.860187e-002 -8.277012e-003 -2.703073e-003 -2.177781e-003 -4.219565e-003 7.525268e-003 2.235290e-004 -9.771062e-004 1.989065e-002
<VARIANCE> 25
 1.049008e+002 1.064700e+002 2.085916e+002 1.036286e+002 1.197691e+002 8.158830e+001 1.044371e+002 7.759637e+001 8.086572e+001 5.715905e+001 3.781062e+001 4.419967e+001 1.578896e+000 3.194053e+000 4.588900e+000 4.377510e+000 3.937410e+000 4.022066e+000 4.446755e+000 4.332168e+000 4.587308e+000 3.935666e+000 3.285803e+000 3.091090e+000 1.625378e+000
<GCONST> 1.153322e+002
<STATE> 4
<MEAN> 25
 -9.757888e-001 1.572083e+000 -2.075972e+000 -8.959444e-001 -1.273987e+000 4.379231e-001 2.419616e-001 8.302843e-001 5.674362e-001 -7.468632e-001 8.774245e-002 -3.329948e-001 1.563339e-002 -2.152183e-002 -1.039875e-003 -6.016983e-003 7.719755e-003 -6.108389e-003 -8.585141e-003 -8.043149e-003 -2.179784e-003 3.432419e-003 -4.255794e-003 -1.707933e-003 2.555480e-002
<VARIANCE> 25
 1.074138e+002 1.040916e+002 2.132498e+002 1.075198e+002 1.242138e+002 8.266277e+001 1.065250e+002 7.723021e+001 8.348668e+001 5.781616e+001 3.790292e+001 4.401751e+001 1.575501e+000 3.166283e+000 4.801794e+000 4.398116e+000 3.855000e+000 4.080301e+000 4.414958e+000 4.223311e+000 4.476693e+000 3.903420e+000 3.262850e+000 3.108249e+000 1.607974e+000
<GCONST> 1.154534e+002
<TRANSP> 5
 0.000000e+000 1.000000e+000 0.000000e+000 0.000000e+000 0.000000e+000
 0.000000e+000 7.936258e-001 2.063743e-001 0.000000e+000 0.000000e+000
 0.000000e+000 0.000000e+000 7.936258e-001 2.063742e-001 0.000000e+000
 0.000000e+000 0.000000e+000 0.000000e+000 9.273872e-001 7.261287e-002
 0.000000e+000 0.000000e+000 0.000000e+000 0.000000e+000 0.000000e+000
<ENDHMM>
~h "oy"
<BEGINHMM>
<NUMSTATES> 5
<STATE> 2
<MEAN> 25
 1.555388e+000 -3.446075e+000 4.855504e+000 -1.844574e+000 7.224776e-001 2.814658e-002 -1.363667e+000 -4.339522e-002 -1.884182e+000 -4.182578e-002 1.045263e+000 2.695755e-001 -7.037742e-002 -2.116946e-003 -3.837487e-003 -2.104850e-002 -3.783521e-002 1.879266e-002 1.273515e-002 1.178160e-002 -1.541760e-002 -2.704354e-002 3.101647e-002 -2.641773e-003 -5.692204e-002
<VARIANCE> 25
 1.062900e+002 1.817742e+002 2.564246e+002 1.493231e+002 7.819997e+001 6.494051e+001 8.650153e+001 7.007108e+001 9.504843e+001 6.234713e+001 6.038427e+001 3.191436e+001 2.173970e+000 2.860410e+000 3.733940e+000 4.923728e+000 4.005768e+000 5.517374e+000 5.127181e+000 4.868399e+000 4.221493e+000 4.102146e+000 4.114803e+000 2.860695e+000 1.718353e+000
<GCONST> 1.167728e+002
<STATE> 3
<MEAN> 25
 1.175125e+000 -3.440619e+000 4.801612e+000 -1.943805e+000 5.218707e-001 1.268254e-001 -1.291526e+000 2.043298e-002 -1.947353e+000 -1.797043e-001 1.208351e+000 2.607366e-001 -6.995571e-002 -2.131538e-003 -1.305302e-002 -2.530524e-002 -3.894146e-002 1.626963e-002 7.986380e-003 1.440147e-002 -5.160971e-003 -2.110137e-002 2.947797e-002 4.335656e-003 -5.959782e-002
<VARIANCE> 25
 1.055246e+002 1.820063e+002 2.560486e+002 1.433962e+002 7.550066e+001 6.455836e+001 8.664863e+001 6.896915e+001 9.559937e+001 6.288845e+001 5.902573e+001 3.300508e+001 2.140131e+000 2.876163e+000 3.656130e+000 5.016276e+000 3.975603e+000 5.454388e+000 5.089301e+000 4.903423e+000 4.195096e+000 4.153523e+000 4.185275e+000 2.969527e+000 1.697235e+000
<GCONST> 1.167112e+002
<STATE> 4
<MEAN> 25
 5.375333e-001 -3.480862e+000 4.603726e+000 -2.030129e+000 2.922933e-001 2.551900e-001 -1.244321e+000 9.554461e-002 -2.036015e+000 -3.182032e-001 1.514985e+000 2.698504e-001 -5.768438e-002 6.697221e-003 -3.859209e-002 -2.620840e-002 -4.007421e-002 1.122125e-002 1.359456e-003 1.844029e-002 1.702051e-002 -1.532058e-002 2.178216e-002 1.260042e-002 -6.457759e-002
<VARIANCE> 25
 1.048934e+002 1.839208e+002 2.544071e+002 1.356404e+002 7.244183e+001 6.373407e+001 8.676266e+001 6.776203e+001 9.697136e+001 6.411481e+001 5.784056e+001 3.472777e+001 2.083215e+000 2.910183e+000 3.504129e+000 5.273280e+000 3.947459e+000 5.336544e+000 4.999471e+000 4.975930e+000 4.179487e+000 4.215953e+000 4.256145e+000 3.112069e+000 1.671940e+000
<GCONST> 1.166673e+002
<TRANSP> 5
 0.000000e+000 1.000000e+000 0.000000e+000 0.000000e+000 0.000000e+000
 0.000000e+000 8.098997e-001 1.901002e-001 0.000000e+000 0.000000e+000
 0.000000e+000 0.000000e+000 8.098996e-001 1.901004e-001 0.000000e+000
 0.000000e+000 0.000000e+000 0.000000e+000 9.429051e-001 5.709490e-002
 0.000000e+000 0.000000e+000 0.000000e+000 0.000000e+000 0.000000e+000
<ENDHMM>
~h "sh"
<BEGINHMM>
<NUMSTATES> 5
<STATE> 2
<MEAN> 25
 -1.053080e+000 8.912629e-001 -1.896345e+000 2.464938e+000 2.570959e-001 -6.185275e-001 3.592342e-001 -1.499313e-001 1.442816e-001 -3.597169e-003 1.305562e-001 -1.697407e+000 -8.080838e-003 -5.221620e-002 1.345443e-002 -8.339463e-002 -1.000754e-003 1.607159e-002 -5.457019e-002 4.740566e-003 1.265418e-002 1.707142e-002 1.484614e-002 2.259863e-002 3.620786e-002
<VARIANCE> 25
 8.170997e+001 1.752031e+002 2.010200e+002 1.206264e+002 7.638243e+001 7.008256e+001 1.222856e+002 7.813943e+001 8.231459e+001 4.989534e+001 3.665990e+001 4.759408e+001 2.130785e+000 4.458308e+000 4.689019e+000 5.580482e+000 3.693923e+000 4.399377e+000 5.162933e+000 5.059310e+000 5.860685e+000 3.905874e+000 3.474898e+000 3.302647e+000 2.060656e+000
<GCONST> 1.170080e+002
<STATE> 3
<MEAN> 25
 -1.076972e+000 6.457266e-001 -1.811991e+000 2.100283e+000 2.373811e-001 -5.343996e-001 1.069656e-001 -1.219020e-001 2.188024e-001 5.550462e-002 1.954728e-001 -1.601300e+000 -2.820061e-003 -7.547636e-002 4.222966e-002 -9.175038e-002 -4.179137e-003 2.330759e-002 -7.460236e-002 4.556766e-003 1.950941e-002 1.724322e-002 1.181437e-002 1.962533e-002 5.983391e-002
<VARIANCE> 25
 8.314929e+001 1.750622e+002 2.001194e+002 1.185693e+002 7.590252e+001 7.045010e+001 1.187674e+002 7.721999e+001 8.079286e+001 5.014958e+001 3.680999e+001 4.819922e+001 2.165616e+000 4.573832e+000 4.726349e+000 5.568273e+000 3.723748e+000 4.364885e+000 5.184177e+000 5.031181e+000 5.927324e+000 3.866400e+000 3.522604e+000 3.344746e+000 2.055852e+000
<GCONST> 1.170354e+002
<STATE> 4
<MEAN> 25
 -9.984095e-001 7.155977e-002 -1.451164e+000 1.445641e+000 1.417406e-001 -3.961497e-001 -4.684441e-001 -1.166689e-001 3.379549e-001 7.237846e-002 3.310035e-001 -1.449478e+000 3.563338e-003 -7.692976e-002 5.583122e-002 -9.165473e-002 -1.553100e-002 2.960856e-002 -7.990604e-002 -7.064988e-004 2.665679e-002 6.094207e-003 7.119944e-003 1.451761e-002 6.731979e-002
<VARIANCE> 25
 8.574949e+001 1.755700e+002 1.967725e+002 1.135746e+002 7.480933e+001 7.061850e+001 1.103302e+002 7.672919e+001 7.978954e+001 5.096989e+001 3.673074e+001 4.912758e+001 2.196165e+000 4.689708e+000 4.675821e+000 5.372861e+000 3.693307e+000 4.255659e+000 5.072392e+000 4.981740e+000 5.927129e+000 3.805102e+000 3.540653e+000 3.347990e+000 2.025016e+000
<GCONST> 1.168399e+002
<TRANSP> 5
 0.000000e+000 1.000000e+000 0.000000e+000 0.000000e+000 0.000000e+000
 0.000000e+000 7.665902e-001 2.334098e-001 0.000000e+000 0.000000e+000
 0.000000e+000 0.000000e+000 7.665900e-001 2.334099e-001 0.000000e+000
 0.000000e+000 0.000000e+000 0.000000e+000 8.940048e-001 1.059952e-001
 0.000000e+000 0.000000e+000 0.000000e+000 0.000000e+000 0.000000e+000
<ENDHMM>
~h "th"
<BEGINHMM>
<NUMSTATES> 5
<STATE> 2
<MEAN> 25
 2.730118e+000 -1.157963e+000 4.112544e-001 1.886493e-001 1.842458e+000 -9.003269e-001 -2.242485e+000 1.798221e-001 -1.625923e+000 -4.669710e-001 3.759880e-001 -3.738857e-001 -3.120707e-002 -7.165080e-003 1.835385e-002 2.181193e-002 1.738574e-002 -2.049634e-002 -2.393172e-002 5.170654e-003 -5.176785e-002 -1.792277e-002 1.621366e-002 -2.411355e-002 -1.883941e-002
<VARIANCE> 25
 8.165938e+001 1.170593e+002 1.138737e+002 1.027971e+002 8.972124e+001 9.362126e+001 1.130695e+002 7.413200e+001 1.048634e+002 7.092040e+001 4.645932e+001 5.679008e+001 1.863846e+000 4.695785e+000 3.638170e+000 4.163262e+000 3.856555e+000 3.927831e+000 4.025903e+000 4.257131e+000 5.073330e+000 4.147191e+000 3.218361e+000 2.869309e+000 2.335811e+000
<GCONST> 1.159060e+002
<STATE> 3
<MEAN> 25
 2.580678e+000 -1.199055e+000 4.903262e-001 2.841571e-001 1.932618e+000 -9.996895e-001 -2.370197e+000 2.095606e-001 -1.874789e+000 -5.557622e-001 4.697365e-001 -4.779940e-001 -3.510329e-002 -6.840486e-003 1.518357e-002 9.349736e-003 6.261664e-003 -2.562590e-002 -2.524257e-002 8.632557e-003 -5.154273e-002 -2.103076e-002 2.057884e-002 -1.906733e-002 -2.155773e-002
<VARIANCE> 25
 8.180375e+001 1.171284e+002 1.108385e+002 1.004786e+002 9.210677e+001 9.341036e+001 1.143637e+002 7.455008e+001 1.025114e+002 7.130766e+001 4.648875e+001 5.664637e+001 1.866221e+000 4.716508e+000 3.595819e+000 4.162616e+000 3.947970e+000 3.925078e+000 4.032755e+000 4.285743e+000 5.088427e+000 4.171351e+000 3.277686e+000 2.912840e+000 2.330949e+000
<GCONST> 1.159453e+002
<STATE> 4
<MEAN> 25
 2.499381e+000 -1.557694e+000 9.913117e-001 4.739770e-001 2.542328e+000 -1.154484e+000 -3.242433e+000 1.071069e-001 -2.464231e+000 -6.733324e-001 6.081831e-001 -7.993263e-001 -3.849219e-002 -1.061262e-002 -1.142315e-004 -3.366511e-003 -5.993783e-003 -2.852538e-002 -2.237288e-002 5.123937e-003 -3.136139e-002 -1.568059e-002 2.052603e-002 -1.209192e-003 -2.469786e-002
<VARIANCE> 25
 8.310830e+001 1.194038e+002 1.006003e+002 9.899019e+001 1.022134e+002 9.399625e+001 1.154837e+002 7.613908e+001 1.002964e+002 7.197671e+001 4.458324e+001 5.483027e+001 1.894932e+000 4.756405e+000 3.431387e+000 4.093894e+000 4.009051e+000 3.846390e+000 3.970743e+000 4.214311e+000 4.941475e+000 4.139974e+000 3.362428e+000 2.913560e+000 2.286864e+000
<GCONST> 1.158157e+002
<TRANSP> 5
 0.000000e+000 1.000000e+000 0.000000e+000 0.000000e+000 0.000000e+000
 0.000000e+000 7.996830e-001 2.003170e-001 0.000000e+000 0.000000e+000
 0.000000e+000 0.000000e+000 7.996829e-001 2.003171e-001 0.000000e+000
 0.000000e+000 0.000000e+000 0.000000e+000 9.341549e-001 6.584507e-002
 0.000000e+000 0.000000e+000 0.000000e+000 0.000000e+000 0.000000e+000
<ENDHMM>
~h "uh"
<BEGINHMM>
<NUMSTATES> 5
<STATE> 2
<MEAN> 25
 -5.550854e-001 2.800037e+000 -1.558025e+000 2.858027e+000 -9.723654e-001 5.585693e-001 2.749279e+000 -1.848637e+000 -4.475971e-001 9.033496e-001 -2.976491e-001 2.729659e-001 -7.330146e-002 -1.467767e-002 1.346912e-001 -6.006105e-003 3.046756e-002 3.740767e-002 -1.057305e-002 2.053793e-002 -2.537870e-002 -3.904653e-003 9.540107e-003 -3.446685e-004 -4.221331e-003
<VARIANCE> 25
 6.184483e+001 7.966364e+001 1.350255e+002 9.980376e+001 7.634937e+001 5.067726e+001 1.322306e+002 6.790170e+001 7.892985e+001 6.846987e+001 3.942605e+001 4.479675e+001 1.071820e+000 2.751709e+000 3.053119e+000 3.826465e+000 4.108653e+000 3.764623e+000 5.360016e+000 5.102709e+000 5.110430e+000 4.596299e+000 3.584722e+000 3.529231e+000 1.414722e+000
<GCONST> 1.130214e+002
<STATE> 3
<MEAN> 25
 -8.565819e-001 2.627538e+000 -9.455383e-001 2.742492e+000 -8.022479e-001 7.211495e-001 2.548751e+000 -1.764324e+000 -6.155268e-001 8.602009e-001 -2.109522e-001 2.238575e-001 -7.097200e-002 -4.482641e-002 1.351714e-001 -3.052865e-002 3.599586e-002 3.524603e-002 -4.738725e-002 1.932440e-002 -3.610474e-002 -1.256557e-002 2.007879e-002 -1.248739e-002 1.587827e-002
<VARIANCE> 25
 6.545162e+001 8.278941e+001 1.395485e+002 1.013326e+002 7.545906e+001 5.295952e+001 1.320669e+002 6.955673e+001 8.067358e+001 6.944591e+001 3.928879e+001 4.544812e+001 1.139325e+000 2.918958e+000 3.288252e+000 3.992797e+000 4.141696e+000 3.845255e+000 5.386064e+000 5.136956e+000 5.188143e+000 4.638022e+000 3.579653e+000 3.507729e+000 1.549872e+000
<GCONST> 1.136522e+002
<STATE> 4
<MEAN> 25
