~o
<STREAMINFO> 1 25
<VECSIZE> 25<NULLD><MFCC_D_N_Z_0><DIAGC>
~s "silst"
<MEAN> 25
 -1.159865e+001 6.964715e+000 -1.132821e+001 3.095360e+000 -2.941139e+000 -4.144456e-001 7.439215e+000 -9.981605e-001 4.261028e+000 2.492351e+000 -7.585513e-002 7.583419e-001 2.704649e+000 -2.353862e+000 3.106410e+000 -2.051902e+000 -7.909822e-001 5.063043e-001 -3.050016e+000 7.684104e-001 -1.624005e+000 -9.437855e-001 -3.333066e-001 -2.001275e+000 4.187779e+000
<VARIANCE> 25
 9.696220e+001 6.064176e+001 8.339957e+001 5.415948e+001 5.718851e+001 4.062639e+001 8.737437e+001 3.994609e+001 4.493299e+001 3.833076e+001 2.626940e+001 4.362498e+001 9.450520e+000 4.343615e+000 6.009319e+000 4.404315e+000 5.929055e+000 5.064422e+000 5.673314e+000 4.469626e+000 4.270970e+000 4.929352e+000 3.832455e+000 4.153944e+000 6.627275e+000
<GCONST> 1.147774e+002
~h "b"
<BEGINHMM>
<NUMSTATES> 5
<STATE> 2
<MEAN> 25
 2.278181e+000 7.561202e+000 2.799989e+000 9.358738e+000 -2.182819e-002 5.465007e+000 2.230539e+000 -5.939860e-001 2.953763e+000 -3.239539e+000 -1.822272e-002 -2.302639e+000 1.216927e+000 1.138792e+000 6.843761e-001 6.375810e-001 2.746921e-001 6.546416e-001 -5.056797e-001 -2.528864e-001 3.851664e-001 9.125997e-002 3.291244e-001 -4.311504e-001 4.507630e-001
<VARIANCE> 25
 8.207354e+001 7.917845e+001 1.105889e+002 7.230975e+001 7.041673e+001 5.336988e+001 8.049422e+001 7.821902e+001 8.977820e+001 6.472836e+001 5.039693e+001 4.484521e+001 6.669694e+000 5.948955e+000 6.087296e+000 6.777555e+000 4.604632e+000 5.247541e+000 8.652778e+000 4.805018e+000 6.653228e+000 4.253911e+000 3.980913e+000 4.860148e+000 5.739397e+000
<GCONST> 1.194489e+002
<STATE> 3
<MEAN> 25
 -2.963947e+000 2.376424e+000 -6.049063e-002 4.007874e+000 -2.375425e+000 3.200982e+000 3.696139e+000 -1.353086e-002 9.915233e-001 -1.978846e-001 1.287453e-001 -1.570286e+000 -2.618150e-001 2.678421e-001 -4.567272e-001 -1.753077e-002 -1.242760e-001 -4.278951e-001 4.223114e-001 1.053935e-001 3.278836e-002 1.946669e-001 -5.729395e-002 1.977340e-001 -4.195923e-001
<VARIANCE> 25
 6.623243e+001 8.690653e+001 6.116733e+001 7.421484e+001 5.078891e+001 4.127485e+001 5.099379e+001 4.396129e+001 6.093288e+001 6.169490e+001 5.125183e+001 3.672108e+001 6.250637e-001 2.038300e+000 2.259914e+000 2.578060e+000 2.195850e+000 2.503854e+000 2.660245e+000 3.506475e+000 3.998468e+000 3.260337e+000 3.953826e+000 2.435848e+000 7.461673e-001
<GCONST> 1.046424e+002
<STATE> 4
<MEAN> 25
 -2.139413e+000 6.554513e+000 -1.013851e+001 7.973772e+000 -6.156229e-001 -2.350458e+000 9.526613e+000 -8.475797e-001 3.668686e-001 4.113514e+000 2.800391e+000 1.255024e+000 1.887044e-001 -1.561796e-001 2.877069e-001 -3.584674e-001 1.495280e-001 -1.648702e-002 -1.965524e-001 2.653074e-001 -5.582663e-002 9.765285e-002 2.721330e-002 1.373469e-001 3.849545e-001
<VARIANCE> 25
 6.130159e+001 1.096664e+002 1.293687e+002 9.144906e+001 6.410180e+001 7.194210e+001 8.167928e+001 7.145506e+001 6.159269e+001 6.541500e+001 3.629352e+001 6.199517e+001 2.478397e+000 5.193897e+000 4.330080e+000 5.516527e+000 4.016002e+000 4.290762e+000 6.537721e+000 5.624529e+000 6.212735e+000 4.687767e+000 3.468750e+000 5.417449e+000 1.784090e+000
<GCONST> 1.163306e+002
<TRANSP> 5
 0.000000e+000 1.000000e+000 0.000000e+000 0.000000e+000 0.000000e+000
 0.000000e+000 7.167575e-001 2.832425e-001 0.000000e+000 0.000000e+000
 0.000000e+000 0.000000e+000 8.583235e-001 1.416765e-001 0.000000e+000
 0.000000e+000 0.000000e+000 0.000000e+000 8.923882e-001 1.076117e-001
 0.000000e+000 0.000000e+000 0.000000e+000 0.000000e+000 0.000000e+000
<ENDHMM>
~h "d"
<BEGINHMM>
<NUMSTATES> 5
<STATE> 2
<MEAN> 25
 2.085090e+000 -2.433077e+000 3.510564e+000 1.104764e+000 -4.577299e+000 1.034200e+000 -3.692673e+000 -3.270137e+000 -4.223978e+000 -1.674176e+000 3.102863e+000 -8.400114e-001 -2.252535e-001 1.189902e+000 -9.304878e-001 1.133346e+000 -8.055770e-001 4.960938e-001 2.055993e-001 -8.029193e-001 1.124279e+000 -7.774720e-001 4.406433e-001 3.657553e-001 -1.357935e+000
<VARIANCE> 25
 6.483052e+001 5.607502e+001 9.045871e+001 5.784293e+001 1.140679e+002 3.905856e+001 6.406269e+001 4.387438e+001 6.421096e+001 4.573760e+001 2.806826e+001 2.670022e+001 4.311202e-001 2.489293e+000 2.487144e+000 2.904564e+000 3.890458e+000 3.627372e+000 3.226866e+000 3.352590e+000 5.825899e+000 4.535685e+000 1.933420e+000 2.698938e+000 8.297375e-001
<GCONST> 1.054716e+002
<STATE> 3
<MEAN> 25
 -1.552891e+000 5.663142e-001 -3.008483e+000 4.578241e+000 -4.253684e+000 3.567788e+000 -1.153100e+000 -4.421244e+000 1.968499e+000 -2.590277e+000 2.569934e+000 -9.798276e-001 -4.949585e-001 3.963931e-001 -5.881434e-001 2.150072e-001 3.777647e-001 2.008915e-001 1.127886e+000 2.946832e-001 4.032388e-001 3.952868e-001 -5.850652e-001 -8.667381e-002 -6.864841e-001
<VARIANCE> 25
 5.246129e+001 4.003716e+001 7.599955e+001 4.296005e+001 7.988958e+001 3.599908e+001 6.197670e+001 5.922432e+001 5.785047e+001 5.299229e+001 3.427563e+001 3.185729e+001 4.399562e-001 1.954038e+000 1.817150e+000 2.634642e+000 3.645643e+000 2.836699e+000 2.543522e+000 3.567182e+000 3.959793e+000 3.165048e+000 3.375091e+000 2.661717e+000 5.411173e-001
<GCONST> 1.029497e+002
<STATE> 4
<MEAN> 25
 -5.272453e+000 6.447610e+000 -5.661141e+000 5.505409e+000 -2.537782e+000 -1.032303e-001 7.000742e+000 4.075631e-001 1.478129e+000 7.564005e-001 -5.476670e-001 -2.785475e+000 2.643937e-002 -2.595009e-001 4.720140e-001 -1.396905e-001 5.325237e-001 -5.630577e-002 -1.492952e-001 5.890436e-001 4.290192e-002 1.643383e-001 -1.107708e-001 9.201626e-002 3.537473e-001
<VARIANCE> 25
 4.530434e+001 6.253875e+001 8.424063e+001 6.035559e+001 6.773190e+001 7.188956e+001 9.712332e+001 6.670808e+001 6.166759e+001 6.687545e+001 3.730401e+001 5.257632e+001 1.740598e+000 5.888002e+000 3.439681e+000 4.353393e+000 5.818557e+000 5.629324e+000 6.609931e+000 6.487185e+000 6.840960e+000 5.535043e+000 4.701457e+000 4.473610e+000 1.564474e+000
<GCONST> 1.150116e+002
<TRANSP> 5
 0.000000e+000 1.000000e+000 0.000000e+000 0.000000e+000 0.000000e+000
 0.000000e+000 6.211568e-001 3.788431e-001 0.000000e+000 0.000000e+000
 0.000000e+000 0.000000e+000 7.407595e-001 2.592405e-001 0.000000e+000
 0.000000e+000 0.000000e+000 0.000000e+000 8.211675e-001 1.788325e-001
 0.000000e+000 0.000000e+000 0.000000e+000 0.000000e+000 0.000000e+000
<ENDHMM>
~h "f"
<BEGINHMM>
<NUMSTATES> 5
<STATE> 2
<MEAN> 25
 -6.580507e+000 3.554862e+000 2.603096e+000 -1.176583e+000 9.976180e+000 2.175533e+000 -1.134302e+000 3.184157e+000 -5.489224e+000 4.321998e+000 -3.365228e+000 -1.826468e+000 -1.528293e+000 -1.049861e+000 8.821180e-001 -1.928487e+000 1.282512e+000 -5.628753e-001 -3.849835e-001 9.013149e-001 -1.130216e+000 1.478500e+000 -4.254339e-001 1.393003e-001 1.086948e-001
<VARIANCE> 25
 5.248310e+001 6.462669e+001 8.621617e+001 8.274261e+001 9.286084e+001 5.949445e+001 7.305563e+001 7.307896e+001 7.729467e+001 9.910143e+001 5.039705e+001 3.395148e+001 1.143611e+000 4.664693e+000 4.550324e+000 5.294140e+000 5.315687e+000 6.447360e+000 5.407977e+000 5.360406e+000 4.764335e+000 6.815192e+000 4.637436e+000 3.292072e+000 1.214790e+000
<GCONST> 1.146948e+002
<STATE> 3
<MEAN> 25
 -1.495144e+001 -6.573930e+000 4.669615e+000 -9.784307e+000 1.383986e+001 1.709787e+000 -7.390044e-001 9.232688e+000 -6.948571e+000 9.802148e+000 -4.736435e+000 -8.386970e-001 -4.131969e-004 -9.139324e-001 -4.597712e-001 -1.476756e-001 -3.890043e-001 3.794527e-001 1.537071e-001 1.337685e-001 4.699586e-001 -6.718348e-002 1.614527e-001 7.913285e-002 2.437531e-001
<VARIANCE> 25
 2.810521e+001 6.034699e+001 3.172109e+001 4.341827e+001 4.651720e+001 4.308141e+001 2.977046e+001 2.354056e+001 3.174666e+001 3.300064e+001 3.828007e+001 3.371733e+001 9.013225e-001 1.956941e+000 1.981174e+000 1.547769e+000 3.012872e+000 1.968831e+000 2.049051e+000 2.464516e+000 2.105704e+000 2.643675e+000 3.255717e+000 2.145181e+000 5.169653e-001
<GCONST> 9.697164e+001
<STATE> 4
<MEAN> 25
 4.659073e+000 -8.825800e+000 -1.737123e+000 -1.001969e+001 -5.705270e+000 1.261616e+000 -1.401734e+000 8.490583e+000 7.105097e+000 -1.989390e+000 3.024428e+000 4.133873e-001 2.009903e+000 9.481899e-001 -1.371434e-001 2.791731e-001 -1.680491e+000 -5.259899e-001 -5.649343e-001 -2.880407e-001 1.322691e+000 -1.185338e+000 7.363622e-001 -2.748879e-001 9.349572e-001
<VARIANCE> 25
 1.212843e+002 7.826630e+001 5.317776e+001 3.673938e+001 9.801939e+001 5.197095e+001 4.693209e+001 3.119913e+001 1.225010e+002 1.037640e+002 3.316097e+001 2.870299e+001 7.657342e+000 8.440732e+000 2.998663e+000 2.969745e+000 6.949434e+000 3.489298e+000 3.989892e+000 2.580726e+000 3.668483e+000 5.432542e+000 2.750009e+000 2.341563e+000 2.698401e+000
<GCONST> 1.125391e+002
<TRANSP> 5
 0.000000e+000 1.000000e+000 0.000000e+000 0.000000e+000 0.000000e+000
 0.000000e+000 8.311275e-001 1.688725e-001 0.000000e+000 0.000000e+000
 0.000000e+000 0.000000e+000 8.920449e-001 1.079551e-001 0.000000e+000
 0.000000e+000 0.000000e+000 0.000000e+000 8.536664e-001 1.463336e-001
 0.000000e+000 0.000000e+000 0.000000e+000 0.000000e+000 0.000000e+000
<ENDHMM>
~h "g"
<BEGINHMM>
<NUMSTATES> 5
<STATE> 2
<MEAN> 25
 -3.819419e+000 1.193133e+001 -9.857021e+000 5.575349e+000 -4.285192e+000 1.383316e-001 9.936099e+000 -1.829483e+000 2.020331e+000 -2.970942e+000 -2.687658e+000 1.421417e+000 3.844226e-001 3.957747e-001 7.761617e-001 2.292879e-001 5.284501e-001 8.202434e-002 -4.602839e-001 1.943995e-001 2.124524e-001 4.765382e-001 1.166409e-001 -4.445158e-001 3.354150e-001
<VARIANCE> 25
 3.408197e+001 6.218754e+001 1.048876e+002 6.184413e+001 6.587959e+001 5.550585e+001 8.701913e+001 9.328980e+001 6.720624e+001 8.922738e+001 4.867793e+001 7.204876e+001 3.251170e+000 7.871577e+000 8.265115e+000 6.596917e+000 8.560354e+000 8.498344e+000 9.278132e+000 9.722741e+000 8.612256e+000 9.426314e+000 4.277246e+000 5.543692e+000 3.122303e+000
<GCONST> 1.211823e+002
<STATE> 3
<MEAN> 25
 6.695996e+000 8.733040e+000 4.366006e+000 5.631717e+000 6.431188e+000 9.156779e-001 -9.766279e-001 -1.376090e-001 -2.492609e+000 8.238091e+000 3.539580e+000 -5.646260e+000 -4.115198e-001 -3.378315e+000 1.264439e+000 -1.839002e+000 1.474055e+000 -5.626567e-001 -6.221113e-001 8.525048e-001 -9.835246e-001 9.383445e-001 -1.646091e+000 7.594498e-002 2.196945e+000
<VARIANCE> 25
 1.514778e+001 1.402395e+002 4.942943e+001 7.882574e+001 8.205292e+001 7.398893e+001 6.539042e+001 4.777887e+001 7.283738e+001 5.888538e+001 5.857481e+001 2.865876e+001 2.244235e+000 1.895170e+001 7.056426e+000 8.131161e+000 5.419982e+000 6.787061e+000 1.267857e+001 4.702280e+000 9.097463e+000 8.960057e+000 4.850535e+000 2.683239e+000 6.282087e+000
<GCONST> 1.187213e+002
<STATE> 4
<MEAN> 25
 5.190300e+000 -1.137507e+001 1.421797e+001 -3.207324e+000 1.170401e+001 -8.334057e+000 -1.827361e+001 1.368110e+000 8.926345e-001 8.097732e+000 -4.678179e+000 -4.144176e+000 1.591244e-001 -4.027739e-001 5.271225e-001 -5.051443e-001 -3.726074e-001 -3.462670e-001 -1.203008e+000 -3.988748e-001 6.759998e-001 -4.223138e-001 8.782260e-002 1.247690e-001 6.431274e-001
<VARIANCE> 25
 6.140110e+000 2.756672e+001 1.764440e+001 2.798594e+001 4.213406e+001 5.081805e+001 4.653021e+001 3.372706e+001 5.131979e+001 2.097750e+001 2.805746e+001 1.649302e+001 2.878734e-001 1.717717e+000 2.968630e+000 1.456776e+000 1.666333e+000 2.535830e+000 7.340913e+000 1.280580e+000 2.553565e+000 1.450925e+000 2.495501e+000 1.803526e+000 8.694046e-001
<GCONST> 9.254272e+001
<TRANSP> 5
 0.000000e+000 1.000000e+000 0.000000e+000 0.000000e+000 0.000000e+000
 0.000000e+000 9.071075e-001 9.289244e-002 0.000000e+000 0.000000e+000
 0.000000e+000 0.000000e+000 7.998133e-001 2.001868e-001 0.000000e+000
 0.000000e+000 0.000000e+000 0.000000e+000 8.416253e-001 1.583747e-001
 0.000000e+000 0.000000e+000 0.000000e+000 0.000000e+000 0.000000e+000
<ENDHMM>
~h "k"
<BEGINHMM>
<NUMSTATES> 5
<STATE> 2
<MEAN> 25
 -1.699762e+000 2.528584e+000 -4.090142e+000 1.457256e+000 4.946486e-001 -7.427178e-001 1.218609e+000 -9.102421e-001 -2.178253e+000 2.654403e+000 -4.935955e-002 -2.198274e+000 3.449436e-001 -1.679270e+000 6.658335e-001 -3.988724e+000 4.564487e-001 -6.812440e-001 -1.922414e-001 1.389137e+000 -2.338481e+000 1.032471e+000 1.045055e-001 5.390137e-002 2.103950e+000
<VARIANCE> 25
 4.195086e+001 1.016440e+002 9.802839e+001 2.487180e+002 1.040360e+002 8.130884e+001 7.768385e+001 1.617365e+002 1.346927e+002 7.260444e+001 6.569319e+001 5.962001e+001 4.240943e+000 8.291307e+000 1.052798e+001 2.205844e+001 9.197754e+000 1.092196e+001 1.089995e+001 1.109250e+001 1.476532e+001 6.436673e+000 7.845773e+000 5.612690e+000 6.745005e+000
<GCONST> 1.290097e+002
<STATE> 3
<MEAN> 25
 -3.093783e+000 -7.087041e+000 2.229983e+000 -9.787229e+000 -5.634742e-001 -5.965950e-001 -1.458127e+000 3.251800e+000 -9.242897e+000 4.012528e+000 1.981719e+000 -3.666665e+000 -1.312955e-001 5.698508e-001 7.679930e-002 9.752192e-001 -9.670087e-002 5.940735e-001 1.133905e-001 -6.409413e-002 1.062992e+000 -3.554462e-001 9.655657e-002 -2.124686e-002 -5.856649e-001
<VARIANCE> 25
 2.568393e+001 7.895947e+001 9.020831e+001 1.514638e+002 8.898301e+001 7.443945e+001 5.694718e+001 5.425735e+001 7.455819e+001 6.825112e+001 4.972364e+001 3.904940e+001 2.007756e+000 4.281374e+000 5.292917e+000 9.522932e+000 4.641472e+000 4.031676e+000 4.365454e+000 3.295272e+000 6.574232e+000 3.279348e+000 3.825724e+000 2.666964e+000 2.433390e+000
<GCONST> 1.139741e+002
<STATE> 4
<MEAN> 25
 -1.894838e+000 3.006041e+000 -3.501430e+000 -3.364306e+000 -3.123252e+000 -3.841368e+000 3.404276e+000 6.482970e+000 -2.194011e+000 4.177592e-001 1.301454e+000 -2.112715e+000 9.681667e-001 2.160058e-001 1.150278e+000 -4.365637e-001 -1.611961e-001 2.059729e-001 -6.193102e-001 -3.121050e-002 6.124420e-001 -6.061020e-002 1.436475e-001 3.872987e-001 1.065478e+000
<VARIANCE> 25
 4.301672e+001 6.614279e+001 1.175135e+002 2.192544e+002 7.323915e+001 9.127258e+001 1.220972e+002 6.751953e+001 1.028129e+002 8.560538e+001 5.285918e+001 5.256566e+001 4.620149e+000 7.281211e+000 5.431011e+000 2.503292e+001 5.986587e+000 8.831197e+000 7.969976e+000 6.544137e+000 1.256687e+001 7.299413e+000 4.358509e+000 4.991840e+000 4.882395e+000
<GCONST> 1.244288e+002
<TRANSP> 5
 0.000000e+000 1.000000e+000 0.000000e+000 0.000000e+000 0.000000e+000
 0.000000e+000 7.666774e-001 2.333225e-001 0.000000e+000 0.000000e+000
 0.000000e+000 0.000000e+000 7.503967e-001 2.496033e-001 0.000000e+000
 0.000000e+000 0.000000e+000 0.000000e+000 7.216572e-001 2.783428e-001
 0.000000e+000 0.000000e+000 0.000000e+000 0.000000e+000 0.000000e+000
<ENDHMM>
~h "l"
<BEGINHMM>
<NUMSTATES> 5
<STATE> 2
<MEAN> 25
 1.002575e+001 -2.635457e-001 8.556308e+000 -7.916597e+000 -1.141351e+001 -2.845588e+000 -3.824975e+000 4.827476e+000 3.162861e+000 -4.525619e+000 -2.769619e+000 6.035194e-001 -6.936569e-003 6.593478e-001 8.383910e-003 5.324719e-001 -5.526203e-001 2.050486e-001 2.757199e-001 -4.327538e-002 3.363759e-001 -2.182135e-001 -1.307575e-001 -2.770362e-001 -5.268546e-001
<VARIANCE> 25
 1.198843e+001 3.341281e+001 3.445226e+001 4.478627e+001 5.090230e+001 5.189740e+001 2.874668e+001 3.092444e+001 4.642782e+001 4.531282e+001 2.102854e+001 3.969041e+001 4.637017e-001 1.204753e+000 1.238734e+000 1.863764e+000 3.704470e+000 2.610490e+000 1.831096e+000 2.301411e+000 2.893093e+000 3.298330e+000 2.243861e+000 1.821184e+000 6.722901e-001
<GCONST> 9.555733e+001
<STATE> 3
<MEAN> 25
 5.917166e+000 7.357041e-001 6.110968e+000 -2.842321e+000 -9.638939e+000 1.646995e+000 3.071255e-001 7.786572e-001 1.413321e+000 -4.560945e+000 -3.894830e+000 5.293834e-001 -3.350578e-001 -6.783044e-001 -5.337395e-001 1.043932e-001 1.152278e+000 -1.880321e-001 1.014488e-001 -6.678694e-001 -7.429586e-001 1.029422e+000 4.359491e-001 7.981306e-001 9.487577e-002
<VARIANCE> 25
 7.447395e+001 5.564477e+001 4.337982e+001 6.028819e+001 7.474503e+001 4.685537e+001 4.266520e+001 4.506174e+001 7.917343e+001 5.455550e+001 3.933070e+001 4.173890e+001 1.667814e+000 4.399555e+000 3.032290e+000 3.954037e+000 6.987244e+000 2.689504e+000 5.254799e+000 3.588299e+000 6.249473e+000 6.143982e+000 4.338458e+000 3.763875e+000 2.074273e+000
<GCONST> 1.111602e+002
<STATE> 4
<MEAN> 25
 2.567178e-001 3.681999e+000 -1.704398e+000 9.482887e-001 -7.291117e+000 2.395763e+000 1.014531e+000 -1.814477e+000 3.081854e+000 -2.453406e+000 3.372667e-001 5.670913e-001 -5.944717e-001 -2.596920e-001 -5.406324e-001 1.884254e-001 6.416025e-001 -4.836599e-002 2.881230e-002 -2.545013e-001 -3.551682e-001 2.647294e-001 1.358656e-001 6.554292e-003 -4.388184e-001
<VARIANCE> 25
 6.538525e+001 8.155723e+001 8.206542e+001 6.123490e+001 7.451608e+001 4.577024e+001 5.466324e+001 6.550904e+001 6.167828e+001 5.722277e+001 3.317440e+001 5.748014e+001 5.863470e-001 1.781023e+000 2.400815e+000 3.266722e+000 3.626726e+000 3.596247e+000 3.942365e+000 3.171845e+000 3.925086e+000 3.852280e+000 3.188765e+000 3.523971e+000 5.913378e-001
<GCONST> 1.068981e+002
<TRANSP> 5
 0.000000e+000 1.000000e+000 0.000000e+000 0.000000e+000 0.000000e+000
 0.000000e+000 8.530954e-001 1.469046e-001 0.000000e+000 0.000000e+000
 0.000000e+000 0.000000e+000 5.841212e-001 4.158787e-001 0.000000e+000
 0.000000e+000 0.000000e+000 0.000000e+000 8.353379e-001 1.646621e-001
 0.000000e+000 0.000000e+000 0.000000e+000 0.000000e+000 0.000000e+000
<ENDHMM>
~h "m"
<BEGINHMM>
<NUMSTATES> 5
<STATE> 2
<MEAN> 25
 6.744814e+000 1.023749e+001 8.668000e-001 5.687292e+000 7.985986e+000 5.363929e+000 -1.929380e+000 1.270979e-001 9.147519e-001 -2.467351e+000 -2.303853e+000 -3.985647e+000 7.928478e-001 6.132261e-001 1.200874e+000 6.532789e-001 1.162270e+000 1.723164e+000 -1.629814e+000 7.451803e-002 1.237234e+000 -1.012228e+000 -1.517790e-001 -5.060385e-001 4.688925e-001
<VARIANCE> 25
 4.728286e+001 6.199223e+001 5.755107e+001 8.990112e+001 8.361306e+001 3.865201e+001 6.755817e+001 4.476861e+001 7.964032e+001 8.187451e+001 2.625211e+001 3.040161e+001 3.892787e+000 5.036261e+000 8.559752e+000 8.317617e+000 8.609351e+000 4.560121e+000 9.007048e+000 4.249057e+000 4.920280e+000 5.615400e+000 2.307947e+000 2.990150e+000 4.735647e+000
<GCONST> 1.154035e+002
<STATE> 3
<MEAN> 25
 8.424133e+000 7.488750e+000 2.077812e+000 2.737797e+000 8.067577e+000 7.544209e+000 -4.292340e+000 1.441879e+000 1.616313e+000 -2.837895e+000 -3.340673e+000 -5.557037e+000 -3.732548e-001 -9.873548e-002 5.741875e-002 4.499685e-001 -7.375205e-002 -9.234539e-002 3.282996e-001 -1.227704e-001 -2.452976e-002 6.909268e-002 -1.361879e-001 6.156341e-002 -3.062516e-001
<VARIANCE> 25
 2.951481e+001 3.426533e+001 3.661067e+001 3.397939e+001 5.407470e+001 3.861830e+001 3.003211e+001 3.920070e+001 6.428944e+001 5.332008e+001 2.622055e+001 1.891429e+001 4.132967e-001 1.431642e+000 1.128773e+000 1.966128e+000 1.931239e+000 1.842598e+000 1.995482e+000 2.037190e+000 2.538676e+000 2.292313e+000 1.672947e+000 1.409462e+000 6.396085e-001
<GCONST> 9.416959e+001
<STATE> 4
<MEAN> 25
 9.908111e-001 2.505679e+000 8.090858e-001 2.893147e+000 1.933011e+000 2.069901e+000 1.234928e+000 1.878944e+000 -6.998929e-002 -8.181819e-001 -4.216589e+000 -3.319494e+000 -3.823913e-001 -1.439878e+000 1.775308e-001 -8.442865e-001 -2.803332e-001 -5.398725e-001 7.271213e-003 5.151381e-001 6.065596e-002 5.171998e-001 1.139172e-001 6.683730e-001 6.400887e-001
<VARIANCE> 25
 7.580357e+001 6.473003e+001 8.266760e+001 5.218254e+001 7.218304e+001 8.016097e+001 5.792830e+001 5.242261e+001 6.185474e+001 7.003990e+001 4.268698e+001 3.908913e+001 1.157090e+000 5.913658e+000 4.050999e+000 3.303926e+000 2.880143e+000 4.509683e+000 4.013463e+000 2.519412e+000 5.403416e+000 4.827233e+000 4.524335e+000 4.735677e+000 1.675509e+000
<GCONST> 1.115273e+002
<TRANSP> 5
 0.000000e+000 1.000000e+000 0.000000e+000 0.000000e+000 0.000000e+000
 0.000000e+000 5.376214e-001 4.623786e-001 0.000000e+000 0.000000e+000
 0.000000e+000 0.000000e+000 7.944565e-001 2.055435e-001 0.000000e+000
 0.000000e+000 0.000000e+000 0.000000e+000 7.450581e-001 2.549419e-001
 0.000000e+000 0.000000e+000 0.000000e+000 0.000000e+000 0.000000e+000
<ENDHMM>
~h "n"
<BEGINHMM>
<NUMSTATES> 5
<STATE> 2
<MEAN> 25
 1.074581e+001 -1.215123e+000 -1.001532e+000 1.641917e+000 8.791374e+000 -2.105183e+000 -6.178288e+000 -5.372992e-001 2.325347e+000 3.359464e+000 -1.612253e+000 1.293766e+000 -3.775409e-004 1.591630e-001 -2.083775e-001 1.408528e-001 1.408724e-002 2.408810e-001 5.822217e-002 2.466131e-001 1.972030e-001 -3.185880e-001 9.604784e-002 -4.546708e-002 -1.876346e-001
<VARIANCE> 25
 1.368885e+001 1.355401e+002 1.029582e+002 1.424833e+002 5.109863e+001 7.002409e+001 6.083197e+001 6.130482e+001 6.934658e+001 9.222980e+001 5.342345e+001 4.160342e+001 4.094503e-001 2.430623e+000 1.911493e+000 2.433681e+000 2.070203e+000 3.533787e+000 3.451270e+000 3.137909e+000 5.752576e+000 3.557242e+000 2.509704e+000 3.061295e+000 1.135124e+000
<GCONST> 1.070319e+002
<STATE> 3
<MEAN> 25
 9.572765e+000 -1.516012e+000 1.327484e+000 -8.734878e-001 2.197400e+000 3.648483e+000 -5.285019e+000 -2.679430e+000 1.898343e-001 -5.708929e+000 -6.576883e-001 2.864697e+000 -1.074703e-001 8.143567e-001 -2.473792e-001 6.228101e-001 -8.647572e-002 1.643326e-001 3.443045e-001 2.098692e-001 2.064929e-001 -5.267033e-001 -2.209817e-001 -3.780690e-001 -6.826300e-001
<VARIANCE> 25
 1.574533e+001 8.664604e+001 4.706627e+001 1.120189e+002 6.526823e+001 4.817989e+001 7.578247e+001 8.874533e+001 5.501327e+001 7.231040e+001 3.242009e+001 3.318661e+001 2.467355e-001 1.193708e+000 8.043818e-001 2.054591e+000 2.064050e+000 1.924487e+000 2.133274e+000 2.418546e+000 3.180285e+000 2.832026e+000 2.034281e+000 1.746490e+000 4.432758e-001
<GCONST> 9.882440e+001
<STATE> 4
<MEAN> 25
 1.007347e+001 1.721359e+000 6.454292e-001 -1.935464e+000 2.078029e+000 -4.559248e-001 -2.789552e+000 4.910349e+000 -1.772925e+000 -2.826397e+000 1.026452e+000 -1.385860e+000 -2.575948e-001 4.166465e-001 7.057120e-002 5.209090e-001 1.313884e-001 5.370388e-002 1.492564e-001 -1.681018e-001 -1.471084e-001 1.499019e-001 5.069681e-002 -2.254245e-001 -4.808541e-001
<VARIANCE> 25
 1.128733e+001 8.129082e+001 3.683051e+001 9.181731e+001 6.965055e+001 8.530571e+001 6.357710e+001 6.225814e+001 5.663179e+001 5.292582e+001 2.752471e+001 2.740073e+001 3.452363e-001 1.349529e+000 1.289274e+000 1.914123e+000 2.307185e+000 2.574661e+000 2.732907e+000 2.745741e+000 3.355646e+000 3.063019e+000 2.106312e+000 1.595214e+000 5.600796e-001
<GCONST> 9.939821e+001
<TRANSP> 5
 0.000000e+000 1.000000e+000 0.000000e+000 0.000000e+000 0.000000e+000
 0.000000e+000 7.607676e-001 2.392324e-001 0.000000e+000 0.000000e+000
 0.000000e+000 0.000000e+000 7.515655e-001 2.484345e-001 0.000000e+000
 0.000000e+000 0.000000e+000 0.000000e+000 8.767489e-001 1.232512e-001
 0.000000e+000 0.000000e+000 0.000000e+000 0.000000e+000 0.000000e+000
<ENDHMM>
~h "p"
<BEGINHMM>
<NUMSTATES> 5
<STATE> 2
<MEAN> 25
 -1.287292e+000 2.374981e+000 -3.012607e+000 8.473228e+000 -5.234012e+000 6.150126e-001 -7.447120e-001 -6.592503e+000 5.874666e+000 -1.683447e+000 -2.918220e+000 1.787078e+000 -2.532179e-001 2.542800e-001 -2.103928e-001 -5.285446e-001 -1.448273e-001 -5.069545e-001 4.402351e-001 -1.669265e-001 -2.315351e-001 6.124709e-001 -2.400307e-001 5.384384e-001 -2.225367e-001
<VARIANCE> 25
 1.006748e+002 6.629603e+001 7.072947e+001 1.867071e+002 8.045858e+001 1.012147e+002 7.001619e+001 9.370599e+001 7.825175e+001 6.964036e+001 6.630669e+001 4.491056e+001 4.131282e+000 5.776986e+000 4.357140e+000 1.260299e+001 5.013745e+000 6.654788e+000 4.755020e+000 6.725085e+000 7.607399e+000 6.173478e+000 4.802720e+000 3.888861e+000 2.792345e+000
<GCONST> 1.205918e+002
<STATE> 3
<MEAN> 25
 1.076707e+000 1.004017e+001 -4.206310e+000 2.182460e+000 -9.777758e-001 -6.159525e+000 5.048306e+000 -1.635728e+000 -6.851705e+000 2.176908e+000 -1.924022e+000 5.649812e-001 -1.082077e-001 8.545210e-001 -5.045091e-001 1.483751e-001 1.836676e-001 -1.425613e+000 9.418779e-001 7.332656e-001 -1.323039e+000 5.633650e-001 2.313662e-001 -5.201904e-001 -4.863600e-001
<VARIANCE> 25
 5.233521e+001 7.498946e+001 1.545194e+002 1.728020e+002 7.814671e+001 1.497063e+002 8.377217e+001 6.676093e+001 1.331468e+002 1.593646e+002 1.350905e+002 8.490850e+001 2.856633e+000 5.394261e+000 4.243648e+000 4.225839e+000 7.015297e+000 5.365348e+000 5.470336e+000 4.498441e+000 8.213786e+000 7.507610e+000 5.735491e+000 5.290252e+000 1.769306e+000
<GCONST> 1.222787e+002
<STATE> 4
<MEAN> 25
 -2.031859e+000 9.009216e+000 -1.032631e+001 3.203893e+000 -3.631461e+000 -3.356188e+000 6.742894e+000 1.826124e-001 4.387179e+000 -1.216606e+000 -3.376318e+000 2.887064e+000 -1.291190e-001 -7.742552e-001 7.909800e-001 -6.726559e-001 2.336089e-001 3.650237e-001 -6.220073e-001 4.253757e-001 8.168127e-002 -5.956313e-004 -1.206559e-002 -6.985702e-002 5.775449e-001
<VARIANCE> 25
 6.301963e+001 1.047363e+002 1.209574e+002 9.997826e+001 5.500878e+001 9.381287e+001 8.859219e+001 9.516388e+001 1.331344e+002 4.713252e+001 4.446373e+001 4.278449e+001 2.786555e+000 7.211327e+000 8.117352e+000 8.383289e+000 7.374357e+000 7.997519e+000 7.377035e+000 7.009396e+000 1.302989e+001 6.706932e+000 5.978121e+000 3.457648e+000 3.403661e+000
<GCONST> 1.219932e+002
<TRANSP> 5
 0.000000e+000 1.000000e+000 0.000000e+000 0.000000e+000 0.000000e+000
 0.000000e+000 6.747437e-001 3.252564e-001 0.000000e+000 0.000000e+000
 0.000000e+000 0.000000e+000 6.167861e-001 3.832140e-001 0.000000e+000
 0.000000e+000 0.000000e+000 0.000000e+000 8.936303e-001 1.063697e-001
 0.000000e+000 0.000000e+000 0.000000e+000 0.000000e+000 0.000000e+000
<ENDHMM>
~h "r"
<BEGINHMM>
<NUMSTATES> 5
<STATE> 2
<MEAN> 25
 -6.569311e-001 1.982141e+000 -2.705482e+000 -3.855144e+000 -1.122092e+000 4.454536e+000 6.702077e-001 9.116940e-001 1.027606e+000 -2.477268e+000 4.359599e-001 1.662227e+000 4.984972e-001 -8.157477e-001 6.278753e-001 -1.626353e+000 4.472457e-001 -1.741623e-002 -4.736799e-001 1.088056e-001 -7.496931e-001 1.855023e-001 -2.739150e-001 3.178174e-001 1.358042e+000
<VARIANCE> 25
 9.938154e+001 1.270910e+002 8.959623e+001 1.614653e+002 9.963190e+001 9.434092e+001 6.196147e+001 1.010446e+002 1.012448e+002 7.739407e+001 3.964214e+001 4.841087e+001 6.928746e+000 1.234296e+001 1.012577e+001 1.020356e+001 6.859197e+000 7.993472e+000 5.682803e+000 9.302475e+000 9.683843e+000 7.591382e+000 3.353113e+000 5.381025e+000 5.815569e+000
<GCONST> 1.253962e+002
<STATE> 3
<MEAN> 25
 1.110167e+001 3.298442e+000 -3.610479e+000 -1.458962e+001 2.861369e+000 1.036224e+001 -5.045420e+000 -1.731799e+000 -3.660440e-002 -6.807176e+000 3.934960e+000 9.512594e+000 -2.231940e-001 -5.098276e-001 -1.384793e-001 6.135937e-001 4.532490e-002 -4.807810e-001 7.035891e-002 -2.057198e-002 -8.210620e-003 4.264886e-001 2.454208e-001 -1.157575e-001 -5.060457e-002
<VARIANCE> 25
 3.004255e+001 1.480815e+002 5.294106e+001 1.149067e+002 6.759917e+001 5.492501e+001 5.453601e+001 5.580655e+001 7.205630e+001 7.656490e+001 5.345030e+001 3.711361e+001 7.550600e-001 4.897769e+000 2.544923e+000 4.737726e+000 4.929649e+000 4.336640e+000 4.412567e+000 4.823469e+000 5.933613e+000 4.856205e+000 3.220516e+000 4.018917e+000 1.876528e+000
<GCONST> 1.119779e+002
<STATE> 4
<MEAN> 25
 4.595479e+000 -8.366089e+000 3.431873e+000 -6.407561e+000 1.091548e+001 1.099475e+000 -9.196023e+000 -2.098731e+000 -5.935093e+000 1.903522e+000 2.505930e-001 2.396369e+000 2.518997e-001 5.532091e-001 1.377804e-001 6.893709e-001 6.228861e-001 -2.267532e-001 -5.352181e-001 -2.128161e-001 -6.198073e-001 1.970064e-001 -9.511284e-002 -5.574394e-001 -1.411640e-001
<VARIANCE> 25
 9.257521e+001 1.212477e+002 6.593086e+001 1.022067e+002 7.150535e+001 1.055028e+002 6.213437e+001 4.713223e+001 7.376352e+001 1.093669e+002 4.186280e+001 3.493639e+001 2.539020e+000 5.383664e+000 2.196647e+000 2.453033e+000 4.043607e+000 6.393473e+000 3.201650e+000 2.885500e+000 3.960673e+000 5.640091e+000 4.571519e+000 3.416575e+000 1.134781e+000
<GCONST> 1.130391e+002
<TRANSP> 5
 0.000000e+000 1.000000e+000 0.000000e+000 0.000000e+000 0.000000e+000
 0.000000e+000 7.640751e-001 2.359249e-001 0.000000e+000 0.000000e+000
 0.000000e+000 0.000000e+000 8.416550e-001 1.583450e-001 0.000000e+000
 0.000000e+000 0.000000e+000 0.000000e+000 8.104004e-001 1.895996e-001
 0.000000e+000 0.000000e+000 0.000000e+000 0.000000e+000 0.000000e+000
<ENDHMM>
~h "s"
<BEGINHMM>
<NUMSTATES> 5
<STATE> 2
<MEAN> 25
 -5.655005e+000 -7.249128e+000 1.333349e+001 -5.587293e+000 8.914613e-001 4.430075e+000 1.930051e+000 -4.269343e+000 -6.072397e+000 5.938331e+000 -1.440461e+000 -1.330784e-001 -2.788546e+000 -3.174543e+000 4.767387e+000 -1.261535e+000 1.224307e-001 4.457308e-001 1.779673e+000 2.780373e-001 -6.184773e-001 1.481574e+000 2.566898e-001 1.414329e-001 1.572706e+000
<VARIANCE> 25
 6.390169e+001 7.130692e+001 1.657041e+002 9.841941e+001 5.691013e+001 7.080782e+001 7.271067e+001 7.586404e+001 7.681447e+001 4.873908e+001 5.057402e+001 2.808603e+001 1.792510e+000 3.725218e+000 5.238207e+000 5.833422e+000 4.162969e+000 4.038839e+000 5.335678e+000 6.100915e+000 4.293586e+000 5.502057e+000 4.448795e+000 3.138629e+000 1.693195e+000
<GCONST> 1.144228e+002
<STATE> 3
<MEAN> 25
 -1.628095e+001 -1.714482e+001 2.892488e+001 -9.245662e+000 9.611681e-001 5.770912e+000 1.101781e+001 1.029558e+000 -4.429562e+000 7.884688e+000 2.151254e+000 1.283485e-001 -4.276178e-001 -4.279841e-001 1.368810e-001 3.101422e-002 -8.611631e-002 -1.419174e-002 4.685698e-001 5.466192e-001 2.968585e-001 -1.499666e-002 3.700501e-001 1.769997e-001 3.234398e-002
<VARIANCE> 25
 1.726846e+001 1.799923e+001 1.899757e+001 3.814491e+001 1.929203e+001 4.461773e+001 3.887603e+001 4.832306e+001 5.193711e+001 2.869384e+001 3.046255e+001 2.373681e+001 6.926327e-001 9.203576e-001 1.411394e+000 1.118890e+000 9.824957e-001 1.372168e+000 1.773076e+000 1.658871e+000 2.005625e+000 1.758387e+000 1.652574e+000 1.293753e+000 3.635882e-001
<GCONST> 8.885094e+001
<STATE> 4
<MEAN> 25
 -1.582523e+001 -1.451811e+001 2.046429e+001 -7.506431e+000 -1.875617e+000 6.622793e+000 7.842989e+000 2.680632e+000 -2.730140e+000 5.823743e+000 2.567914e+000 1.212551e+000 8.892757e-001 1.101291e+000 -1.369052e+000 6.886237e-001 -3.974063e-001 -2.724614e-002 -1.007275e+000 -4.931443e-001 -2.960253e-001 -3.901076e-001 -2.635550e-001 -4.656470e-001 -8.736706e-001
<VARIANCE> 25
 2.591981e+001 5.299068e+001 6.671677e+001 4.322016e+001 7.052070e+001 6.252102e+001 4.674755e+001 6.102803e+001 1.013858e+002 4.625818e+001 3.831436e+001 3.906654e+001 3.760298e+000 2.701549e+000 3.475969e+000 2.902026e+000 3.546355e+000 2.763036e+000 5.425950e+000 3.906748e+000 3.516964e+000 3.051063e+000 2.704956e+000 3.525296e+000 1.794721e+000
<GCONST> 1.084293e+002
<TRANSP> 5
 0.000000e+000 1.000000e+000 0.000000e+000 0.000000e+000 0.000000e+000
 0.000000e+000 7.498298e-001 2.501703e-001 0.000000e+000 0.000000e+000
 0.000000e+000 0.000000e+000 9.156814e-001 8.431856e-002 0.000000e+000
 0.000000e+000 0.000000e+000 0.000000e+000 8.703310e-001 1.296690e-001
 0.000000e+000 0.000000e+000 0.000000e+000 0.000000e+000 0.000000e+000
<ENDHMM>
~h "t"
<BEGINHMM>
<NUMSTATES> 5
<STATE> 2
<MEAN> 25
 -1.190921e+000 5.919785e+000 -3.270494e+000 5.720628e+000 -1.937290e+000 -1.845452e+000 1.291210e+000 -9.998654e-001 4.729223e-001 -9.665105e-001 -1.336838e+000 -1.595102e+000 -1.015790e+000 -2.841382e+000 1.248559e+000 -2.423458e+000 8.537895e-001 -8.750135e-001 2.847418e-001 1.645397e+000 -1.686442e+000 1.482269e+000 -6.088584e-001 4.073532e-002 1.575571e+000
<VARIANCE> 25
 7.042258e+001 9.870007e+001 1.691030e+002 9.718848e+001 9.781811e+001 7.184248e+001 8.704270e+001 1.042877e+002 6.781055e+001 5.266722e+001 4.203706e+001 5.287777e+001 3.396477e+000 1.119584e+001 1.343111e+001 1.416238e+001 7.850310e+000 9.238245e+000 8.650324e+000 9.356703e+000 1.125103e+001 6.461383e+000 5.732360e+000 5.337606e+000 5.204892e+000
<GCONST> 1.252799e+002
<STATE> 3
<MEAN> 25
 -6.725715e+000 -1.382448e+001 1.120903e+001 -5.773411e+000 1.585623e+000 -4.696047e+000 1.174792e+000 2.435950e+000 -8.734121e+000 7.829957e+000 -3.738809e+000 1.544711e-001 -8.472821e-001 -3.283019e+000 2.304332e+000 -2.572320e+000 1.096417e+000 -5.295187e-001 -4.542296e-001 5.136040e-001 -1.334429e+000 1.237289e+000 -3.140597e-001 3.815894e-001 2.387749e+000
<VARIANCE> 25
 4.371060e+001 6.043095e+001 1.178785e+002 6.336832e+001 6.278524e+001 4.766977e+001 7.181217e+001 3.431438e+001 5.681071e+001 4.075024e+001 2.974972e+001 2.494793e+001 3.457408e+000 8.991623e+000 1.314098e+001 9.679787e+000 6.059261e+000 5.121206e+000 8.296102e+000 5.148781e+000 6.954209e+000 4.061340e+000 4.682489e+000 2.936253e+000 5.350503e+000
<GCONST> 1.160262e+002
<STATE> 4
<MEAN> 25
 -4.831151e+000 -1.176341e+001 8.721770e+000 -3.880295e+000 2.629484e+000 -1.432124e+000 -3.062011e+000 -7.502775e-001 -7.344345e+000 6.174531e+000 6.834855e-003 -1.376443e+000 1.367001e+000 1.711643e+000 -1.560158e+000 1.420448e+000 5.224757e-002 8.602940e-001 -7.652361e-001 -9.514439e-001 5.936553e-001 -1.144601e+000 8.530768e-001 -1.972941e-001 -6.253378e-001
<VARIANCE> 25
 4.036444e+001 8.163217e+001 1.018599e+002 6.479555e+001 7.491404e+001 5.703588e+001 6.359341e+001 4.767122e+001 5.956929e+001 4.872071e+001 3.433490e+001 3.283118e+001 4.036633e+000 5.116513e+000 4.128284e+000 5.457541e+000 5.534825e+000 4.866034e+000 5.836833e+000 5.365669e+000 4.975025e+000 4.422377e+000 3.563194e+000 3.162013e+000 2.329545e+000
<GCONST> 1.134585e+002
<TRANSP> 5
 0.000000e+000 1.000000e+000 0.000000e+000 0.000000e+000 0.000000e+000
 0.000000e+000 6.617270e-001 3.382730e-001 0.000000e+000 0.000000e+000
 0.000000e+000 0.000000e+000 6.268592e-001 3.731408e-001 0.000000e+000
 0.000000e+000 0.000000e+000 0.000000e+000 7.877253e-001 2.122747e-001
 0.000000e+000 0.000000e+000 0.000000e+000 0.000000e+000 0.000000e+000
<ENDHMM>
~h "v"
<BEGINHMM>
<NUMSTATES> 5
<STATE> 2
<MEAN> 25
 4.811114e+000 -5.442510e+000 4.961946e+000 -3.716635e+000 8.910641e+000 -2.190390e+000 -8.678184e+000 -3.999262e+000 -2.798239e+000 8.740139e+000 -1.326771e+000 2.888244e+000 -3.782604e-001 -3.705458e-001 2.796752e-001 -8.525915e-001 4.659675e-001 -4.672219e-001 -4.467047e-001 -5.962809e-001 -5.316826e-001 1.127588e+000 -3.784636e-001 2.946039e-001 2.141387e-001
<VARIANCE> 25
 4.093808e+001 4.756074e+001 6.654198e+001 6.013869e+001 7.084918e+001 7.049350e+001 5.370230e+001 5.921478e+001 5.424504e+001 7.259682e+001 5.421714e+001 3.165963e+001 1.495588e+000 2.110849e+000 2.304211e+000 2.819000e+000 3.437987e+000 3.366910e+000 3.116327e+000 3.460159e+000 6.148912e+000 3.963117e+000 3.633126e+000 2.664247e+000 1.498695e+000
<GCONST> 1.078382e+002
<STATE> 3
<MEAN> 25
 8.614586e+000 -7.708992e+000 9.662210e-001 -6.485858e+000 4.404633e+000 -3.824067e+000 -5.307119e+000 -4.535680e+000 -5.954928e+000 6.110412e+000 1.438884e+000 5.307056e+000 -3.475937e-002 4.281287e-001 -1.242538e-001 3.909597e-002 -1.145389e-001 3.924545e-001 1.854700e-001 4.315030e-001 -1.225651e-001 -4.654972e-001 8.701685e-003 -1.797333e-001 -3.963583e-001
<VARIANCE> 25
 2.552725e+001 4.053685e+001 4.613401e+001 2.955766e+001 4.954367e+001 4.533743e+001 4.785702e+001 6.748557e+001 5.380186e+001 7.705146e+001 3.674339e+001 3.924155e+001 3.377679e-001 1.045212e+000 1.215103e+000 1.530334e+000 1.128563e+000 2.588642e+000 2.013436e+000 2.323224e+000 2.930197e+000 2.329318e+000 1.477730e+000 1.940771e+000 5.688216e-001
<GCONST> 9.611143e+001
<STATE> 4
<MEAN> 25
 -6.088507e-001 2.030189e-001 -1.580697e+000 4.207453e+000 2.488575e+000 3.802743e+000 -1.121428e+000 -4.528852e+000 -3.398912e+000 1.290019e+000 2.353377e-001 -1.846389e+000 -2.407234e-001 2.853796e-001 -7.945647e-001 8.821886e-001 -7.885061e-001 -6.400608e-002 2.395948e-001 -2.702788e-001 8.854739e-001 -3.443691e-001 1.453965e-001 -3.192653e-001 -7.929295e-001
<VARIANCE> 25
 7.691165e+001 6.526456e+001 2.713800e+002 1.194531e+002 5.317631e+001 1.418336e+002 7.469109e+001 9.287950e+001 8.790015e+001 7.599059e+001 3.998216e+001 4.772751e+001 1.283153e+000 3.526311e+000 4.677219e+000 5.203418e+000 3.960220e+000 4.912493e+000 4.714898e+000 6.251596e+000 6.288023e+000 4.891187e+000 3.316160e+000 4.183001e+000 1.178702e+000
<GCONST> 1.162617e+002
<TRANSP> 5
 0.000000e+000 1.000000e+000 0.000000e+000 0.000000e+000 0.000000e+000
 0.000000e+000 6.151060e-001 3.848940e-001 0.000000e+000 0.000000e+000
 0.000000e+000 0.000000e+000 8.702530e-001 1.297471e-001 0.000000e+000
 0.000000e+000 0.000000e+000 0.000000e+000 7.833284e-001 2.166716e-001
 0.000000e+000 0.000000e+000 0.000000e+000 0.000000e+000 0.000000e+000
<ENDHMM>
~h "w"
<BEGINHMM>
<NUMSTATES> 5
<STATE> 2
<MEAN> 25
 8.185321e+000 6.138489e+000 1.035530e+000 8.767197e-001 2.562454e-001 3.844491e-001 -3.622235e+000 3.429162e-001 -3.553418e-001 -3.737641e+000 -1.318697e+000 -2.314363e+000 1.619241e+000 1.971784e+000 4.347913e-002 6.175583e-002 -2.207936e+000 -8.765653e-001 -4.839667e-001 1.809111e-002 2.347303e+000 -6.279441e-001 3.627005e-001 -6.781837e-002 1.866939e-001
<VARIANCE> 25
 3.842385e+001 9.259940e+001 4.157936e+001 1.269281e+002 1.188460e+002 4.673657e+001 4.711847e+001 6.993948e+001 1.353833e+002 4.986751e+001 3.363225e+001 7.072739e+001 3.776390e+000 5.693839e+000 2.858373e+000 5.930707e+000 3.697384e+000 3.594565e+000 6.181092e+000 6.191659e+000 6.714470e+000 4.777836e+000 5.322741e+000 6.912199e+000 3.018209e+000
<GCONST> 1.163180e+002
<STATE> 3
<MEAN> 25
 1.303676e+001 1.094790e+001 9.164554e-001 -1.288006e+000 -7.527442e+000 -5.329442e+000 -5.944764e+000 1.987848e+000 6.903438e+000 -3.969172e+000 2.517347e+000 -1.653105e+000 1.369824e-001 -1.382019e+000 -2.951816e-001 -1.258978e+000 -1.508987e-001 -2.779473e-001 5.559908e-001 1.025230e+000 -1.602740e-001 3.662844e-003 1.842158e-001 1.859597e-001 9.716609e-001
<VARIANCE> 25
 7.457587e+000 1.105145e+002 6.173207e+001 7.650771e+001 3.289466e+001 5.471796e+001 2.991524e+001 5.857917e+001 5.491534e+001 3.260692e+001 3.156459e+001 4.396601e+001 1.345278e-001 4.061683e+000 1.113348e+000 3.612617e+000 3.397160e+000 3.127210e+000 3.093268e+000 7.577929e+000 5.540881e+000 3.139728e+000 3.594638e+000 3.907057e+000 1.390638e+000
<GCONST> 1.029448e+002
<STATE> 4
<MEAN> 25
 1.253647e+001 -8.521168e+000 -3.785098e+000 -9.921611e+000 -3.767605e+000 -1.941014e+000 4.335391e-001 5.693279e+000 2.897243e+000 -4.878744e+000 3.578022e+000 5.019083e+000 -1.324614e-001 -3.804349e-001 -1.478473e-001 -3.465144e-002 5.645342e-001 3.572183e-001 -1.805447e-001 -7.868615e-001 -3.238048e-001 1.294230e-001 -5.846994e-002 5.688468e-001 1.137793e-001
<VARIANCE> 25
 7.397059e+000 5.940829e+001 3.517377e+001 5.226828e+001 4.921239e+001 4.954222e+001 9.135046e+001 1.338568e+002 7.020112e+001 7.221424e+001 3.382753e+001 2.921250e+001 2.307380e-001 2.322957e+000 6.544864e-001 2.180460e+000 2.020837e+000 2.018751e+000 3.307585e+000 2.565186e+000 4.029239e+000 3.106105e+000 1.763245e+000 1.197426e+000 6.703209e-001
<GCONST> 9.833697e+001
<TRANSP> 5
 0.000000e+000 1.000000e+000 0.000000e+000 0.000000e+000 0.000000e+000
 0.000000e+000 6.618547e-001 3.381452e-001 0.000000e+000 0.000000e+000
 0.000000e+000 0.000000e+000 7.732705e-001 2.267295e-001 0.000000e+000
 0.000000e+000 0.000000e+000 0.000000e+000 9.056407e-001 9.435935e-002
 0.000000e+000 0.000000e+000 0.000000e+000 0.000000e+000 0.000000e+000
<ENDHMM>
~h "y"
<BEGINHMM>
<NUMSTATES> 5
<STATE> 2
<MEAN> 25
 5.149106e+000 -4.377837e+000 1.705623e+001 9.505590e+000 1.071955e+001 -4.570199e+000 -1.513151e+001 2.241307e+000 -1.311741e+000 5.460982e+000 -1.073592e-001 -5.228237e+000 6.631072e-001 -7.793290e-001 -1.649444e-002 -2.269023e-001 6.392506e-001 -5.240461e-001 -1.002320e+000 -3.779269e-001 -4.226957e-001 2.118926e-001 4.274029e-001 -7.171464e-002 1.051789e+000
<VARIANCE> 25
 2.397097e+001 5.632008e+001 7.029742e+001 6.404976e+001 4.767612e+001 4.778217e+001 7.594382e+001 6.112140e+001 4.555642e+001 3.191770e+001 3.118255e+001 2.646780e+001 1.197832e+000 4.353852e+000 5.797349e+000 4.984591e+000 3.553747e+000 4.377396e+000 5.909585e+000 4.255127e+000 3.942050e+000 3.986617e+000 2.646296e+000 1.820873e+000 1.446441e+000
<GCONST> 1.074198e+002
<STATE> 3
<MEAN> 25
 8.536717e+000 -3.547093e+000 3.587827e+000 3.860019e+000 7.822721e+000 -5.090324e-001 -8.660222e+000 -1.949254e+000 -3.865721e+000 1.762627e+000 2.950402e+000 2.901186e-001 1.271662e-001 1.283911e-001 -8.283300e-001 -8.080834e-001 3.262025e-001 -2.034945e-001 1.536879e-001 -6.381296e-001 -2.168626e-001 8.013786e-002 -2.171872e-001 4.792695e-001 1.227618e-001
<VARIANCE> 25
 3.263398e+001 5.247102e+001 1.429674e+002 6.909731e+001 1.249861e+002 4.304633e+001 9.771622e+001 7.766010e+001 1.890834e+002 6.976978e+001 2.952529e+001 6.398846e+001 1.293577e+000 3.141383e+000 6.974014e+000 7.377909e+000 5.535892e+000 3.817056e+000 6.742208e+000 5.774590e+000 5.837852e+000 4.020591e+000 3.717218e+000 4.185835e+000 1.547253e+000
<GCONST> 1.155392e+002
<STATE> 4
<MEAN> 25
 4.234514e+000 -1.516808e+000 1.013919e+001 5.463797e+000 1.102835e+001 -2.557591e+000 -1.051399e+001 4.518605e-001 -2.588992e+000 4.427934e+000 -3.867974e-001 -2.892059e+000 5.457420e-001 -3.493161e-001 4.986702e-001 -1.273972e+000 1.219254e+000 -2.030355e-002 -4.546103e-001 5.614846e-001 -8.675551e-001 5.736445e-001 8.981898e-002 -4.802359e-001 1.131797e+000
<VARIANCE> 25
 6.221688e+001 5.877567e+001 9.052866e+001 2.020354e+002 9.956454e+001 2.570351e+001 1.527601e+002 1.103935e+002 5.023969e+001 4.647533e+001 2.979079e+001 3.927920e+001 4.260182e+000 3.983492e+000 1.418023e+001 1.175482e+001 7.086064e+000 3.617909e+000 1.884271e+001 8.288652e+000 7.426695e+000 4.428189e+000 3.512599e+000 4.658428e+000 3.955556e+000
<GCONST> 1.202722e+002
<TRANSP> 5
 0.000000e+000 1.000000e+000 0.000000e+000 0.000000e+000 0.000000e+000
 0.000000e+000 7.971015e-001 2.028985e-001 0.000000e+000 0.000000e+000
 0.000000e+000 0.000000e+000 3.564526e-001 6.435475e-001 0.000000e+000
 0.000000e+000 0.000000e+000 0.000000e+000 5.992159e-001 4.007842e-001
 0.000000e+000 0.000000e+000 0.000000e+000 0.000000e+000 0.000000e+000
<ENDHMM>
~h "z"
<BEGINHMM>
<NUMSTATES> 5
<STATE> 2
<MEAN> 25
 -3.904548e+000 -5.003054e+000 1.720136e+001 -3.285754e+000 4.112831e+000 4.004792e+000 -4.652561e-001 -2.417777e+000 -6.345754e+000 6.057330e+000 -2.963708e+000 -2.193769e+000 -2.144892e+000 -2.216147e+000 5.094759e+000 -7.201425e-001 2.249051e-001 6.099322e-001 2.226664e+000 3.699204e-001 -7.484723e-001 9.912710e-001 -3.786783e-001 -3.357811e-001 1.642686e+000
<VARIANCE> 25
 7.037395e+001 4.739441e+001 1.715041e+002 6.164619e+001 5.123547e+001 9.622504e+001 1.105098e+002 7.147304e+001 4.455421e+001 4.714319e+001 3.113133e+001 2.122955e+001 5.306522e+000 4.266717e+000 7.265181e+000 4.093146e+000 5.243942e+000 5.381546e+000 5.463737e+000 6.478295e+000 2.967502e+000 3.812536e+000 2.189111e+000 2.749850e+000 2.074159e+000
<GCONST> 1.133158e+002
<STATE> 3
<MEAN> 25
 -1.324683e+001 -1.407993e+001 3.238279e+001 -6.639336e+000 3.031132e+000 4.479579e+000 1.039626e+001 -7.235965e-001 -7.069639e+000 8.047723e+000 -3.100026e-002 -1.388605e+000 -4.419093e-001 -6.416432e-001 1.056733e-001 1.979853e-001 -1.384444e-001 -9.655578e-002 4.865232e-001 3.187086e-001 9.597214e-002 1.225418e-002 5.454804e-001 7.484821e-002 1.164796e-001
<VARIANCE> 25
 1.327303e+001 2.982791e+001 1.945860e+001 4.262112e+001 1.979503e+001 5.342159e+001 5.542323e+001 3.894413e+001 2.380270e+001 2.544540e+001 3.196695e+001 1.910725e+001 1.124394e+000 9.443620e-001 1.488832e+000 1.147583e+000 1.222692e+000 1.387273e+000 3.188147e+000 1.810433e+000 1.717298e+000 1.273761e+000 1.393874e+000 1.499846e+000 2.660185e-001
<GCONST> 8.918365e+001
<STATE> 4
<MEAN> 25
 -1.162279e+001 -1.403545e+001 1.571435e+001 -2.646063e+000 -5.071578e+000 2.311167e+000 4.347247e+000 3.827062e+000 -5.717482e+000 3.606028e+000 4.928951e+000 -1.972488e+000 3.542109e-001 7.150610e-001 -1.197049e+000 6.370041e-001 -4.077314e-001 4.276579e-002 -7.551822e-001 -1.831978e-001 1.674729e-001 -5.070815e-001 2.504724e-002 -2.034330e-001 -9.197500e-001
<VARIANCE> 25
 1.168955e+001 5.746821e+001 1.152056e+002 4.520144e+001 6.076673e+001 4.292989e+001 6.178027e+001 4.972378e+001 4.870566e+001 4.045890e+001 3.403143e+001 3.725077e+001 1.152374e+000 1.864330e+000 2.497286e+000 2.774359e+000 3.610730e+000 3.507223e+000 3.954761e+000 3.072596e+000 3.382345e+000 2.848999e+000 3.274196e+000 3.319151e+000 7.482806e-001
<GCONST> 1.037403e+002
<TRANSP> 5
 0.000000e+000 1.000000e+000 0.000000e+000 0.000000e+000 0.000000e+000
 0.000000e+000 7.781269e-001 2.218731e-001 0.000000e+000 0.000000e+000
 0.000000e+000 0.000000e+000 9.042449e-001 9.575504e-002 0.000000e+000
 0.000000e+000 0.000000e+000 0.000000e+000 9.209644e-001 7.903558e-002
 0.000000e+000 0.000000e+000 0.000000e+000 0.000000e+000 0.000000e+000
<ENDHMM>
~h "aa"
<BEGINHMM>
<NUMSTATES> 5
<STATE> 2
<MEAN> 25
 6.295379e+000 -8.879096e-002 5.455424e+000 -4.534671e+000 -5.284864e+000 2.336645e-002 -2.782518e+000 5.486905e+000 3.052696e+000 -1.988935e+000 1.126888e+000 -9.852687e-001 2.169955e+000 -6.203220e-001 -1.623500e-001 -1.236020e+000 -1.463427e+000 -1.212377e+000 -1.141408e+000 4.209331e-001 1.366387e+000 -6.379749e-001 2.243400e-002 8.976574e-001 2.054429e+000
<VARIANCE> 25
 8.315854e+001 6.067686e+001 4.312083e+001 8.104361e+001 4.929178e+001 8.632635e+001 4.157061e+001 3.476538e+001 5.540842e+001 1.947297e+001 2.310548e+001 2.497658e+001 5.542308e+000 5.649330e+000 4.200131e+000 8.343743e+000 5.176301e+000 6.528256e+000 3.504743e+000 3.141626e+000 5.256031e+000 3.819416e+000 4.498322e+000 2.303926e+000 4.417408e+000
<GCONST> 1.113489e+002
<STATE> 3
<MEAN> 25
 1.217212e+001 -3.060954e+000 1.912481e+000 -6.561820e+000 -1.168968e+001 -6.498384e+000 -4.608804e+000 7.925288e+000 1.091004e+001 -4.319630e+000 1.345620e+000 1.410830e+000 -2.775389e-001 4.852526e-001 -1.314890e-001 4.842488e-001 -1.017867e-001 4.268099e-001 9.435057e-002 -5.646421e-001 1.245660e-001 -1.199083e-001 -2.999172e-001 -8.918881e-002 -6.346864e-001
<VARIANCE> 25
 2.779244e+001 4.163008e+001 5.449747e+001 5.778054e+001 4.421604e+001 6.375499e+001 3.289541e+001 3.551895e+001 4.962442e+001 3.847350e+001 2.459185e+001 2.795103e+001 5.349109e-001 1.420593e+000 1.226540e+000 2.087471e+000 2.654277e+000 3.368238e+000 2.187084e+000 2.312794e+000 5.784648e+000 2.944873e+000 2.003037e+000 1.184141e+000 7.697934e-001
<GCONST> 9.806466e+001
<STATE> 4
<MEAN> 25
 8.309053e+000 1.092386e-001 -1.340912e+000 -2.736204e+000 -5.471541e+000 5.862571e+000 -8.567188e-001 -2.254653e+000 6.618556e+000 -3.439542e+000 1.599783e+000 5.838883e+000 -1.971664e-001 4.281917e-001 -1.355888e-001 3.481838e-001 5.309620e-001 -3.208698e-002 4.366393e-001 5.353728e-002 -4.128352e-001 2.729709e-001 -1.612524e-001 -2.588979e-002 -3.779557e-001
<VARIANCE> 25
 4.849519e+001 5.963587e+001 4.114493e+001 1.006507e+002 1.593936e+002 8.101843e+001 1.266016e+002 4.986628e+001 8.481821e+001 5.744316e+001 4.440115e+001 3.468821e+001 1.501800e+000 4.304198e+000 3.285731e+000 6.791338e+000 9.687073e+000 4.680310e+000 5.243789e+000 4.779014e+000 9.161687e+000 7.389806e+000 4.564815e+000 2.791858e+000 3.313076e+000
<GCONST> 1.162578e+002
<TRANSP> 5
 0.000000e+000 1.000000e+000 0.000000e+000 0.000000e+000 0.000000e+000
 0.000000e+000 7.425102e-001 2.574899e-001 0.000000e+000 0.000000e+000
 0.000000e+000 0.000000e+000 8.591120e-001 1.408880e-001 0.000000e+000
 0.000000e+000 0.000000e+000 0.000000e+000 8.349780e-001 1.650220e-001
 0.000000e+000 0.000000e+000 0.000000e+000 0.000000e+000 0.000000e+000
<ENDHMM>
~h "ae"
<BEGINHMM>
<NUMSTATES> 5
<STATE> 2
<MEAN> 25
 3.825110e+000 2.824823e+000 5.465455e-001 -8.854069e-001 -1.015784e+000 4.534553e+000 -4.980319e-001 -2.235175e+000 4.812827e+000 1.200246e+000 -2.031312e+000 3.144083e+000 2.133240e+000 -2.026622e+000 1.271383e+000 -1.504119e+000 6.028470e-001 -3.608461e-001 -1.467119e+000 -8.641995e-002 3.698335e-002 1.171779e+000 -2.488680e-001 7.989592e-001 3.357913e+000
<VARIANCE> 25
 7.501545e+001 1.366034e+002 7.854449e+001 1.228785e+002 1.007871e+002 5.853008e+001 7.832354e+001 6.629478e+001 8.250932e+001 7.268423e+001 4.985655e+001 3.108771e+001 7.586562e+000 1.173972e+001 5.995662e+000 9.170589e+000 6.214870e+000 5.718116e+000 6.756119e+000 5.833290e+000 6.926244e+000 7.206720e+000 4.712179e+000 3.642946e+000 5.576125e+000
<GCONST> 1.218519e+002
<STATE> 3
<MEAN> 25
 9.526865e+000 -1.420580e+001 4.927394e+000 -9.627835e+000 3.854923e+000 4.296176e-001 -8.386245e+000 -4.833025e+000 1.813022e+000 6.471055e+000 1.583254e+000 5.662542e+000 -1.282906e-002 -3.472918e-003 2.322903e-002 -1.555018e-002 -4.149769e-002 2.334935e-001 2.004367e-001 1.503920e-001 -2.918825e-001 -4.588928e-001 1.931657e-001 6.753824e-002 -1.375452e-002
<VARIANCE> 25
 1.044888e+001 1.964586e+001 1.897774e+001 3.744045e+001 6.949711e+001 3.542957e+001 4.962735e+001 2.697906e+001 6.435868e+001 4.034908e+001 3.110958e+001 4.405188e+001 2.787744e-001 1.826040e+000 8.351524e-001 1.949957e+000 2.163507e+000 1.711911e+000 1.850332e+000 2.161110e+000 3.015625e+000 2.406354e+000 2.720486e+000 1.812266e+000 1.012161e+000
<GCONST> 9.402785e+001
<STATE> 4
<MEAN> 25
 9.002566e+000 -5.073159e+000 3.336669e+000 -6.191229e+000 1.187986e+000 4.625569e+000 -7.714063e+000 -2.126720e+000 9.129541e-001 2.297023e+000 2.246585e+000 3.746334e+000 -2.688822e-001 1.674248e+000 -6.445323e-001 1.542654e+000 -3.630369e-001 -9.665416e-003 -5.602201e-002 2.050131e-001 8.640336e-001 -4.710590e-001 -4.485461e-002 -1.001873e+000 -1.642293e+000
<VARIANCE> 25
 1.698018e+001 2.911198e+001 3.768344e+001 6.934106e+001 5.801900e+001 2.835212e+001 4.121394e+001 5.414128e+001 9.858532e+001 7.074989e+001 2.938466e+001 3.526999e+001 6.015353e-001 2.587734e+000 2.040651e+000 4.362847e+000 4.655133e+000 2.474628e+000 3.617792e+000 3.663916e+000 6.030405e+000 6.526443e+000 4.100571e+000 1.351444e+000 1.278591e+000
<GCONST> 1.042159e+002
<TRANSP> 5
 0.000000e+000 1.000000e+000 0.000000e+000 0.000000e+000 0.000000e+000
 0.000000e+000 8.126984e-001 1.873016e-001 0.000000e+000 0.000000e+000
 0.000000e+000 0.000000e+000 8.682912e-001 1.317088e-001 0.000000e+000
 0.000000e+000 0.000000e+000 0.000000e+000 7.401379e-001 2.598621e-001
 0.000000e+000 0.000000e+000 0.000000e+000 0.000000e+000 0.000000e+000
<ENDHMM>
~h "ah"
<BEGINHMM>
<NUMSTATES> 5
<STATE> 2
<MEAN> 25
 6.475286e+000 -1.274676e+000 4.186035e+000 -3.387937e+000 2.552091e-001 7.620453e-001 -4.678440e+000 3.664933e-001 -1.537373e+000 1.213641e-001 4.712017e-001 1.168934e+000 9.725069e-001 -2.554975e-001 -8.719103e-003 -1.029197e+000 -1.410619e-001 -2.501399e-001 -2.803558e-001 9.806006e-002 -3.910401e-001 -2.827656e-001 -1.801855e-001 3.170335e-001 1.078626e+000
<VARIANCE> 25
 3.787429e+001 9.437566e+001 6.472533e+001 8.556117e+001 6.949862e+001 6.355923e+001 5.103941e+001 7.239645e+001 6.743533e+001 7.446813e+001 3.481105e+001 4.409190e+001 4.032556e+000 8.337485e+000 5.771437e+000 8.277663e+000 6.848165e+000 5.733441e+000 6.318658e+000 6.822004e+000 6.661733e+000 5.533237e+000 4.317164e+000 4.104745e+000 4.760515e+000
<GCONST> 1.180715e+002
<STATE> 3
<MEAN> 25
 9.611341e+000 -3.486090e+000 2.759141e+000 -5.681523e+000 1.827242e+000 1.297494e+000 -5.120703e+000 -4.026819e-001 -1.233778e+000 2.636372e-001 -2.107382e-001 3.531172e+000 2.150726e-001 2.346632e-001 -6.530865e-001 1.151048e-001 -4.029756e-001 5.182093e-001 7.453908e-001 3.448482e-001 8.455662e-001 -7.083581e-001 -3.156790e-001 8.915534e-002 -2.059014e-001
<VARIANCE> 25
 3.152169e+001 7.938863e+001 6.589165e+001 8.328242e+001 7.080280e+001 4.990674e+001 4.651292e+001 7.580949e+001 7.253531e+001 6.829561e+001 4.934074e+001 5.400892e+001 8.956742e-001 2.206394e+000 3.108639e+000 3.888285e+000 4.907386e+000 3.669413e+000 4.639066e+000 5.162648e+000 3.805392e+000 3.989615e+000 3.254287e+000 3.549541e+000 1.388099e+000
<GCONST> 1.098509e+002
<STATE> 4
<MEAN> 25
 5.658446e+000 -1.409364e+000 -4.072610e+000 -2.909045e+000 -2.146951e+000 1.786966e+000 1.559205e+000 2.458691e+000 2.281700e+000 -2.951049e+000 1.711678e+000 2.639360e+000 -3.242856e-001 2.795188e-001 -5.330133e-002 3.225491e-001 -1.340130e-001 -7.043419e-002 2.297641e-001 -6.383514e-002 -4.657439e-002 -1.074182e-001 -1.236705e-001 -1.367030e-001 -4.784193e-001
<VARIANCE> 25
 6.143867e+001 1.002013e+002 8.488474e+001 1.347125e+002 4.712353e+001 4.560284e+001 5.756197e+001 5.785255e+001 6.402975e+001 5.180073e+001 4.024425e+001 4.820407e+001 5.762109e-001 1.833590e+000 2.565258e+000 3.193800e+000 3.050784e+000 2.788898e+000 3.499237e+000 3.344991e+000 4.526628e+000 4.344957e+000 2.820441e+000 2.577676e+000 7.357782e-001
<GCONST> 1.068925e+002
<TRANSP> 5
 0.000000e+000 1.000000e+000 0.000000e+000 0.000000e+000 0.000000e+000
 0.000000e+000 5.847082e-001 4.152918e-001 0.000000e+000 0.000000e+000
 0.000000e+000 0.000000e+000 4.579296e-001 5.420705e-001 0.000000e+000
 0.000000e+000 0.000000e+000 0.000000e+000 8.302761e-001 1.697238e-001
 0.000000e+000 0.000000e+000 0.000000e+000 0.000000e+000 0.000000e+000
<ENDHMM>
~h "ao"
<BEGINHMM>
<NUMSTATES> 5
<STATE> 2
<MEAN> 25
 4.028485e+000 6.074322e+000 4.747072e+000 -3.794590e+000 -8.906143e+000 -6.713181e-001 -4.723729e+000 5.105284e+000 7.526435e+000 -1.472371e+000 3.771747e+000 -1.111968e+000 5.165313e+000 1.713132e+000 2.086242e+000 1.090859e-001 -2.608326e+000 -1.939072e+000 -1.937718e+000 -6.843436e-001 1.801013e+000 -1.857905e+000 -1.784376e-001 4.315587e-001 3.701032e+000
<VARIANCE> 25
 9.420945e+001 6.492548e+001 6.235832e+001 4.386706e+001 6.247757e+001 7.355598e+001 3.213721e+001 4.207664e+001 5.994974e+001 4.668675e+001 3.811969e+001 2.955518e+001 3.597043e+000 1.430221e+001 9.943144e+000 1.277864e+001 4.914480e+000 6.341321e+000 3.801620e+000 6.089653e+000 6.414876e+000 9.109191e+000 3.773133e+000 1.441454e+000 2.825065e+000
<GCONST> 1.153525e+002
<STATE> 3
<MEAN> 25
 1.128406e+001 -1.442907e+000 1.245637e+001 -6.629900e+000 -1.415136e+001 -1.098874e+001 -8.517283e+000 6.356965e+000 8.148653e+000 -9.565891e-001 3.530593e+000 4.772832e-001 6.267228e-002 -9.230788e-001 4.927048e-001 -3.629220e-002 -4.282871e-001 -3.316109e-001 -2.294687e-001 -1.580764e-001 2.965694e-001 -1.984060e-001 6.604982e-002 3.118969e-001 6.870693e-001
<VARIANCE> 25
 8.138691e+000 2.673332e+001 5.027095e+001 2.247462e+001 2.420010e+001 4.712727e+001 3.112210e+001 3.523663e+001 3.365887e+001 3.140927e+001 2.464672e+001 1.685494e+001 4.640785e-001 1.483694e+000 1.350620e+000 1.594568e+000 9.894980e-001 2.338807e+000 2.054829e+000 1.193964e+000 1.616457e+000 1.836901e+000 9.495142e-001 9.483770e-001 9.216154e-001
<GCONST> 8.842360e+001
<STATE> 4
<MEAN> 25
 1.287314e+001 -1.497566e-003 5.877803e+000 -9.535810e+000 -1.295557e+001 -4.248748e+000 -8.559657e+000 1.422508e+000 1.100439e+001 -4.858674e+000 2.127172e+000 4.074363e+000 2.045289e-002 3.444308e-001 -4.327830e-001 -5.357564e-001 4.927412e-001 7.722124e-001 2.586356e-001 -3.339425e-001 -5.479266e-001 -2.032975e-001 -1.337732e-001 3.275969e-001 -1.635461e-001
<VARIANCE> 25
 3.376236e+000 3.081981e+001 4.072083e+001 9.723629e+001 8.281331e+001 8.094889e+001 3.499058e+001 4.964033e+001 6.482863e+001 3.593674e+001 1.493692e+001 3.591685e+001 1.374756e-001 5.900177e-001 6.718576e-001 1.867609e+000 1.695282e+000 2.224885e+000 1.838890e+000 1.985186e+000 2.492038e+000 1.518748e+000 1.198570e+000 1.593409e+000 2.243984e-001
<GCONST> 9.000570e+001
<TRANSP> 5
 0.000000e+000 1.000000e+000 0.000000e+000 0.000000e+000 0.000000e+000
 0.000000e+000 6.867476e-001 3.132524e-001 0.000000e+000 0.000000e+000
 0.000000e+000 0.000000e+000 8.323051e-001 1.676949e-001 0.000000e+000
 0.000000e+000 0.000000e+000 0.000000e+000 9.374777e-001 6.252231e-002
 0.000000e+000 0.000000e+000 0.000000e+000 0.000000e+000 0.000000e+000
<ENDHMM>
~h "aw"
<BEGINHMM>
<NUMSTATES> 5
<STATE> 2
<MEAN> 25
 2.260599e+000 5.303561e+000 -1.476090e+000 5.881943e+000 -6.453833e+000 3.862148e+000 6.788325e+000 -8.613394e-001 1.119647e+001 1.647358e-001 -3.415230e+000 6.641470e+000 1.477246e+000 -1.345459e+000 1.294164e+000 -2.051172e+000 5.758074e-002 -3.490525e-001 -2.204448e+000 4.957562e-001 -7.685653e-001 -3.702194e-001 -6.066368e-001 -2.028756e-001 2.453566e+000
<VARIANCE> 25
 7.811537e+001 8.657872e+001 1.072968e+002 6.627266e+001 4.482969e+001 9.231060e+001 7.265823e+001 4.260029e+001 1.135653e+002 3.693992e+001 5.969444e+001 8.003137e+001 7.602908e+000 1.692195e+001 5.142111e+000 9.700865e+000 4.869258e+000 6.296286e+000 8.992270e+000 2.878040e+000 1.702122e+001 3.850448e+000 4.276567e+000 5.641536e+000 7.107451e+000
<GCONST> 1.215848e+002
<STATE> 3
<MEAN> 25
 3.165149e+000 -5.636456e+000 -1.837191e+000 -7.733653e+000 -3.365741e+000 2.038187e-001 -3.657883e+000 -5.309309e-001 1.514760e+000 1.664940e+000 2.567908e+000 8.295800e+000 1.599102e+000 -2.312583e+000 2.254826e-001 -1.628935e+000 -9.805008e-001 5.554011e-001 -1.193290e+000 9.088193e-001 1.475057e+000 -5.789103e-001 5.600200e-001 -1.706071e-001 2.502415e+000
<VARIANCE> 25
 6.850407e+001 1.610128e+002 1.521504e+002 2.182549e+001 6.834742e+001 6.480524e+001 5.815143e+001 6.210678e+001 1.154306e+002 4.666622e+001 3.355174e+001 6.274604e+001 6.539434e+000 9.533669e+000 5.220367e+000 5.778488e+000 5.152196e+000 7.218528e+000 5.348816e+000 4.561230e+000 1.311038e+001 3.585402e+000 4.466412e+000 2.816437e+000 6.363117e+000
<GCONST> 1.187778e+002
<STATE> 4
<MEAN> 25
 7.286776e+000 -6.427271e+000 -1.448982e+000 -8.274557e+000 -1.063466e+001 7.565721e-001 7.420626e-001 3.389419e+000 1.064665e+001 -2.540359e+000 5.970433e-001 3.835364e+000 6.867577e-002 2.459421e-001 -1.771515e-001 1.551052e-001 -1.148297e-001 -2.190717e-001 4.148374e-001 -4.733559e-002 7.865270e-002 -8.512032e-003 -3.739980e-001 -1.686926e-001 -8.906300e-002
<VARIANCE> 25
 7.621693e+001 9.503559e+001 1.108939e+002 8.022135e+001 3.208671e+001 3.538483e+001 4.982056e+001 4.277268e+001 8.603910e+001 2.722848e+001 4.409150e+001 2.672652e+001 9.919655e-001 3.886357e+000 3.477759e+000 2.997709e+000 3.250263e+000 2.347600e+000 3.877066e+000 3.528287e+000 5.104843e+000 2.825877e+000 3.123895e+000 1.961171e+000 2.139103e+000
<GCONST> 1.070418e+002
<TRANSP> 5
 0.000000e+000 1.000000e+000 0.000000e+000 0.000000e+000 0.000000e+000
 0.000000e+000 7.312394e-001 2.687606e-001 0.000000e+000 0.000000e+000
 0.000000e+000 0.000000e+000 6.791677e-001 3.208323e-001 0.000000e+000
 0.000000e+000 0.000000e+000 0.000000e+000 9.489224e-001 5.107753e-002
 0.000000e+000 0.000000e+000 0.000000e+000 0.000000e+000 0.000000e+000
<ENDHMM>
~h "ay"
<BEGINHMM>
<NUMSTATES> 5
<STATE> 2
<MEAN> 25
 3.707520e+000 -4.830127e-001 -1.525578e+000 4.918163e+000 -3.025725e+000 2.759103e+000 -3.598473e+000 -5.969142e+000 4.341849e+000 1.437492e+000 3.123699e+000 -8.667583e-001 -1.601960e-001 9.038462e-001 -9.362878e-001 8.382293e-001 -3.213840e-001 1.146744e-001 4.214311e-001 -5.677355e-001 6.682253e-001 -6.008778e-001 -6.244162e-002 3.478883e-001 -9.893562e-001
<VARIANCE> 25
 6.314322e+001 8.705385e+001 7.260997e+001 8.243807e+001 5.533659e+001 5.085220e+001 6.257167e+001 7.360458e+001 7.534978e+001 6.536758e+001 3.933783e+001 3.559077e+001 1.434068e+000 3.446589e+000 6.916047e+000 4.734000e+000 3.941088e+000 5.478483e+000 2.951150e+000 4.612865e+000 5.951042e+000 5.576504e+000 3.440658e+000 2.165859e+000 1.643208e+000
<GCONST> 1.121569e+002
<STATE> 3
<MEAN> 25
 2.397818e-001 9.012734e+000 -1.034315e+001 1.107570e+001 -9.886151e-001 1.403520e+000 6.799124e+000 -2.951589e+000 5.903277e+000 -5.155633e+000 9.511571e-002 2.775449e+000 1.361927e-002 5.404835e-001 -5.685416e-001 2.562365e-001 3.961294e-001 -6.705853e-001 7.311157e-001 7.973090e-003 -6.136253e-001 2.353960e-001 -6.300013e-001 2.686596e-001 -3.233039e-001
<VARIANCE> 25
 5.967654e+001 1.196476e+002 5.225136e+001 1.100888e+002 3.331350e+001 4.796202e+001 1.027137e+002 7.405020e+001 6.847725e+001 1.101047e+002 3.451897e+001 2.825553e+001 1.461943e+000 2.052359e+000 5.556195e+000 3.639619e+000 1.556020e+000 5.505780e+000 4.300354e+000 2.537746e+000 3.138372e+000 7.383419e+000 2.447980e+000 2.586564e+000 9.479281e-001
<GCONST> 1.091801e+002
<STATE> 4
<MEAN> 25
 7.159725e-001 1.337850e+001 -1.007059e+001 1.009664e+001 -4.194245e-001 4.908419e-001 6.807682e+000 -2.136669e+000 6.004247e+000 -2.299532e-001 -2.761107e+000 -5.932114e-001 3.474865e-001 -7.310141e-001 1.188365e+000 -1.408098e+000 8.024886e-002 1.022613e-001 -8.823508e-001 3.576757e-001 -3.504761e-001 7.240175e-001 2.974115e-002 -1.710621e-001 1.182273e+000
<VARIANCE> 25
 6.356930e+001 9.602962e+001 1.213133e+002 1.158306e+002 5.400518e+001 7.322206e+001 1.661317e+002 6.554677e+001 1.047125e+002 7.904213e+001 4.104167e+001 4.219691e+001 4.931201e+000 6.345862e+000 5.953784e+000 9.930501e+000 5.002771e+000 7.552986e+000 1.129458e+001 6.735539e+000 1.167755e+001 6.656069e+000 4.945010e+000 4.947188e+000 4.280251e+000
<GCONST> 1.227616e+002
<TRANSP> 5
 0.000000e+000 1.000000e+000 0.000000e+000 0.000000e+000 0.000000e+000
 0.000000e+000 8.206841e-001 1.793159e-001 0.000000e+000 0.000000e+000
 0.000000e+000 0.000000e+000 5.951340e-001 4.048660e-001 0.000000e+000
 0.000000e+000 0.000000e+000 0.000000e+000 8.214886e-001 1.785115e-001
 0.000000e+000 0.000000e+000 0.000000e+000 0.000000e+000 0.000000e+000
<ENDHMM>
~h "ch"
<BEGINHMM>
<NUMSTATES> 5
<STATE> 2
<MEAN> 25
 -4.264109e+000 7.577431e+000 -1.289420e+001 9.637823e+000 2.470474e+000 -4.074218e+000 9.910348e+000 -4.681408e-001 -4.263748e+000 3.255296e+000 1.303554e+000 -4.500650e+000 1.931018e-002 -2.166508e-001 -1.662550e-001 1.303569e-001 -2.788274e-001 6.145978e-002 1.033225e-001 -2.911186e-001 2.205852e-001 -1.870015e-001 -4.951929e-002 3.719685e-002 3.397887e-002
<VARIANCE> 25
 8.570059e+000 5.022137e+001 9.493652e+001 3.474699e+001 5.266473e+001 2.679337e+001 6.232662e+001 6.894298e+001 4.489390e+001 4.755075e+001 5.119558e+001 2.916266e+001 9.019583e-001 3.023485e+000 3.578146e+000 5.267768e+000 7.459047e+000 3.500567e+000 7.007954e+000 8.210475e+000 5.723775e+000 6.199722e+000 5.218649e+000 3.685887e+000 6.991003e-001
<GCONST> 1.081278e+002
<STATE> 3
<MEAN> 25
 -4.428661e+000 -3.168229e-001 3.996633e+000 3.699779e+000 3.222960e+000 -3.633324e+000 4.890469e+000 2.372188e+000 -5.157219e+000 3.473562e+000 -4.211975e+000 -4.119382e+000 -1.151145e+000 -2.386278e+000 2.162320e+000 -1.320682e+000 2.856887e-001 -1.160979e+000 5.275928e-001 1.299837e+000 -3.683599e-001 -2.538657e-001 -4.555194e-001 1.215372e+000 1.508150e+000
<VARIANCE> 25
 8.243078e+000 1.542715e+002 1.224086e+002 6.924055e+001 4.835466e+001 3.975598e+001 6.325256e+001 3.294107e+001 3.754865e+001 8.311604e+001 2.277194e+001 3.898975e+001 2.684023e+000 1.089899e+001 1.430696e+001 7.960088e+000 7.838266e+000 2.506878e+000 8.525846e+000 2.516404e+000 4.973647e+000 5.313832e+000 2.551690e+000 2.985541e+000 4.815073e+000
<GCONST> 1.132098e+002
<STATE> 4
<MEAN> 25
 -8.991353e+000 -2.037242e+001 1.670749e+001 -2.375833e+000 3.067631e+000 -5.814220e-001 -2.452111e+000 4.106994e+000 3.491715e+000 -6.944914e-001 -1.720897e+000 5.966565e+000 9.740331e-001 3.261033e-001 -1.065253e+000 5.471529e-001 1.877939e-001 7.955922e-001 -8.219200e-001 -1.029318e+000 5.959099e-002 -3.128096e-001 3.502077e-001 2.062398e-001 1.973118e-002
<VARIANCE> 25
 3.120330e+001 2.796097e+001 5.612455e+001 2.680784e+001 2.184334e+001 4.434586e+001 5.289592e+001 8.389375e+001 6.974776e+001 5.396475e+001 3.016372e+001 1.471051e+001 5.114285e+000 4.340741e+000 4.659646e+000 3.145359e+000 3.592888e+000 3.546364e+000 3.640884e+000 4.711518e+000 8.077452e+000 3.303991e+000 2.930320e+000 1.571998e+000 1.027796e+000
<GCONST> 1.056479e+002
<TRANSP> 5
 0.000000e+000 1.000000e+000 0.000000e+000 0.000000e+000 0.000000e+000
 0.000000e+000 9.332466e-001 6.675347e-002 0.000000e+000 0.000000e+000
 0.000000e+000 0.000000e+000 8.005193e-001 1.994807e-001 0.000000e+000
 0.000000e+000 0.000000e+000 0.000000e+000 9.094241e-001 9.057581e-002
 0.000000e+000 0.000000e+000 0.000000e+000 0.000000e+000 0.000000e+000
<ENDHMM>
~h "dh"
<BEGINHMM>
<NUMSTATES> 5
<STATE> 2
<MEAN> 25
 7.676701e+000 -8.571536e+000 4.175416e+000 -2.452921e+000 1.192695e+001 -7.516093e-001 -1.425259e+001 -6.553271e+000 -9.280296e+000 1.857393e-001 -6.417365e-001 2.421646e+000 9.995272e-001 6.599261e-001 -2.551579e+000 -1.984794e+000 2.613687e+000 -3.935217e-001 -2.734581e+000 -1.465496e+000 6.410666e-003 -1.603942e+000 1.977621e-002 1.568044e+000 5.773326e-001
<VARIANCE> 25
 7.988523e+000 4.675533e+001 4.138270e+001 2.891306e+001 4.530021e+001 1.551272e+001 5.100848e+001 2.810247e+001 2.617643e+001 4.591776e+001 2.536840e+001 2.463961e+001 6.997561e-001 2.070615e+000 1.473074e+000 3.116615e+000 4.301304e+000 1.995177e+000 7.534939e+000 2.334896e+000 1.805756e+000 4.379713e+000 4.867064e+000 2.147840e+000 5.603216e-001
<GCONST> 9.705717e+001
<STATE> 3
<MEAN> 25
 9.638590e+000 -2.140988e+000 -2.387153e+000 -1.798751e+001 1.438975e+001 6.952829e+000 -1.617984e+001 -8.739234e+000 -7.794932e+000 -7.798677e+000 4.157402e+000 1.015829e+001 4.768769e-002 8.877176e-001 4.367080e-004 -1.208869e+000 -9.794801e-001 8.068902e-001 6.207442e-001 3.332853e-001 -1.517919e-001 -1.058224e+000 4.696194e-002 4.790706e-001 -3.398093e-001
<VARIANCE> 25
 3.711788e+000 1.649426e+001 1.941574e+001 5.101453e+001 4.530616e+001 3.851289e+001 2.701364e+001 1.454034e+001 2.227236e+001 3.696523e+001 2.762997e+001 2.025075e+001 1.208956e-001 4.438576e-001 5.451191e-001 2.296263e+000 1.118410e+000 2.803777e+000 2.396556e+000 1.305007e+000 2.521989e+000 3.083253e+000 2.964657e+000 1.243235e+000 6.762163e-002
<GCONST> 8.368202e+001
<STATE> 4
<MEAN> 25
 4.992197e-001 4.127420e+000 -3.761168e+000 -7.608148e-001 6.275506e-002 1.454850e+000 -4.645291e+000 -2.140609e+000 -3.467046e+000 -6.580676e+000 3.484705e+000 1.719894e-001 -5.373971e-001 1.410586e-001 -1.724350e-002 8.787968e-001 -5.995428e-001 -1.851769e-001 7.411779e-001 2.353018e-001 3.538826e-001 2.178014e-001 -3.250291e-001 -5.266515e-001 -7.207072e-001
<VARIANCE> 25
 5.785968e+001 1.594887e+001 3.260498e+001 1.082954e+002 8.773625e+001 3.301833e+001 6.299485e+001 4.262740e+001 6.352989e+001 2.679668e+001 8.343542e+001 5.478217e+001 3.797302e-001 8.021391e-001 1.582659e+000 3.465443e+000 2.388443e+000 2.770530e+000 3.298125e+000 3.765714e+000 3.783024e+000 2.504387e+000 4.403582e+000 2.442363e+000 3.901970e-001
<GCONST> 1.012828e+002
<TRANSP> 5
 0.000000e+000 1.000000e+000 0.000000e+000 0.000000e+000 0.000000e+000
 0.000000e+000 7.578110e-001 2.421890e-001 0.000000e+000 0.000000e+000
 0.000000e+000 0.000000e+000 8.525138e-001 1.474861e-001 0.000000e+000
 0.000000e+000 0.000000e+000 0.000000e+000 9.267657e-001 7.323425e-002
 0.000000e+000 0.000000e+000 0.000000e+000 0.000000e+000 0.000000e+000
<ENDHMM>
~h "eh"
<BEGINHMM>
<NUMSTATES> 5
<STATE> 2
<MEAN> 25
 8.438030e+000 -6.156558e+000 5.540218e+000 -4.168493e+000 3.763701e+000 1.211859e+000 -7.675144e+000 -6.091161e+000 -2.650294e+000 5.260542e+000 2.246592e+000 4.020106e+000 9.049543e-001 -5.321814e-001 -3.770279e-001 -3.550426e-002 2.650732e-001 -6.783839e-001 -9.587175e-001 -1.448641e+000 1.730348e-001 6.360699e-001 3.317422e-001 1.032475e+000 1.019201e+000
<VARIANCE> 25
 1.294153e+001 6.509914e+001 3.748616e+001 6.422562e+001 4.811721e+001 4.776706e+001 3.535519e+001 5.078647e+001 5.551899e+001 5.089914e+001 2.612710e+001 3.806337e+001 4.465167e+000 5.470283e+000 2.750190e+000 4.157975e+000 1.782602e+000 3.587148e+000 4.944229e+000 2.919949e+000 3.731585e+000 4.054166e+000 3.375389e+000 2.027140e+000 4.143456e+000
<GCONST> 1.067703e+002
<STATE> 3
<MEAN> 25
 7.132239e+000 -4.801139e+000 5.956679e+000 -7.479987e-001 6.182953e+000 -4.994817e-001 -5.808627e+000 -4.883234e+000 -2.356021e+000 7.048845e+000 6.472319e-001 2.882026e+000 -4.138346e-001 -1.009390e+000 4.694354e-001 -2.221498e-001 -1.375098e-001 -3.233663e-001 3.129561e-001 4.303368e-001 2.233848e-001 1.193034e+000 -6.869787e-002 -9.660549e-002 3.455110e-001
<VARIANCE> 25
 1.749379e+001 6.689873e+001 5.280367e+001 6.156041e+001 4.672240e+001 6.338148e+001 4.122548e+001 5.678006e+001 4.288940e+001 5.569648e+001 3.334779e+001 3.561889e+001 1.543098e+000 7.938917e+000 3.989606e+000 8.639675e+000 3.426276e+000 7.137744e+000 5.638549e+000 4.312466e+000 4.973767e+000 7.315178e+000 4.382110e+000 3.830610e+000 5.126722e+000
<GCONST> 1.121914e+002
<STATE> 4
<MEAN> 25
 6.088544e+000 -9.654914e+000 7.007360e+000 -3.593183e+000 4.322449e+000 -8.859910e-001 -7.968215e+000 -4.995356e+000 -1.570273e+000 7.628093e+000 1.544420e+000 2.818468e+000 -2.022162e-001 1.578632e-001 -2.807963e-001 2.719750e-001 -3.340378e-001 2.011447e-001 1.779316e-002 -1.991430e-001 7.894717e-002 -4.713329e-001 1.819751e-001 -1.514967e-001 -4.196950e-001
<VARIANCE> 25
 4.313873e+001 6.749686e+001 5.967656e+001 6.972414e+001 3.659716e+001 4.232125e+001 3.059396e+001 3.077370e+001 5.617803e+001 4.615575e+001 3.408574e+001 4.319703e+001 1.717603e+000 4.010766e+000 3.783289e+000 2.724518e+000 2.239067e+000 2.987792e+000 4.049577e+000 2.815368e+000 4.528855e+000 3.655869e+000 2.363208e+000 2.067479e+000 1.713938e+000
<GCONST> 1.051339e+002
<TRANSP> 5
 0.000000e+000 1.000000e+000 0.000000e+000 0.000000e+000 0.000000e+000
 0.000000e+000 6.016760e-001 3.983240e-001 0.000000e+000 0.000000e+000
 0.000000e+000 0.000000e+000 5.339091e-001 4.660909e-001 0.000000e+000
 0.000000e+000 0.000000e+000 0.000000e+000 8.187143e-001 1.812857e-001
 0.000000e+000 0.000000e+000 0.000000e+000 0.000000e+000 0.000000e+000
<ENDHMM>
~h "er"
<BEGINHMM>
<NUMSTATES> 5
<STATE> 2
<MEAN> 25
 8.888638e+000 4.174538e+000 -3.848677e+000 -7.562584e+000 8.054247e+000 7.884754e+000 -3.841910e+000 -3.138959e+000 -4.662814e+000 -6.145227e+000 3.056934e+000 6.412141e+000 5.119098e-001 8.220598e-001 -1.094691e+000 -5.343869e-001 1.985064e-001 4.849052e-001 1.777550e-001 -4.240998e-001 -8.707851e-002 -6.216897e-001 3.012218e-001 3.524936e-001 -1.554562e-001
<VARIANCE> 25
 3.815017e+001 7.636415e+001 1.164588e+002 1.881623e+002 7.594905e+001 7.347837e+001 1.306362e+002 5.962522e+001 9.877531e+001 5.602373e+001 3.224120e+001 4.584372e+001 2.323309e+000 2.683680e+000 5.323665e+000 9.091931e+000 5.329867e+000 5.079068e+000 5.199391e+000 5.811620e+000 6.298680e+000 5.985383e+000 3.873443e+000 2.520867e+000 1.744504e+000
<GCONST> 1.163049e+002
<STATE> 3
<MEAN> 25
 7.646276e+000 1.440177e-001 -3.046489e+000 -6.982706e+000 3.242429e+000 4.656250e+000 -4.908375e+000 -2.882788e+000 -3.387304e+000 -4.874762e+000 1.177303e+000 4.761135e+000 1.289401e+000 -6.238566e-001 7.596728e-001 -1.960855e+000 9.867076e-001 -5.917849e-002 -1.462451e+000 2.990303e-001 -5.381681e-001 -1.491843e-001 1.931806e-001 1.045390e+000 1.983576e+000
<VARIANCE> 25
 6.522569e+001 6.185074e+001 7.960349e+001 1.471065e+002 8.751463e+001 8.013186e+001 1.258816e+002 1.010717e+002 9.993847e+001 8.042366e+001 3.198234e+001 2.412411e+001 6.354415e+000 1.035400e+001 1.027358e+001 7.283696e+000 4.715738e+000 4.785106e+000 3.370513e+000 3.075135e+000 4.580460e+000 5.049592e+000 3.478727e+000 2.230762e+000 4.880162e+000
<GCONST> 1.182965e+002
<STATE> 4
<MEAN> 25
 9.791683e+000 2.052931e+000 -3.015087e+000 -1.352610e+001 8.218036e+000 8.670396e+000 -1.089970e+001 -3.704042e+000 -5.585029e+000 -8.221478e+000 4.174794e+000 5.533138e+000 -3.646868e-001 1.702379e-001 -8.185085e-002 6.180337e-001 -6.914461e-002 -2.640921e-001 2.085221e-001 9.213064e-002 1.657890e-001 1.867600e-001 2.051748e-002 -1.415453e-001 -4.967599e-001
<VARIANCE> 25
 2.053232e+001 4.496753e+001 4.946118e+001 1.095783e+002 7.735277e+001 7.278159e+001 6.167705e+001 5.352716e+001 6.457086e+001 5.476174e+001 3.626034e+001 3.781518e+001 4.045242e-001 1.606939e+000 1.638944e+000 3.848109e+000 2.876558e+000 3.099299e+000 2.418439e+000 2.985378e+000 2.990375e+000 3.103481e+000 1.877432e+000 2.703554e+000 7.745093e-001
<GCONST> 1.026772e+002
<TRANSP> 5
 0.000000e+000 1.000000e+000 0.000000e+000 0.000000e+000 0.000000e+000
 0.000000e+000 6.589683e-001 3.410317e-001 0.000000e+000 0.000000e+000
 0.000000e+000 0.000000e+000 4.547643e-001 5.452358e-001 0.000000e+000
 0.000000e+000 0.000000e+000 0.000000e+000 9.313942e-001 6.860585e-002
 0.000000e+000 0.000000e+000 0.000000e+000 0.000000e+000 0.000000e+000
<ENDHMM>
~h "ey"
<BEGINHMM>
<NUMSTATES> 5
<STATE> 2
<MEAN> 25
 6.493058e+000 -1.162026e+001 1.108370e+001 2.364928e+000 9.948777e+000 -1.047198e+001 -1.697888e+001 -1.383705e+000 -4.243129e-001 6.123783e+000 -3.327236e+000 -3.432642e+000 -1.407069e-001 2.279586e-001 3.304232e-001 5.597227e-001 2.005371e-001 -2.288615e-001 -3.638597e-001 1.521936e-001 1.054535e-001 -2.971782e-001 -3.311959e-001 -2.596778e-001 -2.247531e-001
<VARIANCE> 25
 7.812249e+000 1.987831e+001 3.767003e+001 3.745461e+001 2.834401e+001 3.008303e+001 3.811835e+001 3.123723e+001 3.081079e+001 4.933553e+001 2.645278e+001 2.238239e+001 2.265638e-001 7.394993e-001 8.481427e-001 7.550696e-001 1.092210e+000 2.111705e+000 1.645037e+000 1.526232e+000 1.737288e+000 1.777701e+000 1.391176e+000 1.155606e+000 2.943108e-001
<GCONST> 8.568848e+001
<STATE> 3
<MEAN> 25
 4.214800e+000 -1.348148e+000 7.552289e+000 7.167547e+000 7.566535e+000 -3.501765e+000 -1.330355e+001 -1.674153e+000 9.934899e-001 7.370384e-001 -2.216530e+000 -3.682235e+000 -4.114335e-002 1.158338e+000 -1.112326e+000 4.321293e-001 -8.924587e-001 1.236564e+000 1.185684e+000 -5.124300e-001 4.182347e-001 -3.421933e-001 7.727103e-001 4.123113e-001 -1.215426e+000
<VARIANCE> 25
 1.683410e+001 6.219362e+001 8.130005e+001 3.723579e+001 9.141271e+001 6.156962e+001 8.832649e+001 3.105933e+001 5.995907e+001 5.511996e+001 3.197013e+001 2.826551e+001 5.027529e-001 1.536705e+000 1.759509e+000 2.516307e+000 2.907052e+000 2.937531e+000 2.270175e+000 2.306358e+000 3.395274e+000 3.758127e+000 1.957362e+000 2.205623e+000 7.962561e-001
<GCONST> 1.011892e+002
<STATE> 4
<MEAN> 25
 5.306377e+000 5.836600e+000 -1.574131e+000 1.889260e+001 1.418669e+000 -5.788629e+000 -4.601535e+000 -8.001959e+000 3.442278e+000 -1.188231e+000 -6.156091e+000 -4.035874e+000 -2.498679e-001 1.338680e-001 -6.919141e-001 4.226036e-003 -6.673262e-001 -1.677591e-002 9.695551e-001 -1.526019e-001 2.194189e-001 -1.377676e-001 -1.689025e-001 2.905622e-001 -4.771356e-001
<VARIANCE> 25
 3.138443e+001 1.047444e+002 1.237968e+002 1.543800e+002 6.095243e+001 6.685021e+001 1.208329e+002 6.504302e+001 6.399588e+001 6.796526e+001 8.126006e+001 3.285878e+001 1.351479e+000 8.193714e+000 4.238939e+000 8.396923e+000 5.079166e+000 6.278738e+000 6.762210e+000 3.949775e+000 6.620384e+000 5.678584e+000 4.185298e+000 3.073873e+000 4.067876e+000
<GCONST> 1.177611e+002
<TRANSP> 5
 0.000000e+000 1.000000e+000 0.000000e+000 0.000000e+000 0.000000e+000
 0.000000e+000 9.282781e-001 7.172196e-002 0.000000e+000 0.000000e+000
 0.000000e+000 0.000000e+000 6.763828e-001 3.236173e-001 0.000000e+000
 0.000000e+000 0.000000e+000 0.000000e+000 8.126172e-001 1.873828e-001
 0.000000e+000 0.000000e+000 0.000000e+000 0.000000e+000 0.000000e+000
<ENDHMM>
~h "hh"
<BEGINHMM>
<NUMSTATES> 5
<STATE> 2
<MEAN> 25
 -1.106647e-001 -1.004640e+001 -1.352248e-001 -4.093222e+000 1.516078e+000 7.290540e+000 -3.357383e+000 3.573803e+000 7.140290e+000 6.509041e+000 2.803894e+000 8.413959e-001 1.226375e+000 1.261701e-001 8.886450e-001 -1.040250e+000 6.030159e-001 2.931361e-001 -6.591365e-001 1.563857e-001 2.641621e-001 1.456238e-001 -3.882199e-001 2.049000e-001 1.447598e+000
<VARIANCE> 25
 3.318767e+001 5.055473e+001 6.965880e+001 3.987589e+001 1.166321e+002 3.959557e+001 5.682613e+001 3.896135e+001 6.024503e+001 6.276209e+001 5.318726e+001 2.035057e+001 2.642633e+000 4.410367e+000 4.136437e+000 3.665220e+000 8.282463e+000 3.250118e+000 3.191917e+000 4.162807e+000 4.320713e+000 2.498534e+000 4.290790e+000 2.264805e+000 2.774116e+000
<GCONST> 1.093941e+002
<STATE> 3
<MEAN> 25
 9.765470e+000 -9.235059e+000 3.741613e+000 -1.042509e+001 2.671537e+000 5.900991e+000 -3.583862e+000 4.930120e+000 3.960907e+000 1.751845e+000 1.351437e+000 2.312915e+000 1.783029e-001 -2.335367e-001 -2.214801e-001 -2.766008e-002 -6.805946e-001 -4.148204e-001 4.983658e-002 3.803862e-001 2.369711e-001 -6.562002e-001 6.441906e-002 -1.067630e-001 1.361679e-001
<VARIANCE> 25
 1.279185e+001 3.446725e+001 1.431285e+001 4.908068e+001 3.706875e+001 1.828011e+001 5.316499e+001 5.338234e+001 9.882037e+001 2.439162e+001 2.127239e+001 2.272020e+001 5.870939e-001 1.062510e+000 8.294240e-001 2.200310e+000 2.700614e+000 1.919915e+000 2.282236e+000 2.140728e+000 2.253405e+000 2.019105e+000 1.727264e+000 1.489180e+000 6.994557e-001
<GCONST> 9.249215e+001
<STATE> 4
<MEAN> 25
 1.165807e+001 -2.171126e+000 3.297909e+000 -6.552561e+000 -1.944252e-001 -4.691233e-001 -4.500059e+000 5.822614e+000 -1.019635e+000 -7.243981e+000 8.430712e-001 -8.917093e-001 -1.779293e-001 7.115542e-001 1.210075e-003 8.129960e-001 -6.010682e-002 -8.448705e-002 1.665003e-003 -3.933625e-001 -3.307829e-001 2.756925e-002 1.251272e-001 -1.919822e-001 -6.824428e-001
<VARIANCE> 25
 6.976806e+000 4.898629e+001 2.417511e+001 3.887904e+001 1.116121e+002 4.872544e+001 4.049594e+001 3.993904e+001 2.107671e+002 2.472589e+001 2.827837e+001 5.202443e+001 1.975934e-001 1.526962e+000 1.400383e+000 2.756021e+000 3.172290e+000 2.255035e+000 2.491303e+000 2.749682e+000 4.183439e+000 2.388671e+000 2.042315e+000 2.093986e+000 8.061636e-001
<GCONST> 9.805277e+001
<TRANSP> 5
 0.000000e+000 1.000000e+000 0.000000e+000 0.000000e+000 0.000000e+000
 0.000000e+000 8.663248e-001 1.336752e-001 0.000000e+000 0.000000e+000
 0.000000e+000 0.000000e+000 8.884852e-001 1.115147e-001 0.000000e+000
 0.000000e+000 0.000000e+000 0.000000e+000 8.980280e-001 1.019721e-001
 0.000000e+000 0.000000e+000 0.000000e+000 0.000000e+000 0.000000e+000
<ENDHMM>
~h "ih"
<BEGINHMM>
<NUMSTATES> 5
<STATE> 2
<MEAN> 25
 4.160866e+000 7.069306e-001 9.019696e+000 4.772972e+000 5.602977e+000 1.881111e+000 -4.738080e+000 -1.418070e+000 -1.176268e+000 3.424131e+000 -1.911949e+000 -3.660798e+000 2.193247e+000 -1.491291e-001 1.375184e+000 1.183184e+000 2.443442e+000 -1.552536e+000 -3.298236e+000 -1.103541e+000 -1.466643e+000 3.145738e-001 -2.184436e-001 -2.269114e-001 2.199781e+000
<VARIANCE> 25
 6.355629e+001 1.305780e+002 7.828288e+001 6.677941e+001 8.347645e+001 6.188611e+001 1.035727e+002 5.932052e+001 6.983803e+001 5.019918e+001 3.174559e+001 2.597644e+001 7.119889e+000 1.675213e+001 5.528553e+000 8.330422e+000 5.128677e+000 8.466781e+000 1.026457e+001 6.668533e+000 6.037727e+000 5.782359e+000 3.309651e+000 2.767928e+000 2.978930e+000
<GCONST> 1.191505e+002
<STATE> 3
<MEAN> 25
 7.054166e+000 -6.682348e+000 1.212844e+001 7.341110e+000 1.521876e+001 -7.174717e+000 -1.623838e+001 -2.520324e+000 -6.825314e+000 4.520673e+000 -4.782411e-001 -4.664808e+000 1.418037e-002 -5.663025e-001 1.675641e-001 1.156045e-001 6.041064e-001 -1.025896e+000 -1.002060e+000 2.646645e-001 -2.491297e-001 2.831506e-001 1.010604e-001 -5.776944e-001 4.406350e-001
<VARIANCE> 25
 8.687137e+000 5.578893e+001 3.528228e+001 5.678630e+001 3.805709e+001 6.648782e+001 5.629621e+001 6.467539e+001 5.547073e+001 2.944051e+001 2.375180e+001 3.261048e+001 7.292641e-001 2.445607e+000 2.208343e+000 3.135381e+000 2.881729e+000 3.961071e+000 4.020242e+000 3.283964e+000 3.196065e+000 2.412758e+000 1.811360e+000 2.577967e+000 1.163202e+000
<GCONST> 1.010835e+002
<STATE> 4
<MEAN> 25
 6.338067e+000 -2.384075e+000 9.474719e+000 7.700024e+000 1.157765e+001 -1.955652e+000 -1.372935e+001 -2.109283e+000 -4.056064e+000 2.785369e+000 -8.070585e-001 -6.833810e+000 -1.712965e-001 9.295768e-001 -5.930699e-001 3.526059e-001 -8.460674e-001 7.846155e-001 8.455951e-001 -1.244624e-001 6.875565e-001 -4.917559e-001 -4.260644e-002 1.561872e-001 -9.979948e-001
<VARIANCE> 25
 1.490973e+001 5.337510e+001 3.787152e+001 7.060182e+001 4.665166e+001 6.276953e+001 3.383350e+001 7.340115e+001 7.038855e+001 5.138042e+001 4.110273e+001 3.877694e+001 5.620266e-001 1.824257e+000 2.027682e+000 3.878804e+000 3.122600e+000 3.151724e+000 2.930473e+000 3.711127e+000 4.313572e+000 3.202840e+000 3.158456e+000 2.544614e+000 1.136113e+000
<GCONST> 1.034823e+002
<TRANSP> 5
 0.000000e+000 1.000000e+000 0.000000e+000 0.000000e+000 0.000000e+000
 0.000000e+000 6.676772e-001 3.323228e-001 0.000000e+000 0.000000e+000
 0.000000e+000 0.000000e+000 7.594251e-001 2.405749e-001 0.000000e+000
 0.000000e+000 0.000000e+000 0.000000e+000 8.855015e-001 1.144985e-001
 0.000000e+000 0.000000e+000 0.000000e+000 0.000000e+000 0.000000e+000
<ENDHMM>
~h "iy"
<BEGINHMM>
<NUMSTATES> 5
<STATE> 2
<MEAN> 25
 3.963895e+000 -5.947251e+000 1.329465e+001 6.473602e+000 1.298646e+001 -6.466876e-001 -1.050548e+001 -3.156073e+000 -7.397103e+000 1.729257e+000 -2.472275e+000 -4.309566e+000 1.372540e+000 -4.499200e-001 1.539322e-002 2.036233e+000 1.798900e+000 -1.850158e+000 -2.517458e+000 -4.022291e-001 -1.473753e-001 3.029781e-001 -7.585929e-002 -5.877174e-001 1.091333e+000
<VARIANCE> 25
 4.202849e+001 4.608778e+001 1.009313e+002 9.510968e+001 4.870692e+001 4.943447e+001 5.526070e+001 5.059132e+001 7.655893e+001 4.962655e+001 3.264507e+001 2.536843e+001 4.483989e+000 7.968978e+000 5.088582e+000 1.189155e+001 5.149477e+000 5.088249e+000 7.038085e+000 5.350441e+000 7.484847e+000 5.572667e+000 4.046953e+000 3.116690e+000 3.531529e+000
<GCONST> 1.154698e+002
<STATE> 3
<MEAN> 25
 5.799363e+000 -1.095378e+001 1.435461e+001 1.366456e+001 1.643620e+001 -1.111494e+001 -1.887551e+001 -1.813266e+000 -4.534604e+000 7.596739e-001 -1.677948e+000 -6.031324e+000 -6.879742e-002 -3.321460e-001 4.545005e-002 2.233822e-001 2.338881e-001 -7.577295e-001 -3.211961e-001 2.047544e-001 1.484915e-002 -1.842130e-001 -1.218714e-001 -1.004893e-001 2.054494e-001
<VARIANCE> 25
 8.422887e+000 1.717999e+001 4.737029e+001 4.035466e+001 3.093845e+001 3.193933e+001 2.153664e+001 5.758328e+001 5.667006e+001 2.522757e+001 2.218101e+001 1.754067e+001 4.242069e-001 7.240719e-001 1.751935e+000 1.489457e+000 1.515019e+000 2.442654e+000 2.225792e+000 2.120829e+000 2.133350e+000 1.543495e+000 1.268986e+000 1.048166e+000 3.034889e-001
<GCONST> 8.864886e+001
<STATE> 4
<MEAN> 25
 7.057159e+000 -5.879632e+000 6.798568e+000 5.425934e+000 1.696022e+001 -6.670920e+000 -1.570539e+001 -4.224992e+000 -9.009756e+000 3.881602e+000 -1.628076e+000 -4.064248e+000 1.275349e-001 8.249995e-001 -9.072203e-001 -7.199744e-001 -3.275315e-001 8.925354e-001 6.100451e-001 -1.326590e-001 -1.066469e-001 -1.573533e-001 1.701790e-001 4.617385e-001 -5.752670e-001
<VARIANCE> 25
 1.073929e+001 4.915834e+001 4.928315e+001 8.028390e+001 5.786710e+001 6.372284e+001 2.852408e+001 3.182660e+001 6.136973e+001 4.302733e+001 2.763254e+001 3.150260e+001 3.759213e-001 1.234848e+000 1.586118e+000 3.638099e+000 2.399627e+000 3.435296e+000 2.477593e+000 2.693693e+000 3.623010e+000 3.474370e+000 2.208170e+000 2.295709e+000 5.998483e-001
<GCONST> 9.880838e+001
<TRANSP> 5
 0.000000e+000 1.000000e+000 0.000000e+000 0.000000e+000 0.000000e+000
 0.000000e+000 7.168210e-001 2.831791e-001 0.000000e+000 0.000000e+000
 0.000000e+000 0.000000e+000 8.699073e-001 1.300926e-001 0.000000e+000
 0.000000e+000 0.000000e+000 0.000000e+000 9.062195e-001 9.378055e-002
 0.000000e+000 0.000000e+000 0.000000e+000 0.000000e+000 0.000000e+000
<ENDHMM>
~h "jh"
<BEGINHMM>
<NUMSTATES> 5
<STATE> 2
<MEAN> 25
 1.662038e+000 -3.918614e+000 4.451942e+000 3.396482e-001 1.804156e+000 6.241196e-001 2.816265e+000 3.907958e+000 -7.210510e+000 4.673676e+000 2.613323e+000 -2.093170e+000 -7.291727e-001 -1.698849e+000 1.694464e-001 -8.885804e-001 -1.690022e+000 -3.363788e-001 4.960777e-001 3.759952e-001 -4.263984e-001 8.374435e-002 1.088496e+000 5.843297e-001 2.281536e-001
<VARIANCE> 25
 3.190772e+001 1.544169e+002 9.320538e+001 1.299037e+002 4.203799e+001 4.736472e+001 4.049691e+001 2.284464e+001 8.148949e+001 2.143657e+001 8.685509e+001 2.677761e+001 2.930460e+000 1.047026e+001 1.210498e+001 1.175875e+001 4.902290e+000 5.470305e+000 8.572827e+000 5.325518e+000 9.504522e+000 1.484733e+000 5.332662e+000 1.912568e+000 7.224301e+000
<GCONST> 1.159336e+002
<STATE> 3
<MEAN> 25
 -3.404937e+000 2.870770e+000 -1.709512e+001 3.349213e+000 -7.174696e+000 -4.065038e+000 1.082566e+001 4.249952e-001 3.433077e+000 1.865228e+000 6.355752e+000 5.494828e+000 -3.644170e-001 3.926157e-001 -5.350551e-001 -1.929329e-001 -2.800586e-001 -5.127666e-001 4.688790e-002 -7.490557e-002 -1.321518e-001 -5.312214e-001 -2.553413e-001 1.752832e-002 -5.516643e-001
<VARIANCE> 25
 2.087865e+001 7.516438e+001 1.243318e+002 1.311119e+002 4.526113e+001 4.071835e+001 1.091860e+002 4.442987e+001 6.467889e+001 3.590483e+001 6.554398e+001 2.111365e+001 1.080497e+000 2.770329e+000 8.930972e+000 7.967566e+000 3.214461e+000 4.662954e+000 6.847101e+000 4.136424e+000 9.102494e+000 4.087591e+000 3.741498e+000 3.079772e+000 1.051569e+000
<GCONST> 1.115168e+002
<STATE> 4
<MEAN> 25
 -7.183479e+000 -3.717678e+000 -1.148382e+000 -2.843992e+000 -5.953802e-001 -2.260085e+000 -3.150631e+000 3.437798e+000 3.988055e+000 -7.446664e-001 -1.225707e+000 1.562201e-002 2.281512e-001 -9.693299e-001 1.022880e+000 2.758369e-001 7.507018e-001 6.631401e-001 -9.288035e-001 -2.275152e-001 4.464609e-001 3.798829e-001 -1.956216e-001 -8.108842e-002 8.920677e-001
<VARIANCE> 25
 5.549801e+001 1.859915e+002 3.503050e+002 7.021457e+001 8.897852e+001 4.408677e+001 4.799674e+001 3.513171e+001 7.279266e+001 4.790075e+001 3.707875e+001 4.349231e+001 3.726460e+000 1.104203e+001 9.643445e+000 4.209367e+000 9.843243e+000 6.342983e+000 9.090718e+000 5.581077e+000 7.508389e+000 4.158809e+000 4.210155e+000 5.116206e+000 2.214571e+000
<GCONST> 1.193343e+002
<TRANSP> 5
 0.000000e+000 1.000000e+000 0.000000e+000 0.000000e+000 0.000000e+000
 0.000000e+000 8.834375e-001 1.165626e-001 0.000000e+000 0.000000e+000
 0.000000e+000 0.000000e+000 9.036307e-001 9.636936e-002 0.000000e+000
 0.000000e+000 0.000000e+000 0.000000e+000 9.135771e-001 8.642291e-002
 0.000000e+000 0.000000e+000 0.000000e+000 0.000000e+000 0.000000e+000
<ENDHMM>
~h "ng"
<BEGINHMM>
<NUMSTATES> 5
<STATE> 2
<MEAN> 25
 9.200189e+000 3.561067e+000 -2.194143e-001 -2.600058e+000 5.596912e+000 2.374628e+000 -4.720408e+000 3.176730e+000 -3.951954e-001 -2.068036e+000 -4.371357e+000 -3.807535e+000 -4.833376e-001 -2.286517e-001 -1.106852e-001 -4.688334e-001 2.760201e-001 -1.670097e-001 4.053366e-001 -2.317546e-001 -1.345161e+000 5.736929e-001 2.646978e-001 -5.198930e-002 -1.613797e-001
<VARIANCE> 25
 1.395061e+001 4.949940e+001 2.268024e+001 9.453535e+001 3.462909e+001 4.557673e+001 7.227593e+001 2.368400e+001 1.301362e+002 4.656959e+001 4.435472e+001 1.942292e+001 1.004613e+000 6.728746e+000 2.531000e+000 1.230001e+001 3.515713e+000 4.210951e+000 5.890802e+000 2.203504e+000 1.800354e+001 6.775559e+000 4.081910e+000 1.838907e+000 2.660326e+000
<GCONST> 1.088381e+002
<STATE> 3
<MEAN> 25
 5.591757e-001 -1.593291e+000 -6.264562e+000 -2.357787e+000 3.408390e+000 3.437498e+000 1.540845e+000 -2.688403e-001 -9.337152e+000 -2.604501e-001 4.569420e+000 -2.564813e+000 -4.497216e-001 1.025600e+000 -1.228740e+000 2.079021e+000 -8.092040e-001 9.339274e-001 -6.519831e-002 -6.808344e-001 2.684581e+000 -8.931452e-001 3.544984e-001 1.426274e-001 -1.748145e+000
<VARIANCE> 25
 1.085519e+001 3.484212e+001 6.759608e+001 1.521137e+002 5.751857e+001 3.268109e+001 7.210822e+001 7.418921e+001 1.241725e+002 2.753322e+001 9.206691e+001 2.984170e+001 1.039901e+000 3.299454e+000 2.586370e+000 6.912631e+000 3.695295e+000 2.869190e+000 4.289675e+000 5.159093e+000 7.418958e+000 4.090873e+000 3.713188e+000 2.833322e+000 1.328721e+000
<GCONST> 1.089247e+002
<STATE> 4
<MEAN> 25
 -7.148736e+000 4.935684e+000 -1.026590e+001 2.950464e+000 -4.680860e+000 5.340496e+000 3.463680e+000 -3.680613e+000 3.270844e+000 -6.292065e+000 5.135737e-001 3.382341e-001 -5.736774e-001 6.691699e-002 -2.091799e-001 -5.277853e-002 -3.832455e-001 -3.955673e-001 1.345245e-001 2.836825e-002 1.948925e-001 -7.155192e-002 -1.817477e-001 9.717046e-002 -5.355765e-001
<VARIANCE> 25
 3.109497e+001 4.105209e+001 9.496769e+001 3.747300e+001 5.499183e+001 6.052486e+001 7.285333e+001 5.658307e+001 4.682448e+001 6.287467e+001 6.512180e+001 3.463184e+001 9.311887e-001 1.547006e+000 3.596175e+000 3.225015e+000 4.724677e+000 4.023695e+000 5.296208e+000 5.274875e+000 4.684124e+000 5.499892e+000 6.369315e+000 3.903656e+000 5.953833e-001
<GCONST> 1.084535e+002
<TRANSP> 5
 0.000000e+000 1.000000e+000 0.000000e+000 0.000000e+000 0.000000e+000
 0.000000e+000 9.166728e-001 8.332719e-002 0.000000e+000 0.000000e+000
 0.000000e+000 0.000000e+000 8.583971e-001 1.416029e-001 0.000000e+000
 0.000000e+000 0.000000e+000 0.000000e+000 9.302353e-001 6.976470e-002
 0.000000e+000 0.000000e+000 0.000000e+000 0.000000e+000 0.000000e+000
<ENDHMM>
~h "ow"
<BEGINHMM>
<NUMSTATES> 5
<STATE> 2
<MEAN> 25
 1.164882e+001 2.279809e+000 4.131777e+000 -1.103008e+001 -3.664342e+000 -8.256301e+000 -7.180128e+000 9.503440e+000 3.323908e-001 -3.299661e+000 8.252293e-001 -1.485025e+000 -4.605412e-002 4.227725e-001 -5.681056e-002 1.687195e-001 3.471465e-002 -1.067735e-001 9.079012e-002 1.851656e-001 -1.489079e-002 1.204179e-001 -8.187381e-003 -2.251885e-001 -2.939892e-001
<VARIANCE> 25
 3.651315e+000 3.540921e+001 3.126143e+001 3.192967e+001 6.010181e+001 4.563271e+001 2.524364e+001 4.046638e+001 5.170606e+001 2.687273e+001 2.009152e+001 3.010316e+001 1.300542e-001 7.437773e-001 6.813014e-001 1.206095e+000 1.264005e+000 2.066084e+000 1.145186e+000 1.550588e+000 1.699421e+000 1.406021e+000 1.305031e+000 1.327690e+000 2.985462e-001
<GCONST> 8.541608e+001
<STATE> 3
<MEAN> 25
 6.177274e+000 1.411565e+001 -2.048605e-001 9.368688e-001 -6.278845e+000 2.234035e-001 -1.096256e+000 1.715133e+000 2.720381e+000 -5.329010e+000 -3.972898e-001 -2.892334e+000 -5.682523e-001 -3.897083e-003 -6.886446e-001 1.050852e+000 -5.403955e-001 7.463856e-001 7.580908e-001 -1.298629e+000 2.419338e-001 -4.880469e-001 -1.117631e-001 3.879775e-001 -9.172949e-001
<VARIANCE> 25
 2.158398e+001 8.622356e+001 6.724859e+001 4.511451e+001 8.067986e+001 5.297433e+001 5.574798e+001 1.119581e+002 6.240307e+001 4.421436e+001 3.338214e+001 2.838161e+001 3.396674e-001 1.925704e+000 2.685506e+000 3.417425e+000 3.962831e+000 4.880821e+000 4.110415e+000 4.646243e+000 4.058744e+000 4.041341e+000 3.825306e+000 2.812886e+000 6.236818e-001
<GCONST> 1.057744e+002
<STATE> 4
<MEAN> 25
 -8.709996e+000 2.223842e+000 -1.238368e+001 -1.422108e+000 -1.165900e+001 2.400449e+000 3.618461e+000 -2.385059e+000 5.479532e+000 -3.987744e+000 4.708458e-001 2.109574e+000 -4.155954e-001 -3.440602e-001 -1.947892e-001 -5.481564e-002 1.376524e-001 1.306666e-001 1.905129e-002 1.220031e-002 8.724798e-002 2.608991e-001 1.782049e-001 6.388446e-002 -2.068918e-001
<VARIANCE> 25
 5.358089e+001 7.785094e+001 1.189385e+002 6.717861e+001 5.966712e+001 6.506153e+001 5.596338e+001 4.465005e+001 8.710594e+001 5.024032e+001 4.587067e+001 4.741179e+001 1.204770e+000 3.701058e+000 6.400115e+000 4.927175e+000 5.542370e+000 4.836823e+000 4.385462e+000 5.227030e+000 6.244659e+000 4.338702e+000 4.725982e+000 4.819916e+000 1.052776e+000
<GCONST> 1.132686e+002
<TRANSP> 5
 0.000000e+000 1.000000e+000 0.000000e+000 0.000000e+000 0.000000e+000
 0.000000e+000 9.597631e-001 4.023683e-002 0.000000e+000 0.000000e+000
 0.000000e+000 0.000000e+000 8.817351e-001 1.182649e-001 0.000000e+000
 0.000000e+000 0.000000e+000 0.000000e+000 9.307046e-001 6.929541e-002
 0.000000e+000 0.000000e+000 0.000000e+000 0.000000e+000 0.000000e+000
<ENDHMM>
~h "oy"
<BEGINHMM>
<NUMSTATES> 5
<STATE> 2
<MEAN> 25
 1.475807e+001 -5.957608e+000 3.694809e+000 -1.190948e+001 -5.061886e+000 -6.514434e+000 -9.746476e+000 6.358444e+000 1.143375e+000 -5.426458e+000 2.409208e+000 1.988915e+000 5.045716e-004 -3.957347e-001 -2.380537e-001 -2.214607e-001 2.883032e-001 3.522667e-001 5.607245e-001 -7.746925e-002 -4.999693e-001 -6.167928e-002 8.531220e-002 1.232832e-002 2.519353e-001
<VARIANCE> 25
 1.744382e+000 2.125117e+001 1.138006e+001 1.426053e+001 2.326036e+001 5.980927e+001 2.339762e+001 2.044701e+001 4.745161e+001 1.539837e+001 3.517208e+001 1.422824e+001 2.325181e-001 1.433486e+000 1.028631e+000 1.661260e+000 2.333063e+000 4.966015e+000 2.506686e+000 3.003687e+000 4.217491e+000 1.387823e+000 3.102735e+000 2.797981e+000 5.798925e-001
<GCONST> 8.815591e+001
<STATE> 3
<MEAN> 25
 1.047524e+001 -7.902792e+000 5.283301e+000 -8.041653e+000 9.890878e+000 -2.863400e+000 -8.164503e+000 -6.702378e+000 -9.960054e+000 1.270119e+000 -9.231304e-001 5.456249e+000 -1.344799e+000 -9.099362e-002 1.533768e+000 6.693326e-001 2.007993e+000 -6.587151e-001 -3.551128e-001 -1.927298e+000 -8.721139e-001 2.309932e+000 -9.871606e-001 1.216732e-003 -1.475958e-001
<VARIANCE> 25
 2.929014e+001 2.593893e+001 7.559364e+001 2.788836e+001 6.419037e+001 1.814287e+001 7.524136e+001 5.064621e+001 1.907497e+001 4.508810e+001 3.988929e+001 2.488032e+001 2.328001e+000 1.838241e+000 2.340842e+000 2.015402e+000 2.796236e+000 1.577039e+000 3.819041e+000 4.744604e+000 2.620515e+000 3.534683e+000 2.653527e+000 2.240567e+000 3.843359e-001
<GCONST> 9.963474e+001
<STATE> 4
<MEAN> 25
 -6.239055e+000 -1.590491e+001 2.059475e+001 -7.424401e+000 1.171613e+000 6.496833e-002 1.526624e+000 -6.091309e-001 -1.454353e+001 -4.582778e-001 4.528114e+000 1.610464e+000 2.573489e-002 -1.435066e-001 -9.595557e-001 4.745298e-001 -6.805975e-001 6.537561e-001 -1.905046e-001 5.063628e-002 -8.657638e-002 -4.994222e-001 2.644455e-001 -1.290504e-001 -7.419833e-001
<VARIANCE> 25
 4.473472e+001 3.055099e+001 1.189382e+002 1.656515e+001 4.194028e+001 1.957079e+001 4.409327e+001 2.957939e+001 1.973649e+001 4.550736e+001 2.276453e+001 1.486666e+001 7.543886e-001 2.257157e+000 2.581971e+000 1.155753e+000 1.363161e+000 2.924550e+000 1.950007e+000 1.785295e+000 2.057431e+000 2.311550e+000 1.817944e+000 1.928502e+000 6.465006e-001
<GCONST> 9.389489e+001
<TRANSP> 5
 0.000000e+000 1.000000e+000 0.000000e+000 0.000000e+000 0.000000e+000
 0.000000e+000 9.372377e-001 6.276231e-002 0.000000e+000 0.000000e+000
 0.000000e+000 0.000000e+000 8.461718e-001 1.538282e-001 0.000000e+000
 0.000000e+000 0.000000e+000 0.000000e+000 8.446293e-001 1.553708e-001
 0.000000e+000 0.000000e+000 0.000000e+000 0.000000e+000 0.000000e+000
<ENDHMM>
~h "sh"
<BEGINHMM>
<NUMSTATES> 5
<STATE> 2
<MEAN> 25
 -2.223066e+000 -1.437409e+001 1.877424e+001 4.546952e+000 8.873704e+000 8.069980e-001 -1.007094e+001 -4.508686e+000 -4.767351e+000 2.891136e+000 4.407621e-001 -7.590874e-001 -2.292512e+000 -2.886426e+000 2.186157e+000 -1.004316e+000 -6.936581e-001 1.599798e-001 1.613716e+000 3.376309e-001 -1.499510e-001 1.868320e-001 3.377755e-001 3.551975e-001 8.184215e-001
<VARIANCE> 25
 2.056170e+001 4.091034e+001 8.118760e+001 5.015305e+001 3.450296e+001 5.462303e+001 3.983801e+001 5.451608e+001 2.385266e+001 3.828280e+001 3.755606e+001 2.115115e+001 8.918858e-001 3.343813e+000 3.134284e+000 2.385069e+000 1.754839e+000 6.379619e+000 4.876631e+000 3.294029e+000 3.129997e+000 1.510301e+000 2.698525e+000 1.982827e+000 7.222679e-001
<GCONST> 1.009144e+002
<STATE> 3
<MEAN> 25
 -1.067553e+001 -2.467542e+001 2.509927e+001 3.613405e+000 4.788931e+000 -1.058043e+000 -2.366614e+000 1.473068e+000 -3.800700e-001 4.623655e-001 1.765356e+000 6.265104e-001 -6.353185e-001 -1.094887e+000 2.768393e-001 -1.587850e-001 -6.005192e-001 -2.184068e-001 8.800743e-001 6.579468e-001 7.284229e-001 -1.805557e-001 -1.610818e-001 3.875543e-001 2.996955e-001
<VARIANCE> 25
 1.215072e+001 3.736320e+001 4.408536e+001 3.769359e+001 4.422548e+001 1.468488e+001 3.201827e+001 3.153256e+001 2.525499e+001 4.034427e+001 2.416480e+001 1.697857e+001 6.360248e-001 2.054936e+000 2.593729e+000 1.210097e+000 1.422519e+000 1.931207e+000 2.016431e+000 2.707477e+000 1.405549e+000 1.642186e+000 1.879363e+000 1.086656e+000 1.361766e+000
<GCONST> 9.179611e+001
<STATE> 4
<MEAN> 25
 -8.674604e+000 -2.284181e+001 1.757196e+001 2.565804e+000 -9.567124e-001 -1.585703e+000 -5.480771e+000 2.478786e+000 5.337132e+000 -1.337456e+000 1.482261e+000 2.750565e+000 1.408814e+000 1.741490e+000 -1.638375e+000 3.059179e-001 -7.704363e-001 3.007468e-001 -7.086416e-001 -9.135902e-001 -2.449627e-001 -5.937696e-001 -5.882123e-002 -8.195540e-002 -7.608615e-001
<VARIANCE> 25
 2.195242e+001 5.182433e+001 5.574654e+001 3.019876e+001 5.361081e+001 2.576227e+001 4.868767e+001 5.808266e+001 3.945274e+001 4.292048e+001 2.351382e+001 2.411736e+001 4.112780e+000 4.363198e+000 1.624610e+000 2.008983e+000 2.419283e+000 2.515232e+000 2.199085e+000 4.939818e+000 4.128402e+000 3.544003e+000 1.871093e+000 1.763001e+000 1.120544e+000
<GCONST> 1.016171e+002
<TRANSP> 5
 0.000000e+000 1.000000e+000 0.000000e+000 0.000000e+000 0.000000e+000
 0.000000e+000 6.893840e-001 3.106160e-001 0.000000e+000 0.000000e+000
 0.000000e+000 0.000000e+000 8.587838e-001 1.412162e-001 0.000000e+000
 0.000000e+000 0.000000e+000 0.000000e+000 8.755311e-001 1.244689e-001
 0.000000e+000 0.000000e+000 0.000000e+000 0.000000e+000 0.000000e+000
<ENDHMM>
~h "sp"
<BEGINHMM>
<NUMSTATES> 3
<STATE> 2
~s "silst"
<TRANSP> 3
 0.000000e+000 1.093977e-001 8.906023e-001
 0.000000e+000 6.955969e-001 3.044032e-001
 0.000000e+000 0.000000e+000 0.000000e+000
<ENDHMM>
~h "th"
<BEGINHMM>
<NUMSTATES> 5
<STATE> 2
<MEAN> 25
 5.229417e+000 -1.374062e+001 4.867531e+000 -9.460588e+000 1.583903e+000 -2.895513e+000 -5.895268e+000 1.732094e-002 -3.404085e+000 5.567169e+000 4.143353e+000 3.915109e+000 -3.525721e-002 5.000826e-001 -2.804212e-001 2.914676e-001 1.239279e-001 6.229851e-001 -1.071242e-001 -5.238960e-001 -3.086744e-001 1.386233e-001 9.048588e-002 -2.506964e-001 -5.051230e-001
<VARIANCE> 25
 4.938086e+001 3.317949e+001 6.770492e+001 4.311895e+001 4.758296e+001 8.092245e+001 2.757282e+001 5.099033e+001 8.676217e+001 4.670996e+001 7.727598e+001 3.966676e+001 4.704862e-001 9.314937e-001 2.197141e+000 1.058981e+000 1.533767e+000 1.978091e+000 2.243811e+000 1.556411e+000 2.307686e+000 2.199894e+000 2.446506e+000 1.312191e+000 2.973531e-001
<GCONST> 9.712511e+001
<STATE> 3
<MEAN> 25
 6.888056e+000 -1.208266e+000 5.120465e+000 -2.415297e-001 4.287534e+000 1.420034e+000 -6.414753e+000 1.630157e-001 -4.466363e+000 4.602210e-001 -2.162909e+000 -5.948184e+000 1.259412e-002 1.472455e+000 -8.205286e-001 1.859068e+000 -7.696537e-001 1.326145e+000 2.862014e-001 -6.312587e-001 1.162190e+000 -1.303832e+000 8.830694e-001 -6.778039e-001 -1.527530e+000
<VARIANCE> 25
 2.130796e+001 4.918512e+001 3.650388e+001 7.863467e+001 3.393378e+001 6.942570e+001 1.726039e+001 2.587383e+001 3.719262e+001 3.133006e+001 1.003082e+002 1.084029e+002 3.114863e-001 1.274938e+000 1.781315e+000 2.866974e+000 2.322079e+000 2.130070e+000 1.323046e+000 2.082206e+000 3.649096e+000 1.483367e+000 3.282208e+000 2.425684e+000 4.421699e-001
<GCONST> 9.735139e+001
<STATE> 4
<MEAN> 25
 2.133096e+000 5.932525e+000 -1.601368e-001 6.262935e+000 -3.608039e-001 8.483748e+000 -6.288154e+000 -4.710878e+000 2.721989e+000 -5.507008e+000 3.414147e+000 -4.448948e+000 -6.695623e-001 3.829292e-001 -4.298714e-001 2.663316e-001 -8.340167e-001 -8.905367e-002 6.128050e-001 -3.055635e-001 5.734099e-001 -2.738390e-002 -2.497246e-001 9.502930e-002 -9.270020e-001
<VARIANCE> 25
 4.916124e+001 3.451451e+001 1.822605e+001 4.704528e+001 5.549585e+001 2.355514e+001 4.122227e+001 4.908800e+001 4.401871e+001 3.477339e+001 4.287408e+001 5.155772e+001 7.318660e-001 1.831431e+000 1.366984e+000 3.198451e+000 2.661766e+000 2.171421e+000 2.828144e+000 3.596134e+000 3.103086e+000 3.864977e+000 3.216834e+000 3.943295e+000 3.938140e-001
<GCONST> 9.989501e+001
<TRANSP> 5
 0.000000e+000 1.000000e+000 0.000000e+000 0.000000e+000 0.000000e+000
 0.000000e+000 7.415788e-001 2.584213e-001 0.000000e+000 0.000000e+000
 0.000000e+000 0.000000e+000 7.869251e-001 2.130749e-001 0.000000e+000
 0.000000e+000 0.000000e+000 0.000000e+000 8.458273e-001 1.541728e-001
 0.000000e+000 0.000000e+000 0.000000e+000 0.000000e+000 0.000000e+000
<ENDHMM>
~h "uh"
<BEGINHMM>
<NUMSTATES> 5
<STATE> 2
<MEAN> 25
 4.372478e+000 2.471939e+000 -6.313741e+000 -1.182915e+000 3.441976e+000 4.410604e+000 -6.702444e+000 2.138504e-001 -7.992693e-001 -1.067716e+001 -8.596501e-002 -3.159229e+000 -4.436791e-001 -3.675217e-001 -3.985898e-001 6.552829e-001 -1.228356e+000 -5.125000e-001 5.419790e-001 -3.672927e-001 7.201732e-001 -4.140761e-001 -7.369697e-001 6.672950e-001 -5.283771e-001
<VARIANCE> 25
 1.894341e+001 1.325280e+001 7.615282e+001 6.561999e+001 5.958504e+001 1.086343e+001 8.752711e+001 1.188645e+001 5.097070e+001 2.618689e+001 2.741633e+001 2.882330e+001 3.158678e-001 7.009699e-001 8.089047e-001 1.604756e+000 1.396054e+000 1.828133e+000 2.937253e+000 5.011415e-001 3.592481e+000 1.967621e+000 3.367930e+000 3.256566e+000 3.527279e-001
<GCONST> 9.066351e+001
<STATE> 3
<MEAN> 25
