~o
<STREAMINFO> 1 25
<VECSIZE> 25<NULLD><MFCC_D_N_Z_0><DIAGC>
~s "silst"
<MEAN> 25
 -9.743202e+000 5.858589e+000 -9.704044e+000 3.571818e+000 -3.050807e+000 5.748414e-001 6.743277e+000 -1.074847e+000 2.503380e+000 9.560024e-001 1.519201e-001 2.468829e-001 1.115255e+000 -1.762652e+000 2.281050e+000 -1.411155e+000 -5.732619e-002 3.476505e-001 -1.968661e+000 7.703280e-001 -7.449205e-001 -3.865402e-002 -2.142372e-001 -1.169238e+000 2.471171e+000
<VARIANCE> 25
 7.858131e+001 6.946220e+001 1.204256e+002 7.643353e+001 7.230691e+001 5.449329e+001 9.968282e+001 6.089360e+001 5.827443e+001 4.635961e+001 3.958561e+001 4.219678e+001 9.000610e+000 6.183392e+000 9.519262e+000 6.866457e+000 7.704981e+000 6.294639e+000 9.148820e+000 6.292581e+000 6.513591e+000 6.226567e+000 4.530427e+000 5.153933e+000 8.065963e+000
<GCONST> 1.210665e+002
~h "b"
<BEGINHMM>
<NUMSTATES> 5
<STATE> 2
<MEAN> 25
 4.480413e+000 9.302128e+000 2.790870e+000 1.112997e+001 8.704952e-001 6.387469e+000 2.074968e+000 -2.328087e+000 3.767073e+000 -4.044792e+000 -4.188751e-001 -9.378741e-001 1.077756e+000 1.089496e+000 5.480096e-001 2.741585e-001 2.270146e-001 6.440275e-001 -3.132164e-001 -9.446114e-002 2.771439e-001 2.769680e-001 3.112465e-001 -2.896642e-001 3.935512e-001
<VARIANCE> 25
 6.239095e+001 7.616342e+001 1.027275e+002 6.620428e+001 6.120140e+001 6.116882e+001 8.073899e+001 7.691829e+001 7.393451e+001 4.229854e+001 6.163951e+001 4.243121e+001 6.585151e+000 5.780961e+000 5.376810e+000 6.244798e+000 3.938755e+000 5.367489e+000 8.051893e+000 4.826390e+000 6.506553e+000 4.069678e+000 4.446540e+000 4.660300e+000 5.269377e+000
<GCONST> 1.179509e+002
<STATE> 3
<MEAN> 25
 -4.393902e+000 1.302224e+000 -1.361182e+000 2.821828e+000 -3.547490e+000 2.654328e+000 4.489646e+000 7.954863e-001 1.084771e+000 -5.025573e-001 4.322479e-001 -1.234345e+000 -2.844049e-001 2.368531e-001 -4.924822e-001 -9.762545e-002 -1.355154e-002 -3.941831e-001 1.908117e-001 1.195709e-001 1.895199e-002 4.494682e-002 -3.915261e-002 1.609158e-001 -4.162664e-001
<VARIANCE> 25
 4.854705e+001 8.181502e+001 7.116248e+001 6.741074e+001 4.432787e+001 4.474983e+001 4.922626e+001 4.583562e+001 6.125862e+001 6.234198e+001 5.169777e+001 3.267251e+001 6.000371e-001 1.970100e+000 2.190154e+000 2.472006e+000 2.338902e+000 2.526225e+000 2.772582e+000 3.717167e+000 4.359973e+000 3.021719e+000 4.021431e+000 2.520195e+000 7.135237e-001
<GCONST> 1.042258e+002
<STATE> 4
<MEAN> 25
 -1.672157e+000 6.939809e+000 -1.052147e+001 7.934277e+000 -2.738843e-001 -1.994364e+000 8.839701e+000 -1.870864e+000 3.184913e-001 3.852679e+000 3.049200e+000 2.154933e+000 2.349858e-001 -2.636482e-001 3.401204e-001 -3.714546e-001 6.946731e-002 9.072002e-003 -2.110946e-001 1.804314e-001 9.216224e-003 1.128989e-001 3.062288e-002 9.045052e-002 4.828670e-001
<VARIANCE> 25
 6.468913e+001 1.196818e+002 1.186616e+002 9.618000e+001 6.912914e+001 7.001775e+001 9.423431e+001 7.567078e+001 6.675527e+001 6.974602e+001 3.402748e+001 6.848890e+001 2.698480e+000 6.231336e+000 4.604339e+000 6.145292e+000 4.571931e+000 4.486590e+000 7.362014e+000 5.613748e+000 5.909164e+000 5.639529e+000 3.276238e+000 5.945958e+000 2.298444e+000
<GCONST> 1.180160e+002
<TRANSP> 5
 0.000000e+000 1.000000e+000 0.000000e+000 0.000000e+000 0.000000e+000
 0.000000e+000 6.590326e-001 3.409674e-001 0.000000e+000 0.000000e+000
 0.000000e+000 0.000000e+000 8.613462e-001 1.386538e-001 0.000000e+000
 0.000000e+000 0.000000e+000 0.000000e+000 8.989833e-001 1.010167e-001
 0.000000e+000 0.000000e+000 0.000000e+000 0.000000e+000 0.000000e+000
<ENDHMM>
~h "d"
<BEGINHMM>
<NUMSTATES> 5
<STATE> 2
<MEAN> 25
 7.322798e-001 -3.149060e+000 4.034286e+000 2.108010e+000 -1.008598e+000 1.676021e+000 -3.730964e+000 -4.959981e+000 -7.188602e+000 3.720159e-001 3.340790e+000 -3.438027e-001 -1.548935e-001 1.636811e+000 -1.152150e+000 1.511142e+000 -8.387575e-001 6.229035e-001 5.605870e-001 -9.213325e-001 1.443400e+000 -7.107545e-001 4.265905e-001 4.115834e-001 -1.629481e+000
<VARIANCE> 25
 6.618973e+001 7.830357e+001 1.192194e+002 5.438919e+001 1.056318e+002 4.353047e+001 8.040611e+001 4.636079e+001 4.993377e+001 3.878754e+001 2.332209e+001 2.573170e+001 3.941586e-001 2.972449e+000 2.263091e+000 3.206374e+000 3.171690e+000 4.374184e+000 3.934308e+000 4.063049e+000 6.053418e+000 4.811718e+000 2.189192e+000 2.932304e+000 8.009510e-001
<GCONST> 1.064510e+002
<STATE> 3
<MEAN> 25
 -3.022120e+000 1.584827e+000 -4.585973e+000 4.719323e+000 -2.925098e+000 3.693688e+000 1.980323e-001 -4.543369e+000 1.194051e+000 -2.872801e+000 1.529926e+000 -1.253404e+000 -5.335786e-001 4.007470e-001 -4.836967e-001 3.875936e-003 -6.171457e-002 -1.891046e-001 8.665423e-001 4.052973e-001 4.223516e-001 2.002114e-001 -4.793444e-001 3.078107e-002 -6.864387e-001
<VARIANCE> 25
 3.774796e+001 4.218425e+001 7.348641e+001 4.940084e+001 5.829126e+001 3.870736e+001 7.996860e+001 4.969564e+001 4.545210e+001 4.868304e+001 3.530161e+001 3.513951e+001 5.608224e-001 1.670276e+000 1.844462e+000 2.682310e+000 3.445065e+000 2.961853e+000 2.785768e+000 3.571854e+000 3.351701e+000 3.072420e+000 3.579883e+000 2.570952e+000 3.666201e-001
<GCONST> 1.020532e+002
<STATE> 4
<MEAN> 25
 -3.381440e+000 6.526524e+000 -3.244393e+000 5.826737e+000 -1.394819e+000 -5.533066e-001 4.639383e+000 -5.293515e-001 7.546164e-001 1.599983e+000 1.322963e-001 -2.223480e+000 2.944670e-002 -4.995656e-001 4.890221e-001 -3.188504e-001 5.683228e-001 4.288605e-002 -2.975889e-001 5.364984e-001 -1.670768e-002 2.642477e-001 -5.911043e-002 7.921354e-002 4.952931e-001
<VARIANCE> 25
 6.171261e+001 8.744846e+001 1.049044e+002 6.327980e+001 7.428482e+001 6.386501e+001 1.035328e+002 8.241212e+001 6.488541e+001 6.839092e+001 4.203828e+001 5.200693e+001 2.374913e+000 7.262050e+000 4.363566e+000 5.327218e+000 6.692143e+000 5.517481e+000 7.706691e+000 7.463339e+000 7.262662e+000 6.451120e+000 5.005376e+000 4.501771e+000 2.123723e+000
<GCONST> 1.183150e+002
<TRANSP> 5
 0.000000e+000 1.000000e+000 0.000000e+000 0.000000e+000 0.000000e+000
 0.000000e+000 5.696286e-001 4.303715e-001 0.000000e+000 0.000000e+000
 0.000000e+000 0.000000e+000 7.758954e-001 2.241046e-001 0.000000e+000
 0.000000e+000 0.000000e+000 0.000000e+000 8.310710e-001 1.689290e-001
 0.000000e+000 0.000000e+000 0.000000e+000 0.000000e+000 0.000000e+000
<ENDHMM>
~h "f"
<BEGINHMM>
<NUMSTATES> 5
<STATE> 2
<MEAN> 25
 -5.673279e+000 3.724688e+000 3.463952e+000 -1.005235e+000 7.969910e+000 2.186617e+000 -1.667917e+000 3.040502e+000 -4.513713e+000 3.061470e+000 -2.686548e+000 -1.197325e+000 -1.491399e+000 -8.773392e-001 8.088199e-001 -1.733718e+000 1.061962e+000 -6.024557e-001 -3.153754e-001 9.756889e-001 -1.025669e+000 1.255675e+000 -4.847579e-001 -8.671080e-002 -2.677713e-002
<VARIANCE> 25
 5.591820e+001 6.567954e+001 1.008802e+002 8.975048e+001 9.516666e+001 5.457581e+001 7.210687e+001 7.134198e+001 7.928321e+001 1.038448e+002 5.449882e+001 2.950703e+001 1.061386e+000 4.390975e+000 4.256809e+000 5.762504e+000 5.068623e+000 5.976826e+000 4.936950e+000 5.409321e+000 4.882718e+000 6.631254e+000 4.276927e+000 3.612557e+000 1.067000e+000
<GCONST> 1.144810e+002
<STATE> 3
<MEAN> 25
 -1.513391e+001 -6.731551e+000 3.991691e+000 -9.446111e+000 1.448039e+001 2.074619e+000 -9.051539e-002 9.478861e+000 -7.019357e+000 1.002293e+001 -5.102546e+000 -1.414249e+000 8.606163e-002 -8.671954e-001 -4.935243e-001 -1.805454e-001 -3.902389e-001 3.188010e-001 1.569503e-001 7.430810e-002 3.949936e-001 -5.681098e-002 1.920004e-001 2.125379e-001 2.900890e-001
<VARIANCE> 25
 2.339387e+001 5.942999e+001 3.090153e+001 4.734449e+001 4.496650e+001 4.142411e+001 3.207982e+001 2.275927e+001 2.758630e+001 2.848852e+001 3.369039e+001 3.097410e+001 9.241936e-001 2.111542e+000 2.125844e+000 1.538580e+000 3.719815e+000 2.108432e+000 2.190450e+000 2.480091e+000 2.117726e+000 2.703347e+000 3.273950e+000 1.790492e+000 5.548254e-001
<GCONST> 9.674248e+001
<STATE> 4
<MEAN> 25
 6.708826e+000 -8.985517e+000 -3.185038e+000 -1.024844e+001 -7.282127e+000 7.832345e-001 -1.392510e+000 8.715746e+000 9.606236e+000 -4.042488e+000 3.584866e+000 9.564045e-001 1.757052e+000 6.964764e-001 -1.680643e-002 1.479356e-001 -1.298978e+000 -4.307089e-001 -5.358478e-001 -3.408025e-001 1.163230e+000 -8.966637e-001 6.440459e-001 -1.164127e-001 9.701707e-001
<VARIANCE> 25
 1.093769e+002 7.693900e+001 3.871983e+001 3.279707e+001 7.620213e+001 4.958204e+001 5.202990e+001 2.970955e+001 1.133510e+002 9.642615e+001 3.317743e+001 2.665712e+001 7.639712e+000 8.097483e+000 2.587126e+000 2.585183e+000 6.725291e+000 3.463882e+000 3.690021e+000 2.384250e+000 3.924603e+000 5.755435e+000 2.704486e+000 2.135651e+000 2.352788e+000
<GCONST> 1.108707e+002
<TRANSP> 5
 0.000000e+000 1.000000e+000 0.000000e+000 0.000000e+000 0.000000e+000
 0.000000e+000 8.473397e-001 1.526603e-001 0.000000e+000 0.000000e+000
 0.000000e+000 0.000000e+000 8.915712e-001 1.084288e-001 0.000000e+000
 0.000000e+000 0.000000e+000 0.000000e+000 8.635947e-001 1.364053e-001
 0.000000e+000 0.000000e+000 0.000000e+000 0.000000e+000 0.000000e+000
<ENDHMM>
~h "g"
<BEGINHMM>
<NUMSTATES> 5
<STATE> 2
<MEAN> 25
 -4.072422e+000 1.047539e+001 -1.067120e+001 4.752090e+000 -5.580523e+000 6.418397e-001 9.778644e+000 -1.776451e+000 3.275353e+000 -4.070192e+000 -3.095530e+000 2.166165e+000 7.165328e-002 4.389923e-001 4.396048e-001 1.890970e-001 5.121123e-001 -4.041434e-002 -8.450726e-002 4.022043e-001 1.190121e-001 3.241483e-001 -3.730994e-002 -3.084633e-001 3.235236e-003
<VARIANCE> 25
 2.790724e+001 6.240720e+001 9.517142e+001 5.568552e+001 6.003454e+001 5.478787e+001 7.895457e+001 8.811390e+001 6.230920e+001 7.695010e+001 4.429214e+001 6.388694e+001 2.163295e+000 7.092503e+000 7.175153e+000 5.959114e+000 6.736725e+000 7.088687e+000 7.184451e+000 8.846479e+000 8.099082e+000 7.800555e+000 4.141956e+000 5.506083e+000 2.205667e+000
<GCONST> 1.179222e+002
<STATE> 3
<MEAN> 25
 6.258086e+000 8.885816e+000 4.090426e+000 5.673885e+000 5.965741e+000 1.390406e+000 -8.115363e-001 -3.058750e-001 -2.266829e+000 7.585813e+000 3.572807e+000 -5.636762e+000 1.857754e-001 -2.657615e+000 1.687690e+000 -1.501893e+000 1.411286e+000 -5.639508e-001 -1.241687e+000 4.042602e-001 -8.911214e-001 1.209134e+000 -1.236015e+000 -2.424586e-001 2.352197e+000
<VARIANCE> 25
 1.957474e+001 1.536991e+002 4.685289e+001 7.885477e+001 7.468402e+001 7.540443e+001 7.455432e+001 5.532392e+001 8.257781e+001 6.792707e+001 5.328260e+001 2.811151e+001 4.097813e+000 1.934600e+001 7.525893e+000 8.406430e+000 5.791942e+000 7.989062e+000 1.393905e+001 5.704805e+000 8.938661e+000 9.672776e+000 5.669061e+000 3.325592e+000 5.666078e+000
<GCONST> 1.209373e+002
<STATE> 4
<MEAN> 25
 5.174387e+000 -1.133168e+001 1.478058e+001 -2.846985e+000 1.196864e+001 -8.777842e+000 -1.839518e+001 1.310638e+000 1.046267e+000 8.004455e+000 -4.936747e+000 -4.378541e+000 1.902121e-001 -2.322347e-001 3.085176e-001 -3.438407e-001 -4.020231e-001 -2.345460e-001 -1.060610e+000 -3.934392e-001 6.559951e-001 -4.112028e-001 1.937365e-001 1.301273e-001 4.488887e-001
<VARIANCE> 25
 5.579995e+000 2.474847e+001 1.582284e+001 2.601056e+001 4.028678e+001 4.670219e+001 4.282190e+001 3.019133e+001 4.793662e+001 2.069328e+001 2.487836e+001 1.588861e+001 2.814849e-001 1.340658e+000 2.277919e+000 1.412567e+000 1.669014e+000 2.403477e+000 6.486567e+000 1.220682e+000 2.254569e+000 1.297057e+000 2.054256e+000 1.560356e+000 8.203751e-001
<GCONST> 9.017088e+001
<TRANSP> 5
 0.000000e+000 1.000000e+000 0.000000e+000 0.000000e+000 0.000000e+000
 0.000000e+000 9.085382e-001 9.146183e-002 0.000000e+000 0.000000e+000
 0.000000e+000 0.000000e+000 8.376992e-001 1.623007e-001 0.000000e+000
 0.000000e+000 0.000000e+000 0.000000e+000 8.445048e-001 1.554952e-001
 0.000000e+000 0.000000e+000 0.000000e+000 0.000000e+000 0.000000e+000
<ENDHMM>
~h "k"
<BEGINHMM>
<NUMSTATES> 5
<STATE> 2
<MEAN> 25
 -3.077169e-001 -4.414438e-001 -3.224305e+000 -4.084018e-001 7.505816e-001 -2.842913e+000 9.434502e-001 -1.911959e+000 -4.802930e+000 4.438792e+000 -1.014526e+000 -1.879589e+000 1.927642e-001 -2.291715e+000 8.350000e-001 -5.384333e+000 1.033151e+000 -4.715957e-001 1.981251e-001 1.985591e+000 -3.250562e+000 1.202140e+000 -1.150560e-002 4.534243e-002 2.683549e+000
<VARIANCE> 25
 2.744479e+001 9.826325e+001 1.058301e+002 3.012056e+002 1.171165e+002 6.839977e+001 8.330949e+001 1.182496e+002 1.248262e+002 6.793342e+001 6.674232e+001 5.257292e+001 3.977112e+000 7.547671e+000 9.724578e+000 1.793496e+001 7.809101e+000 1.162192e+001 1.114626e+001 7.449261e+000 1.002949e+001 6.578458e+000 7.764321e+000 4.951235e+000 4.925959e+000
<GCONST> 1.265324e+002
<STATE> 3
<MEAN> 25
 -3.330016e+000 -8.029654e+000 3.135821e+000 -8.474261e+000 1.480637e-001 1.309270e+000 -1.635809e+000 2.731142e+000 -9.414248e+000 3.039119e+000 2.381779e+000 -3.831033e+000 -3.755333e-001 8.439775e-001 1.827324e-001 1.399043e+000 -2.218876e-001 7.771150e-001 -1.718764e-002 -1.048410e-001 1.353697e+000 -4.359518e-001 1.969800e-001 -2.698455e-001 -9.966786e-001
<VARIANCE> 25
 2.780030e+001 6.614191e+001 8.930534e+001 1.193306e+002 8.796822e+001 7.596591e+001 4.814286e+001 5.083579e+001 6.230245e+001 8.644468e+001 4.480192e+001 3.635495e+001 1.878075e+000 3.788667e+000 5.478696e+000 6.683423e+000 3.975298e+000 4.409230e+000 4.943923e+000 3.272848e+000 5.149683e+000 3.713995e+000 3.602145e+000 2.403640e+000 1.801946e+000
<GCONST> 1.122437e+002
<STATE> 4
<MEAN> 25
 -2.569900e+000 3.936472e+000 -3.874064e+000 -3.884410e+000 -3.342313e+000 -3.056418e+000 2.741496e+000 6.694738e+000 -1.123707e+000 1.555271e-002 1.716155e+000 -2.487052e+000 9.125380e-001 2.872039e-001 8.166243e-001 -3.373323e-001 -3.912923e-001 -1.840481e-001 -6.246003e-001 -1.085222e-001 5.389400e-001 -9.486225e-002 1.180362e-001 3.365601e-001 8.736024e-001
<VARIANCE> 25
 4.266440e+001 5.991966e+001 1.070357e+002 2.216463e+002 7.237971e+001 9.110989e+001 1.193106e+002 6.564779e+001 1.058613e+002 7.945148e+001 5.039086e+001 5.167923e+001 3.815445e+000 6.256357e+000 7.125870e+000 2.306951e+001 6.439522e+000 8.389451e+000 8.015542e+000 6.546710e+000 1.302288e+001 6.815747e+000 4.256804e+000 5.189004e+000 4.899770e+000
<GCONST> 1.239246e+002
<TRANSP> 5
 0.000000e+000 1.000000e+000 0.000000e+000 0.000000e+000 0.000000e+000
 0.000000e+000 6.889934e-001 3.110066e-001 0.000000e+000 0.000000e+000
 0.000000e+000 0.000000e+000 7.458019e-001 2.541982e-001 0.000000e+000
 0.000000e+000 0.000000e+000 0.000000e+000 7.765238e-001 2.234761e-001
 0.000000e+000 0.000000e+000 0.000000e+000 0.000000e+000 0.000000e+000
<ENDHMM>
~h "l"
<BEGINHMM>
<NUMSTATES> 5
<STATE> 2
<MEAN> 25
 1.053967e+001 6.196652e-002 8.365011e+000 -8.295814e+000 -1.177222e+001 -3.866120e+000 -4.401456e+000 5.003003e+000 3.363072e+000 -4.130108e+000 -2.520073e+000 7.617793e-001 -8.722582e-002 7.741069e-001 1.034026e-001 5.963816e-001 -2.676685e-001 2.073072e-001 2.574041e-001 -1.200945e-001 3.325733e-002 1.453498e-002 -7.092427e-002 -3.404149e-001 -6.004009e-001
<VARIANCE> 25
 8.194221e+000 3.662525e+001 2.718174e+001 4.110315e+001 4.623978e+001 4.749332e+001 2.840217e+001 3.349924e+001 4.291288e+001 4.293253e+001 2.191751e+001 3.791740e+001 2.355754e-001 8.694564e-001 8.257312e-001 1.371927e+000 2.869133e+000 2.401780e+000 1.537288e+000 2.019548e+000 2.543476e+000 2.417467e+000 1.830284e+000 1.765603e+000 3.698517e-001
<GCONST> 9.106043e+001
<STATE> 3
<MEAN> 25
 8.258741e+000 3.190744e-001 8.681642e+000 -3.776069e+000 -6.242624e+000 1.766124e+000 1.208053e-002 2.051230e+000 -1.117476e+000 -3.124917e+000 -3.871808e+000 6.355053e-001 -4.784953e-001 -6.712872e-001 -5.886450e-001 2.919376e-001 1.778455e+000 7.201827e-002 -1.079372e-001 -4.363486e-001 -9.150533e-001 1.070178e+000 6.000193e-001 5.276037e-001 -6.027756e-002
<VARIANCE> 25
 1.940778e+001 5.336251e+001 3.288350e+001 3.912342e+001 7.010743e+001 4.279461e+001 3.644217e+001 4.338846e+001 6.279073e+001 5.839482e+001 3.670782e+001 3.919613e+001 7.526957e-001 3.543310e+000 2.338414e+000 4.290933e+000 6.107158e+000 3.946607e+000 4.477230e+000 3.029351e+000 5.944275e+000 5.917166e+000 4.340770e+000 3.087791e+000 2.026547e+000
<GCONST> 1.068391e+002
<STATE> 4
<MEAN> 25
 -5.332413e-001 5.075511e+000 -4.368880e+000 2.872049e+000 -7.311307e+000 1.986284e+000 1.997957e+000 -2.088417e+000 3.435192e+000 -3.101845e+000 1.020861e+000 3.325950e-001 -5.746499e-001 -1.806948e-001 -6.656777e-001 2.149917e-001 3.410190e-001 -1.231215e-001 1.309398e-001 -3.457167e-001 -1.487917e-001 1.231683e-001 9.715538e-002 1.395737e-001 -5.144747e-001
<VARIANCE> 25
 5.737126e+001 7.673241e+001 9.081671e+001 6.387093e+001 7.402480e+001 5.226775e+001 5.748612e+001 6.450700e+001 6.067048e+001 5.552008e+001 3.592414e+001 5.474957e+001 7.377556e-001 1.805050e+000 3.074439e+000 3.697859e+000 3.737452e+000 3.708239e+000 4.386180e+000 3.741248e+000 4.151516e+000 4.090868e+000 3.590520e+000 3.896774e+000 6.089156e-001
<GCONST> 1.083067e+002
<TRANSP> 5
 0.000000e+000 1.000000e+000 0.000000e+000 0.000000e+000 0.000000e+000
 0.000000e+000 8.742452e-001 1.257548e-001 0.000000e+000 0.000000e+000
 0.000000e+000 0.000000e+000 6.609237e-001 3.390763e-001 0.000000e+000
 0.000000e+000 0.000000e+000 0.000000e+000 8.556467e-001 1.443532e-001
 0.000000e+000 0.000000e+000 0.000000e+000 0.000000e+000 0.000000e+000
<ENDHMM>
~h "m"
<BEGINHMM>
<NUMSTATES> 5
<STATE> 2
<MEAN> 25
 6.264502e+000 1.118331e+001 -1.762437e-001 6.268089e+000 7.528362e+000 4.882094e+000 -8.243043e-001 6.465899e-001 1.952687e+000 -3.064012e+000 -2.684718e+000 -3.327187e+000 9.256384e-001 5.715716e-001 1.354159e+000 6.465772e-001 1.580159e+000 1.823590e+000 -1.835906e+000 2.547172e-001 1.215212e+000 -8.972334e-001 -1.607255e-001 -6.552890e-001 6.759200e-001
<VARIANCE> 25
 5.466257e+001 5.094743e+001 7.500317e+001 9.460922e+001 9.264614e+001 4.992598e+001 7.134523e+001 3.909063e+001 7.869619e+001 8.773591e+001 2.812701e+001 3.363326e+001 3.957243e+000 5.002059e+000 8.885000e+000 9.580006e+000 9.609060e+000 4.332305e+000 8.918613e+000 4.759791e+000 5.664178e+000 5.002438e+000 2.183673e+000 3.077156e+000 4.845411e+000
<GCONST> 1.165448e+002
<STATE> 3
<MEAN> 25
 8.999791e+000 7.991393e+000 1.487389e+000 2.483338e+000 8.714979e+000 7.614521e+000 -4.614471e+000 1.731498e+000 1.726137e+000 -3.066751e+000 -3.179989e+000 -5.542152e+000 -3.735592e-001 -6.625459e-002 6.650802e-002 4.550468e-001 -4.072137e-002 2.643714e-002 2.540787e-001 -2.009199e-001 -3.019340e-002 3.490434e-002 -1.521505e-001 -5.399251e-002 -3.303748e-001
<VARIANCE> 25
 2.515070e+001 3.020231e+001 3.521062e+001 3.377194e+001 4.994579e+001 3.716424e+001 2.747801e+001 3.970682e+001 6.600392e+001 4.886496e+001 2.604374e+001 2.118802e+001 4.004327e-001 1.396963e+000 1.021423e+000 2.105727e+000 1.930381e+000 1.999151e+000 1.730273e+000 1.850636e+000 2.403376e+000 2.093342e+000 1.701216e+000 1.338673e+000 6.469046e-001
<GCONST> 9.327619e+001
<STATE> 4
<MEAN> 25
 2.700946e+000 2.398090e+000 1.186816e+000 1.969444e+000 3.806553e+000 2.281399e+000 2.504804e-001 1.623162e+000 -7.952877e-001 -1.056553e+000 -4.657747e+000 -2.543090e+000 -4.232373e-001 -1.912594e+000 3.579234e-001 -1.001551e+000 -3.922009e-001 -8.527578e-001 9.271411e-002 5.096791e-001 -1.635620e-001 1.010640e+000 2.059428e-001 6.582698e-001 9.398410e-001
<VARIANCE> 25
 7.725002e+001 6.550179e+001 7.555983e+001 4.788864e+001 8.212649e+001 7.486179e+001 5.383182e+001 4.417311e+001 6.703977e+001 6.858305e+001 4.016045e+001 4.077067e+001 1.048862e+000 6.486202e+000 4.148821e+000 4.046911e+000 2.900295e+000 5.007632e+000 4.070106e+000 2.195778e+000 6.368458e+000 7.029608e+000 4.712802e+000 4.945569e+000 2.212868e+000
<GCONST> 1.123506e+002
<TRANSP> 5
 0.000000e+000 1.000000e+000 0.000000e+000 0.000000e+000 0.000000e+000
 0.000000e+000 4.847438e-001 5.152562e-001 0.000000e+000 0.000000e+000
 0.000000e+000 0.000000e+000 7.928874e-001 2.071126e-001 0.000000e+000
 0.000000e+000 0.000000e+000 0.000000e+000 7.610918e-001 2.389083e-001
 0.000000e+000 0.000000e+000 0.000000e+000 0.000000e+000 0.000000e+000
<ENDHMM>
~h "n"
<BEGINHMM>
<NUMSTATES> 5
<STATE> 2
<MEAN> 25
 1.100412e+001 3.955082e+000 -1.547412e+000 4.466166e+000 9.596209e+000 -4.007342e-002 -6.785000e+000 -3.952159e-001 2.141618e+000 5.965508e-001 -2.863511e+000 -7.761250e-001 -4.378759e-002 3.021958e-001 -1.679360e-001 4.727004e-001 6.704664e-002 1.943307e-001 1.776659e-001 -5.144189e-002 1.819799e-001 -1.300305e-001 5.150028e-003 -6.808515e-002 -3.226270e-001
<VARIANCE> 25
 1.403014e+001 1.199301e+002 1.032177e+002 1.334391e+002 4.530757e+001 7.039183e+001 5.283860e+001 9.990782e+001 8.462382e+001 1.034935e+002 5.803061e+001 4.413480e+001 5.672995e-001 4.068955e+000 3.007977e+000 6.146165e+000 2.897694e+000 4.178786e+000 4.505200e+000 5.691902e+000 7.702733e+000 4.330214e+000 3.105057e+000 3.731051e+000 1.946268e+000
<GCONST> 1.125852e+002
<STATE> 3
<MEAN> 25
 1.050550e+001 6.897633e-001 3.734177e-001 3.084390e-001 3.457966e+000 4.733916e+000 -5.893712e+000 -9.253451e-001 1.579485e-003 -7.354671e+000 6.186756e-001 1.420993e+000 -1.411361e-001 7.559707e-001 -1.761070e-001 7.456915e-001 -3.982399e-002 2.354206e-001 2.585279e-001 -1.031447e-001 2.463439e-001 -4.716329e-001 6.442957e-002 -1.296360e-001 -6.651391e-001
<VARIANCE> 25
 9.320344e+000 6.094811e+001 3.743032e+001 7.762351e+001 5.573377e+001 4.006615e+001 6.600781e+001 8.764336e+001 4.798965e+001 5.396197e+001 3.375288e+001 3.237897e+001 1.975452e-001 9.207326e-001 6.290953e-001 1.846928e+000 1.539536e+000 1.654415e+000 1.620560e+000 2.054343e+000 2.664286e+000 2.447901e+000 1.753839e+000 1.244294e+000 3.662634e-001
<GCONST> 9.372798e+001
<STATE> 4
<MEAN> 25
 7.339724e+000 4.711560e+000 -1.401224e+000 5.778276e+000 5.779154e+000 2.880278e-001 -1.433538e+000 6.148389e-001 -1.915452e+000 -1.765997e+000 8.960193e-001 -1.834641e+000 -6.368098e-001 2.833619e-001 -8.683170e-003 5.069699e-001 1.485254e-002 -3.283902e-001 5.219156e-001 -4.033939e-002 -2.041126e-001 5.664010e-001 -1.115822e-001 -3.326186e-001 -6.919709e-001
<VARIANCE> 25
 1.865730e+001 1.148389e+002 6.770251e+001 9.309595e+001 5.365332e+001 1.081751e+002 7.959544e+001 4.740796e+001 6.992866e+001 5.775185e+001 3.430656e+001 3.614505e+001 4.802630e-001 1.268956e+000 2.195729e+000 2.196911e+000 2.982954e+000 3.520949e+000 3.540129e+000 2.881589e+000 4.287100e+000 3.985761e+000 2.379335e+000 2.211477e+000 4.430609e-001
<GCONST> 1.041313e+002
<TRANSP> 5
 0.000000e+000 1.000000e+000 0.000000e+000 0.000000e+000 0.000000e+000
 0.000000e+000 7.442548e-001 2.557451e-001 0.000000e+000 0.000000e+000
 0.000000e+000 0.000000e+000 8.078014e-001 1.921986e-001 0.000000e+000
 0.000000e+000 0.000000e+000 0.000000e+000 8.019898e-001 1.980102e-001
 0.000000e+000 0.000000e+000 0.000000e+000 0.000000e+000 0.000000e+000
<ENDHMM>
~h "p"
<BEGINHMM>
<NUMSTATES> 5
<STATE> 2
<MEAN> 25
 -7.597849e-001 3.706491e+000 -4.392462e+000 1.018511e+001 -5.069842e+000 -2.911768e-001 -4.790381e-001 -6.921245e+000 6.188116e+000 -3.108432e+000 -3.618970e+000 1.589372e+000 -7.527500e-002 4.782771e-001 -5.959824e-001 1.328190e-001 -4.447656e-001 -2.892901e-001 8.423834e-001 -1.699991e-001 2.246760e-001 3.331789e-001 -2.574047e-001 3.060642e-001 -4.751855e-001
<VARIANCE> 25
 9.245704e+001 5.789005e+001 6.229257e+001 1.858149e+002 6.089061e+001 1.004455e+002 6.574435e+001 9.877221e+001 7.370102e+001 4.703657e+001 7.341651e+001 4.308532e+001 3.174308e+000 4.270892e+000 3.572646e+000 8.644008e+000 3.921740e+000 5.589511e+000 4.764410e+000 6.214838e+000 6.103283e+000 5.805291e+000 4.818122e+000 3.699818e+000 1.995828e+000
<GCONST> 1.172483e+002
<STATE> 3
<MEAN> 25
 3.390530e+000 1.362690e+001 -8.812301e+000 4.098679e+000 -1.657838e+000 -9.030421e+000 6.781836e+000 -1.681577e+000 -6.335870e+000 2.950219e-001 -1.522509e+000 2.534237e+000 -4.601524e-001 7.555165e-001 -1.935472e-001 -9.994477e-002 -3.377794e-002 -1.254212e+000 6.263554e-001 4.644242e-001 -1.107518e+000 5.770544e-001 1.185265e-001 -3.180039e-001 -6.213735e-001
<VARIANCE> 25
 4.119587e+001 6.063745e+001 1.706404e+002 1.368797e+002 8.186244e+001 1.016987e+002 9.107084e+001 6.212947e+001 1.379198e+002 1.590732e+002 1.201059e+002 9.562849e+001 2.112598e+000 3.772367e+000 4.480466e+000 3.582536e+000 7.629540e+000 5.305614e+000 4.684656e+000 5.204362e+000 8.894029e+000 7.083011e+000 5.227563e+000 4.640400e+000 1.112184e+000
<GCONST> 1.200258e+002
<STATE> 4
<MEAN> 25
 -1.172103e+000 6.255158e+000 -8.781119e+000 3.235596e-001 -4.245264e+000 -3.388474e+000 3.917732e+000 1.193923e+000 5.720028e+000 -6.631348e-001 -3.075626e+000 2.898073e+000 -8.883037e-002 -1.101389e+000 1.153736e+000 -8.471529e-001 4.949359e-001 4.215376e-001 -1.050999e+000 5.301769e-001 1.347159e-001 5.678120e-002 -1.801086e-002 -1.114328e-001 9.048374e-001
<VARIANCE> 25
 7.539927e+001 9.880567e+001 1.439508e+002 8.830515e+001 6.483925e+001 8.951749e+001 5.964927e+001 1.048489e+002 1.361695e+002 4.695357e+001 3.897966e+001 4.048994e+001 3.698099e+000 8.454441e+000 8.603179e+000 8.594420e+000 7.846823e+000 7.811295e+000 6.998077e+000 6.824767e+000 1.473126e+001 6.729252e+000 5.893507e+000 3.414623e+000 4.144024e+000
<GCONST> 1.225953e+002
<TRANSP> 5
 0.000000e+000 1.000000e+000 0.000000e+000 0.000000e+000 0.000000e+000
 0.000000e+000 7.342758e-001 2.657242e-001 0.000000e+000 0.000000e+000
 0.000000e+000 0.000000e+000 6.616788e-001 3.383213e-001 0.000000e+000
 0.000000e+000 0.000000e+000 0.000000e+000 8.586379e-001 1.413621e-001
 0.000000e+000 0.000000e+000 0.000000e+000 0.000000e+000 0.000000e+000
<ENDHMM>
~h "r"
<BEGINHMM>
<NUMSTATES> 5
<STATE> 2
<MEAN> 25
 -1.454694e+000 -2.089124e-001 -2.217277e+000 -3.525914e+000 4.403366e-001 3.128809e+000 8.216081e-001 1.216174e+000 7.001439e-001 -2.866436e-001 8.116546e-001 1.451317e+000 4.350324e-001 -5.323706e-001 4.929368e-001 -1.432415e+000 4.463282e-001 3.792335e-001 -5.115634e-001 -9.224984e-002 -5.440295e-001 -1.823371e-001 -2.929379e-001 2.661212e-001 1.069541e+000
<VARIANCE> 25
 1.011408e+002 1.761005e+002 1.087085e+002 1.556813e+002 1.024210e+002 8.480508e+001 6.912948e+001 8.422986e+001 9.612096e+001 7.451043e+001 3.946274e+001 3.887575e+001 5.193470e+000 1.083721e+001 9.284801e+000 9.395611e+000 6.841955e+000 7.337768e+000 5.460876e+000 7.150910e+000 9.510214e+000 6.902400e+000 3.813313e+000 4.384252e+000 4.674257e+000
<GCONST> 1.240450e+002
<STATE> 3
<MEAN> 25
 1.174903e+001 2.089232e+000 -3.440469e+000 -1.791777e+001 3.237475e+000 1.033954e+001 -6.974986e+000 -2.113680e+000 -7.856361e-001 -7.055066e+000 3.761424e+000 8.796470e+000 -8.298992e-002 1.054300e-002 -3.448189e-001 4.608412e-001 1.735725e-002 -2.945888e-002 1.762117e-001 -1.827174e-001 8.430192e-002 5.775952e-002 7.540020e-002 2.148359e-001 -2.587041e-001
<VARIANCE> 25
 1.932395e+001 1.119594e+002 3.881623e+001 7.565931e+001 6.294342e+001 4.419811e+001 4.977468e+001 4.996000e+001 6.299684e+001 6.081807e+001 4.651689e+001 3.601847e+001 3.088852e-001 2.452201e+000 1.283369e+000 3.720166e+000 3.798685e+000 3.189226e+000 3.471452e+000 3.681689e+000 4.338566e+000 3.381902e+000 2.679827e+000 3.063870e+000 1.018873e+000
<GCONST> 1.041739e+002
<STATE> 4
<MEAN> 25
 5.387550e+000 -6.585432e+000 1.094260e+000 -6.692794e+000 1.104814e+001 1.565732e+000 -8.287715e+000 -3.928980e+000 -8.110600e+000 1.639481e+000 3.758974e-001 3.696728e+000 2.314205e-001 4.228580e-001 3.106179e-001 1.298772e+000 9.204195e-001 -1.374652e+000 -6.617379e-001 3.685607e-002 -9.183521e-001 7.185148e-001 -3.221142e-001 -8.013858e-001 -5.578990e-002
<VARIANCE> 25
 8.809512e+001 1.173181e+002 4.976297e+001 6.936343e+001 8.913410e+001 1.156816e+002 5.408273e+001 4.319018e+001 8.585667e+001 1.232716e+002 4.482458e+001 3.545930e+001 3.287621e+000 6.733197e+000 2.304696e+000 1.863817e+000 4.033171e+000 5.557342e+000 3.095589e+000 2.884084e+000 3.769430e+000 6.131145e+000 4.829906e+000 3.711424e+000 8.875421e-001
<GCONST> 1.127331e+002
<TRANSP> 5
 0.000000e+000 1.000000e+000 0.000000e+000 0.000000e+000 0.000000e+000
 0.000000e+000 8.101680e-001 1.898320e-001 0.000000e+000 0.000000e+000
 0.000000e+000 0.000000e+000 8.782678e-001 1.217322e-001 0.000000e+000
 0.000000e+000 0.000000e+000 0.000000e+000 7.622612e-001 2.377388e-001
 0.000000e+000 0.000000e+000 0.000000e+000 0.000000e+000 0.000000e+000
<ENDHMM>
~h "s"
<BEGINHMM>
<NUMSTATES> 5
<STATE> 2
<MEAN> 25
 -6.674416e+000 -9.231001e+000 1.789390e+001 -6.682917e+000 1.588332e+000 5.385695e+000 1.795779e+000 -4.231491e+000 -6.401102e+000 6.451505e+000 -1.905760e+000 -1.244223e-001 -2.531593e+000 -2.660203e+000 4.130595e+000 -9.969308e-001 2.294475e-002 2.920203e-001 1.924261e+000 3.133852e-001 -2.311197e-001 1.185633e+000 4.173982e-001 5.034384e-002 1.355467e+000
<VARIANCE> 25
 5.970003e+001 5.764030e+001 1.073555e+002 8.076571e+001 5.023041e+001 6.224270e+001 6.785216e+001 6.249361e+001 9.012183e+001 4.995683e+001 4.967468e+001 2.858361e+001 1.777194e+000 3.650695e+000 4.727963e+000 4.474792e+000 3.908826e+000 3.700415e+000 4.398363e+000 4.900905e+000 4.401435e+000 5.412681e+000 3.812609e+000 2.881064e+000 1.553386e+000
<GCONST> 1.119007e+002
<STATE> 3
<MEAN> 25
 -1.692311e+001 -1.734240e+001 2.857645e+001 -9.735029e+000 9.545760e-001 6.508108e+000 1.128067e+001 1.366380e+000 -2.951814e+000 7.875930e+000 2.390171e+000 7.355293e-001 -3.025252e-001 -3.681476e-001 -5.741428e-002 8.902890e-002 1.491089e-003 -3.079617e-002 3.438402e-001 4.251414e-001 2.485619e-001 1.764240e-002 3.383161e-001 1.775787e-001 3.081221e-003
<VARIANCE> 25
 1.584832e+001 1.758140e+001 1.835428e+001 3.551468e+001 2.281821e+001 4.530555e+001 3.524461e+001 4.361926e+001 5.898478e+001 2.992930e+001 2.765694e+001 2.427613e+001 6.429163e-001 9.586881e-001 1.280557e+000 1.075711e+000 8.927817e-001 1.194538e+000 1.730469e+000 1.762436e+000 1.836321e+000 1.636470e+000 1.544286e+000 1.202090e+000 3.549509e-001
<GCONST> 8.801987e+001
<STATE> 4
<MEAN> 25
 -1.468731e+001 -1.359690e+001 1.915068e+001 -5.597955e+000 -2.802734e+000 4.877966e+000 7.281113e+000 3.292426e+000 -5.461097e+000 5.134339e+000 2.729222e+000 -1.327778e-001 1.143354e+000 1.327577e+000 -1.566944e+000 7.277867e-001 -5.258585e-001 1.937457e-002 -1.199007e+000 -5.574953e-001 -3.502855e-001 -5.568381e-001 -4.269717e-001 -5.210106e-001 -9.597680e-001
<VARIANCE> 25
 2.832234e+001 5.982793e+001 6.890639e+001 4.638022e+001 6.729589e+001 6.124186e+001 4.602949e+001 6.472720e+001 8.192482e+001 4.558771e+001 4.066547e+001 4.300880e+001 4.519650e+000 2.739799e+000 3.776245e+000 3.522861e+000 4.167574e+000 3.310829e+000 6.153853e+000 4.348781e+000 4.187148e+000 3.223824e+000 2.991777e+000 4.178523e+000 2.225942e+000
<GCONST> 1.104117e+002
<TRANSP> 5
 0.000000e+000 1.000000e+000 0.000000e+000 0.000000e+000 0.000000e+000
 0.000000e+000 7.646813e-001 2.353187e-001 0.000000e+000 0.000000e+000
 0.000000e+000 0.000000e+000 9.206915e-001 7.930844e-002 0.000000e+000
 0.000000e+000 0.000000e+000 0.000000e+000 8.498763e-001 1.501236e-001
 0.000000e+000 0.000000e+000 0.000000e+000 0.000000e+000 0.000000e+000
<ENDHMM>
~h "t"
<BEGINHMM>
<NUMSTATES> 5
<STATE> 2
<MEAN> 25
 2.208055e-001 4.364684e+000 -1.948090e+000 5.820072e+000 -2.718665e+000 -2.295391e+000 9.630585e-001 -1.915581e+000 5.603219e-001 2.454873e-001 -1.655050e+000 -1.116752e+000 -1.170630e+000 -3.361257e+000 1.336108e+000 -2.952304e+000 5.523571e-001 -1.175009e+000 6.715396e-001 1.463776e+000 -2.176309e+000 1.737910e+000 -8.736608e-001 3.111755e-001 1.848188e+000
<VARIANCE> 25
 6.262676e+001 9.428379e+001 1.581415e+002 1.103184e+002 8.798875e+001 7.165896e+001 8.527287e+001 1.148772e+002 8.075400e+001 4.969797e+001 4.677456e+001 6.965176e+001 2.618499e+000 1.238195e+001 1.403975e+001 1.444652e+001 6.943758e+000 8.828187e+000 6.441218e+000 9.219987e+000 1.065042e+001 5.989219e+000 5.619228e+000 4.650459e+000 6.110229e+000
<GCONST> 1.249421e+002
<STATE> 3
<MEAN> 25
 -6.918925e+000 -1.516321e+001 1.248098e+001 -7.425328e+000 1.604387e+000 -4.964702e+000 1.301192e+000 2.309011e+000 -9.763547e+000 8.469658e+000 -4.201222e+000 -6.109274e-003 -8.498135e-001 -2.894433e+000 2.050235e+000 -2.320405e+000 1.074894e+000 -3.665904e-001 -4.508002e-001 4.222804e-001 -1.114591e+000 1.153518e+000 -1.665656e-001 3.219746e-001 2.058590e+000
<VARIANCE> 25
 4.107447e+001 4.279642e+001 1.116767e+002 6.136004e+001 6.015492e+001 4.266978e+001 6.316013e+001 3.075097e+001 4.923395e+001 3.873965e+001 2.825997e+001 2.537396e+001 3.077336e+000 8.276713e+000 1.257299e+001 9.012486e+000 5.188560e+000 4.736897e+000 7.374166e+000 5.034577e+000 6.525519e+000 3.915281e+000 4.425157e+000 2.806786e+000 4.838799e+000
<GCONST> 1.139222e+002
<STATE> 4
<MEAN> 25
 -5.216393e+000 -1.141886e+001 8.625821e+000 -3.011862e+000 1.859331e+000 -5.064265e-001 -3.527521e+000 -1.688890e+000 -7.063575e+000 5.714999e+000 5.612369e-001 -2.027608e+000 1.251280e+000 1.957941e+000 -1.650831e+000 1.817408e+000 -9.565976e-002 9.801603e-001 -6.364629e-001 -1.056003e+000 8.448121e-001 -1.310436e+000 8.185216e-001 -1.501521e-001 -9.620950e-001
<VARIANCE> 25
 3.091179e+001 7.652337e+001 8.676436e+001 6.217549e+001 7.413969e+001 5.342115e+001 5.307746e+001 4.647921e+001 5.831405e+001 4.907744e+001 3.212059e+001 3.574143e+001 3.861629e+000 4.295294e+000 3.658577e+000 4.072597e+000 5.352387e+000 4.660099e+000 6.167411e+000 4.660050e+000 4.883848e+000 4.087891e+000 3.514962e+000 3.073398e+000 2.067168e+000
<GCONST> 1.115936e+002
<TRANSP> 5
 0.000000e+000 1.000000e+000 0.000000e+000 0.000000e+000 0.000000e+000
 0.000000e+000 6.315645e-001 3.684355e-001 0.000000e+000 0.000000e+000
 0.000000e+000 0.000000e+000 6.579660e-001 3.420341e-001 0.000000e+000
 0.000000e+000 0.000000e+000 0.000000e+000 7.731823e-001 2.268178e-001
 0.000000e+000 0.000000e+000 0.000000e+000 0.000000e+000 0.000000e+000
<ENDHMM>
~h "v"
<BEGINHMM>
<NUMSTATES> 5
<STATE> 2
<MEAN> 25
 1.632024e+000 -3.621608e+000 5.436563e+000 -1.527491e+000 9.208218e+000 2.817554e-001 -1.161686e+001 -3.946335e+000 -2.767699e+000 5.446785e+000 -1.511029e+000 5.035165e-002 -7.349247e-001 -6.078851e-001 2.226042e-001 -9.120067e-001 8.053268e-002 -4.400627e-001 2.192817e-001 -6.516857e-002 -3.502387e-001 1.099825e+000 -3.288743e-001 2.954816e-001 1.307350e-002
<VARIANCE> 25
 3.900443e+001 4.322066e+001 4.904031e+001 7.140632e+001 7.214565e+001 6.141045e+001 6.324407e+001 3.446640e+001 3.957721e+001 7.375774e+001 5.005674e+001 3.577059e+001 1.410209e+000 2.458798e+000 2.600687e+000 3.777042e+000 4.329475e+000 2.825414e+000 3.580065e+000 2.984387e+000 5.517275e+000 3.804058e+000 3.262177e+000 3.582470e+000 1.187881e+000
<GCONST> 1.071661e+002
<STATE> 3
<MEAN> 25
 9.486837e+000 -8.557058e+000 -3.672634e-001 -6.724176e+000 2.904362e+000 -4.206686e+000 -4.344761e+000 -4.042307e+000 -5.871712e+000 4.934356e+000 1.291528e+000 5.940232e+000 6.103505e-002 4.204308e-001 -1.599241e-001 4.765890e-002 -2.331091e-002 2.285769e-001 1.485159e-001 3.921972e-001 -3.450692e-001 -4.046494e-001 -6.755644e-002 -7.894328e-002 -3.383213e-001
<VARIANCE> 25
 1.786376e+001 3.021768e+001 3.516257e+001 2.474531e+001 4.374126e+001 3.634840e+001 4.180758e+001 8.045088e+001 4.660968e+001 6.889216e+001 3.798980e+001 3.754124e+001 1.824424e-001 1.006633e+000 7.230070e-001 1.443442e+000 1.304552e+000 2.414613e+000 1.552191e+000 2.514372e+000 2.544920e+000 2.159831e+000 1.735425e+000 1.933732e+000 5.598651e-001
<GCONST> 9.302787e+001
<STATE> 4
<MEAN> 25
 -1.027544e+000 1.156037e+000 -2.801660e+000 2.441882e+000 9.206218e-001 2.454340e+000 -8.490573e-001 -3.137382e+000 -3.251609e+000 1.677501e+000 1.062179e+000 -1.175675e+000 -2.531136e-001 6.732191e-001 -5.886037e-001 8.711721e-001 -6.500628e-001 3.104152e-001 3.875171e-001 -3.223667e-001 9.968702e-001 -2.397036e-001 2.340959e-001 -2.268034e-001 -9.170099e-001
<VARIANCE> 25
 8.177049e+001 5.022869e+001 2.693031e+002 1.200381e+002 6.064772e+001 1.315806e+002 7.495956e+001 9.480857e+001 7.484350e+001 8.039864e+001 3.614263e+001 4.897519e+001 1.088402e+000 2.582803e+000 5.337804e+000 4.753814e+000 3.977050e+000 5.146846e+000 5.175901e+000 6.462641e+000 5.120872e+000 5.050990e+000 3.741596e+000 4.911713e+000 1.072453e+000
<GCONST> 1.157161e+002
<TRANSP> 5
 0.000000e+000 1.000000e+000 0.000000e+000 0.000000e+000 0.000000e+000
 0.000000e+000 6.600651e-001 3.399350e-001 0.000000e+000 0.000000e+000
 0.000000e+000 0.000000e+000 8.801081e-001 1.198919e-001 0.000000e+000
 0.000000e+000 0.000000e+000 0.000000e+000 8.114478e-001 1.885522e-001
 0.000000e+000 0.000000e+000 0.000000e+000 0.000000e+000 0.000000e+000
<ENDHMM>
~h "w"
<BEGINHMM>
<NUMSTATES> 5
<STATE> 2
<MEAN> 25
 7.638361e+000 6.518346e+000 9.284531e-001 5.176128e-001 -1.799346e-001 7.347896e-001 -4.853210e+000 3.168014e-001 -9.968594e-001 -4.895395e+000 7.448281e-002 -2.970865e+000 1.533583e+000 2.086383e+000 1.749345e-001 2.959936e-001 -2.281971e+000 -9.132199e-001 -3.091008e-001 1.606184e-001 2.023230e+000 -6.111286e-001 2.160894e-001 -6.208862e-001 3.770234e-002
<VARIANCE> 25
 4.244896e+001 8.572623e+001 3.843605e+001 1.063998e+002 1.090156e+002 4.489116e+001 4.492353e+001 6.214405e+001 1.184888e+002 5.059507e+001 3.731812e+001 6.213025e+001 3.747798e+000 5.103876e+000 2.793125e+000 5.801826e+000 3.006968e+000 3.736874e+000 5.250045e+000 5.760579e+000 6.628695e+000 5.771204e+000 4.773856e+000 6.646299e+000 2.864663e+000
<GCONST> 1.150590e+002
<STATE> 3
<MEAN> 25
 1.255326e+001 9.412831e+000 1.850920e+000 -3.123573e+000 -7.629746e+000 -6.166777e+000 -5.919193e+000 4.305169e+000 4.126526e+000 -3.459511e+000 2.667042e+000 -2.805632e+000 1.330911e-001 -1.562613e+000 -3.826080e-001 -1.143164e+000 -9.739528e-002 -2.340835e-001 6.947495e-001 7.957927e-001 -1.837883e-001 6.900258e-002 1.923171e-001 2.365885e-001 1.045956e+000
<VARIANCE> 25
 6.975695e+000 9.055666e+001 4.644389e+001 6.595614e+001 2.948723e+001 4.780077e+001 2.760785e+001 6.128455e+001 7.612553e+001 3.924264e+001 3.003027e+001 3.795801e+001 1.916999e-001 3.148254e+000 1.172284e+000 2.648529e+000 2.711352e+000 2.730397e+000 3.414464e+000 6.243657e+000 4.864571e+000 3.089449e+000 3.113562e+000 3.184931e+000 1.040020e+000
<GCONST> 1.008809e+002
<STATE> 4
<MEAN> 25
 1.211190e+001 -1.055894e+001 -2.202489e+000 -1.127372e+001 -5.186269e+000 -3.846068e+000 3.887843e+000 1.043403e+001 1.304199e+000 -5.231873e+000 1.686437e+000 4.099382e+000 -1.546742e-001 -4.186780e-001 -2.268422e-002 -4.783809e-002 6.621273e-001 5.700466e-001 -1.392986e-001 -7.183102e-001 -6.119882e-001 1.873150e-001 -4.169514e-002 3.948245e-001 1.133371e-001
<VARIANCE> 25
 6.142651e+000 2.768524e+001 2.484454e+001 2.086534e+001 4.144555e+001 4.971865e+001 9.261953e+001 1.252391e+002 7.327170e+001 5.512397e+001 2.468972e+001 2.797582e+001 1.727697e-001 1.596845e+000 4.213715e-001 1.401512e+000 1.598683e+000 1.884324e+000 3.486598e+000 2.548679e+000 2.908324e+000 2.741603e+000 2.014370e+000 1.555443e+000 3.644448e-001
<GCONST> 9.284638e+001
<TRANSP> 5
 0.000000e+000 1.000000e+000 0.000000e+000 0.000000e+000 0.000000e+000
 0.000000e+000 7.219862e-001 2.780137e-001 0.000000e+000 0.000000e+000
 0.000000e+000 0.000000e+000 8.564928e-001 1.435073e-001 0.000000e+000
 0.000000e+000 0.000000e+000 0.000000e+000 8.912718e-001 1.087282e-001
 0.000000e+000 0.000000e+000 0.000000e+000 0.000000e+000 0.000000e+000
<ENDHMM>
~h "y"
<BEGINHMM>
<NUMSTATES> 5
<STATE> 2
<MEAN> 25
 4.601758e+000 -4.419873e+000 1.828504e+001 1.060718e+001 1.208682e+001 -4.500774e+000 -1.591635e+001 2.699259e+000 -1.031932e+000 5.633200e+000 -3.288360e-001 -5.698431e+000 7.667221e-001 -8.205133e-001 -6.695987e-002 -5.558111e-001 8.072109e-001 -5.379566e-001 -1.416586e+000 -3.970912e-001 -5.511723e-001 1.812679e-001 4.099668e-001 -7.408216e-002 1.180816e+000
<VARIANCE> 25
 1.688567e+001 4.338631e+001 4.535545e+001 6.139920e+001 3.630114e+001 4.474815e+001 6.953787e+001 5.050897e+001 3.819473e+001 2.627261e+001 2.888044e+001 2.255512e+001 1.509202e+000 5.233612e+000 5.390542e+000 5.097409e+000 3.760497e+000 4.028698e+000 6.079798e+000 4.392206e+000 3.518498e+000 3.758399e+000 2.889434e+000 1.868343e+000 1.547516e+000
<GCONST> 1.055104e+002
<STATE> 3
<MEAN> 25
 1.090260e+001 -3.304425e+000 6.099163e+000 2.085493e+000 1.276001e+001 -9.990731e-001 -1.199094e+001 -2.008879e+000 -7.247970e+000 3.015121e+000 2.751067e+000 -1.033948e+000 2.466052e-001 -2.409687e-001 -1.318624e+000 -1.074507e+000 -2.379107e-002 -2.726829e-001 6.702054e-001 -6.457804e-001 -7.789990e-001 2.097543e-001 1.397876e-001 6.947442e-001 2.726308e-001
<VARIANCE> 25
 8.402827e+000 5.079689e+001 8.804320e+001 4.005251e+001 8.864113e+001 3.781500e+001 7.118038e+001 3.829777e+001 1.219275e+002 8.422081e+001 2.294013e+001 4.652742e+001 5.586753e-001 1.631750e+000 3.463408e+000 4.260755e+000 3.281576e+000 2.684658e+000 6.612003e+000 3.506572e+000 4.911182e+000 2.457675e+000 3.450705e+000 3.499534e+000 9.813829e-001
<GCONST> 1.052908e+002
<STATE> 4
<MEAN> 25
 6.501510e+000 -4.519454e+000 6.101923e+000 -4.113273e+000 1.058478e+001 -3.236860e+000 -8.874131e+000 1.162109e+000 -5.321312e+000 6.122442e+000 3.740058e-001 -2.042402e+000 -3.485949e-001 -3.209115e-002 1.557045e-001 -1.451232e+000 1.145545e-001 4.104262e-001 1.269840e+000 8.001324e-001 -8.746710e-001 5.817056e-001 -9.062856e-002 -3.477145e-001 1.008610e-001
<VARIANCE> 25
 6.272742e+001 3.902947e+001 9.431437e+001 1.389396e+002 1.130729e+002 1.964238e+001 1.357296e+002 1.405479e+002 1.012680e+002 6.643665e+001 4.761035e+001 5.096510e+001 3.268034e+000 2.207253e+000 1.253497e+001 1.480442e+001 4.421257e+000 3.263663e+000 9.411896e+000 7.937740e+000 9.803496e+000 7.085066e+000 2.802543e+000 4.868140e+000 1.504117e+000
<GCONST> 1.188453e+002
<TRANSP> 5
 0.000000e+000 1.000000e+000 0.000000e+000 0.000000e+000 0.000000e+000
 0.000000e+000 8.190121e-001 1.809878e-001 0.000000e+000 0.000000e+000
 0.000000e+000 0.000000e+000 5.507144e-001 4.492856e-001 0.000000e+000
 0.000000e+000 0.000000e+000 0.000000e+000 1.986533e-001 8.013467e-001
 0.000000e+000 0.000000e+000 0.000000e+000 0.000000e+000 0.000000e+000
<ENDHMM>
~h "z"
<BEGINHMM>
<NUMSTATES> 5
<STATE> 2
<MEAN> 25
 -4.017619e+000 -5.211179e+000 2.156025e+001 -3.725792e+000 4.971544e+000 4.483704e+000 4.346597e-001 -3.133256e+000 -6.685098e+000 6.636710e+000 -3.558017e+000 -1.761157e+000 -2.274582e+000 -1.957712e+000 4.332627e+000 -7.594929e-001 4.136697e-002 1.193652e-001 2.028256e+000 -6.560077e-002 -6.336558e-001 7.031841e-001 -2.755111e-001 -9.019608e-002 1.322166e+000
<VARIANCE> 25
 5.837908e+001 4.973836e+001 1.107312e+002 6.311912e+001 3.868390e+001 8.790503e+001 1.111946e+002 6.235960e+001 3.648824e+001 4.410139e+001 2.704651e+001 1.808622e+001 4.128972e+000 3.424045e+000 7.145633e+000 3.687073e+000 4.508336e+000 4.089588e+000 5.730431e+000 5.639821e+000 2.645199e+000 3.368133e+000 2.382186e+000 2.100621e+000 1.628638e+000
<GCONST> 1.099202e+002
<STATE> 3
<MEAN> 25
 -1.375635e+001 -1.590023e+001 3.190431e+001 -6.972342e+000 2.640148e+000 2.427091e+000 1.061132e+001 1.111406e+000 -7.480578e+000 7.511000e+000 1.762587e+000 -4.460671e-001 -3.230004e-001 -6.471425e-001 -2.570021e-001 2.607467e-001 -1.319526e-001 -4.209296e-002 2.130783e-001 4.266699e-001 1.761818e-001 -6.376515e-002 5.416017e-001 1.700130e-001 -6.518022e-002
<VARIANCE> 25
 1.060150e+001 2.693372e+001 1.541062e+001 3.357375e+001 1.712139e+001 4.958652e+001 5.013810e+001 4.483987e+001 2.252297e+001 2.731713e+001 3.665434e+001 2.157464e+001 7.204353e-001 7.634993e-001 1.316160e+000 9.299855e-001 1.111564e+000 1.349536e+000 2.453456e+000 1.458521e+000 1.563473e+000 1.548336e+000 1.381899e+000 1.784666e+000 2.711102e-001
<GCONST> 8.717352e+001
<STATE> 4
<MEAN> 25
 -1.086460e+001 -1.208848e+001 1.189801e+001 -1.620385e+000 -6.852707e+000 3.263018e+000 2.869802e+000 2.848777e+000 -5.241843e+000 2.163638e+000 4.679539e+000 -2.603586e+000 4.237695e-001 9.722221e-001 -1.254378e+000 6.035598e-001 -4.074439e-001 4.859323e-002 -6.545852e-001 -2.634990e-001 1.084951e-001 -5.374768e-001 -4.248655e-002 -3.152928e-001 -9.589587e-001
<VARIANCE> 25
 1.021200e+001 6.031246e+001 9.883541e+001 4.982270e+001 5.753783e+001 4.111316e+001 5.453314e+001 4.881273e+001 6.425790e+001 4.731398e+001 3.439614e+001 3.641851e+001 1.134458e+000 1.700840e+000 2.715839e+000 3.115214e+000 4.185198e+000 3.833981e+000 4.127534e+000 3.287958e+000 4.009743e+000 3.079140e+000 3.518489e+000 3.258724e+000 8.115327e-001
<GCONST> 1.046003e+002
<TRANSP> 5
 0.000000e+000 1.000000e+000 0.000000e+000 0.000000e+000 0.000000e+000
 0.000000e+000 8.115096e-001 1.884904e-001 0.000000e+000 0.000000e+000
 0.000000e+000 0.000000e+000 9.193575e-001 8.064245e-002 0.000000e+000
 0.000000e+000 0.000000e+000 0.000000e+000 9.137035e-001 8.629643e-002
 0.000000e+000 0.000000e+000 0.000000e+000 0.000000e+000 0.000000e+000
<ENDHMM>
~h "aa"
<BEGINHMM>
<NUMSTATES> 5
<STATE> 2
<MEAN> 25
 7.247052e+000 4.756367e+000 4.725471e+000 -1.107299e+000 -2.064578e+000 2.484679e+000 -1.928339e+000 5.096663e+000 3.664830e+000 -2.194796e+000 1.059188e+000 -1.052928e+000 2.073635e+000 -3.501907e-001 5.369173e-001 -8.513632e-001 -1.206569e+000 -1.006953e+000 -1.491532e+000 5.034285e-001 1.005405e+000 -7.681394e-001 2.217792e-001 2.161220e-001 1.959791e+000
<VARIANCE> 25
 5.752239e+001 9.699815e+001 6.218621e+001 1.098018e+002 7.850287e+001 7.775481e+001 4.638999e+001 4.537785e+001 5.125130e+001 3.340435e+001 1.970310e+001 2.582900e+001 7.397208e+000 6.216465e+000 6.040401e+000 8.908961e+000 7.588817e+000 5.418315e+000 2.466254e+000 3.748147e+000 4.776103e+000 5.666791e+000 3.619036e+000 3.295278e+000 4.781895e+000
<GCONST> 1.145451e+002
<STATE> 3
<MEAN> 25
 1.291087e+001 -3.322653e+000 3.305933e+000 -7.166537e+000 -1.159085e+001 -8.061549e+000 -5.006669e+000 8.994881e+000 1.055873e+001 -3.683377e+000 1.529520e+000 1.031780e+000 -1.224238e-001 8.073142e-002 -1.715150e-001 2.940506e-001 -3.245725e-001 1.350410e-001 7.710253e-002 -3.816182e-001 4.390669e-001 -1.601988e-001 -3.056868e-001 1.201815e-001 -2.787525e-001
<VARIANCE> 25
 1.716418e+001 3.652337e+001 5.234507e+001 4.674527e+001 4.212913e+001 5.065639e+001 2.594108e+001 3.139907e+001 4.891675e+001 3.826857e+001 1.937459e+001 2.970777e+001 5.623435e-001 1.405419e+000 1.252280e+000 1.638973e+000 2.210582e+000 3.523433e+000 2.214047e+000 2.327578e+000 4.748713e+000 2.492022e+000 1.988352e+000 1.192493e+000 7.976278e-001
<GCONST> 9.573309e+001
<STATE> 4
<MEAN> 25
 7.931036e+000 -9.555799e-001 -1.895252e+000 -4.784487e+000 -6.766078e+000 4.918499e+000 -1.457087e+000 -1.919942e+000 7.377398e+000 -3.041244e+000 2.477880e+000 6.112751e+000 -2.484655e-001 5.992451e-001 -1.314528e-001 6.624861e-001 1.892673e-001 1.447986e-001 7.997055e-001 -3.070972e-001 -4.604794e-001 2.059463e-001 -1.431770e-001 6.930908e-002 -5.882477e-001
<VARIANCE> 25
 5.985391e+001 5.193908e+001 4.676488e+001 9.470050e+001 1.575792e+002 9.972290e+001 1.317844e+002 5.587733e+001 8.823634e+001 4.892746e+001 4.137802e+001 3.640884e+001 1.564649e+000 3.633807e+000 2.793544e+000 4.431036e+000 9.955779e+000 4.093816e+000 4.456790e+000 4.802221e+000 8.232478e+000 6.778059e+000 3.184593e+000 2.919015e+000 2.770615e+000
<GCONST> 1.149348e+002
<TRANSP> 5
 0.000000e+000 1.000000e+000 0.000000e+000 0.000000e+000 0.000000e+000
 0.000000e+000 7.554623e-001 2.445376e-001 0.000000e+000 0.000000e+000
 0.000000e+000 0.000000e+000 8.515409e-001 1.484592e-001 0.000000e+000
 0.000000e+000 0.000000e+000 0.000000e+000 8.206263e-001 1.793737e-001
 0.000000e+000 0.000000e+000 0.000000e+000 0.000000e+000 0.000000e+000
<ENDHMM>
~h "ae"
<BEGINHMM>
<NUMSTATES> 5
<STATE> 2
<MEAN> 25
 3.667812e+000 2.152400e+000 3.548651e-001 -8.017976e-001 -1.835043e+000 4.970238e+000 -5.214671e-001 -2.725703e+000 5.703873e+000 1.113796e+000 -2.425352e+000 3.292958e+000 2.070458e+000 -2.115989e+000 1.194405e+000 -1.552681e+000 5.498828e-001 -5.012928e-001 -1.493386e+000 -1.126372e-001 -7.377894e-002 1.211566e+000 -2.576884e-001 7.179202e-001 3.337722e+000
<VARIANCE> 25
 7.786519e+001 1.353913e+002 7.667257e+001 1.222897e+002 1.197967e+002 5.916288e+001 7.590003e+001 7.092152e+001 8.840574e+001 6.933814e+001 5.334610e+001 2.976668e+001 7.722437e+000 1.158271e+001 6.053467e+000 9.142331e+000 6.348330e+000 5.600886e+000 6.651611e+000 6.429564e+000 6.998931e+000 7.179232e+000 4.622787e+000 3.611777e+000 5.697487e+000
<GCONST> 1.222105e+002
<STATE> 3
<MEAN> 25
 9.588448e+000 -1.427707e+001 4.694465e+000 -9.765728e+000 3.174186e+000 2.660083e-001 -8.221404e+000 -4.733093e+000 2.740930e+000 6.843161e+000 1.578612e+000 5.632880e+000 -1.601207e-002 -9.247225e-002 6.848260e-003 -1.992817e-002 6.214550e-002 1.315885e-001 1.727297e-001 1.900615e-001 -1.761451e-001 -4.038042e-001 2.616704e-001 1.651142e-002 7.179519e-002
<VARIANCE> 25
 1.128812e+001 2.046563e+001 1.940542e+001 3.966896e+001 6.429082e+001 3.511396e+001 5.039044e+001 2.687730e+001 5.159750e+001 3.974071e+001 3.125474e+001 4.399524e+001 2.454867e-001 1.775033e+000 8.400418e-001 1.698984e+000 1.744229e+000 1.527367e+000 1.625233e+000 2.053423e+000 2.823469e+000 2.239160e+000 2.657447e+000 1.684652e+000 9.283779e-001
<GCONST> 9.279948e+001
<STATE> 4
<MEAN> 25
 8.903921e+000 -5.651457e+000 3.493272e+000 -5.994920e+000 2.109808e+000 4.267739e+000 -7.724788e+000 -2.582546e+000 1.074657e+000 3.825999e+000 2.764028e+000 4.651284e+000 -3.393283e-001 1.797123e+000 -5.700229e-001 1.765734e+000 1.178634e-001 2.196867e-001 -1.634335e-001 9.115993e-002 3.782225e-001 -2.798890e-001 -8.806823e-002 -8.685693e-001 -1.801091e+000
<VARIANCE> 25
 1.850454e+001 2.854737e+001 3.594206e+001 6.180452e+001 5.083595e+001 3.480681e+001 4.194832e+001 5.111688e+001 9.555729e+001 5.887060e+001 2.826459e+001 2.982740e+001 6.333045e-001 2.468784e+000 1.976071e+000 3.753133e+000 3.669835e+000 2.591180e+000 3.852637e+000 3.552486e+000 6.186728e+000 6.865197e+000 4.510412e+000 1.308886e+000 9.822637e-001
<GCONST> 1.032693e+002
<TRANSP> 5
 0.000000e+000 1.000000e+000 0.000000e+000 0.000000e+000 0.000000e+000
 0.000000e+000 8.123157e-001 1.876843e-001 0.000000e+000 0.000000e+000
 0.000000e+000 0.000000e+000 8.572888e-001 1.427113e-001 0.000000e+000
 0.000000e+000 0.000000e+000 0.000000e+000 7.158057e-001 2.841942e-001
 0.000000e+000 0.000000e+000 0.000000e+000 0.000000e+000 0.000000e+000
<ENDHMM>
~h "ah"
<BEGINHMM>
<NUMSTATES> 5
<STATE> 2
<MEAN> 25
 4.908551e+000 -3.693515e-001 4.579919e+000 -3.072622e+000 3.072620e+000 1.783967e+000 -4.817998e+000 1.277207e+000 -2.301758e+000 7.782105e-001 1.145902e-001 1.960769e-001 1.314717e+000 -2.671247e-001 1.750241e-002 -1.193804e+000 6.297477e-002 -2.027898e-001 -7.324506e-001 -2.548171e-002 -3.876210e-001 -2.559626e-001 -1.875031e-001 3.965284e-001 1.393892e+000
<VARIANCE> 25
 6.446555e+001 9.387154e+001 6.284314e+001 8.941090e+001 9.563663e+001 6.039609e+001 5.718143e+001 8.202887e+001 7.715133e+001 8.791433e+001 3.798587e+001 4.573861e+001 4.543098e+000 7.987327e+000 5.835680e+000 9.278392e+000 1.021185e+001 6.465260e+000 7.148497e+000 8.742826e+000 9.015634e+000 6.434485e+000 5.643028e+000 4.586699e+000 4.563635e+000
<GCONST> 1.214265e+002
<STATE> 3
<MEAN> 25
 1.003189e+001 -4.169817e+000 3.179420e+000 -6.056426e+000 2.306024e+000 1.746115e+000 -5.731625e+000 -3.347823e-001 -2.003938e+000 -1.178536e-001 8.134889e-001 3.735547e+000 3.819870e-001 2.177701e-001 -7.883127e-001 3.882936e-002 -1.015471e+000 4.313289e-001 7.911058e-001 3.113988e-001 1.183553e+000 -8.334230e-001 -1.099835e-001 1.836650e-001 -1.483591e-001
<VARIANCE> 25
 2.003606e+001 6.600978e+001 5.424108e+001 7.160624e+001 6.123392e+001 4.207293e+001 4.337709e+001 7.045910e+001 7.137219e+001 7.067890e+001 4.376074e+001 4.801134e+001 8.369980e-001 2.466857e+000 2.740578e+000 4.375377e+000 4.940855e+000 3.400877e+000 4.117957e+000 5.456412e+000 3.921904e+000 4.224810e+000 3.424478e+000 3.683441e+000 1.535128e+000
<GCONST> 1.083680e+002
<STATE> 4
<MEAN> 25
 8.982525e+000 -5.665353e+000 -1.839649e+000 -7.855318e+000 -2.333203e+000 1.065847e+000 -2.040629e-001 4.296584e+000 2.661878e+000 -2.338385e+000 1.804716e+000 4.133533e+000 -2.179105e-001 3.596347e-001 8.073507e-002 3.681816e-001 -4.734421e-002 -1.317967e-003 8.505449e-002 -1.198427e-001 3.664581e-002 -4.770499e-002 -1.742352e-001 -1.690191e-001 -4.011088e-001
<VARIANCE> 25
 3.785529e+001 5.794476e+001 4.020535e+001 8.354248e+001 4.805486e+001 4.658064e+001 5.055599e+001 4.888740e+001 6.257775e+001 5.032105e+001 4.042990e+001 4.264033e+001 3.520069e-001 1.140180e+000 1.370947e+000 2.251690e+000 2.609890e+000 2.091279e+000 2.604797e+000 2.544354e+000 3.741432e+000 3.325966e+000 2.602287e+000 1.811691e+000 4.693040e-001
<GCONST> 9.991083e+001
<TRANSP> 5
 0.000000e+000 1.000000e+000 0.000000e+000 0.000000e+000 0.000000e+000
 0.000000e+000 5.380871e-001 4.619129e-001 0.000000e+000 0.000000e+000
 0.000000e+000 0.000000e+000 5.143290e-001 4.856711e-001 0.000000e+000
 0.000000e+000 0.000000e+000 0.000000e+000 8.092673e-001 1.907327e-001
 0.000000e+000 0.000000e+000 0.000000e+000 0.000000e+000 0.000000e+000
<ENDHMM>
~h "ao"
<BEGINHMM>
<NUMSTATES> 5
<STATE> 2
<MEAN> 25
 5.984033e+000 5.755960e+000 5.935270e+000 -3.990684e+000 -9.273403e+000 -1.559285e+000 -5.591936e+000 5.207187e+000 7.751880e+000 -2.103834e+000 3.429327e+000 -5.588070e-001 4.405350e+000 8.108308e-001 1.911337e+000 -1.581601e-001 -2.361565e+000 -1.940108e+000 -1.718774e+000 -5.889247e-001 1.371236e+000 -1.486700e+000 -1.522402e-001 4.392943e-001 3.575754e+000
<VARIANCE> 25
 8.646550e+001 5.945083e+001 6.094560e+001 4.593509e+001 8.042642e+001 7.368233e+001 3.499456e+001 4.445982e+001 6.293533e+001 4.518776e+001 4.026992e+001 3.044460e+001 5.998605e+000 1.614903e+001 8.713116e+000 1.115654e+001 4.946397e+000 5.508171e+000 4.321095e+000 5.506501e+000 6.284011e+000 9.210599e+000 3.492184e+000 1.351202e+000 2.551774e+000
<GCONST> 1.157016e+002
<STATE> 3
<MEAN> 25
 1.136912e+001 -3.092705e+000 1.158972e+001 -6.623677e+000 -1.449208e+001 -1.123464e+001 -7.705216e+000 7.034479e+000 8.377794e+000 -9.322575e-001 3.454792e+000 1.739224e-002 -1.456120e-002 -3.320926e-001 1.850599e-001 -4.501368e-003 -3.088061e-001 1.741168e-002 -2.312676e-002 -1.471803e-001 3.104572e-001 -3.612592e-001 -4.491661e-002 2.803881e-001 2.194222e-001
<VARIANCE> 25
 5.768665e+000 1.994680e+001 4.039082e+001 1.400619e+001 1.851830e+001 3.863935e+001 3.276772e+001 3.444432e+001 2.988690e+001 2.565132e+001 1.715431e+001 1.470943e+001 2.365213e-001 6.672179e-001 8.915074e-001 1.119851e+000 9.398413e-001 1.729187e+000 1.612683e+000 1.643397e+000 1.539581e+000 1.345017e+000 8.069151e-001 9.860986e-001 3.133674e-001
<GCONST> 8.175639e+001
<STATE> 4
<MEAN> 25
 1.312275e+001 -5.999610e-001 5.880663e+000 -7.122847e+000 -1.561291e+001 -5.815743e+000 -9.781843e+000 -2.183030e-001 1.546645e+001 -6.027152e+000 2.106688e+000 5.594258e+000 2.352302e-002 1.620506e-001 -5.622206e-001 -8.804188e-001 6.897904e-001 7.337716e-001 1.111240e-001 -3.366468e-001 -5.678499e-001 1.785639e-001 2.243517e-002 1.448125e-001 -1.282798e-002
<VARIANCE> 25
 3.379423e+000 1.748169e+001 3.505052e+001 8.636954e+001 7.422141e+001 4.299454e+001 3.346616e+001 2.473994e+001 4.091366e+001 3.821890e+001 1.418372e+001 2.189191e+001 1.769203e-001 4.959314e-001 7.492540e-001 2.107828e+000 1.832156e+000 2.617908e+000 1.629461e+000 2.014556e+000 2.557960e+000 1.360106e+000 1.141488e+000 1.332764e+000 1.806890e-001
<GCONST> 8.665681e+001
<TRANSP> 5
 0.000000e+000 1.000000e+000 0.000000e+000 0.000000e+000 0.000000e+000
 0.000000e+000 7.366268e-001 2.633732e-001 0.000000e+000 0.000000e+000
 0.000000e+000 0.000000e+000 8.809083e-001 1.190917e-001 0.000000e+000
 0.000000e+000 0.000000e+000 0.000000e+000 8.869354e-001 1.130646e-001
 0.000000e+000 0.000000e+000 0.000000e+000 0.000000e+000 0.000000e+000
<ENDHMM>
~h "aw"
<BEGINHMM>
<NUMSTATES> 5
<STATE> 2
<MEAN> 25
 2.361506e+000 3.040819e+000 -2.464773e+000 2.832841e+000 -6.735490e+000 4.144460e+000 5.722921e+000 1.770560e-001 1.156190e+001 4.075739e-001 -3.419682e+000 7.091716e+000 2.147544e+000 -1.797599e+000 1.675920e+000 -2.190092e+000 1.138389e-001 -8.510039e-002 -2.743890e+000 7.610835e-001 -4.925846e-001 -5.716883e-001 -4.859318e-001 -6.358011e-001 3.265908e+000
<VARIANCE> 25
 7.638258e+001 7.588082e+001 1.364626e+002 7.743342e+001 4.377758e+001 9.315423e+001 7.294170e+001 3.362812e+001 1.158626e+002 3.576989e+001 4.615769e+001 7.686897e+001 6.938008e+000 1.703772e+001 5.086931e+000 9.624986e+000 4.840532e+000 7.681536e+000 6.462759e+000 3.699933e+000 1.985139e+001 4.322202e+000 4.882134e+000 4.968844e+000 5.318042e+000
<GCONST> 1.212650e+002
<STATE> 3
<MEAN> 25
 -1.054641e+000 -5.937413e+000 -7.900058e+000 -3.928878e+000 -6.212194e+000 -9.832640e-001 4.896812e-001 1.501756e+000 4.315328e+000 5.700612e-001 5.929914e+000 6.321976e+000 6.800517e-001 -3.617591e-001 7.328308e-002 -4.363292e-001 -5.273698e-001 3.377119e-001 -3.031749e-002 -7.247292e-002 7.710709e-001 -2.569272e-001 1.494245e-001 -7.462490e-002 7.673032e-001
<VARIANCE> 25
 9.946883e+001 1.450530e+002 1.686633e+002 4.641145e+001 5.762470e+001 5.348671e+001 9.637257e+001 4.878118e+001 1.475048e+002 4.655642e+001 4.463216e+001 3.119072e+001 3.280608e+000 8.730906e+000 5.418291e+000 5.083078e+000 4.843596e+000 3.290182e+000 6.600854e+000 4.982664e+000 7.151065e+000 4.325381e+000 6.058106e+000 2.859416e+000 5.607968e+000
<GCONST> 1.179917e+002
<STATE> 4
<MEAN> 25
 1.121321e+001 -9.067764e+000 4.159350e+000 -1.276793e+001 -1.064568e+001 1.414334e+000 1.799446e-004 5.216169e+000 9.577429e+000 -2.922332e+000 -1.239539e+000 1.617087e+000 -8.865181e-002 3.933548e-001 -1.163374e-001 2.053858e-001 1.151530e-001 -2.796131e-001 2.606946e-001 5.403810e-002 -3.841342e-001 -9.152916e-002 -3.867205e-001 -2.437991e-001 -2.884205e-001
<VARIANCE> 25
 5.305531e+000 4.783375e+001 2.177956e+001 3.183938e+001 2.141210e+001 2.924744e+001 2.774267e+001 3.095486e+001 6.534770e+001 2.203531e+001 2.009607e+001 1.844948e+001 2.914103e-001 1.831805e+000 1.761743e+000 1.678877e+000 2.345922e+000 2.124020e+000 2.463441e+000 2.657265e+000 4.570513e+000 1.982109e+000 1.693109e+000 1.176356e+000 7.180364e-001
<GCONST> 9.091135e+001
<TRANSP> 5
 0.000000e+000 1.000000e+000 0.000000e+000 0.000000e+000 0.000000e+000
 0.000000e+000 7.616907e-001 2.383093e-001 0.000000e+000 0.000000e+000
 0.000000e+000 0.000000e+000 8.692011e-001 1.307989e-001 0.000000e+000
 0.000000e+000 0.000000e+000 0.000000e+000 9.434721e-001 5.652791e-002
 0.000000e+000 0.000000e+000 0.000000e+000 0.000000e+000 0.000000e+000
<ENDHMM>
~h "ay"
<BEGINHMM>
<NUMSTATES> 5
<STATE> 2
<MEAN> 25
 5.028786e+000 -1.375188e+000 1.332557e+000 3.555637e+000 -1.208914e+000 1.966246e+000 -6.203783e+000 -6.818846e+000 2.321390e+000 3.546712e+000 2.167210e+000 -1.063268e+000 -2.060789e-001 1.022198e+000 -7.463161e-001 8.088651e-001 -6.298130e-001 5.688968e-001 4.184120e-001 -6.521033e-001 7.608059e-001 -5.868464e-001 5.275908e-002 1.467493e-001 -1.108390e+000
<VARIANCE> 25
 4.390166e+001 9.406615e+001 7.948964e+001 8.231721e+001 6.095673e+001 6.462085e+001 4.712658e+001 5.491622e+001 7.008829e+001 6.053718e+001 4.243703e+001 3.822271e+001 1.325789e+000 3.582618e+000 6.807093e+000 4.764686e+000 3.920895e+000 6.758802e+000 2.851334e+000 4.100620e+000 6.238320e+000 5.215334e+000 3.959380e+000 2.008835e+000 1.746097e+000
<GCONST> 1.118276e+002
<STATE> 3
<MEAN> 25
 -1.947323e+000 9.710711e+000 -9.497018e+000 1.007911e+001 -1.344845e+000 1.254359e+000 6.486982e+000 -1.612649e+000 5.460080e+000 -5.313891e+000 -1.341649e-001 6.908988e-001 -6.255815e-002 5.398029e-001 -6.290944e-001 3.784765e-001 5.024627e-001 -4.779307e-001 7.602388e-001 3.698837e-001 -2.146672e-001 5.159616e-002 -3.500824e-001 1.048810e-001 -4.261379e-001
<VARIANCE> 25
 5.319204e+001 8.028367e+001 4.824429e+001 6.691357e+001 2.665840e+001 4.752831e+001 8.919259e+001 7.345531e+001 4.623858e+001 8.157037e+001 3.869117e+001 3.533773e+001 6.892097e-001 1.379498e+000 3.317071e+000 2.665368e+000 1.986702e+000 4.824226e+000 3.853591e+000 2.704036e+000 4.108558e+000 5.498223e+000 3.132393e+000 3.101867e+000 5.594162e-001
<GCONST> 1.053171e+002
<STATE> 4
<MEAN> 25
 3.374818e+000 1.336459e+001 -5.522799e+000 9.335293e+000 1.534879e+000 3.061762e+000 1.063243e+000 -2.987661e+000 8.740646e+000 8.487349e-001 -1.673814e+000 -7.085704e-001 4.427437e-001 -1.140635e+000 1.711665e+000 -1.608820e+000 2.189316e-001 8.026543e-002 -1.195057e+000 2.371927e-001 -8.783134e-001 9.926980e-001 -6.397457e-002 -1.437018e-001 1.632999e+000
<VARIANCE> 25
 5.966695e+001 1.151138e+002 1.117064e+002 1.224341e+002 5.550637e+001 8.128820e+001 1.119699e+002 6.821404e+001 8.863053e+001 6.919458e+001 3.949675e+001 3.976535e+001 5.954713e+000 8.351858e+000 5.977108e+000 1.184724e+001 5.819475e+000 8.560577e+000 1.302069e+001 7.192009e+000 1.289245e+001 7.300936e+000 4.086907e+000 4.076845e+000 3.644522e+000
<GCONST> 1.230066e+002
<TRANSP> 5
 0.000000e+000 1.000000e+000 0.000000e+000 0.000000e+000 0.000000e+000
 0.000000e+000 8.082716e-001 1.917283e-001 0.000000e+000 0.000000e+000
 0.000000e+000 0.000000e+000 7.347421e-001 2.652578e-001 0.000000e+000
 0.000000e+000 0.000000e+000 0.000000e+000 7.586661e-001 2.413339e-001
 0.000000e+000 0.000000e+000 0.000000e+000 0.000000e+000 0.000000e+000
<ENDHMM>
~h "ch"
<BEGINHMM>
<NUMSTATES> 5
<STATE> 2
<MEAN> 25
 -4.115958e+000 7.413713e+000 -1.326795e+001 9.862527e+000 2.132489e+000 -4.100938e+000 9.865193e+000 -1.069629e+000 -3.988329e+000 3.396080e+000 1.419067e+000 -4.357708e+000 -6.161524e-002 -2.689072e-001 -2.295297e-002 -5.835444e-002 -5.820803e-002 -7.253153e-002 -1.254302e-001 -1.465867e-001 1.196931e-001 -1.723601e-001 -1.546183e-001 5.340885e-002 1.012749e-001
<VARIANCE> 25
 8.067251e+000 5.087637e+001 9.416991e+001 3.378524e+001 5.215063e+001 2.732911e+001 6.210778e+001 6.147903e+001 4.698574e+001 4.838041e+001 5.239141e+001 2.915509e+001 7.087713e-001 3.056047e+000 3.163771e+000 4.342833e+000 6.674203e+000 3.011464e+000 6.676695e+000 7.892198e+000 5.878277e+000 6.321386e+000 4.935627e+000 3.647813e+000 5.865343e-001
<GCONST> 1.069299e+002
<STATE> 3
<MEAN> 25
 -4.802499e+000 -1.735696e+000 6.100428e+000 3.084994e+000 2.645082e+000 -3.641912e+000 4.425463e+000 2.605209e+000 -5.312095e+000 2.511844e+000 -4.058065e+000 -3.495420e+000 -1.257546e+000 -2.374670e+000 2.230868e+000 -1.213082e+000 2.872621e-001 -1.238106e+000 6.068853e-001 1.298848e+000 -9.270420e-002 -2.651711e-001 -3.301536e-001 1.328914e+000 1.481601e+000
<VARIANCE> 25
 1.029525e+001 1.622018e+002 1.506304e+002 6.939568e+001 5.192976e+001 3.863190e+001 6.376033e+001 3.417821e+001 3.118256e+001 8.833596e+001 2.360634e+001 4.083062e+001 2.687887e+000 1.030663e+001 1.410698e+001 7.677756e+000 7.400273e+000 2.527451e+000 7.402808e+000 2.372990e+000 5.252912e+000 5.182877e+000 2.834769e+000 2.881340e+000 4.594957e+000
<GCONST> 1.134353e+002
<STATE> 4
<MEAN> 25
 -8.955589e+000 -2.053857e+001 1.633471e+001 -2.335264e+000 3.274590e+000 -4.891734e-001 -2.610879e+000 4.043595e+000 3.757502e+000 -4.902260e-001 -1.618009e+000 6.101028e+000 1.086545e+000 3.957893e-001 -1.241556e+000 5.466740e-001 1.645464e-001 8.760661e-001 -8.318066e-001 -1.095326e+000 -2.924483e-002 -3.343327e-001 3.135763e-001 1.529471e-001 -1.838748e-002
<VARIANCE> 25
 3.204799e+001 2.814897e+001 5.232870e+001 2.733998e+001 2.134878e+001 4.479350e+001 5.368529e+001 8.584350e+001 7.047702e+001 5.353935e+001 3.077100e+001 1.404514e+001 4.781750e+000 4.187920e+000 3.863945e+000 3.174859e+000 3.600754e+000 3.396165e+000 3.726773e+000 4.671529e+000 8.063198e+000 3.265025e+000 2.903704e+000 1.449571e+000 1.016563e+000
<GCONST> 1.052099e+002
<TRANSP> 5
 0.000000e+000 1.000000e+000 0.000000e+000 0.000000e+000 0.000000e+000
 0.000000e+000 9.311387e-001 6.886131e-002 0.000000e+000 0.000000e+000
 0.000000e+000 0.000000e+000 8.130944e-001 1.869056e-001 0.000000e+000
 0.000000e+000 0.000000e+000 0.000000e+000 9.058160e-001 9.418397e-002
 0.000000e+000 0.000000e+000 0.000000e+000 0.000000e+000 0.000000e+000
<ENDHMM>
~h "dh"
<BEGINHMM>
<NUMSTATES> 5
<STATE> 2
<MEAN> 25
 7.482299e+000 -8.231383e+000 4.473172e+000 -1.865670e+000 1.114502e+001 -8.116114e-001 -1.334266e+001 -6.661434e+000 -8.690759e+000 1.073724e-001 -3.795569e-001 2.054059e+000 1.028047e+000 6.072013e-001 -2.593294e+000 -1.688837e+000 2.596861e+000 -5.116298e-001 -2.751578e+000 -1.428086e+000 -1.787293e-001 -1.550613e+000 -1.003327e-001 1.333742e+000 5.295751e-001
<VARIANCE> 25
 8.536883e+000 4.774535e+001 3.769145e+001 3.131766e+001 5.925357e+001 1.391969e+001 6.271806e+001 2.805092e+001 2.363592e+001 4.489434e+001 2.448270e+001 2.647742e+001 7.708585e-001 2.111320e+000 1.641950e+000 3.153309e+000 4.064124e+000 2.378068e+000 7.212837e+000 2.247376e+000 2.441312e+000 4.036428e+000 4.649565e+000 2.167314e+000 4.449354e-001
<GCONST> 9.763380e+001
<STATE> 3
<MEAN> 25
 9.560907e+000 -9.489865e-001 -1.906935e+000 -1.804195e+001 1.292267e+001 6.288176e+000 -1.508429e+001 -8.213666e+000 -8.447650e+000 -7.984846e+000 3.712984e+000 9.841389e+000 -1.770709e-002 8.911220e-001 6.681308e-002 -6.763650e-001 -7.917035e-001 4.290673e-001 5.786768e-001 3.306986e-001 -3.577647e-001 -7.318592e-001 1.266365e-002 1.878291e-002 -4.406840e-001
<VARIANCE> 25
 3.737213e+000 2.266798e+001 2.240977e+001 4.683307e+001 5.421450e+001 4.247772e+001 2.873644e+001 1.523261e+001 2.189344e+001 3.618156e+001 2.794070e+001 2.283857e+001 1.546995e-001 3.847765e-001 4.968469e-001 2.984205e+000 1.471539e+000 2.941602e+000 2.189099e+000 1.389493e+000 2.480674e+000 3.126024e+000 2.524523e+000 1.879920e+000 1.244757e-001
<GCONST> 8.597123e+001
<STATE> 4
<MEAN> 25
 -6.550575e-001 4.170197e+000 -4.390888e+000 1.564455e+000 -1.239155e+000 1.392939e+000 -3.210828e+000 -1.887496e+000 -2.759000e+000 -6.334071e+000 3.414114e+000 -9.773214e-001 -5.672385e-001 -5.733548e-003 -1.367000e-001 7.889311e-001 -7.377852e-001 -1.183482e-001 8.165902e-001 1.962480e-001 6.179498e-001 2.747958e-001 -4.192558e-001 -3.158904e-001 -7.068769e-001
<VARIANCE> 25
 5.212706e+001 1.775542e+001 3.989912e+001 7.856858e+001 7.763227e+001 3.367492e+001 6.751372e+001 4.448014e+001 6.150539e+001 2.833139e+001 8.980183e+001 4.432926e+001 3.855275e-001 7.777117e-001 1.880450e+000 3.747060e+000 2.478392e+000 2.831073e+000 3.586344e+000 4.101496e+000 3.753757e+000 2.686213e+000 4.998707e+000 2.541490e+000 4.055156e-001
<GCONST> 1.017910e+002
<TRANSP> 5
 0.000000e+000 1.000000e+000 0.000000e+000 0.000000e+000 0.000000e+000
 0.000000e+000 7.743916e-001 2.256084e-001 0.000000e+000 0.000000e+000
 0.000000e+000 0.000000e+000 8.870738e-001 1.129263e-001 0.000000e+000
 0.000000e+000 0.000000e+000 0.000000e+000 9.189514e-001 8.104856e-002
 0.000000e+000 0.000000e+000 0.000000e+000 0.000000e+000 0.000000e+000
<ENDHMM>
~h "eh"
<BEGINHMM>
<NUMSTATES> 5
<STATE> 2
<MEAN> 25
 8.027509e+000 -6.915526e+000 6.778292e+000 -4.439290e+000 6.209805e+000 -6.209580e-001 -7.222302e+000 -4.112302e+000 -4.693748e+000 6.273988e+000 1.608302e+000 3.659396e+000 1.822230e+000 -1.551141e+000 -7.720128e-001 -8.012785e-001 1.841229e-002 -1.341270e+000 -1.802146e+000 -1.716654e+000 1.246646e-001 1.044111e+000 6.853982e-001 1.186411e+000 2.256182e+000
<VARIANCE> 25
 1.464624e+001 4.629020e+001 3.525169e+001 5.294608e+001 5.162917e+001 5.231254e+001 3.997944e+001 5.490612e+001 5.092911e+001 4.053190e+001 1.932787e+001 3.643006e+001 5.627020e+000 4.326921e+000 2.715850e+000 4.554165e+000 1.615683e+000 4.143760e+000 4.404160e+000 3.555158e+000 4.244599e+000 4.630604e+000 2.125690e+000 1.995241e+000 3.888330e+000
<GCONST> 1.059237e+002
<STATE> 3
<MEAN> 25
 7.960800e+000 -7.892485e+000 1.040067e+001 1.306560e+000 9.115106e+000 -2.177096e+000 -1.075355e+001 -2.713837e+000 -1.730147e+000 5.489470e+000 1.307222e-001 1.151650e+000 -8.385432e-002 -4.839509e-001 2.413179e-001 -1.497096e-001 -2.835082e-001 1.759790e-001 3.276539e-001 1.144654e-001 9.201892e-002 5.108591e-001 1.737117e-001 1.243661e-002 2.155087e-001
<VARIANCE> 25
 1.419388e+001 3.827185e+001 5.578898e+001 8.454145e+001 5.121592e+001 5.701530e+001 6.912071e+001 5.034938e+001 3.741408e+001 4.551117e+001 3.033088e+001 4.360586e+001 1.849240e+000 5.309153e+000 4.167381e+000 4.500579e+000 2.373976e+000 5.022376e+000 5.348510e+000 3.539388e+000 4.103656e+000 3.364280e+000 3.250325e+000 3.453912e+000 2.448148e+000
<GCONST> 1.080385e+002
<STATE> 4
<MEAN> 25
 9.407632e+000 -1.086434e+001 5.486854e+000 -8.565993e+000 4.891019e+000 -1.732249e+000 -7.897696e+000 -4.617844e+000 -1.721793e+000 9.410293e+000 1.674455e+000 4.951454e+000 -2.174857e-001 3.206284e-001 -9.730645e-002 9.906699e-002 -8.269832e-002 2.223217e-001 -2.454339e-002 -2.460902e-003 1.809059e-002 -4.461803e-001 3.493866e-002 -2.229142e-001 -3.954277e-001
<VARIANCE> 25
 8.355492e+000 2.983212e+001 2.354879e+001 3.657254e+001 3.379803e+001 4.265505e+001 2.291246e+001 3.106985e+001 3.741959e+001 3.204203e+001 3.268370e+001 2.844288e+001 4.142894e-001 1.804566e+000 1.478347e+000 2.229305e+000 1.924831e+000 2.238148e+000 2.214698e+000 1.870313e+000 3.278126e+000 2.843179e+000 1.743333e+000 1.678056e+000 9.725292e-001
<GCONST> 9.305051e+001
<TRANSP> 5
 0.000000e+000 1.000000e+000 0.000000e+000 0.000000e+000 0.000000e+000
 0.000000e+000 4.825566e-001 5.174434e-001 0.000000e+000 0.000000e+000
 0.000000e+000 0.000000e+000 6.281679e-001 3.718321e-001 0.000000e+000
 0.000000e+000 0.000000e+000 0.000000e+000 8.404703e-001 1.595297e-001
 0.000000e+000 0.000000e+000 0.000000e+000 0.000000e+000 0.000000e+000
<ENDHMM>
~h "er"
<BEGINHMM>
<NUMSTATES> 5
<STATE> 2
<MEAN> 25
 7.502396e+000 3.707778e+000 -1.571931e+000 -7.355202e+000 7.609588e+000 9.971323e+000 -2.248922e+000 -2.766593e+000 -4.474343e+000 -5.228755e+000 2.337342e+000 6.654911e+000 5.577593e-001 9.633629e-001 -1.177381e+000 4.418629e-002 3.435900e-001 3.360122e-001 2.268617e-001 -3.921863e-001 -1.178741e-001 -3.795126e-001 3.179920e-001 1.736781e-002 -3.262552e-001
<VARIANCE> 25
 3.897285e+001 7.920568e+001 1.354662e+002 1.805289e+002 6.363225e+001 7.296872e+001 1.221760e+002 6.185852e+001 7.858084e+001 5.522633e+001 4.007082e+001 4.903768e+001 3.010075e+000 2.817072e+000 5.764581e+000 8.243453e+000 4.194137e+000 5.029790e+000 5.068722e+000 5.904141e+000 6.571760e+000 6.073227e+000 3.381787e+000 2.759501e+000 1.570114e+000
<GCONST> 1.162366e+002
<STATE> 3
<MEAN> 25
 7.644010e+000 -9.895744e-003 -3.080981e+000 -5.790487e+000 3.376775e+000 4.120272e+000 -5.433061e+000 -3.252007e+000 -3.722561e+000 -4.850633e+000 8.934114e-001 3.944932e+000 1.660392e+000 -2.232458e-001 3.461096e-001 -2.314125e+000 1.278673e+000 5.066340e-002 -1.558513e+000 1.008650e-001 -7.039495e-001 -2.546434e-001 1.521775e-001 9.008145e-001 2.066429e+000
<VARIANCE> 25
 5.769141e+001 6.073423e+001 6.428577e+001 1.338570e+002 7.948720e+001 8.176653e+001 1.183911e+002 9.595145e+001 9.998235e+001 8.382888e+001 2.780810e+001 2.708178e+001 6.280932e+000 1.153869e+001 1.152304e+001 8.014558e+000 4.467362e+000 5.118867e+000 3.450255e+000 3.306304e+000 4.467931e+000 5.291611e+000 3.291617e+000 2.678639e+000 4.809711e+000
<GCONST> 1.182271e+002
<STATE> 4
<MEAN> 25
 1.053671e+001 1.706311e+000 -3.305281e+000 -1.461539e+001 8.569285e+000 8.148014e+000 -1.177233e+001 -3.836290e+000 -5.961267e+000 -8.100634e+000 4.296380e+000 5.558701e+000 -2.938620e-001 2.218216e-001 -1.119045e-001 4.243714e-001 -9.097150e-002 -9.112440e-002 1.530642e-001 1.150714e-001 2.100687e-001 2.550267e-002 1.292431e-001 -6.944808e-002 -4.524019e-001
<VARIANCE> 25
 1.501515e+001 4.044381e+001 3.407822e+001 9.060456e+001 7.760081e+001 7.132819e+001 4.820579e+001 4.966856e+001 6.801357e+001 5.587377e+001 3.543358e+001 3.544469e+001 3.640229e-001 1.501643e+000 1.533712e+000 4.228113e+000 2.880396e+000 3.080138e+000 2.358753e+000 2.760132e+000 2.830676e+000 3.081230e+000 1.954617e+000 2.628874e+000 7.588432e-001
<GCONST> 1.010176e+002
<TRANSP> 5
 0.000000e+000 1.000000e+000 0.000000e+000 0.000000e+000 0.000000e+000
 0.000000e+000 6.597417e-001 3.402583e-001 0.000000e+000 0.000000e+000
 0.000000e+000 0.000000e+000 4.682451e-001 5.317549e-001 0.000000e+000
 0.000000e+000 0.000000e+000 0.000000e+000 9.290537e-001 7.094628e-002
 0.000000e+000 0.000000e+000 0.000000e+000 0.000000e+000 0.000000e+000
<ENDHMM>
~h "ey"
<BEGINHMM>
<NUMSTATES> 5
<STATE> 2
<MEAN> 25
 6.585631e+000 -1.217705e+001 1.166264e+001 2.428507e+000 9.675838e+000 -1.071998e+001 -1.715223e+001 -1.166471e+000 5.033882e-002 6.273380e+000 -3.042550e+000 -2.815353e+000 -1.634748e-001 1.118954e-001 3.877790e-001 5.454587e-001 1.727188e-001 -3.223951e-001 -3.555239e-001 1.587499e-001 9.548718e-002 -2.377962e-001 -3.373227e-001 -3.019192e-001 -1.505933e-001
<VARIANCE> 25
 7.083089e+000 1.074806e+001 3.938488e+001 3.630719e+001 2.729775e+001 2.742725e+001 3.500641e+001 3.289953e+001 3.285713e+001 4.856549e+001 2.601288e+001 2.338973e+001 2.107166e-001 5.706103e-001 7.088358e-001 7.118374e-001 1.091746e+000 1.827163e+000 1.605488e+000 1.626110e+000 1.820732e+000 1.874398e+000 1.408956e+000 1.139867e+000 2.103841e-001
<GCONST> 8.398837e+001
<STATE> 3
<MEAN> 25
 5.820492e+000 -4.406578e+000 1.055325e+001 7.063785e+000 1.081841e+001 -4.926682e+000 -1.660285e+001 -2.690011e+000 -9.764699e-001 2.916975e+000 -3.256470e+000 -4.548545e+000 1.662397e-001 1.682119e+000 -1.208434e+000 1.031628e+000 -1.040787e+000 1.594028e+000 1.247563e+000 -4.682961e-001 8.742326e-001 -7.722167e-001 5.431515e-001 2.854672e-001 -1.543209e+000
<VARIANCE> 25
 6.324270e+000 3.416222e+001 4.820646e+001 6.341676e+001 4.093162e+001 3.545997e+001 5.194894e+001 2.922930e+001 3.501481e+001 4.626125e+001 3.347474e+001 2.331322e+001 3.497006e-001 1.451514e+000 1.619820e+000 3.313402e+000 3.918447e+000 2.401407e+000 2.550351e+000 1.541043e+000 3.738324e+000 3.230374e+000 1.761091e+000 1.582768e+000 8.271984e-001
<GCONST> 9.594258e+001
<STATE> 4
<MEAN> 25
 6.241595e+000 5.874434e+000 -3.450863e+000 2.117365e+001 9.805797e-001 -6.184462e+000 -3.935679e+000 -8.732687e+000 5.259877e+000 -2.210916e+000 -7.347581e+000 -3.883015e+000 -3.804044e-001 2.126024e-001 -7.257439e-001 -2.371136e-001 -2.463629e-001 1.893457e-001 1.105053e+000 -7.763892e-002 -3.184922e-001 -1.358223e-001 -1.808983e-001 3.190719e-001 -5.362546e-001
<VARIANCE> 25
 2.464108e+001 8.377986e+001 1.316632e+002 1.471232e+002 5.420820e+001 7.835839e+001 8.989784e+001 6.611301e+001 5.286720e+001 5.946852e+001 7.591664e+001 2.923363e+001 1.140605e+000 5.298164e+000 4.157777e+000 5.705530e+000 3.560038e+000 7.062471e+000 4.415053e+000 3.855144e+000 5.368199e+000 3.979374e+000 4.205725e+000 2.813843e+000 1.685950e+000
<GCONST> 1.133327e+002
<TRANSP> 5
 0.000000e+000 1.000000e+000 0.000000e+000 0.000000e+000 0.000000e+000
 0.000000e+000 9.257054e-001 7.429463e-002 0.000000e+000 0.000000e+000
 0.000000e+000 0.000000e+000 7.443620e-001 2.556380e-001 0.000000e+000
 0.000000e+000 0.000000e+000 0.000000e+000 7.600896e-001 2.399104e-001
 0.000000e+000 0.000000e+000 0.000000e+000 0.000000e+000 0.000000e+000
<ENDHMM>
~h "hh"
<BEGINHMM>
<NUMSTATES> 5
<STATE> 2
<MEAN> 25
 4.930987e-002 -9.811957e+000 -1.215202e+000 -3.931184e+000 7.944540e-001 6.938313e+000 -2.853105e+000 3.595035e+000 7.107373e+000 6.496236e+000 2.885844e+000 5.626137e-001 1.223912e+000 1.905228e-001 9.968402e-001 -1.002882e+000 5.017748e-001 1.684652e-001 -6.626321e-001 6.674592e-002 1.660750e-001 -2.439281e-002 -3.631070e-001 2.017112e-001 1.443220e+000
<VARIANCE> 25
 3.389838e+001 5.119399e+001 6.083474e+001 4.135429e+001 9.452194e+001 3.253422e+001 6.096567e+001 3.819474e+001 6.253366e+001 6.217680e+001 5.107581e+001 1.993351e+001 2.545004e+000 4.583701e+000 4.091045e+000 2.935002e+000 6.126739e+000 3.095469e+000 3.561736e+000 3.742553e+000 4.303450e+000 2.152914e+000 4.073889e+000 2.050937e+000 2.354892e+000
<GCONST> 1.078922e+002
<STATE> 3
<MEAN> 25
 1.103622e+001 -9.936816e+000 3.341398e+000 -1.227717e+001 1.486316e+000 5.944402e+000 -3.751560e+000 5.756933e+000 6.907782e+000 4.575514e-001 4.327447e-001 2.082454e+000 2.023323e-001 -3.882056e-001 -2.954608e-001 5.519120e-002 -9.073567e-001 -5.125228e-001 2.004543e-001 5.777242e-001 4.284257e-001 -7.871932e-001 1.680359e-001 -1.096900e-001 1.843203e-001
<VARIANCE> 25
 6.180774e+000 3.198002e+001 1.407491e+001 3.397458e+001 3.552916e+001 2.150215e+001 4.254248e+001 5.551244e+001 8.222743e+001 2.616835e+001 1.784878e+001 2.432613e+001 3.941016e-001 9.321384e-001 7.434230e-001 2.275299e+000 2.656132e+000 1.715341e+000 2.414776e+000 2.292865e+000 2.219501e+000 2.248454e+000 1.497974e+000 1.505984e+000 5.825266e-001
<GCONST> 9.018943e+001
<STATE> 4
<MEAN> 25
 1.200799e+001 -1.501524e+000 3.274334e+000 -5.792097e+000 -1.998645e+000 -6.013751e-002 -4.224479e+000 6.002130e+000 1.107222e+000 -7.848877e+000 9.752702e-001 -1.081600e+000 -1.645527e-001 7.780156e-001 -5.053739e-002 8.904080e-001 2.463038e-001 -2.466934e-001 9.268509e-002 -2.183463e-001 -3.449344e-001 2.703221e-001 -5.294095e-002 -2.096089e-001 -6.921008e-001
<VARIANCE> 25
 6.242251e+000 5.625381e+001 2.579212e+001 4.432799e+001 9.481020e+001 4.931388e+001 4.542099e+001 3.663433e+001 2.104804e+002 2.373542e+001 2.580760e+001 5.337968e+001 1.572234e-001 1.305989e+000 1.310892e+000 1.774773e+000 2.754205e+000 2.183679e+000 2.809933e+000 2.504683e+000 4.806735e+000 2.672121e+000 1.861545e+000 1.810096e+000 5.520147e-001
<GCONST> 9.664154e+001
<TRANSP> 5
 0.000000e+000 1.000000e+000 0.000000e+000 0.000000e+000 0.000000e+000
 0.000000e+000 8.627378e-001 1.372622e-001 0.000000e+000 0.000000e+000
 0.000000e+000 0.000000e+000 8.635585e-001 1.364415e-001 0.000000e+000
 0.000000e+000 0.000000e+000 0.000000e+000 8.780814e-001 1.219186e-001
 0.000000e+000 0.000000e+000 0.000000e+000 0.000000e+000 0.000000e+000
<ENDHMM>
~h "ih"
<BEGINHMM>
<NUMSTATES> 5
<STATE> 2
<MEAN> 25
 4.541462e+000 1.104757e+000 8.901002e+000 5.816440e+000 7.557701e+000 1.426535e+000 -6.428366e+000 -1.695510e+000 -1.195723e+000 3.436042e+000 -1.408522e+000 -3.164730e+000 1.875825e+000 -3.828487e-001 1.230504e+000 7.682800e-001 2.031228e+000 -1.256312e+000 -3.059078e+000 -9.882140e-001 -1.229903e+000 1.966107e-001 -2.767026e-002 -8.166407e-002 2.045530e+000
<VARIANCE> 25
 5.187251e+001 1.150272e+002 6.851273e+001 7.094457e+001 6.421783e+001 5.818247e+001 9.972437e+001 5.606787e+001 6.569978e+001 4.676791e+001 2.498387e+001 2.925012e+001 6.452487e+000 1.535388e+001 4.748862e+000 8.372767e+000 6.040949e+000 8.782889e+000 1.068554e+001 5.894394e+000 5.166072e+000 5.345976e+000 2.760210e+000 2.918063e+000 2.903414e+000
<GCONST> 1.174726e+002
<STATE> 3
<MEAN> 25
 7.064208e+000 -9.468214e+000 1.279939e+001 7.111640e+000 1.615887e+001 -8.890694e+000 -1.760498e+001 -3.340092e+000 -8.003336e+000 5.163759e+000 -6.700773e-001 -5.664554e+000 1.687543e-002 -6.569399e-002 -1.848824e-001 2.368993e-001 3.875301e-001 -8.258108e-001 -4.522178e-001 4.670512e-001 4.743901e-002 3.186418e-001 -8.364914e-002 -6.787165e-001 2.482069e-002
<VARIANCE> 25
 7.567039e+000 2.706501e+001 2.999853e+001 5.068970e+001 3.462073e+001 4.761465e+001 4.069174e+001 6.685796e+001 5.296676e+001 2.658846e+001 2.439032e+001 3.002660e+001 4.377550e-001 1.881511e+000 1.611102e+000 2.235746e+000 1.977325e+000 3.270461e+000 2.865705e+000 3.367743e+000 2.481613e+000 2.278898e+000 1.773791e+000 2.075583e+000 8.943930e-001
<GCONST> 9.590400e+001
<STATE> 4
<MEAN> 25
 6.613407e+000 -7.501007e-001 8.288282e+000 7.999103e+000 1.036773e+001 -9.860215e-001 -1.293598e+001 -1.746841e+000 -3.271488e+000 2.154370e+000 -8.610202e-001 -6.799264e+000 -2.106257e-001 1.034173e+000 -6.172611e-001 5.997147e-001 -1.094758e+000 1.090163e+000 9.928057e-001 -3.320409e-001 9.288878e-001 -9.222216e-001 -9.613036e-002 3.378341e-001 -1.162372e+000
<VARIANCE> 25
 1.713377e+001 4.054458e+001 4.235459e+001 8.426434e+001 4.738953e+001 5.920622e+001 3.027947e+001 8.522923e+001 6.402381e+001 5.439604e+001 4.514246e+001 4.366121e+001 5.659708e-001 1.800640e+000 2.544626e+000 4.250336e+000 3.229997e+000 2.657944e+000 3.091973e+000 3.907124e+000 4.831542e+000 2.927773e+000 3.443137e+000 2.348631e+000 1.083652e+000
<GCONST> 1.040690e+002
<TRANSP> 5
 0.000000e+000 1.000000e+000 0.000000e+000 0.000000e+000 0.000000e+000
 0.000000e+000 7.132518e-001 2.867482e-001 0.000000e+000 0.000000e+000
 0.000000e+000 0.000000e+000 7.912387e-001 2.087613e-001 0.000000e+000
 0.000000e+000 0.000000e+000 0.000000e+000 8.652847e-001 1.347153e-001
 0.000000e+000 0.000000e+000 0.000000e+000 0.000000e+000 0.000000e+000
<ENDHMM>
~h "iy"
<BEGINHMM>
<NUMSTATES> 5
<STATE> 2
<MEAN> 25
 3.602515e+000 -7.334639e+000 1.376754e+001 7.285126e+000 1.303592e+001 -1.930782e+000 -1.085816e+001 -3.292986e+000 -7.218026e+000 3.484400e+000 -2.338298e+000 -4.892119e+000 1.536229e+000 -5.357981e-001 2.719785e-001 2.486728e+000 1.769102e+000 -2.265874e+000 -2.977600e+000 -2.660500e-001 -2.909544e-002 -2.365970e-001 -1.693271e-001 -7.409109e-001 1.241605e+000
<VARIANCE> 25
 4.534972e+001 4.524676e+001 1.060765e+002 6.846297e+001 5.181730e+001 6.026323e+001 6.351000e+001 5.573962e+001 6.685623e+001 3.791245e+001 2.467451e+001 3.163407e+001 4.250391e+000 7.367819e+000 5.355803e+000 7.731605e+000 5.322755e+000 3.094199e+000 5.344090e+000 5.491526e+000 7.566379e+000 4.920471e+000 3.024398e+000 3.131546e+000 2.449226e+000
<GCONST> 1.132896e+002
<STATE> 3
<MEAN> 25
 5.517623e+000 -1.119101e+001 1.449472e+001 1.341083e+001 1.646544e+001 -1.204519e+001 -1.885636e+001 -2.408585e+000 -5.167104e+000 1.603821e+000 -2.109563e+000 -6.149423e+000 -3.189429e-002 -5.906241e-002 -1.348443e-001 -6.931816e-002 2.367177e-001 -3.163066e-001 -6.989217e-002 2.214325e-002 -1.401489e-001 5.663640e-002 -1.610077e-001 -5.906264e-002 5.307892e-002
<VARIANCE> 25
 6.381573e+000 1.668618e+001 3.564157e+001 3.712287e+001 2.528131e+001 2.985007e+001 2.348929e+001 4.611523e+001 5.009647e+001 3.469593e+001 2.192625e+001 1.532680e+001 2.983111e-001 6.298079e-001 1.564366e+000 1.250001e+000 1.313702e+000 2.381017e+000 2.040552e+000 2.217284e+000 1.978548e+000 1.656802e+000 1.248914e+000 9.831467e-001 2.142454e-001
<GCONST> 8.619492e+001
<STATE> 4
<MEAN> 25
 7.482379e+000 -4.273450e+000 5.511056e+000 4.838164e+000 1.819547e+001 -5.728930e+000 -1.479116e+001 -3.788527e+000 -1.075077e+001 3.001193e+000 -1.705123e+000 -4.002262e+000 1.591668e-001 1.060935e+000 -1.099762e+000 -8.459751e-001 -6.411538e-001 1.261964e+000 7.085534e-001 -1.237518e-002 6.077041e-002 -5.612562e-001 4.262786e-001 7.127187e-001 -7.861052e-001
<VARIANCE> 25
 9.536710e+000 4.351344e+001 5.456457e+001 7.562454e+001 6.134011e+001 4.636087e+001 2.739968e+001 3.988427e+001 5.931938e+001 4.228579e+001 2.409441e+001 2.721058e+001 4.359168e-001 1.498038e+000 1.816594e+000 4.424049e+000 2.558659e+000 3.533947e+000 2.785234e+000 2.955280e+000 4.292237e+000 3.823251e+000 2.277257e+000 2.421743e+000 7.650422e-001
<GCONST> 9.976793e+001
<TRANSP> 5
 0.000000e+000 1.000000e+000 0.000000e+000 0.000000e+000 0.000000e+000
 0.000000e+000 7.055277e-001 2.944722e-001 0.000000e+000 0.000000e+000
 0.000000e+000 0.000000e+000 8.924161e-001 1.075840e-001 0.000000e+000
 0.000000e+000 0.000000e+000 0.000000e+000 8.630232e-001 1.369768e-001
 0.000000e+000 0.000000e+000 0.000000e+000 0.000000e+000 0.000000e+000
<ENDHMM>
~h "jh"
<BEGINHMM>
<NUMSTATES> 5
<STATE> 2
<MEAN> 25
 3.773415e+000 8.900018e-001 5.988175e+000 4.557199e+000 3.992518e+000 1.648169e+000 2.490323e+000 3.129653e+000 -3.663073e+000 2.898325e+000 -9.190349e-002 -3.772569e+000 -7.912597e-001 -1.823844e+000 4.060015e-001 -2.351071e-001 -1.782673e+000 -6.134462e-001 1.144917e+000 3.430385e-001 -7.290280e-001 2.126882e-001 9.632770e-001 1.040248e-001 2.549332e-001
<VARIANCE> 25
 2.977215e+001 1.770228e+002 8.736747e+001 1.360520e+002 3.660696e+001 3.773827e+001 4.016076e+001 2.135383e+001 1.166892e+002 2.025603e+001 5.996842e+001 2.357779e+001 3.023914e+000 1.058260e+001 1.074873e+001 1.526344e+001 4.594380e+000 6.985600e+000 7.808781e+000 5.257874e+000 8.763219e+000 1.715512e+000 6.516962e+000 3.385441e+000 7.361134e+000
<GCONST> 1.164571e+002
<STATE> 3
<MEAN> 25
 -4.320308e+000 5.273113e-001 -1.727854e+001 3.239291e-001 -7.508683e+000 -4.351439e+000 7.892352e+000 2.974075e-001 2.808525e+000 8.225083e-001 5.773036e+000 5.703070e+000 -2.986347e-001 3.683692e-001 -6.247672e-001 -3.410710e-001 -2.810337e-001 -3.279219e-001 -6.524696e-002 2.939740e-002 2.497235e-001 -2.876632e-001 -2.774444e-001 7.382400e-002 -5.312822e-001
<VARIANCE> 25
 1.980736e+001 9.665016e+001 1.134645e+002 1.335745e+002 3.809597e+001 3.530018e+001 1.098233e+002 3.865648e+001 8.657523e+001 5.749544e+001 7.615082e+001 2.139858e+001 9.084210e-001 2.123233e+000 8.083897e+000 6.177694e+000 3.253548e+000 3.922055e+000 5.685409e+000 4.204007e+000 8.255568e+000 4.312093e+000 4.213438e+000 3.808824e+000 1.010549e+000
<GCONST> 1.112430e+002
<STATE> 4
<MEAN> 25
 -6.718087e+000 -5.396616e+000 4.260996e+000 -1.414984e+000 1.344647e+000 -1.690357e+000 -3.981672e+000 4.533091e+000 2.185021e+000 9.764365e-001 -6.969899e-002 -1.566348e+000 3.536275e-001 -9.413231e-001 9.379660e-001 4.691950e-001 7.056342e-001 6.999615e-001 -9.309331e-001 -4.235804e-001 3.116606e-001 3.548957e-001 -2.143175e-001 -1.564814e-001 8.880882e-001
<VARIANCE> 25
 6.689638e+001 2.231356e+002 2.610606e+002 7.995520e+001 8.045740e+001 4.673091e+001 5.854227e+001 3.310047e+001 8.053052e+001 2.839930e+001 4.001645e+001 2.973117e+001 4.375226e+000 1.324099e+001 1.193147e+001 4.172561e+000 1.180586e+001 7.335725e+000 1.029782e+001 5.540084e+000 8.035397e+000 3.507332e+000 3.300226e+000 3.985435e+000 2.792962e+000
<GCONST> 1.195367e+002
<TRANSP> 5
 0.000000e+000 1.000000e+000 0.000000e+000 0.000000e+000 0.000000e+000
 0.000000e+000 8.771666e-001 1.228334e-001 0.000000e+000 0.000000e+000
 0.000000e+000 0.000000e+000 9.277486e-001 7.225139e-002 0.000000e+000
 0.000000e+000 0.000000e+000 0.000000e+000 8.980827e-001 1.019173e-001
 0.000000e+000 0.000000e+000 0.000000e+000 0.000000e+000 0.000000e+000
<ENDHMM>
~h "ng"
<BEGINHMM>
<NUMSTATES> 5
<STATE> 2
<MEAN> 25
 8.814642e+000 4.302144e+000 -5.191179e-003 -1.945106e+000 4.664965e+000 3.252153e+000 -4.235681e+000 2.262509e+000 -5.969629e-001 -2.355592e+000 -4.163553e+000 -4.210341e+000 -4.739226e-001 -4.168996e-001 -2.264926e-001 -7.372590e-001 6.816938e-002 -1.943978e-001 5.507607e-001 -1.361481e-001 -1.498761e+000 4.519573e-001 3.987465e-001 1.338148e-001 -6.717848e-002
<VARIANCE> 25
 1.522938e+001 4.345900e+001 3.174043e+001 8.918867e+001 5.125993e+001 4.574904e+001 8.040803e+001 2.498854e+001 1.367106e+002 4.763603e+001 4.966752e+001 1.851220e+001 1.180472e+000 7.161089e+000 2.827363e+000 1.341164e+001 3.347639e+000 4.755837e+000 6.563941e+000 2.537742e+000 1.911241e+001 6.764822e+000 4.598487e+000 2.079694e+000 2.952738e+000
<GCONST> 1.109145e+002
<STATE> 3
<MEAN> 25
 6.882758e-001 -1.851994e+000 -5.147809e+000 -2.030013e+000 2.825503e+000 3.529977e+000 2.447016e-001 -1.328244e+000 -8.619116e+000 -1.373413e-001 4.164181e+000 -2.484785e+000 -4.389410e-001 8.968856e-001 -1.234869e+000 2.071350e+000 -8.949410e-001 8.838319e-001 4.227700e-002 -6.754000e-001 2.810873e+000 -7.526666e-001 3.656701e-001 2.667582e-001 -1.685140e+000
<VARIANCE> 25
 1.066502e+001 3.205845e+001 7.510610e+001 1.449460e+002 5.303575e+001 2.861841e+001 7.738345e+001 6.805669e+001 1.248191e+002 2.431277e+001 8.126719e+001 2.829856e+001 1.021026e+000 3.121905e+000 2.496704e+000 6.076255e+000 3.220048e+000 2.698427e+000 4.035340e+000 4.769131e+000 6.234128e+000 3.818722e+000 3.113009e+000 3.428430e+000 1.326419e+000
<GCONST> 1.075473e+002
<STATE> 4
<MEAN> 25
 -8.196781e+000 6.050278e+000 -1.088923e+001 2.726709e+000 -5.863834e+000 5.689683e+000 4.696716e+000 -3.912702e+000 4.292920e+000 -6.153374e+000 3.496586e-001 1.172008e+000 -3.855647e-001 1.452144e-001 -4.098984e-002 -7.998839e-002 -3.252377e-001 -3.627302e-001 1.270094e-001 2.208579e-001 5.617088e-002 -2.192801e-001 -1.344772e-001 6.276187e-002 -3.699024e-001
<VARIANCE> 25
 2.486343e+001 3.094193e+001 7.578761e+001 3.625931e+001 5.797321e+001 5.348578e+001 5.460518e+001 5.585970e+001 4.131921e+001 6.221435e+001 6.068522e+001 3.668631e+001 8.752242e-001 1.416833e+000 3.129347e+000 3.077380e+000 4.430427e+000 4.221390e+000 4.337168e+000 5.732647e+000 3.966255e+000 5.641139e+000 5.938282e+000 3.572611e+000 4.921353e-001
<GCONST> 1.062092e+002
<TRANSP> 5
 0.000000e+000 1.000000e+000 0.000000e+000 0.000000e+000 0.000000e+000
 0.000000e+000 9.107134e-001 8.928659e-002 0.000000e+000 0.000000e+000
 0.000000e+000 0.000000e+000 8.708273e-001 1.291727e-001 0.000000e+000
 0.000000e+000 0.000000e+000 0.000000e+000 9.508946e-001 4.910544e-002
 0.000000e+000 0.000000e+000 0.000000e+000 0.000000e+000 0.000000e+000
<ENDHMM>
~h "ow"
<BEGINHMM>
<NUMSTATES> 5
<STATE> 2
<MEAN> 25
 1.166068e+001 1.860098e+000 4.870154e+000 -1.066956e+001 -4.537086e+000 -9.808844e+000 -7.056648e+000 1.014060e+001 6.781127e-001 -2.511874e+000 1.071663e+000 -1.668176e+000 -5.037695e-002 4.530942e-001 1.963125e-002 1.887517e-001 3.437736e-002 -1.109372e-001 2.130511e-002 1.600712e-001 -8.264372e-002 7.319149e-002 6.250266e-004 -2.407697e-001 -2.989784e-001
<VARIANCE> 25
 3.522642e+000 3.194520e+001 2.259229e+001 2.183996e+001 4.768094e+001 3.215579e+001 2.410701e+001 3.816495e+001 5.032067e+001 2.284782e+001 2.003885e+001 2.308369e+001 1.079266e-001 6.221539e-001 6.105655e-001 1.129911e+000 1.086956e+000 1.903934e+000 1.113652e+000 1.533772e+000 1.515111e+000 1.128884e+000 1.150832e+000 1.148608e+000 2.396784e-001
<GCONST> 8.179300e+001
<STATE> 3
<MEAN> 25
 6.896928e+000 1.513441e+001 -9.518450e-003 1.176937e+000 -6.445567e+000 -1.379457e+000 -5.312900e-001 2.633097e+000 2.097057e+000 -5.073176e+000 -8.966187e-001 -3.676225e+000 -5.396655e-001 1.942195e-001 -7.100299e-001 8.557077e-001 -1.649656e-001 9.252917e-001 7.947971e-001 -8.976221e-001 1.885714e-001 -3.876680e-001 -3.940963e-002 2.349789e-001 -9.297022e-001
<VARIANCE> 25
 1.576409e+001 6.211926e+001 6.462548e+001 5.726837e+001 5.993979e+001 5.316460e+001 6.875374e+001 1.208925e+002 6.137896e+001 4.080198e+001 3.691382e+001 3.257534e+001 3.646770e-001 1.995306e+000 2.608747e+000 3.349346e+000 4.109970e+000 4.448327e+000 3.927025e+000 4.651826e+000 3.491193e+000 4.159539e+000 3.786390e+000 2.702407e+000 6.064831e-001
<GCONST> 1.052221e+002
<STATE> 4
<MEAN> 25
 -8.929840e+000 1.127567e+000 -1.196262e+001 -2.307737e+000 -1.185538e+001 2.747066e+000 2.915007e+000 -1.932441e+000 5.508819e+000 -4.162377e+000 9.349439e-001 2.185037e+000 -4.138511e-001 -3.322913e-001 -2.812733e-001 -2.018904e-002 4.255670e-002 9.538671e-002 4.964626e-002 -1.089676e-001 8.064970e-002 1.684372e-001 1.358802e-001 8.556224e-002 -2.460436e-001
<VARIANCE> 25
 4.911989e+001 6.214968e+001 1.224808e+002 5.580836e+001 5.828873e+001 6.420448e+001 5.476886e+001 4.318165e+001 8.356314e+001 5.048145e+001 4.193322e+001 4.518522e+001 1.120638e+000 3.443802e+000 6.195337e+000 4.654662e+000 5.502364e+000 4.680812e+000 4.084655e+000 4.707370e+000 6.194033e+000 4.393657e+000 4.714080e+000 4.616727e+000 9.663433e-001
<GCONST> 1.119576e+002
<TRANSP> 5
 0.000000e+000 1.000000e+000 0.000000e+000 0.000000e+000 0.000000e+000
 0.000000e+000 9.509674e-001 4.903251e-002 0.000000e+000 0.000000e+000
 0.000000e+000 0.000000e+000 8.927795e-001 1.072205e-001 0.000000e+000
 0.000000e+000 0.000000e+000 0.000000e+000 9.303912e-001 6.960879e-002
 0.000000e+000 0.000000e+000 0.000000e+000 0.000000e+000 0.000000e+000
<ENDHMM>
~h "oy"
<BEGINHMM>
<NUMSTATES> 5
<STATE> 2
<MEAN> 25
 1.453594e+001 -5.870521e+000 3.201218e+000 -1.274016e+001 -4.065621e+000 -7.183836e+000 -1.010677e+001 6.360761e+000 1.636907e+000 -5.053044e+000 3.430208e+000 1.999300e+000 -7.112068e-003 -7.114723e-001 -3.729466e-001 -3.438923e-001 5.127264e-001 6.213856e-001 5.866527e-001 -1.822858e-001 -6.490865e-001 -1.789877e-001 3.858443e-001 8.144359e-002 4.232192e-001
<VARIANCE> 25
 1.659331e+000 2.345295e+001 9.741033e+000 1.141802e+001 1.479721e+001 6.722714e+001 2.665290e+001 2.260996e+001 5.303235e+001 1.668696e+001 3.144104e+001 1.651511e+001 2.407231e-001 1.077441e+000 1.116225e+000 1.675861e+000 1.858429e+000 5.174785e+000 2.755032e+000 2.926762e+000 4.449827e+000 1.526877e+000 2.210224e+000 3.016691e+000 5.232055e-001
<GCONST> 8.745478e+001
<STATE> 3
<MEAN> 25
 1.237519e+001 -1.076834e+001 1.102944e+000 -7.503214e+000 1.186466e+001 -2.237144e+000 -1.103255e+001 -7.782154e+000 -9.792150e+000 2.413287e+000 1.212703e+000 6.820146e+000 -5.373109e-001 8.064420e-002 8.660307e-001 1.258010e+000 1.496466e+000 -1.037088e+000 -1.115691e+000 -1.345646e+000 -3.278432e-001 2.009927e+000 -1.687861e+000 -3.468495e-001 -3.188481e-001
<VARIANCE> 25
 4.082229e+000 5.612458e+000 1.458540e+001 2.611620e+001 2.839735e+001 1.959829e+001 3.063566e+001 3.271616e+001 1.576772e+001 9.096161e+001 3.017023e+001 1.226170e+001 1.326943e-001 1.011113e+000 7.069046e-001 1.190790e+000 2.984377e+000 1.898328e+000 1.235639e+000 5.062539e+000 2.377611e+000 4.055467e+000 1.938619e+000 3.211885e+000 1.197100e-001
<GCONST> 8.479388e+001
<STATE> 4
<MEAN> 25
 1.044529e+001 -8.825701e+000 5.945065e+000 -2.956183e+000 1.224802e+001 -5.089849e+000 -1.370977e+001 -6.746128e+000 -7.877745e+000 6.472935e+000 -5.744039e+000 7.967870e-001 -8.622740e-001 6.093981e-001 1.780808e+000 2.895437e-001 -1.595930e+000 7.174147e-001 1.615269e+000 1.148488e+000 3.022734e-001 7.188845e-001 -8.419439e-001 -2.105798e+000 -7.892168e-001
<VARIANCE> 25
 6.010675e+000 9.906618e+000 4.987406e+000 1.726690e+001 7.359956e+001 2.124660e+001 1.775352e+000 6.230589e+001 2.169405e+001 6.456156e+001 1.105945e+001 8.031822e+000 6.108145e-001 7.267931e-001 1.236064e+000 1.132818e+000 8.461557e-001 3.283166e+000 3.384815e+000 4.122285e+000 1.204250e+000 1.245587e+000 3.590358e+000 1.108917e+000 1.493623e-001
<GCONST> 8.134937e+001
<TRANSP> 5
 0.000000e+000 1.000000e+000 0.000000e+000 0.000000e+000 0.000000e+000
 0.000000e+000 9.237284e-001 7.627158e-002 0.000000e+000 0.000000e+000
 0.000000e+000 0.000000e+000 8.401548e-001 1.598452e-001 0.000000e+000
 0.000000e+000 0.000000e+000 0.000000e+000 3.591830e-001 6.408171e-001
 0.000000e+000 0.000000e+000 0.000000e+000 0.000000e+000 0.000000e+000
<ENDHMM>
~h "sh"
<BEGINHMM>
<NUMSTATES> 5
<STATE> 2
<MEAN> 25
 -3.459158e+000 -1.598512e+001 2.096471e+001 3.154861e+000 8.956409e+000 2.803914e-001 -8.452265e+000 -3.679362e+000 -4.369586e+000 3.205945e+000 9.615180e-001 5.539901e-002 -2.296073e+000 -3.010263e+000 2.255106e+000 -6.984981e-001 -4.818292e-001 -3.458887e-002 1.676136e+000 7.217180e-001 -5.948232e-002 -7.533524e-003 3.309790e-001 2.933938e-001 9.204941e-001
<VARIANCE> 25
 3.240129e+001 4.596248e+001 8.019238e+001 4.826149e+001 4.172669e+001 6.023322e+001 5.185437e+001 5.071733e+001 1.918310e+001 3.789770e+001 4.480702e+001 2.423699e+001 8.029432e-001 2.752114e+000 3.120414e+000 2.835561e+000 1.361213e+000 5.898636e+000 4.087569e+000 2.691001e+000 2.898862e+000 1.762922e+000 2.702407e+000 1.786691e+000 6.553035e-001
<GCONST> 1.010345e+002
<STATE> 3
<MEAN> 25
 -1.078403e+001 -2.671537e+001 2.508851e+001 3.472094e+000 4.036080e+000 -1.495737e+000 -2.668228e+000 2.987949e+000 1.591728e+000 -7.275175e-001 1.579808e+000 1.936406e+000 -3.275971e-001 -5.287089e-001 -2.797112e-001 -4.180158e-002 -5.669029e-001 -1.323986e-002 4.296045e-001 4.474961e-001 7.953636e-001 2.616320e-002 -6.802170e-002 3.602772e-001 -1.262987e-001
<VARIANCE> 25
 9.099910e+000 1.337962e+001 2.512970e+001 2.936230e+001 3.024793e+001 1.267186e+001 2.615729e+001 3.106183e+001 2.927137e+001 3.883712e+001 1.903875e+001 1.735453e+001 3.969585e-001 6.925180e-001 1.041999e+000 8.906369e-001 1.245131e+000 1.178306e+000 2.086115e+000 2.262317e+000 1.376325e+000 1.549853e+000 1.619561e+000 1.007174e+000 2.075760e-001
<GCONST> 8.308154e+001
<STATE> 4
<MEAN> 25
 -7.133335e+000 -2.020234e+001 1.506695e+001 3.142791e+000 -2.003959e+000 -1.179622e+000 -6.712163e+000 7.570711e-001 4.951697e+000 -1.062606e+000 1.206578e+000 1.779067e+000 2.058491e+000 2.670488e+000 -2.067931e+000 4.275047e-001 -9.351351e-001 4.239243e-001 -7.714150e-001 -1.323647e+000 -7.681891e-001 -1.030311e+000 -2.012013e-001 -2.916006e-001 -9.446983e-001
<VARIANCE> 25
 2.942043e+001 5.837825e+001 5.436621e+001 3.600217e+001 6.521478e+001 3.203983e+001 5.718162e+001 6.843081e+001 5.340104e+001 4.618471e+001 2.626481e+001 2.590966e+001 4.475995e+000 3.358967e+000 1.691068e+000 2.622231e+000 3.143953e+000 3.427835e+000 2.805908e+000 5.964207e+000 4.574596e+000 3.908859e+000 2.273345e+000 2.043600e+000 1.498283e+000
<GCONST> 1.054436e+002
<TRANSP> 5
 0.000000e+000 1.000000e+000 0.000000e+000 0.000000e+000 0.000000e+000
 0.000000e+000 7.477505e-001 2.522495e-001 0.000000e+000 0.000000e+000
 0.000000e+000 0.000000e+000 8.795050e-001 1.204950e-001 0.000000e+000
 0.000000e+000 0.000000e+000 0.000000e+000 8.260415e-001 1.739586e-001
 0.000000e+000 0.000000e+000 0.000000e+000 0.000000e+000 0.000000e+000
<ENDHMM>
~h "sp"
<BEGINHMM>
<NUMSTATES> 3
<STATE> 2
~s "silst"
<TRANSP> 3
 0.000000e+000 2.353554e-001 7.646446e-001
 0.000000e+000 8.166275e-001 1.833725e-001
 0.000000e+000 0.000000e+000 0.000000e+000
<ENDHMM>
~h "th"
<BEGINHMM>
<NUMSTATES> 5
<STATE> 2
<MEAN> 25
 1.515927e+000 -1.269289e+001 8.544936e+000 -9.257128e+000 4.519341e+000 -5.374207e+000 -3.715792e+000 2.708922e+000 -8.951580e+000 7.998037e+000 6.297267e-001 2.743696e+000 2.490798e-002 7.022781e-001 -9.102095e-001 6.296688e-001 -3.975566e-001 9.690208e-001 1.150121e-001 -6.387219e-002 6.899102e-001 -4.271674e-001 5.284846e-001 -6.324327e-001 -8.766601e-001
<VARIANCE> 25
 5.225573e+001 5.453352e+001 4.511513e+001 7.871797e+001 2.398039e+001 6.861948e+001 3.047377e+001 2.336128e+001 2.659995e+001 2.434160e+001 5.425663e+001 4.101598e+001 7.770731e-001 1.604127e+000 2.849071e+000 1.337471e+000 1.364642e+000 1.011641e+000 2.469628e+000 7.238986e-001 1.572946e+000 1.362622e+000 1.855703e+000 1.793604e+000 3.854552e-001
<GCONST> 9.370461e+001
<STATE> 3
<MEAN> 25
 6.736292e+000 7.291393e-001 6.884252e+000 1.971945e+000 6.037130e+000 -1.939752e-001 -6.746234e+000 1.458030e+000 -4.534719e+000 1.529062e+000 -3.329989e+000 -8.445076e+000 -2.086830e-002 1.486199e+000 -9.093067e-001 1.839522e+000 -8.237352e-001 1.621061e+000 2.789758e-001 -8.331304e-001 1.140964e+000 -1.525112e+000 1.023514e+000 -6.293826e-001 -1.618744e+000
<VARIANCE> 25
 1.529825e+001 4.206993e+001 3.211161e+001 5.238083e+001 2.190704e+001 7.678433e+001 1.753524e+001 2.377774e+001 3.892657e+001 1.936014e+001 1.154908e+002 9.630693e+001 2.297034e-001 1.552052e+000 1.483690e+000 3.162363e+000 2.165040e+000 2.093014e+000 1.367942e+000 1.754820e+000 3.961962e+000 1.318775e+000 3.440979e+000 1.445435e+000 5.344880e-001
<GCONST> 9.477650e+001
<STATE> 4
<MEAN> 25
 -2.511890e-001 5.397874e+000 -1.662380e+000 6.529053e+000 -1.572641e+000 7.311728e+000 -5.385783e+000 -4.891642e+000 3.859386e+000 -5.168906e+000 2.652477e+000 -5.726932e+000 -7.477590e-001 3.358401e-001 -6.091684e-001 7.888124e-002 -7.563141e-001 -1.766165e-001 6.836960e-001 -8.109076e-002 6.722018e-001 4.930855e-002 -1.652456e-001 3.153596e-001 -9.601232e-001
<VARIANCE> 25
 3.987110e+001 3.855257e+001 3.221442e+001 4.834553e+001 6.092050e+001 2.850769e+001 6.465436e+001 5.444000e+001 5.242773e+001 4.532012e+001 4.338146e+001 5.916521e+001 1.120272e+000 2.769726e+000 1.897744e+000 3.473763e+000 3.432455e+000 2.579309e+000 3.288491e+000 5.370895e+000 3.242022e+000 3.778524e+000 3.129298e+000 5.411829e+000 4.923069e-001
<GCONST> 1.045816e+002
<TRANSP> 5
 0.000000e+000 1.000000e+000 0.000000e+000 0.000000e+000 0.000000e+000
 0.000000e+000 6.124550e-001 3.875450e-001 0.000000e+000 0.000000e+000
 0.000000e+000 0.000000e+000 7.319242e-001 2.680758e-001 0.000000e+000
 0.000000e+000 0.000000e+000 0.000000e+000 8.600141e-001 1.399859e-001
 0.000000e+000 0.000000e+000 0.000000e+000 0.000000e+000 0.000000e+000
<ENDHMM>
~h "uh"
<BEGINHMM>
<NUMSTATES> 5
<STATE> 2
<MEAN> 25
 5.013783e+000 3.321828e+000 -6.479241e+000 -9.801312e-001 4.057971e+000 4.604788e+000 -7.762213e+000 -4.194682e-001 -2.148710e-001 -1.051698e+001 -2.977525e-001 -4.052094e+000 -4.694292e-001 -3.429992e-001 -3.828382e-001 7.591461e-001 -1.034508e+000 -5.282901e-001 6.167955e-001 -2.393162e-001 7.455586e-001 -1.970405e-001 -8.551799e-001 7.102982e-001 -5.473065e-001
<VARIANCE> 25
 2.263673e+001 2.260548e+001 5.776000e+001 8.033801e+001 6.130251e+001 1.515193e+001 8.046467e+001 9.288457e+000 6.248536e+001 2.310366e+001 2.700482e+001 3.085765e+001 2.467346e-001 4.013286e-001 8.304105e-001 1.210936e+000 1.179911e+000 1.789773e+000 3.027947e+000 8.983244e-001 2.612000e+000 1.786795e+000 3.255400e+000 3.072183e+000 1.180107e-001
<GCONST> 8.922569e+001
<STATE> 3
<MEAN> 25
