~o
<STREAMINFO> 1 25
<VECSIZE> 25<NULLD><MFCC_D_N_Z_0><DIAGC>
~s "silst"
<MEAN> 25
 -1.068640e+001 6.493101e+000 -9.628229e+000 3.569211e+000 -2.907130e+000 2.309257e-001 6.604677e+000 -1.035548e+000 3.714521e+000 1.773716e+000 -1.953560e-001 5.119020e-001 2.059032e+000 -2.240926e+000 3.005186e+000 -1.921160e+000 -3.259570e-001 3.710520e-001 -2.809464e+000 8.436632e-001 -1.394834e+000 -5.318899e-001 -2.828727e-001 -1.731369e+000 3.667078e+000
<VARIANCE> 25
 9.024271e+001 6.665549e+001 1.047149e+002 5.956984e+001 6.456207e+001 4.542424e+001 9.792810e+001 4.954640e+001 5.089426e+001 4.286019e+001 3.029795e+001 4.394069e+001 9.905061e+000 4.878314e+000 6.771750e+000 5.296522e+000 7.405936e+000 5.625104e+000 7.177923e+000 5.164937e+000 4.717243e+000 5.465819e+000 4.006704e+000 4.758012e+000 6.844810e+000
<GCONST> 1.176609e+002
~h "b"
<BEGINHMM>
<NUMSTATES> 5
<STATE> 2
<MEAN> 25
 4.066453e+000 8.458205e+000 2.921644e+000 1.024340e+001 -2.361539e-001 6.172667e+000 2.529466e+000 -1.526844e+000 3.066437e+000 -4.498972e+000 -2.767359e-001 -1.424219e+000 1.230534e+000 1.165695e+000 7.650555e-001 4.463620e-001 2.942037e-001 7.092606e-001 -4.287676e-001 -6.351911e-002 3.759341e-001 2.219860e-001 3.748878e-001 -4.247699e-001 5.076646e-001
<VARIANCE> 25
 7.240913e+001 7.281330e+001 1.022326e+002 6.736758e+001 6.554102e+001 5.578134e+001 7.855017e+001 7.644046e+001 7.462022e+001 4.846828e+001 5.638021e+001 4.346769e+001 6.840703e+000 5.799201e+000 5.753017e+000 6.614563e+000 4.093711e+000 5.296024e+000 8.352301e+000 4.899471e+000 6.986009e+000 4.190601e+000 4.042564e+000 5.066180e+000 6.034063e+000
<GCONST> 1.185577e+002
<STATE> 3
<MEAN> 25
 -3.574875e+000 1.924357e+000 -4.706892e-001 3.309723e+000 -2.997076e+000 3.360122e+000 4.036417e+000 4.615221e-001 1.269413e+000 -4.805640e-001 2.721612e-001 -1.352601e+000 -2.990557e-001 2.548287e-001 -4.520558e-001 -1.031856e-001 -6.784073e-002 -4.218731e-001 2.652619e-001 1.233863e-001 3.711523e-002 1.223196e-001 -5.908071e-002 1.802108e-001 -4.244058e-001
<VARIANCE> 25
 5.725346e+001 8.357784e+001 6.545756e+001 6.933416e+001 4.713514e+001 4.017188e+001 4.874096e+001 4.345855e+001 6.376185e+001 6.171694e+001 5.099221e+001 3.516477e+001 6.344637e-001 1.929613e+000 2.207575e+000 2.473544e+000 2.149398e+000 2.446178e+000 2.697731e+000 3.507698e+000 4.141860e+000 3.097108e+000 3.991062e+000 2.472921e+000 7.074212e-001
<GCONST> 1.041164e+002
<STATE> 4
<MEAN> 25
 -1.651682e+000 7.129201e+000 -1.023983e+001 8.044201e+000 -4.207019e-001 -2.472428e+000 9.355168e+000 -1.297171e+000 9.954507e-002 4.098377e+000 3.106589e+000 1.515779e+000 2.527092e-001 -2.040248e-001 3.015112e-001 -3.049942e-001 1.273457e-001 -1.828187e-002 -2.516933e-001 1.292372e-001 3.177138e-002 1.578735e-001 2.299547e-002 9.409970e-002 4.537357e-001
<VARIANCE> 25
 6.573907e+001 1.237465e+002 1.209557e+002 9.442471e+001 6.596153e+001 7.302962e+001 8.804187e+001 7.438963e+001 6.704718e+001 6.672468e+001 3.508403e+001 6.535660e+001 2.628255e+000 6.147971e+000 4.427291e+000 5.870342e+000 4.327733e+000 4.362988e+000 7.133644e+000 5.502941e+000 5.686475e+000 5.080992e+000 3.407307e+000 5.549767e+000 2.253111e+000
<GCONST> 1.174688e+002
<TRANSP> 5
 0.000000e+000 1.000000e+000 0.000000e+000 0.000000e+000 0.000000e+000
 0.000000e+000 6.736416e-001 3.263585e-001 0.000000e+000 0.000000e+000
 0.000000e+000 0.000000e+000 8.622072e-001 1.377928e-001 0.000000e+000
 0.000000e+000 0.000000e+000 0.000000e+000 8.954588e-001 1.045413e-001
 0.000000e+000 0.000000e+000 0.000000e+000 0.000000e+000 0.000000e+000
<ENDHMM>
~h "d"
<BEGINHMM>
<NUMSTATES> 5
<STATE> 2
<MEAN> 25
 1.052418e+000 -2.486483e+000 3.394553e+000 1.901424e+000 -2.347886e+000 1.331521e+000 -3.212331e+000 -4.005986e+000 -6.099338e+000 -3.726279e-001 3.285115e+000 -8.170146e-001 -1.653992e-001 1.519159e+000 -1.093768e+000 1.267483e+000 -8.650481e-001 6.180572e-001 5.216997e-001 -9.649121e-001 1.302863e+000 -8.112304e-001 3.898843e-001 4.316631e-001 -1.529497e+000
<VARIANCE> 25
 6.640382e+001 6.202981e+001 1.106293e+002 5.322302e+001 1.053102e+002 4.157142e+001 7.801675e+001 4.374057e+001 4.786198e+001 4.672422e+001 2.480417e+001 2.316100e+001 3.958851e-001 2.766114e+000 2.504301e+000 3.338028e+000 3.540050e+000 4.016846e+000 3.693869e+000 3.886872e+000 6.543534e+000 5.165415e+000 1.909986e+000 3.105892e+000 8.284104e-001
<GCONST> 1.061823e+002
<STATE> 3
<MEAN> 25
 -2.710177e+000 9.160710e-001 -4.095568e+000 4.724874e+000 -2.871904e+000 3.871327e+000 -5.688711e-001 -4.664464e+000 1.388010e+000 -2.685027e+000 2.080444e+000 -1.028135e+000 -5.478109e-001 3.293234e-001 -5.177358e-001 1.892082e-002 9.093177e-002 -3.074129e-002 9.522411e-001 3.465328e-001 4.008424e-001 3.558093e-001 -4.881111e-001 -1.052953e-002 -6.673573e-001
<VARIANCE> 25
 4.157917e+001 3.895040e+001 7.297491e+001 4.358511e+001 6.552524e+001 3.746215e+001 7.152081e+001 5.597042e+001 5.076669e+001 5.032224e+001 3.897702e+001 3.454752e+001 4.850887e-001 1.874693e+000 1.783676e+000 2.698697e+000 3.789006e+000 2.910991e+000 2.583994e+000 3.636042e+000 3.635655e+000 3.058318e+000 3.586658e+000 2.634335e+000 4.834531e-001
<GCONST> 1.025982e+002
<STATE> 4
<MEAN> 25
 -4.820126e+000 6.812236e+000 -5.256529e+000 5.411377e+000 -2.160704e+000 -8.327184e-001 6.560059e+000 2.527499e-001 8.754607e-001 1.536903e+000 -6.176562e-001 -2.924666e+000 4.996169e-002 -3.673024e-001 5.407981e-001 -1.627431e-001 5.984077e-001 5.523670e-002 -1.890597e-001 6.001441e-001 2.497194e-002 1.599129e-001 -1.590993e-001 8.860237e-002 4.433967e-001
<VARIANCE> 25
 5.178493e+001 6.612873e+001 8.889081e+001 6.295258e+001 7.478455e+001 6.914663e+001 1.015361e+002 7.759296e+001 6.641782e+001 7.017188e+001 3.786127e+001 5.511277e+001 1.898995e+000 6.213321e+000 3.618775e+000 4.761631e+000 6.313762e+000 5.871007e+000 6.942489e+000 6.833500e+000 7.607886e+000 5.913288e+000 4.754705e+000 4.753889e+000 1.570536e+000
<GCONST> 1.164913e+002
<TRANSP> 5
 0.000000e+000 1.000000e+000 0.000000e+000 0.000000e+000 0.000000e+000
 0.000000e+000 5.705754e-001 4.294246e-001 0.000000e+000 0.000000e+000
 0.000000e+000 0.000000e+000 7.628452e-001 2.371548e-001 0.000000e+000
 0.000000e+000 0.000000e+000 0.000000e+000 8.108243e-001 1.891757e-001
 0.000000e+000 0.000000e+000 0.000000e+000 0.000000e+000 0.000000e+000
<ENDHMM>
~h "f"
<BEGINHMM>
<NUMSTATES> 5
<STATE> 2
<MEAN> 25
 -5.944325e+000 3.893940e+000 3.129701e+000 -9.553575e-001 8.725430e+000 2.246969e+000 -1.285912e+000 2.945713e+000 -4.816865e+000 3.493838e+000 -3.111680e+000 -1.471123e+000 -1.523227e+000 -9.575975e-001 8.311511e-001 -1.880283e+000 1.181481e+000 -5.894415e-001 -3.579483e-001 9.591403e-001 -1.075423e+000 1.410047e+000 -4.341698e-001 4.219532e-002 3.485075e-002
<VARIANCE> 25
 5.415898e+001 6.484069e+001 9.452142e+001 8.951100e+001 9.330822e+001 5.670230e+001 7.552533e+001 7.183871e+001 8.177780e+001 1.014980e+002 5.426240e+001 3.162614e+001 1.094952e+000 4.623638e+000 4.391551e+000 5.677180e+000 5.238577e+000 6.241290e+000 5.362738e+000 5.576839e+000 5.008938e+000 6.702599e+000 4.466696e+000 3.396532e+000 1.118560e+000
<GCONST> 1.148670e+002
<STATE> 3
<MEAN> 25
 -1.506884e+001 -6.615895e+000 4.324458e+000 -9.524618e+000 1.422827e+001 1.900240e+000 -4.012017e-001 9.417401e+000 -6.989649e+000 9.942059e+000 -4.861855e+000 -1.144602e+000 2.343932e-002 -9.077954e-001 -4.607281e-001 -1.576075e-001 -3.529669e-001 3.425441e-001 1.624406e-001 1.130806e-001 4.151777e-001 -6.626427e-002 1.504982e-001 1.428132e-001 2.701573e-001
<VARIANCE> 25
 2.548636e+001 6.009189e+001 3.149021e+001 4.607558e+001 4.670298e+001 4.312725e+001 3.113765e+001 2.275897e+001 2.900706e+001 3.015489e+001 3.563773e+001 3.120238e+001 8.878531e-001 1.954257e+000 2.050744e+000 1.552164e+000 3.326387e+000 2.012924e+000 2.067193e+000 2.469207e+000 2.142340e+000 2.694440e+000 3.262445e+000 2.049523e+000 5.221128e-001
<GCONST> 9.676381e+001
<STATE> 4
<MEAN> 25
 5.963354e+000 -9.062813e+000 -2.869108e+000 -1.008129e+001 -6.747657e+000 9.518304e-001 -1.135245e+000 8.803039e+000 8.852397e+000 -3.440860e+000 3.465455e+000 7.719666e-001 1.809904e+000 7.660857e-001 -7.043795e-002 1.844121e-001 -1.426391e+000 -4.655609e-001 -5.673024e-001 -3.448275e-001 1.170232e+000 -9.723836e-001 6.838480e-001 -1.797958e-001 9.339665e-001
<VARIANCE> 25
 1.161830e+002 7.622511e+001 4.518877e+001 3.350579e+001 8.316138e+001 4.974684e+001 4.886801e+001 2.937986e+001 1.195332e+002 1.006843e+002 3.347796e+001 2.774110e+001 7.532867e+000 8.187698e+000 2.736500e+000 2.704996e+000 6.867000e+000 3.449932e+000 3.728559e+000 2.401849e+000 3.864656e+000 5.566457e+000 2.688740e+000 2.245927e+000 2.434326e+000
<GCONST> 1.114224e+002
<TRANSP> 5
 0.000000e+000 1.000000e+000 0.000000e+000 0.000000e+000 0.000000e+000
 0.000000e+000 8.381836e-001 1.618164e-001 0.000000e+000 0.000000e+000
 0.000000e+000 0.000000e+000 8.923278e-001 1.076723e-001 0.000000e+000
 0.000000e+000 0.000000e+000 0.000000e+000 8.654097e-001 1.345904e-001
 0.000000e+000 0.000000e+000 0.000000e+000 0.000000e+000 0.000000e+000
<ENDHMM>
~h "g"
<BEGINHMM>
<NUMSTATES> 5
<STATE> 2
<MEAN> 25
 -4.013855e+000 1.102915e+001 -9.923058e+000 5.305583e+000 -5.096644e+000 5.878255e-001 9.981994e+000 -1.815137e+000 2.545903e+000 -3.579350e+000 -2.919882e+000 1.693472e+000 1.937155e-001 3.919148e-001 5.873899e-001 1.228905e-001 4.095395e-001 4.651316e-002 -2.208996e-001 2.318917e-001 1.450660e-001 4.024554e-001 -4.199081e-003 -3.724043e-001 1.543876e-001
<VARIANCE> 25
 2.806549e+001 6.159573e+001 9.884006e+001 5.881459e+001 6.286103e+001 5.503265e+001 7.662165e+001 8.849399e+001 6.517560e+001 8.208379e+001 4.574344e+001 6.655415e+001 2.824019e+000 7.412467e+000 7.811128e+000 6.204575e+000 8.105129e+000 7.571919e+000 8.054434e+000 9.410447e+000 8.008275e+000 8.359153e+000 4.290590e+000 5.490640e+000 2.649396e+000
<GCONST> 1.193513e+002
<STATE> 3
<MEAN> 25
 6.574732e+000 8.961988e+000 4.220652e+000 5.569153e+000 6.129366e+000 1.113226e+000 -1.224169e+000 -4.342445e-001 -2.132734e+000 7.879174e+000 3.585877e+000 -5.662841e+000 -1.416534e-001 -3.099126e+000 1.458375e+000 -1.747262e+000 1.455564e+000 -5.682095e-001 -9.376500e-001 6.858924e-001 -9.377856e-001 1.064710e+000 -1.461524e+000 9.226222e-003 2.298189e+000
<VARIANCE> 25
 1.779859e+001 1.490687e+002 4.875663e+001 7.995469e+001 7.955652e+001 7.426212e+001 6.805611e+001 5.276666e+001 7.919135e+001 6.340070e+001 5.569051e+001 2.747136e+001 3.077584e+000 1.882744e+001 6.890588e+000 8.124544e+000 5.597613e+000 7.602849e+000 1.346998e+001 4.849104e+000 9.392179e+000 9.552672e+000 5.146198e+000 2.669162e+000 5.935218e+000
<GCONST> 1.197356e+002
<STATE> 4
<MEAN> 25
 5.189724e+000 -1.136649e+001 1.454376e+001 -3.031865e+000 1.190938e+001 -8.498847e+000 -1.828864e+001 1.454247e+000 8.978959e-001 8.021046e+000 -4.797769e+000 -4.268814e+000 1.745653e-001 -3.169993e-001 4.353471e-001 -3.916435e-001 -3.725081e-001 -2.887603e-001 -1.146351e+000 -3.967014e-001 6.609806e-001 -4.193039e-001 1.457529e-001 1.245095e-001 5.470772e-001
<VARIANCE> 25
 5.537243e+000 2.573389e+001 1.689752e+001 2.600933e+001 4.032956e+001 4.911236e+001 4.430240e+001 3.118066e+001 4.910547e+001 2.085120e+001 2.609714e+001 1.609919e+001 2.831099e-001 1.481511e+000 2.797042e+000 1.429258e+000 1.637203e+000 2.493691e+000 6.929985e+000 1.209372e+000 2.337928e+000 1.338911e+000 2.365609e+000 1.660586e+000 8.220111e-001
<GCONST> 9.114877e+001
<TRANSP> 5
 0.000000e+000 1.000000e+000 0.000000e+000 0.000000e+000 0.000000e+000
 0.000000e+000 9.113690e-001 8.863105e-002 0.000000e+000 0.000000e+000
 0.000000e+000 0.000000e+000 8.175777e-001 1.824223e-001 0.000000e+000
 0.000000e+000 0.000000e+000 0.000000e+000 8.463559e-001 1.536440e-001
 0.000000e+000 0.000000e+000 0.000000e+000 0.000000e+000 0.000000e+000
<ENDHMM>
~h "k"
<BEGINHMM>
<NUMSTATES> 5
<STATE> 2
<MEAN> 25
 -4.053514e-001 6.430351e-001 -3.711512e+000 2.212858e+000 3.100682e-001 -1.880013e+000 1.153170e+000 -3.012524e+000 -3.521333e+000 3.603177e+000 -7.529711e-001 -2.018126e+000 2.437562e-001 -2.219109e+000 7.908033e-001 -4.954758e+000 8.661709e-001 -5.886387e-001 7.640553e-002 1.906445e+000 -3.147273e+000 1.150891e+000 5.736305e-002 -4.341307e-002 2.545186e+000
<VARIANCE> 25
 3.602245e+001 1.057010e+002 1.070282e+002 2.857791e+002 1.043484e+002 7.396263e+001 8.038852e+001 1.426723e+002 1.339566e+002 6.901588e+001 6.764532e+001 5.597433e+001 4.155358e+000 7.866308e+000 1.087352e+001 1.971006e+001 8.097641e+000 1.128997e+001 1.121995e+001 9.185190e+000 1.102518e+001 6.134580e+000 7.885079e+000 5.312486e+000 5.896858e+000
<GCONST> 1.279185e+002
<STATE> 3
<MEAN> 25
 -3.408213e+000 -7.681831e+000 2.718828e+000 -8.904113e+000 -3.916651e-001 8.512139e-001 -1.403403e+000 2.891450e+000 -9.432885e+000 3.044477e+000 2.249000e+000 -3.764795e+000 -2.917428e-001 7.250884e-001 1.398387e-001 1.056117e+000 -1.561691e-001 6.133615e-001 7.633311e-002 -3.916870e-002 1.186646e+000 -3.500679e-001 9.202156e-002 -1.205143e-001 -7.931999e-001
<VARIANCE> 25
 2.620066e+001 6.864648e+001 8.907082e+001 1.281341e+002 8.837998e+001 7.401980e+001 5.090608e+001 5.349832e+001 6.751842e+001 8.138153e+001 4.605021e+001 3.765072e+001 2.016485e+000 4.100228e+000 5.110114e+000 8.199557e+000 4.125345e+000 4.199640e+000 4.859181e+000 3.255939e+000 6.028667e+000 3.485553e+000 3.595848e+000 2.634238e+000 2.177739e+000
<GCONST> 1.130825e+002
<STATE> 4
<MEAN> 25
 -2.722649e+000 3.902562e+000 -4.023629e+000 -4.068270e+000 -3.421203e+000 -3.148535e+000 3.143662e+000 6.871713e+000 -1.488546e+000 -3.276408e-002 1.478071e+000 -2.475485e+000 9.086914e-001 2.237481e-001 9.236577e-001 -5.309719e-001 -3.408028e-001 -1.702295e-001 -6.587583e-001 -3.746554e-002 4.519812e-001 -1.296459e-002 1.323610e-001 3.412595e-001 9.688908e-001
<VARIANCE> 25
 4.169987e+001 6.349179e+001 1.078830e+002 2.214705e+002 7.062371e+001 9.041365e+001 1.148471e+002 6.496239e+001 1.076850e+002 8.006614e+001 5.134896e+001 5.177440e+001 4.012857e+000 6.643715e+000 6.776343e+000 2.388025e+001 6.474478e+000 8.628986e+000 7.970459e+000 6.668316e+000 1.255381e+001 6.924586e+000 4.286298e+000 5.156643e+000 4.941026e+000
<GCONST> 1.240606e+002
<TRANSP> 5
 0.000000e+000 1.000000e+000 0.000000e+000 0.000000e+000 0.000000e+000
 0.000000e+000 6.985392e-001 3.014607e-001 0.000000e+000 0.000000e+000
 0.000000e+000 0.000000e+000 7.594857e-001 2.405144e-001 0.000000e+000
 0.000000e+000 0.000000e+000 0.000000e+000 7.768690e-001 2.231310e-001
 0.000000e+000 0.000000e+000 0.000000e+000 0.000000e+000 0.000000e+000
<ENDHMM>
~h "l"
<BEGINHMM>
<NUMSTATES> 5
<STATE> 2
<MEAN> 25
 1.037428e+001 1.907227e-002 8.211450e+000 -8.265249e+000 -1.127649e+001 -3.644571e+000 -4.311004e+000 5.002393e+000 3.109287e+000 -4.006664e+000 -2.543640e+000 6.816754e-001 -6.997236e-002 7.377723e-001 8.999534e-002 5.787156e-001 -3.326607e-001 2.546215e-001 2.606795e-001 -6.865855e-002 1.498311e-001 -1.106310e-001 -1.294414e-001 -3.084948e-001 -5.803650e-001
<VARIANCE> 25
 9.217249e+000 3.793147e+001 2.825835e+001 4.113096e+001 4.935480e+001 4.878150e+001 2.848321e+001 3.303672e+001 4.281203e+001 4.422214e+001 2.157534e+001 3.983534e+001 3.135470e-001 9.692692e-001 9.404770e-001 1.470600e+000 3.148728e+000 2.444200e+000 1.578612e+000 2.115473e+000 2.540744e+000 2.679626e+000 2.003257e+000 1.765490e+000 4.648885e-001
<GCONST> 9.259281e+001
<STATE> 3
<MEAN> 25
 6.455759e+000 5.196044e-001 7.965012e+000 -3.096825e+000 -7.943048e+000 1.831352e+000 4.381994e-001 1.640452e+000 -6.676164e-002 -4.214243e+000 -4.240993e+000 4.363793e-001 -3.273392e-001 -6.525848e-001 -5.578059e-001 1.789577e-001 1.391948e+000 5.003898e-003 5.558232e-002 -5.558211e-001 -8.016304e-001 9.561823e-001 6.032758e-001 8.274708e-001 5.810352e-002
<VARIANCE> 25
 6.277206e+001 5.579039e+001 3.996631e+001 4.813585e+001 6.803729e+001 4.385836e+001 3.570772e+001 4.492261e+001 6.999566e+001 5.437914e+001 3.894777e+001 3.895464e+001 1.620680e+000 4.490492e+000 3.065534e+000 4.320974e+000 7.441175e+000 3.379421e+000 4.980546e+000 3.524776e+000 6.117074e+000 6.671197e+000 4.400813e+000 3.341095e+000 2.285050e+000
<GCONST> 1.105024e+002
<STATE> 4
<MEAN> 25
 -2.169629e-001 5.110915e+000 -3.628684e+000 2.469354e+000 -7.075413e+000 2.219047e+000 1.651835e+000 -2.029095e+000 3.324656e+000 -2.936287e+000 1.061030e+000 5.094329e-001 -5.821881e-001 -2.377047e-001 -6.092539e-001 2.175630e-001 4.591066e-001 -8.728795e-002 9.735212e-002 -3.001436e-001 -2.511510e-001 1.548980e-001 9.815475e-002 6.112899e-002 -4.723964e-001
<VARIANCE> 25
 5.691049e+001 7.616718e+001 9.047749e+001 6.358570e+001 7.186953e+001 5.032432e+001 5.738295e+001 6.461350e+001 5.992263e+001 5.738027e+001 3.504989e+001 5.510740e+001 6.585303e-001 1.743760e+000 2.877275e+000 3.556077e+000 3.573051e+000 3.829308e+000 4.243740e+000 3.528863e+000 4.159945e+000 3.990635e+000 3.474051e+000 3.703804e+000 6.020970e-001
<GCONST> 1.077423e+002
<TRANSP> 5
 0.000000e+000 1.000000e+000 0.000000e+000 0.000000e+000 0.000000e+000
 0.000000e+000 8.793881e-001 1.206120e-001 0.000000e+000 0.000000e+000
 0.000000e+000 0.000000e+000 6.338730e-001 3.661270e-001 0.000000e+000
 0.000000e+000 0.000000e+000 0.000000e+000 8.521375e-001 1.478626e-001
 0.000000e+000 0.000000e+000 0.000000e+000 0.000000e+000 0.000000e+000
<ENDHMM>
~h "m"
<BEGINHMM>
<NUMSTATES> 5
<STATE> 2
<MEAN> 25
 6.304751e+000 1.082937e+001 3.789251e-001 6.250613e+000 7.668192e+000 5.397289e+000 -1.309437e+000 3.277926e-002 1.510915e+000 -3.009492e+000 -2.524450e+000 -3.641221e+000 9.276565e-001 6.286932e-001 1.263609e+000 5.969028e-001 1.345710e+000 1.836021e+000 -1.722928e+000 1.014168e-001 1.221368e+000 -9.650108e-001 -1.908559e-001 -5.279084e-001 6.024324e-001
<VARIANCE> 25
 5.288774e+001 5.569376e+001 6.701715e+001 9.057240e+001 8.840877e+001 4.224983e+001 6.966964e+001 4.379916e+001 7.543147e+001 8.421670e+001 2.767063e+001 3.357907e+001 4.002490e+000 4.953438e+000 9.037786e+000 8.831548e+000 9.249947e+000 4.114038e+000 9.223390e+000 4.634716e+000 5.545687e+000 5.055065e+000 2.337926e+000 3.020961e+000 4.802045e+000
<GCONST> 1.161043e+002
<STATE> 3
<MEAN> 25
 8.851043e+000 7.902722e+000 1.583220e+000 2.546031e+000 8.512421e+000 7.699341e+000 -4.554213e+000 1.387939e+000 1.693785e+000 -3.084268e+000 -3.313015e+000 -5.481238e+000 -3.709223e-001 -7.204990e-002 7.388571e-002 4.486290e-001 -5.091825e-002 -3.332691e-002 2.959683e-001 -1.501279e-001 -5.982644e-002 4.904176e-002 -1.452704e-001 -1.411036e-002 -3.170305e-001
<VARIANCE> 25
 2.714890e+001 3.092264e+001 3.461488e+001 3.456773e+001 5.078772e+001 3.670633e+001 2.898710e+001 4.028777e+001 6.500466e+001 5.022634e+001 2.640290e+001 2.077761e+001 4.039867e-001 1.373942e+000 1.075453e+000 1.980784e+000 1.911231e+000 1.869636e+000 1.791594e+000 2.015630e+000 2.511047e+000 2.126412e+000 1.693910e+000 1.355781e+000 6.126378e-001
<GCONST> 9.350045e+001
<STATE> 4
<MEAN> 25
 1.509724e+000 2.451549e+000 1.197075e+000 2.667605e+000 2.559147e+000 2.088730e+000 9.207292e-001 1.633153e+000 -5.014918e-001 -5.444714e-001 -4.368218e+000 -2.954595e+000 -3.938453e-001 -1.589530e+000 2.429684e-001 -8.765745e-001 -2.840572e-001 -6.937282e-001 7.088199e-002 5.600796e-001 -1.021827e-001 7.330620e-001 1.742702e-001 6.048241e-001 7.377266e-001
<VARIANCE> 25
 7.675329e+001 6.384628e+001 7.903174e+001 5.197868e+001 8.144897e+001 7.472221e+001 5.543133e+001 4.855140e+001 6.636996e+001 7.243212e+001 4.102938e+001 3.883381e+001 1.060614e+000 6.394104e+000 4.086090e+000 3.431370e+000 2.720340e+000 4.695130e+000 4.042284e+000 2.379338e+000 6.156326e+000 5.848608e+000 4.561269e+000 4.633421e+000 1.925792e+000
<GCONST> 1.118833e+002
<TRANSP> 5
 0.000000e+000 1.000000e+000 0.000000e+000 0.000000e+000 0.000000e+000
 0.000000e+000 4.980057e-001 5.019942e-001 0.000000e+000 0.000000e+000
 0.000000e+000 0.000000e+000 7.949987e-001 2.050012e-001 0.000000e+000
 0.000000e+000 0.000000e+000 0.000000e+000 7.653103e-001 2.346896e-001
 0.000000e+000 0.000000e+000 0.000000e+000 0.000000e+000 0.000000e+000
<ENDHMM>
~h "n"
<BEGINHMM>
<NUMSTATES> 5
<STATE> 2
<MEAN> 25
 1.068490e+001 9.208134e-001 -9.209259e-001 3.378892e+000 9.453945e+000 -1.476285e+000 -6.291814e+000 -7.442729e-001 2.381237e+000 3.266929e+000 -2.485034e+000 1.598759e-001 -2.910920e-002 1.146517e-001 -1.654359e-001 2.555304e-001 4.682229e-002 2.872519e-001 1.391585e-001 1.807136e-001 1.682544e-001 -2.301214e-001 1.429141e-001 -8.938315e-002 -1.955800e-001
<VARIANCE> 25
 1.390646e+001 1.320414e+002 1.056868e+002 1.328674e+002 4.806715e+001 7.014458e+001 5.704612e+001 7.004653e+001 7.627238e+001 9.621863e+001 5.514105e+001 3.792124e+001 4.129163e-001 2.848716e+000 2.124234e+000 2.677226e+000 2.344076e+000 3.819067e+000 3.714196e+000 3.361084e+000 6.490613e+000 4.081875e+000 2.867724e+000 3.335461e+000 1.281953e+000
<GCONST> 1.083750e+002
<STATE> 3
<MEAN> 25
 9.938164e+000 -5.126016e-001 8.627437e-001 3.090766e-001 2.478702e+000 4.638792e+000 -5.495330e+000 -2.930150e+000 3.986858e-001 -6.993175e+000 -3.068658e-002 2.153378e+000 -1.171407e-001 8.404099e-001 -2.566462e-001 6.950342e-001 -3.768538e-002 2.086567e-001 2.925618e-001 1.048804e-001 2.473458e-001 -5.688781e-001 -9.580830e-002 -2.706786e-001 -7.104334e-001
<VARIANCE> 25
 1.332279e+001 7.939874e+001 4.484930e+001 1.024890e+002 6.336371e+001 3.927654e+001 7.571208e+001 8.003930e+001 5.223313e+001 5.999701e+001 2.931991e+001 3.216829e+001 2.249429e-001 1.002132e+000 6.587813e-001 1.961824e+000 1.816478e+000 1.781063e+000 2.042388e+000 2.135867e+000 2.892255e+000 2.672047e+000 1.797055e+000 1.544349e+000 3.969077e-001
<GCONST> 9.632760e+001
<STATE> 4
<MEAN> 25
 9.151427e+000 1.948056e+000 -1.670592e-001 1.038014e+000 5.148705e+000 1.346342e+000 -2.139437e+000 3.360835e+000 -2.028001e+000 -2.208104e+000 1.195756e+000 -1.432981e+000 -4.219824e-001 4.203900e-001 7.481246e-002 5.427135e-001 1.058200e-001 -9.139506e-002 2.683145e-001 -1.787835e-001 -2.387441e-001 3.505659e-001 -4.893000e-002 -2.544723e-001 -6.004021e-001
<VARIANCE> 25
 1.490677e+001 8.883255e+001 4.324675e+001 9.952005e+001 5.570871e+001 8.680844e+001 6.416594e+001 5.047532e+001 6.580009e+001 5.344146e+001 3.111223e+001 2.966588e+001 3.493930e-001 1.195932e+000 1.558678e+000 2.077825e+000 2.816968e+000 3.011359e+000 2.950101e+000 2.737535e+000 3.877842e+000 3.455466e+000 2.236626e+000 1.685860e+000 4.587731e-001
<GCONST> 1.007351e+002
<TRANSP> 5
 0.000000e+000 1.000000e+000 0.000000e+000 0.000000e+000 0.000000e+000
 0.000000e+000 7.240874e-001 2.759125e-001 0.000000e+000 0.000000e+000
 0.000000e+000 0.000000e+000 7.753385e-001 2.246615e-001 0.000000e+000
 0.000000e+000 0.000000e+000 0.000000e+000 8.282701e-001 1.717299e-001
 0.000000e+000 0.000000e+000 0.000000e+000 0.000000e+000 0.000000e+000
<ENDHMM>
~h "p"
<BEGINHMM>
<NUMSTATES> 5
<STATE> 2
<MEAN> 25
 -4.896929e-001 2.578183e+000 -4.464333e+000 1.002806e+001 -5.123936e+000 -8.620459e-001 -9.754476e-001 -7.166572e+000 5.986424e+000 -2.642186e+000 -3.509291e+000 2.126776e+000 -5.161547e-002 4.223733e-001 -4.850347e-001 -2.241330e-001 -3.275181e-001 -4.627313e-001 6.939734e-001 -1.008945e-001 -7.468240e-002 4.657785e-001 -1.982884e-001 4.326007e-001 -2.996783e-001
<VARIANCE> 25
 9.776028e+001 6.243770e+001 7.213124e+001 2.066562e+002 7.116135e+001 1.146243e+002 6.761778e+001 9.330448e+001 7.851470e+001 4.824818e+001 7.873721e+001 4.076763e+001 3.923417e+000 4.890237e+000 3.984930e+000 1.085624e+001 4.183475e+000 6.598364e+000 4.265337e+000 6.820926e+000 7.161001e+000 5.835080e+000 4.894161e+000 4.059073e+000 2.580742e+000
<GCONST> 1.194227e+002
<STATE> 3
<MEAN> 25
 2.284776e+000 1.136141e+001 -5.552699e+000 2.434417e+000 -1.351743e+000 -7.482557e+000 5.969425e+000 -9.125050e-001 -6.784493e+000 1.974347e+000 -1.959688e+000 8.860474e-001 -2.251476e-001 9.118990e-001 -4.016210e-001 3.738587e-002 2.003303e-001 -1.662446e+000 6.992633e-001 8.021368e-001 -1.443141e+000 7.462255e-001 3.076178e-001 -6.744256e-001 -5.479591e-001
<VARIANCE> 25
 4.599134e+001 6.560899e+001 1.672900e+002 1.464367e+002 7.718855e+001 1.134759e+002 8.163745e+001 6.324389e+001 1.304338e+002 1.615392e+002 1.332768e+002 8.927868e+001 2.966386e+000 4.660237e+000 4.409324e+000 4.121963e+000 7.011843e+000 4.925403e+000 5.283280e+000 4.355655e+000 8.765206e+000 7.420667e+000 5.667304e+000 5.129720e+000 1.601114e+000
<GCONST> 1.212524e+002
<STATE> 4
<MEAN> 25
 -1.607340e+000 7.693436e+000 -9.802048e+000 1.607497e+000 -3.872920e+000 -3.813702e+000 4.840306e+000 8.559806e-001 4.710979e+000 -1.220608e+000 -2.704504e+000 2.926793e+000 -1.204553e-001 -8.994321e-001 9.846088e-001 -7.429941e-001 2.755831e-001 5.211481e-001 -8.275450e-001 3.348861e-001 2.447267e-001 1.908195e-003 -5.233315e-002 -5.844949e-002 6.983801e-001
<VARIANCE> 25
 7.119656e+001 1.061054e+002 1.344279e+002 9.031963e+001 6.090941e+001 9.014730e+001 6.851211e+001 1.003161e+002 1.456582e+002 4.712314e+001 3.922786e+001 4.493076e+001 3.259685e+000 7.538497e+000 8.079700e+000 7.826875e+000 7.804300e+000 6.971422e+000 7.334780e+000 6.967739e+000 1.385313e+001 6.482086e+000 5.852507e+000 3.258540e+000 3.770088e+000
<GCONST> 1.220877e+002
<TRANSP> 5
 0.000000e+000 1.000000e+000 0.000000e+000 0.000000e+000 0.000000e+000
 0.000000e+000 6.995355e-001 3.004645e-001 0.000000e+000 0.000000e+000
 0.000000e+000 0.000000e+000 6.185400e-001 3.814600e-001 0.000000e+000
 0.000000e+000 0.000000e+000 0.000000e+000 8.738793e-001 1.261207e-001
 0.000000e+000 0.000000e+000 0.000000e+000 0.000000e+000 0.000000e+000
<ENDHMM>
~h "r"
<BEGINHMM>
<NUMSTATES> 5
<STATE> 2
<MEAN> 25
 -1.448998e+000 1.359891e+000 -2.908258e+000 -2.699726e+000 -7.619811e-001 3.495681e+000 1.086551e+000 8.179339e-001 5.834751e-001 -1.510739e+000 3.206238e-001 8.366045e-001 4.292927e-001 -7.637945e-001 5.593836e-001 -1.446868e+000 3.706265e-001 1.083694e-001 -4.564585e-001 -1.396906e-003 -6.042908e-001 -1.823784e-002 -3.075665e-001 3.275691e-001 1.208119e+000
<VARIANCE> 25
 9.338802e+001 1.316745e+002 8.681139e+001 1.580935e+002 9.133784e+001 8.714021e+001 6.590508e+001 9.135505e+001 9.355364e+001 7.583123e+001 3.736867e+001 4.667191e+001 6.058903e+000 1.154553e+001 9.110126e+000 9.495930e+000 6.893648e+000 7.469254e+000 5.738195e+000 8.503763e+000 1.011885e+001 7.157588e+000 3.320950e+000 5.057870e+000 5.524125e+000
<GCONST> 1.242570e+002
<STATE> 3
<MEAN> 25
 1.140040e+001 2.796572e+000 -3.733969e+000 -1.592702e+001 2.213335e+000 1.047723e+001 -5.719797e+000 -2.482587e+000 1.912515e-002 -6.988417e+000 4.044903e+000 9.491657e+000 -1.795768e-001 -2.153549e-001 -2.683641e-001 6.139378e-001 2.871143e-002 -3.161207e-001 1.255882e-001 -1.932391e-001 8.642007e-002 2.875098e-001 9.777439e-002 6.742059e-002 -2.033495e-001
<VARIANCE> 25
 2.606873e+001 1.371057e+002 4.991948e+001 9.970580e+001 5.991075e+001 4.921227e+001 5.316043e+001 5.657243e+001 6.503100e+001 7.048402e+001 5.082196e+001 3.593273e+001 5.659654e-001 3.694704e+000 2.068300e+000 4.116374e+000 4.440477e+000 3.913900e+000 3.967546e+000 4.255370e+000 4.861696e+000 4.112355e+000 2.978995e+000 3.623287e+000 1.453627e+000
<GCONST> 1.088885e+002
<STATE> 4
<MEAN> 25
 4.317808e+000 -8.272993e+000 3.183768e+000 -6.044356e+000 1.142535e+001 8.171870e-001 -9.376184e+000 -2.289694e+000 -6.558451e+000 1.874671e+000 2.744416e-001 2.586300e+000 2.692137e-001 4.917074e-001 1.851624e-001 7.590626e-001 7.345166e-001 -4.436939e-001 -5.818024e-001 -3.519707e-002 -7.612317e-001 2.647295e-001 -1.377132e-001 -6.732112e-001 -8.174703e-002
<VARIANCE> 25
 9.501187e+001 1.209821e+002 6.702573e+001 9.640486e+001 7.022759e+001 1.100096e+002 6.207352e+001 4.710516e+001 7.517748e+001 1.122041e+002 4.327211e+001 3.571339e+001 2.806609e+000 6.160745e+000 2.402214e+000 2.503302e+000 3.951671e+000 6.364656e+000 3.042868e+000 2.844946e+000 3.798582e+000 5.835792e+000 4.596259e+000 3.686763e+000 1.095047e+000
<GCONST> 1.134333e+002
<TRANSP> 5
 0.000000e+000 1.000000e+000 0.000000e+000 0.000000e+000 0.000000e+000
 0.000000e+000 7.965934e-001 2.034066e-001 0.000000e+000 0.000000e+000
 0.000000e+000 0.000000e+000 8.617910e-001 1.382090e-001 0.000000e+000
 0.000000e+000 0.000000e+000 0.000000e+000 8.007136e-001 1.992864e-001
 0.000000e+000 0.000000e+000 0.000000e+000 0.000000e+000 0.000000e+000
<ENDHMM>
~h "s"
<BEGINHMM>
<NUMSTATES> 5
<STATE> 2
<MEAN> 25
 -6.144931e+000 -8.092422e+000 1.518156e+001 -5.964161e+000 1.128179e+000 4.760914e+000 1.901741e+000 -4.300629e+000 -6.342604e+000 6.318091e+000 -1.446488e+000 -2.033284e-001 -2.687980e+000 -2.966881e+000 4.554285e+000 -1.167256e+000 1.206155e-001 3.988089e-001 1.835828e+000 3.627788e-001 -4.864811e-001 1.339684e+000 3.304625e-001 1.310717e-001 1.497406e+000
<VARIANCE> 25
 6.214441e+001 6.644867e+001 1.470984e+002 9.279322e+001 5.514639e+001 6.479791e+001 7.196900e+001 7.464959e+001 7.812969e+001 4.952931e+001 5.013017e+001 2.785014e+001 1.777329e+000 3.820557e+000 5.126189e+000 5.447194e+000 3.913779e+000 3.923398e+000 4.966903e+000 5.588669e+000 4.384121e+000 5.597078e+000 4.133105e+000 2.977417e+000 1.661629e+000
<GCONST> 1.135851e+002
<STATE> 3
<MEAN> 25
 -1.676103e+001 -1.722949e+001 2.864400e+001 -9.674443e+000 9.739292e-001 6.410046e+000 1.113066e+001 1.286373e+000 -3.232820e+000 7.830459e+000 2.258002e+000 6.101912e-001 -3.416646e-001 -3.878872e-001 2.977930e-002 7.031187e-002 -3.728314e-002 -2.274076e-002 3.888523e-001 4.566807e-001 2.806490e-001 5.070478e-003 3.549658e-001 1.641545e-001 2.915459e-002
<VARIANCE> 25
 1.688803e+001 1.741285e+001 1.865337e+001 3.646193e+001 2.264779e+001 4.528434e+001 3.665752e+001 4.465874e+001 5.833193e+001 3.037775e+001 2.844326e+001 2.471313e+001 6.584216e-001 9.560536e-001 1.307890e+000 1.050300e+000 9.310581e-001 1.256053e+000 1.734986e+000 1.717013e+000 1.889540e+000 1.668274e+000 1.566938e+000 1.234838e+000 3.588032e-001
<GCONST> 8.840781e+001
<STATE> 4
<MEAN> 25
 -1.496127e+001 -1.402812e+001 1.951973e+001 -6.079814e+000 -2.567718e+000 5.307702e+000 7.445076e+000 2.999101e+000 -4.677946e+000 5.367606e+000 2.661243e+000 2.348503e-001 1.011856e+000 1.305237e+000 -1.517856e+000 7.435650e-001 -5.016028e-001 1.891280e-002 -1.128846e+000 -5.450659e-001 -3.809391e-001 -4.851827e-001 -3.747250e-001 -5.292803e-001 -1.029149e+000
<VARIANCE> 25
 2.660724e+001 5.744815e+001 6.921464e+001 4.472456e+001 6.805175e+001 6.454533e+001 4.718052e+001 6.723120e+001 9.550448e+001 4.536164e+001 4.213667e+001 4.211510e+001 4.179231e+000 2.607547e+000 3.615789e+000 3.317131e+000 3.970836e+000 3.117255e+000 5.999178e+000 4.261595e+000 3.896706e+000 3.243881e+000 2.952338e+000 3.977946e+000 1.849871e+000
<GCONST> 1.098672e+002
<TRANSP> 5
 0.000000e+000 1.000000e+000 0.000000e+000 0.000000e+000 0.000000e+000
 0.000000e+000 7.608742e-001 2.391258e-001 0.000000e+000 0.000000e+000
 0.000000e+000 0.000000e+000 9.210034e-001 7.899655e-002 0.000000e+000
 0.000000e+000 0.000000e+000 0.000000e+000 8.514761e-001 1.485239e-001
 0.000000e+000 0.000000e+000 0.000000e+000 0.000000e+000 0.000000e+000
<ENDHMM>
~h "t"
<BEGINHMM>
<NUMSTATES> 5
<STATE> 2
<MEAN> 25
 -6.258612e-001 5.111464e+000 -2.376576e+000 6.044904e+000 -2.533232e+000 -2.353105e+000 9.323088e-001 -1.627292e+000 7.244025e-001 -2.612335e-001 -1.504212e+000 -1.549482e+000 -1.092182e+000 -3.267367e+000 1.285780e+000 -2.694286e+000 7.744656e-001 -1.117849e+000 2.899272e-001 1.628642e+000 -1.985212e+000 1.567381e+000 -7.433882e-001 1.592859e-001 1.795635e+000
<VARIANCE> 25
 6.595905e+001 9.108809e+001 1.617215e+002 9.930177e+001 8.945971e+001 7.444350e+001 9.543860e+001 1.134451e+002 7.200551e+001 4.817519e+001 4.722952e+001 5.483864e+001 2.893419e+000 1.125039e+001 1.360492e+001 1.369496e+001 7.218282e+000 9.282546e+000 8.091637e+000 9.859728e+000 1.139837e+001 5.795773e+000 5.856154e+000 4.901616e+000 5.733523e+000
<GCONST> 1.250248e+002
<STATE> 3
<MEAN> 25
 -6.751950e+000 -1.448941e+001 1.176194e+001 -6.407651e+000 1.425798e+000 -4.852805e+000 1.282874e+000 2.219736e+000 -9.207523e+000 8.161139e+000 -3.935957e+000 6.285057e-002 -8.967234e-001 -3.164407e+000 2.224120e+000 -2.541318e+000 1.161864e+000 -4.494875e-001 -3.843815e-001 5.709190e-001 -1.284930e+000 1.201427e+000 -3.007255e-001 3.426189e-001 2.267687e+000
<VARIANCE> 25
 4.251488e+001 4.954557e+001 1.127855e+002 6.491754e+001 6.011448e+001 4.480034e+001 6.721504e+001 3.279226e+001 5.242939e+001 3.970275e+001 2.882041e+001 2.519463e+001 3.135605e+000 8.756114e+000 1.277501e+001 9.548576e+000 5.485819e+000 4.821640e+000 7.725286e+000 5.244475e+000 6.814267e+000 3.994472e+000 4.548306e+000 2.902004e+000 5.053336e+000
<GCONST> 1.149210e+002
<STATE> 4
<MEAN> 25
 -5.334867e+000 -1.187587e+001 8.618699e+000 -3.425599e+000 2.247813e+000 -1.057909e+000 -3.059425e+000 -7.512292e-001 -6.936270e+000 6.018561e+000 4.204881e-001 -1.495783e+000 1.346021e+000 1.819209e+000 -1.630466e+000 1.645361e+000 3.199127e-002 9.268713e-001 -7.399356e-001 -9.665430e-001 6.955734e-001 -1.184800e+000 9.019287e-001 -1.937784e-001 -7.743197e-001
<VARIANCE> 25
 3.411072e+001 7.931714e+001 9.761792e+001 6.242609e+001 7.699342e+001 5.672839e+001 6.191573e+001 4.587636e+001 5.948298e+001 4.816359e+001 3.315279e+001 3.380212e+001 3.930687e+000 4.810445e+000 3.985845e+000 4.639452e+000 5.428769e+000 4.974702e+000 6.028529e+000 5.318313e+000 5.189569e+000 4.352185e+000 3.580794e+000 3.082584e+000 2.140441e+000
<GCONST> 1.127811e+002
<TRANSP> 5
 0.000000e+000 1.000000e+000 0.000000e+000 0.000000e+000 0.000000e+000
 0.000000e+000 6.126627e-001 3.873373e-001 0.000000e+000 0.000000e+000
 0.000000e+000 0.000000e+000 6.540835e-001 3.459164e-001 0.000000e+000
 0.000000e+000 0.000000e+000 0.000000e+000 7.729928e-001 2.270072e-001
 0.000000e+000 0.000000e+000 0.000000e+000 0.000000e+000 0.000000e+000
<ENDHMM>
~h "v"
<BEGINHMM>
<NUMSTATES> 5
<STATE> 2
<MEAN> 25
 3.585747e+000 -4.488227e+000 5.550673e+000 -3.221954e+000 9.939273e+000 -1.691415e+000 -1.027730e+001 -4.227599e+000 -2.939629e+000 7.953314e+000 -1.559878e+000 2.427596e+000 -4.537001e-001 -3.469294e-001 2.874284e-001 -9.958076e-001 4.404764e-001 -6.402969e-001 -3.542883e-001 -4.709349e-001 -6.005195e-001 1.151309e+000 -3.964376e-001 2.714722e-001 2.086823e-001
<VARIANCE> 25
 4.324076e+001 4.622004e+001 6.348636e+001 6.621653e+001 6.539378e+001 6.595592e+001 5.717546e+001 5.249496e+001 4.719656e+001 7.522797e+001 5.553004e+001 3.565264e+001 1.612826e+000 2.220578e+000 2.399288e+000 3.164809e+000 3.663164e+000 3.277185e+000 3.140012e+000 3.779448e+000 5.456995e+000 3.841704e+000 3.748459e+000 3.142207e+000 1.672134e+000
<GCONST> 1.083180e+002
<STATE> 3
<MEAN> 25
 9.225429e+000 -7.855641e+000 6.002816e-001 -6.777987e+000 3.483117e+000 -3.875556e+000 -4.687896e+000 -4.077261e+000 -6.302905e+000 5.575837e+000 1.331037e+000 5.491704e+000 -1.304694e-002 4.124072e-001 -5.201714e-002 -1.409371e-002 -6.862352e-002 3.547112e-001 1.916415e-001 5.068864e-001 -1.794117e-001 -4.120852e-001 -1.110820e-001 -1.533878e-001 -3.543172e-001
<VARIANCE> 25
 1.787149e+001 3.510241e+001 3.957574e+001 2.511714e+001 4.379437e+001 3.839793e+001 4.207615e+001 7.591638e+001 4.508570e+001 7.200163e+001 3.706868e+001 3.783400e+001 2.691792e-001 9.885795e-001 1.021587e+000 1.477845e+000 1.134027e+000 2.426331e+000 1.753354e+000 2.314048e+000 2.664137e+000 2.264584e+000 1.638341e+000 1.954568e+000 5.645635e-001
<GCONST> 9.400821e+001
<STATE> 4
<MEAN> 25
 -1.288914e+000 6.968580e-001 -2.434339e+000 3.487743e+000 1.804503e+000 3.274401e+000 -7.122424e-001 -3.827283e+000 -3.311783e+000 1.325502e+000 3.135571e-001 -1.763980e+000 -2.132392e-001 3.805335e-001 -8.217582e-001 1.075075e+000 -8.630507e-001 1.364757e-001 4.883271e-001 -3.794785e-001 1.067653e+000 -3.264152e-001 2.252593e-001 -1.452270e-001 -8.675191e-001
<VARIANCE> 25
 8.197703e+001 5.950478e+001 2.723424e+002 1.174058e+002 6.257740e+001 1.365687e+002 7.366656e+001 9.325086e+001 8.007514e+001 7.258215e+001 3.897018e+001 4.592129e+001 1.194262e+000 3.323115e+000 4.942976e+000 4.819510e+000 4.376228e+000 5.221087e+000 4.707088e+000 5.933599e+000 5.669838e+000 4.931909e+000 3.850325e+000 4.500126e+000 1.159276e+000
<GCONST> 1.161962e+002
<TRANSP> 5
 0.000000e+000 1.000000e+000 0.000000e+000 0.000000e+000 0.000000e+000
 0.000000e+000 6.293399e-001 3.706601e-001 0.000000e+000 0.000000e+000
 0.000000e+000 0.000000e+000 8.884906e-001 1.115094e-001 0.000000e+000
 0.000000e+000 0.000000e+000 0.000000e+000 8.031661e-001 1.968339e-001
 0.000000e+000 0.000000e+000 0.000000e+000 0.000000e+000 0.000000e+000
<ENDHMM>
~h "w"
<BEGINHMM>
<NUMSTATES> 5
<STATE> 2
<MEAN> 25
 7.769489e+000 6.899727e+000 1.343507e+000 9.399848e-001 -7.930648e-002 5.610139e-001 -4.399418e+000 2.679017e-001 -9.871964e-001 -4.425028e+000 -4.845820e-001 -2.906257e+000 1.662270e+000 2.153053e+000 1.199378e-001 2.093329e-001 -2.197344e+000 -9.977620e-001 -3.999836e-001 1.737175e-001 2.075150e+000 -5.007036e-001 3.015524e-001 -4.351413e-001 1.223559e-001
<VARIANCE> 25
 3.854341e+001 8.444109e+001 3.717096e+001 1.106171e+002 1.151088e+002 4.852009e+001 4.578045e+001 6.323404e+001 1.238806e+002 5.035340e+001 3.580945e+001 6.615321e+001 3.795171e+000 5.293741e+000 2.857631e+000 5.718876e+000 3.513573e+000 3.688908e+000 5.485119e+000 5.821029e+000 7.215807e+000 5.635560e+000 4.940252e+000 6.817957e+000 3.002637e+000
<GCONST> 1.156048e+002
<STATE> 3
<MEAN> 25
 1.256228e+001 1.021450e+001 1.831676e+000 -2.528694e+000 -7.637462e+000 -6.289894e+000 -6.034516e+000 3.981400e+000 4.540730e+000 -3.138623e+000 2.587137e+000 -2.830513e+000 1.609332e-001 -1.473300e+000 -3.568674e-001 -1.185355e+000 -1.445819e-001 -2.657188e-001 6.611688e-001 9.202806e-001 -1.160111e-001 1.017561e-002 1.491051e-001 1.900124e-001 1.025847e+000
<VARIANCE> 25
 6.695115e+000 8.762040e+001 4.743892e+001 6.348040e+001 2.929592e+001 4.934612e+001 2.806650e+001 6.169080e+001 6.828817e+001 3.874470e+001 2.908282e+001 3.825431e+001 1.761351e-001 3.262786e+000 1.207446e+000 2.798512e+000 2.773326e+000 2.737211e+000 3.477632e+000 6.256030e+000 4.962151e+000 3.224784e+000 3.107865e+000 3.226838e+000 1.102504e+000
<GCONST> 1.009059e+002
<STATE> 4
<MEAN> 25
 1.242424e+001 -9.085763e+000 -2.882750e+000 -1.008750e+001 -4.362548e+000 -3.163165e+000 2.936865e+000 8.898852e+000 1.863359e+000 -5.288975e+000 2.304545e+000 4.454678e+000 -1.242593e-001 -3.503149e-001 -1.064015e-001 -1.219835e-002 6.198882e-001 4.895333e-001 -1.471167e-001 -7.180863e-001 -4.282269e-001 4.135470e-002 -3.923169e-002 5.298890e-001 8.865350e-002
<VARIANCE> 25
 6.809572e+000 5.111810e+001 3.130399e+001 4.700587e+001 4.689073e+001 5.007974e+001 8.945040e+001 1.347075e+002 6.938067e+001 6.702161e+001 3.007724e+001 2.866659e+001 1.885921e-001 2.022428e+000 5.379177e-001 1.722613e+000 1.684181e+000 1.816915e+000 3.530747e+000 2.494982e+000 3.478040e+000 2.907314e+000 1.910994e+000 1.494820e+000 5.305732e-001
<GCONST> 9.643943e+001
<TRANSP> 5
 0.000000e+000 1.000000e+000 0.000000e+000 0.000000e+000 0.000000e+000
 0.000000e+000 6.988057e-001 3.011943e-001 0.000000e+000 0.000000e+000
 0.000000e+000 0.000000e+000 8.461434e-001 1.538566e-001 0.000000e+000
 0.000000e+000 0.000000e+000 0.000000e+000 9.046469e-001 9.535309e-002
 0.000000e+000 0.000000e+000 0.000000e+000 0.000000e+000 0.000000e+000
<ENDHMM>
~h "y"
<BEGINHMM>
<NUMSTATES> 5
<STATE> 2
<MEAN> 25
 4.908270e+000 -4.389354e+000 1.801365e+001 1.054944e+001 1.193615e+001 -4.618576e+000 -1.607656e+001 2.520307e+000 -1.020687e+000 5.522243e+000 -2.815817e-001 -5.669247e+000 7.369502e-001 -8.516258e-001 -1.092609e-001 -5.650657e-001 7.547601e-001 -5.535742e-001 -1.312119e+000 -3.769397e-001 -5.077533e-001 2.429944e-001 4.238913e-001 -6.718780e-002 1.169315e+000
<VARIANCE> 25
 1.852231e+001 4.756077e+001 4.746058e+001 6.746459e+001 3.849087e+001 4.323089e+001 6.735622e+001 5.092514e+001 3.820718e+001 2.757568e+001 2.922750e+001 2.216096e+001 1.303619e+000 4.652309e+000 5.613710e+000 5.109684e+000 3.752171e+000 4.070474e+000 6.715891e+000 4.296551e+000 3.554562e+000 3.777044e+000 2.838217e+000 1.824881e+000 1.534108e+000
<GCONST> 1.057072e+002
<STATE> 3
<MEAN> 25
 1.047023e+001 -2.833289e+000 4.785111e+000 2.511896e+000 1.104858e+001 -2.444497e-001 -1.037845e+001 -1.842743e+000 -5.906024e+000 2.031747e+000 2.681172e+000 -5.756956e-001 1.596660e-001 -7.417811e-002 -1.127534e+000 -1.099294e+000 1.362794e-001 -3.562033e-001 3.787082e-001 -7.163935e-001 -6.630639e-001 2.834383e-001 -3.927440e-002 6.595607e-001 2.036884e-001
<VARIANCE> 25
 1.137177e+001 4.677380e+001 1.193979e+002 4.903363e+001 1.049398e+002 3.962739e+001 7.180822e+001 4.787669e+001 1.689527e+002 8.698685e+001 2.443263e+001 5.293384e+001 1.003580e+000 2.247899e+000 3.857328e+000 6.141784e+000 4.246778e+000 3.187196e+000 6.080266e+000 4.430702e+000 5.423692e+000 3.388703e+000 3.557616e+000 4.099315e+000 1.262849e+000
<GCONST> 1.098363e+002
<STATE> 4
<MEAN> 25
 6.638404e+000 -3.970964e+000 7.121754e+000 -3.658551e+000 1.157189e+001 -3.184859e+000 -9.248785e+000 1.630367e+000 -5.648070e+000 6.383288e+000 4.358269e-001 -2.329038e+000 -2.536974e-001 -1.492871e-001 9.211016e-003 -1.354709e+000 3.487950e-001 2.870909e-001 1.076245e+000 7.317275e-001 -9.875752e-001 5.000623e-001 -4.196338e-002 -2.560518e-001 2.083999e-001
<VARIANCE> 25
 6.397395e+001 4.280350e+001 6.700115e+001 1.483726e+002 9.058662e+001 2.154886e+001 1.336815e+002 1.341558e+002 6.759069e+001 5.663907e+001 4.350773e+001 4.653185e+001 3.223309e+000 2.704096e+000 1.295780e+001 1.404381e+001 3.941389e+000 3.577151e+000 1.055893e+001 8.206483e+000 1.079043e+001 6.355030e+000 2.978061e+000 4.901107e+000 2.020329e+000
<GCONST> 1.183897e+002
<TRANSP> 5
 0.000000e+000 1.000000e+000 0.000000e+000 0.000000e+000 0.000000e+000
 0.000000e+000 8.218819e-001 1.781181e-001 0.000000e+000 0.000000e+000
 0.000000e+000 0.000000e+000 4.483516e-001 5.516484e-001 0.000000e+000
 0.000000e+000 0.000000e+000 0.000000e+000 1.945535e-001 8.054464e-001
 0.000000e+000 0.000000e+000 0.000000e+000 0.000000e+000 0.000000e+000
<ENDHMM>
~h "z"
<BEGINHMM>
<NUMSTATES> 5
<STATE> 2
<MEAN> 25
 -3.718579e+000 -5.061588e+000 1.863565e+001 -3.612716e+000 4.265473e+000 4.103775e+000 3.505501e-001 -2.745190e+000 -6.664934e+000 6.190018e+000 -3.178422e+000 -2.133281e+000 -2.262494e+000 -2.187480e+000 4.953394e+000 -7.371177e-001 2.128278e-001 4.506733e-001 2.149194e+000 7.445737e-002 -7.469375e-001 9.881009e-001 -3.300515e-001 -2.952709e-001 1.580383e+000
<VARIANCE> 25
 6.774009e+001 4.652807e+001 1.634798e+002 6.232034e+001 4.521804e+001 9.684589e+001 1.125633e+002 6.966621e+001 4.071709e+001 4.347113e+001 3.085580e+001 1.816259e+001 5.241515e+000 3.790806e+000 6.744748e+000 4.057647e+000 5.163327e+000 4.868513e+000 5.529706e+000 6.745428e+000 2.888800e+000 3.806621e+000 2.298593e+000 2.641185e+000 1.834864e+000
<GCONST> 1.123409e+002
<STATE> 3
<MEAN> 25
 -1.341660e+001 -1.522058e+001 3.213484e+001 -6.988835e+000 2.764032e+000 2.965008e+000 1.034497e+001 4.733390e-001 -7.527994e+000 7.518458e+000 1.054510e+000 -9.068134e-001 -3.877107e-001 -6.676080e-001 -9.348339e-002 2.453500e-001 -1.213849e-001 -3.742977e-002 3.524221e-001 3.985090e-001 1.197995e-001 -3.859934e-002 5.578920e-001 1.321371e-001 9.789432e-003
<VARIANCE> 25
 1.184292e+001 2.934016e+001 1.415854e+001 3.623550e+001 1.844385e+001 5.271497e+001 5.134447e+001 4.571250e+001 2.307199e+001 2.745044e+001 3.426071e+001 1.954870e+001 8.404058e-001 7.756749e-001 1.353286e+000 1.017543e+000 1.128383e+000 1.275205e+000 2.590909e+000 1.536302e+000 1.645861e+000 1.495073e+000 1.397976e+000 1.663508e+000 2.554505e-001
<GCONST> 8.765342e+001
<STATE> 4
<MEAN> 25
 -1.113533e+001 -1.302200e+001 1.334864e+001 -2.036950e+000 -6.124923e+000 2.899297e+000 3.386130e+000 3.258313e+000 -5.532053e+000 2.714273e+000 4.889210e+000 -2.193669e+000 4.072657e-001 8.637224e-001 -1.267992e+000 6.170025e-001 -4.513072e-001 3.279044e-002 -7.790772e-001 -2.346178e-001 1.722294e-001 -5.747607e-001 -2.008903e-002 -2.436579e-001 -9.627956e-001
<VARIANCE> 25
 1.103767e+001 5.909106e+001 1.033170e+002 4.747708e+001 5.877456e+001 4.116754e+001 5.737045e+001 4.723401e+001 5.960987e+001 4.497997e+001 3.534773e+001 3.840660e+001 1.135839e+000 1.747680e+000 2.612113e+000 2.910157e+000 3.880901e+000 3.778232e+000 3.932497e+000 3.197581e+000 3.646310e+000 2.868362e+000 3.418999e+000 3.251434e+000 7.719013e-001
<GCONST> 1.041569e+002
<TRANSP> 5
 0.000000e+000 1.000000e+000 0.000000e+000 0.000000e+000 0.000000e+000
 0.000000e+000 7.962800e-001 2.037201e-001 0.000000e+000 0.000000e+000
 0.000000e+000 0.000000e+000 9.182210e-001 8.177897e-002 0.000000e+000
 0.000000e+000 0.000000e+000 0.000000e+000 9.161959e-001 8.380409e-002
 0.000000e+000 0.000000e+000 0.000000e+000 0.000000e+000 0.000000e+000
<ENDHMM>
~h "aa"
<BEGINHMM>
<NUMSTATES> 5
<STATE> 2
<MEAN> 25
 6.445616e+000 2.690536e+000 4.704345e+000 -3.651550e+000 -2.848302e+000 2.868317e-001 -2.137809e+000 6.223191e+000 2.941694e+000 -1.301983e+000 1.086806e+000 -7.509963e-001 2.120681e+000 -5.816889e-001 1.179696e-001 -1.303230e+000 -1.349715e+000 -1.149792e+000 -1.370332e+000 5.316584e-001 1.133104e+000 -8.137827e-001 1.645354e-001 7.140114e-001 2.087960e+000
<VARIANCE> 25
 7.478444e+001 9.452374e+001 6.583607e+001 9.821449e+001 8.457124e+001 8.614285e+001 4.684082e+001 4.399321e+001 5.123044e+001 2.894259e+001 2.137513e+001 2.323020e+001 6.610149e+000 5.913388e+000 6.090268e+000 9.152395e+000 7.865011e+000 6.178845e+000 2.806443e+000 3.662746e+000 5.307142e+000 5.626247e+000 4.217194e+000 2.317779e+000 3.432785e+000
<GCONST> 1.144283e+002
<STATE> 3
<MEAN> 25
 1.292288e+001 -3.196592e+000 2.412111e+000 -7.346837e+000 -1.174602e+001 -7.650707e+000 -5.038905e+000 8.592344e+000 1.103365e+001 -3.943232e+000 1.432063e+000 1.268873e+000 -2.358360e-001 2.855182e-001 -9.714127e-002 4.147387e-001 -1.941098e-001 3.177714e-001 1.068243e-001 -4.978253e-001 2.349065e-001 -9.800500e-002 -2.869666e-001 -1.816274e-002 -4.781934e-001
<VARIANCE> 25
 1.824616e+001 4.009239e+001 5.450553e+001 5.005844e+001 4.290796e+001 5.641558e+001 2.955790e+001 3.411066e+001 4.941267e+001 3.835606e+001 2.149393e+001 2.934462e+001 5.284564e-001 1.417015e+000 1.198649e+000 1.890382e+000 2.444137e+000 3.362916e+000 2.209996e+000 2.226774e+000 5.518187e+000 2.761158e+000 1.922059e+000 1.180008e+000 7.796984e-001
<GCONST> 9.667787e+001
<STATE> 4
<MEAN> 25
 8.014140e+000 -7.716460e-001 -1.419020e+000 -3.790346e+000 -6.359664e+000 5.477237e+000 -1.219231e+000 -2.348853e+000 6.944736e+000 -3.263916e+000 2.251631e+000 6.137728e+000 -2.209548e-001 5.254182e-001 -1.418513e-001 6.028146e-001 3.394867e-001 7.646567e-002 6.874842e-001 -1.495327e-001 -4.801227e-001 1.798473e-001 -1.725073e-001 6.593122e-004 -5.095387e-001
<VARIANCE> 25
 5.478322e+001 5.372879e+001 4.495817e+001 1.001053e+002 1.650057e+002 9.447426e+001 1.349229e+002 5.442134e+001 8.752962e+001 5.538367e+001 4.008089e+001 3.585070e+001 1.613410e+000 3.831932e+000 3.171522e+000 5.255826e+000 1.036070e+001 4.147421e+000 5.027453e+000 4.995533e+000 8.303509e+000 7.286128e+000 3.408643e+000 2.831899e+000 2.889224e+000
<GCONST> 1.157086e+002
<TRANSP> 5
 0.000000e+000 1.000000e+000 0.000000e+000 0.000000e+000 0.000000e+000
 0.000000e+000 7.509861e-001 2.490139e-001 0.000000e+000 0.000000e+000
 0.000000e+000 0.000000e+000 8.522883e-001 1.477117e-001 0.000000e+000
 0.000000e+000 0.000000e+000 0.000000e+000 8.147416e-001 1.852585e-001
 0.000000e+000 0.000000e+000 0.000000e+000 0.000000e+000 0.000000e+000
<ENDHMM>
~h "ae"
<BEGINHMM>
<NUMSTATES> 5
<STATE> 2
<MEAN> 25
 3.346125e+000 2.487024e+000 7.644672e-002 -5.086346e-001 -1.809283e+000 4.837867e+000 -1.804239e-001 -2.862536e+000 5.506644e+000 1.016982e+000 -2.351197e+000 3.227645e+000 2.023446e+000 -2.019130e+000 1.215166e+000 -1.489383e+000 5.596688e-001 -3.744784e-001 -1.493574e+000 -1.445424e-001 4.016763e-002 1.151258e+000 -2.708856e-001 7.312576e-001 3.239683e+000
<VARIANCE> 25
 7.864043e+001 1.349506e+002 8.036103e+001 1.222095e+002 1.154842e+002 5.784595e+001 7.830210e+001 7.161797e+001 8.790302e+001 6.881384e+001 5.158543e+001 2.944897e+001 7.577826e+000 1.158447e+001 5.947098e+000 9.037628e+000 6.238723e+000 5.789344e+000 6.774659e+000 6.329882e+000 7.119934e+000 7.017394e+000 4.557057e+000 3.586705e+000 5.803160e+000
<GCONST> 1.221494e+002
<STATE> 3
<MEAN> 25
 9.626427e+000 -1.424837e+001 4.722913e+000 -9.761559e+000 3.277136e+000 2.756705e-001 -8.197474e+000 -4.741234e+000 2.561401e+000 6.745407e+000 1.615688e+000 5.702660e+000 -1.612773e-002 -4.849503e-002 1.468997e-002 4.136503e-002 4.428877e-002 1.678176e-001 1.361078e-001 1.860101e-001 -2.316766e-001 -4.296600e-001 2.509530e-001 -4.416212e-003 1.252627e-002
<VARIANCE> 25
 1.046631e+001 2.031161e+001 1.918016e+001 3.752043e+001 6.352136e+001 3.558039e+001 5.069977e+001 2.651163e+001 5.285174e+001 3.938647e+001 3.164109e+001 4.434757e+001 2.519150e-001 1.798969e+000 8.110670e-001 1.785742e+000 1.817149e+000 1.581822e+000 1.701013e+000 2.062882e+000 2.923823e+000 2.311105e+000 2.731554e+000 1.643568e+000 9.989294e-001
<GCONST> 9.300059e+001
<STATE> 4
<MEAN> 25
 8.991013e+000 -5.139977e+000 3.385552e+000 -5.750282e+000 2.248575e+000 4.781839e+000 -7.998405e+000 -2.326664e+000 9.486911e-001 3.294555e+000 2.769878e+000 4.042809e+000 -3.318907e-001 1.778443e+000 -6.786974e-001 1.690831e+000 2.282433e-002 1.818714e-001 -1.325236e-001 8.290583e-002 6.065940e-001 -3.672495e-001 -1.450610e-002 -9.552318e-001 -1.770003e+000
<VARIANCE> 25
 1.703380e+001 2.654253e+001 3.502756e+001 6.326030e+001 5.140697e+001 2.909367e+001 4.293359e+001 5.088253e+001 9.592127e+001 6.420277e+001 2.774601e+001 3.148204e+001 6.569264e-001 2.651258e+000 2.009178e+000 4.228244e+000 3.977225e+000 2.493058e+000 3.735896e+000 3.532899e+000 6.219182e+000 7.012342e+000 4.415224e+000 1.310701e+000 1.141241e+000
<GCONST> 1.034934e+002
<TRANSP> 5
 0.000000e+000 1.000000e+000 0.000000e+000 0.000000e+000 0.000000e+000
 0.000000e+000 8.201801e-001 1.798200e-001 0.000000e+000 0.000000e+000
 0.000000e+000 0.000000e+000 8.611103e-001 1.388897e-001 0.000000e+000
 0.000000e+000 0.000000e+000 0.000000e+000 7.159717e-001 2.840283e-001
 0.000000e+000 0.000000e+000 0.000000e+000 0.000000e+000 0.000000e+000
<ENDHMM>
~h "ah"
<BEGINHMM>
<NUMSTATES> 5
<STATE> 2
<MEAN> 25
 5.770849e+000 -2.551223e-001 4.032753e+000 -2.942256e+000 2.119294e+000 1.846296e+000 -5.162763e+000 7.024292e-001 -1.873444e+000 4.197918e-001 7.386757e-001 5.194491e-001 1.140199e+000 -2.568580e-001 -1.315779e-002 -1.063720e+000 -9.222948e-002 -3.389826e-001 -5.003574e-001 -6.817044e-002 -5.324703e-001 -1.609941e-001 -2.111277e-001 3.178545e-001 1.209078e+000
<VARIANCE> 25
 5.190302e+001 9.888346e+001 6.570221e+001 8.869925e+001 8.019514e+001 5.431502e+001 5.038454e+001 7.727108e+001 7.319963e+001 8.780599e+001 3.399850e+001 4.644124e+001 4.516240e+000 8.620344e+000 5.871492e+000 9.180904e+000 7.580748e+000 6.134502e+000 6.689846e+000 8.175441e+000 7.990553e+000 5.737992e+000 5.171720e+000 4.461757e+000 4.939358e+000
<GCONST> 1.199914e+002
<STATE> 3
<MEAN> 25
 9.905504e+000 -4.333092e+000 2.660985e+000 -6.301621e+000 2.193968e+000 1.360392e+000 -5.444346e+000 -1.571921e-001 -1.788943e+000 1.182707e-001 4.248962e-001 3.939101e+000 3.062265e-001 2.283573e-001 -7.982422e-001 3.163452e-002 -7.631784e-001 5.035573e-001 8.290170e-001 3.218513e-001 1.117152e+000 -8.622108e-001 -2.440781e-001 1.503790e-001 -1.793306e-001
<VARIANCE> 25
 2.643814e+001 7.038385e+001 5.947785e+001 7.752233e+001 6.361055e+001 4.450218e+001 4.377422e+001 7.685540e+001 7.103442e+001 6.887955e+001 4.699684e+001 4.841104e+001 7.796657e-001 2.265324e+000 2.774745e+000 3.746943e+000 4.973777e+000 3.218215e+000 4.627725e+000 5.269538e+000 3.912339e+000 4.203847e+000 3.262316e+000 3.458493e+000 1.362345e+000
<GCONST> 1.086164e+002
<STATE> 4
<MEAN> 25
 7.572975e+000 -3.904235e+000 -3.506415e+000 -5.574344e+000 -2.387137e+000 1.273520e+000 8.476425e-001 3.440526e+000 2.812439e+000 -2.789159e+000 1.812410e+000 3.788702e+000 -2.637472e-001 3.095727e-001 -2.307238e-002 3.523737e-001 -6.050600e-002 -7.418581e-002 1.351677e-001 -1.302293e-001 -1.481685e-002 -5.456924e-002 -1.168487e-001 -1.418208e-001 -4.297645e-001
<VARIANCE> 25
 5.004817e+001 8.337321e+001 6.996564e+001 1.182213e+002 4.733875e+001 4.996445e+001 5.880614e+001 5.899862e+001 6.191530e+001 4.927025e+001 3.882101e+001 4.716358e+001 4.414289e-001 1.366112e+000 2.042117e+000 2.944114e+000 2.889696e+000 2.379546e+000 3.384254e+000 3.030458e+000 4.005421e+000 4.030740e+000 2.652197e+000 2.306754e+000 6.186331e-001
<GCONST> 1.044164e+002
<TRANSP> 5
 0.000000e+000 1.000000e+000 0.000000e+000 0.000000e+000 0.000000e+000
 0.000000e+000 5.714287e-001 4.285714e-001 0.000000e+000 0.000000e+000
 0.000000e+000 0.000000e+000 5.169227e-001 4.830773e-001 0.000000e+000
 0.000000e+000 0.000000e+000 0.000000e+000 8.116092e-001 1.883908e-001
 0.000000e+000 0.000000e+000 0.000000e+000 0.000000e+000 0.000000e+000
<ENDHMM>
~h "ao"
<BEGINHMM>
<NUMSTATES> 5
<STATE> 2
<MEAN> 25
 5.020582e+000 6.330665e+000 5.429080e+000 -3.642548e+000 -8.849678e+000 -9.531695e-001 -5.169697e+000 5.175277e+000 7.646472e+000 -1.909552e+000 3.478856e+000 -8.364918e-001 4.989142e+000 1.398837e+000 1.993708e+000 -6.792836e-002 -2.605864e+000 -2.058197e+000 -1.893339e+000 -6.617317e-001 1.630509e+000 -1.754831e+000 -1.981099e-001 4.354723e-001 3.733847e+000
<VARIANCE> 25
 8.908363e+001 5.995435e+001 6.185231e+001 4.358090e+001 7.770159e+001 7.579237e+001 3.404893e+001 4.119013e+001 6.295218e+001 4.551716e+001 3.937062e+001 2.857167e+001 4.078239e+000 1.513450e+001 9.767371e+000 1.214509e+001 4.868050e+000 5.917125e+000 4.010967e+000 6.066059e+000 6.450255e+000 9.348843e+000 3.692145e+000 1.442195e+000 2.663283e+000
<GCONST> 1.155444e+002
<STATE> 3
<MEAN> 25
 1.145442e+001 -2.701385e+000 1.159944e+001 -6.534389e+000 -1.431677e+001 -1.113525e+001 -7.996316e+000 6.747855e+000 8.396315e+000 -7.552323e-001 3.441074e+000 2.045893e-002 -5.472712e-003 -5.945854e-001 3.161306e-001 -5.184382e-002 -3.206140e-001 -1.109752e-001 -3.180622e-002 -2.634079e-002 2.818029e-001 -2.731124e-001 -1.378150e-003 2.620403e-001 4.142362e-001
<VARIANCE> 25
 6.572120e+000 2.286781e+001 4.285022e+001 1.728535e+001 1.975697e+001 3.936724e+001 3.068340e+001 3.608799e+001 3.143974e+001 2.649995e+001 1.982326e+001 1.647270e+001 2.649183e-001 1.180501e+000 1.025858e+000 1.287954e+000 9.520388e-001 1.828635e+000 1.855463e+000 1.298037e+000 1.540721e+000 1.546646e+000 9.041329e-001 8.940589e-001 6.132268e-001
<GCONST> 8.446311e+001
<STATE> 4
<MEAN> 25
 1.305136e+001 8.051085e-002 5.226560e+000 -9.181160e+000 -1.393962e+001 -4.055616e+000 -9.194578e+000 -1.285550e-001 1.317903e+001 -5.515525e+000 2.164690e+000 5.222513e+000 2.668905e-002 2.868075e-001 -5.264501e-001 -7.304693e-001 6.151550e-001 8.133030e-001 2.143547e-001 -3.948086e-001 -6.699504e-001 -8.770264e-002 -6.723730e-002 2.727709e-001 -1.073950e-001
<VARIANCE> 25
 3.322708e+000 2.449496e+001 3.781868e+001 1.060420e+002 8.432202e+001 6.722354e+001 3.637493e+001 3.219466e+001 5.903353e+001 3.742926e+001 1.409180e+001 2.527747e+001 1.532379e-001 5.296812e-001 7.126912e-001 2.130037e+000 1.756892e+000 2.395302e+000 1.824865e+000 2.130941e+000 2.686012e+000 1.609121e+000 1.186813e+000 1.476774e+000 2.152138e-001
<GCONST> 8.911729e+001
<TRANSP> 5
 0.000000e+000 1.000000e+000 0.000000e+000 0.000000e+000 0.000000e+000
 0.000000e+000 6.961551e-001 3.038450e-001 0.000000e+000 0.000000e+000
 0.000000e+000 0.000000e+000 8.773879e-001 1.226121e-001 0.000000e+000
 0.000000e+000 0.000000e+000 0.000000e+000 9.122950e-001 8.770493e-002
 0.000000e+000 0.000000e+000 0.000000e+000 0.000000e+000 0.000000e+000
<ENDHMM>
~h "aw"
<BEGINHMM>
<NUMSTATES> 5
<STATE> 2
<MEAN> 25
 1.446640e+000 4.722752e+000 -2.225581e+000 6.022398e+000 -6.402469e+000 3.973392e+000 7.462970e+000 -6.700597e-001 1.161831e+001 5.731113e-001 -3.693457e+000 6.831621e+000 1.603702e+000 -1.443540e+000 1.339543e+000 -1.995760e+000 1.181200e-001 -2.573567e-001 -2.227752e+000 5.303376e-001 -7.227282e-001 -3.270542e-001 -7.173913e-001 -3.287118e-001 2.595004e+000
<VARIANCE> 25
 7.942232e+001 8.084087e+001 1.173840e+002 6.393396e+001 4.839688e+001 9.647923e+001 6.957617e+001 3.944995e+001 1.170862e+002 3.634983e+001 5.631038e+001 8.359634e+001 7.528051e+000 1.778748e+001 5.329129e+000 9.773016e+000 4.872715e+000 6.848861e+000 8.991780e+000 3.076064e+000 1.822626e+001 4.138822e+000 4.457163e+000 5.639126e+000 6.766854e+000
<GCONST> 1.219539e+002
<STATE> 3
<MEAN> 25
 -3.678212e+000 -3.639838e+000 -8.357908e+000 -6.314288e+000 -6.182208e+000 -2.450480e+000 8.990680e-001 -3.863079e-001 7.015805e-001 1.362859e+000 5.506990e+000 7.308594e+000 1.089397e+000 -9.372287e-001 -1.666735e-001 -7.264860e-001 -6.716639e-001 3.542456e-001 -3.796360e-001 3.628429e-001 1.085544e+000 -4.978004e-001 2.238689e-001 -3.391130e-002 1.266491e+000
<VARIANCE> 25
 1.020055e+002 1.056152e+002 1.615300e+002 3.376498e+001 6.006624e+001 5.590831e+001 1.042799e+002 5.846301e+001 9.831628e+001 4.469987e+001 5.794654e+001 4.631918e+001 4.498339e+000 8.936189e+000 6.697794e+000 6.516787e+000 5.438843e+000 5.253503e+000 9.008365e+000 6.063426e+000 1.053430e+001 5.545617e+000 7.204664e+000 3.265297e+000 6.437171e+000
<GCONST> 1.208644e+002
<STATE> 4
<MEAN> 25
 1.048781e+001 -8.112632e+000 1.814855e+000 -9.657571e+000 -1.095609e+001 1.648426e+000 -5.626118e-001 4.467703e+000 1.209760e+001 -3.105492e+000 -7.460405e-001 2.905082e+000 1.034683e-002 2.440581e-001 -1.938903e-003 1.507071e-001 -1.432915e-002 -2.647644e-001 2.760301e-001 -7.355091e-002 -1.117933e-001 -2.362445e-002 -4.012346e-001 -2.665494e-001 -7.212549e-002
<VARIANCE> 25
 1.351735e+001 8.133340e+001 7.044106e+001 7.094830e+001 2.824952e+001 3.019057e+001 3.178629e+001 3.161335e+001 6.518623e+001 2.219394e+001 2.552226e+001 2.063095e+001 8.347531e-001 3.487852e+000 2.526190e+000 2.609102e+000 2.845892e+000 2.189947e+000 2.763788e+000 2.846181e+000 4.766695e+000 1.924740e+000 2.023701e+000 1.480760e+000 2.012204e+000
<GCONST> 9.953069e+001
<TRANSP> 5
 0.000000e+000 1.000000e+000 0.000000e+000 0.000000e+000 0.000000e+000
 0.000000e+000 7.209634e-001 2.790366e-001 0.000000e+000 0.000000e+000
 0.000000e+000 0.000000e+000 8.263572e-001 1.736428e-001 0.000000e+000
 0.000000e+000 0.000000e+000 0.000000e+000 9.421914e-001 5.780866e-002
 0.000000e+000 0.000000e+000 0.000000e+000 0.000000e+000 0.000000e+000
<ENDHMM>
~h "ay"
<BEGINHMM>
<NUMSTATES> 5
<STATE> 2
<MEAN> 25
 4.201693e+000 -8.887664e-001 2.447759e-002 4.377298e+000 -2.183053e+000 2.804351e+000 -5.039468e+000 -7.053111e+000 3.161919e+000 2.676738e+000 2.743878e+000 -1.177520e+000 -1.717210e-001 9.842989e-001 -8.682536e-001 8.487228e-001 -4.803828e-001 3.164437e-001 3.755029e-001 -6.419889e-001 6.977483e-001 -5.691167e-001 4.962517e-002 2.360639e-001 -1.071500e+000
<VARIANCE> 25
 5.358252e+001 8.601187e+001 7.075213e+001 8.440899e+001 5.505811e+001 5.530688e+001 5.664468e+001 5.366066e+001 6.591089e+001 5.984530e+001 4.133831e+001 3.769117e+001 1.437736e+000 3.273190e+000 6.683705e+000 4.593379e+000 4.195864e+000 6.063988e+000 3.037344e+000 4.676620e+000 6.144076e+000 5.511454e+000 3.958629e+000 2.169729e+000 1.627044e+000
<GCONST> 1.117723e+002
<STATE> 3
<MEAN> 25
 -1.255968e+000 9.589878e+000 -1.033918e+001 1.080744e+001 -1.129523e+000 1.313419e+000 7.023755e+000 -2.342538e+000 5.619807e+000 -5.309505e+000 -2.816889e-001 1.975074e+000 -1.748534e-002 5.472934e-001 -6.996529e-001 3.662523e-001 4.014172e-001 -5.584365e-001 9.091530e-001 1.635151e-001 -2.890197e-001 2.105327e-001 -6.545807e-001 2.238031e-001 -4.013005e-001
<VARIANCE> 25
 5.508342e+001 9.031522e+001 4.513758e+001 8.236575e+001 2.634094e+001 4.596893e+001 9.661597e+001 6.775359e+001 5.225878e+001 9.320573e+001 3.988054e+001 3.156509e+001 9.519700e-001 1.599645e+000 4.013110e+000 3.225809e+000 1.878426e+000 5.406044e+000 3.893816e+000 2.322438e+000 3.690609e+000 6.396998e+000 2.373834e+000 2.990382e+000 6.895807e-001
<GCONST> 1.064458e+002
<STATE> 4
<MEAN> 25
 1.529703e+000 1.356959e+001 -9.673385e+000 1.052898e+001 -1.691241e-001 8.755420e-001 6.252617e+000 -2.892222e+000 6.084903e+000 7.035769e-001 -2.508687e+000 -8.456507e-001 4.122151e-001 -7.639392e-001 1.377995e+000 -1.437686e+000 1.030799e-001 6.712304e-002 -1.064041e+000 3.303480e-001 -4.461597e-001 7.300440e-001 6.006471e-002 -1.575334e-001 1.307165e+000
<VARIANCE> 25
 5.929592e+001 1.008929e+002 1.340365e+002 1.196522e+002 5.755884e+001 7.743315e+001 1.772065e+002 6.184985e+001 1.042196e+002 7.411354e+001 4.218581e+001 4.060568e+001 5.299329e+000 7.150988e+000 6.251168e+000 1.056767e+001 5.087629e+000 7.500316e+000 1.121506e+001 7.089092e+000 1.170996e+001 7.164153e+000 4.803009e+000 4.570930e+000 4.359058e+000
<GCONST> 1.232623e+002
<TRANSP> 5
 0.000000e+000 1.000000e+000 0.000000e+000 0.000000e+000 0.000000e+000
 0.000000e+000 8.074775e-001 1.925225e-001 0.000000e+000 0.000000e+000
 0.000000e+000 0.000000e+000 6.758097e-001 3.241903e-001 0.000000e+000
 0.000000e+000 0.000000e+000 0.000000e+000 8.162773e-001 1.837227e-001
 0.000000e+000 0.000000e+000 0.000000e+000 0.000000e+000 0.000000e+000
<ENDHMM>
~h "ch"
<BEGINHMM>
<NUMSTATES> 5
<STATE> 2
<MEAN> 25
 -4.244299e+000 7.553536e+000 -1.294767e+001 9.683621e+000 2.379394e+000 -4.025582e+000 9.933765e+000 -5.876181e-001 -4.201046e+000 3.291827e+000 1.331337e+000 -4.515565e+000 1.683575e-003 -2.320166e-001 -1.356647e-001 9.159288e-002 -2.444867e-001 3.418704e-002 5.096126e-002 -2.784453e-001 1.923393e-001 -1.685680e-001 -7.259714e-002 4.873373e-002 4.736947e-002
<VARIANCE> 25
 8.450113e+000 5.006482e+001 9.437432e+001 3.414832e+001 5.214684e+001 2.699382e+001 6.200962e+001 6.675403e+001 4.581242e+001 4.738902e+001 5.111091e+001 2.929662e+001 8.453597e-001 3.009392e+000 3.476936e+000 5.005476e+000 7.374529e+000 3.367906e+000 7.006580e+000 8.181426e+000 5.736213e+000 6.200600e+000 5.149985e+000 3.645556e+000 6.754510e-001
<GCONST> 1.078078e+002
<STATE> 3
<MEAN> 25
 -4.493338e+000 -7.915089e-001 4.719151e+000 3.491599e+000 3.044038e+000 -3.618067e+000 4.741969e+000 2.501501e+000 -5.268656e+000 3.134142e+000 -4.148199e+000 -3.933570e+000 -1.192546e+000 -2.397320e+000 2.171981e+000 -1.291898e+000 2.772762e-001 -1.206694e+000 5.740342e-001 1.299081e+000 -2.609048e-001 -2.530085e-001 -4.067765e-001 1.272203e+000 1.502178e+000
<VARIANCE> 25
 8.627978e+000 1.571883e+002 1.303623e+002 6.960841e+001 5.020693e+001 3.944707e+001 6.378240e+001 3.379181e+001 3.445541e+001 8.528947e+001 2.335290e+001 3.940828e+001 2.700073e+000 1.076117e+001 1.432021e+001 7.887295e+000 7.718482e+000 2.508977e+000 8.091059e+000 2.454036e+000 5.142067e+000 5.361947e+000 2.679993e+000 2.962471e+000 4.759295e+000
<GCONST> 1.133467e+002
<STATE> 4
<MEAN> 25
 -8.992422e+000 -2.043030e+001 1.662361e+001 -2.369160e+000 3.133683e+000 -5.718996e-001 -2.514517e+000 4.070502e+000 3.563951e+000 -6.304190e-001 -1.689666e+000 6.017437e+000 1.002313e+000 3.458338e-001 -1.111721e+000 5.462331e-001 1.801909e-001 8.212516e-001 -8.180398e-001 -1.039476e+000 2.679240e-002 -3.238729e-001 3.368980e-001 1.893488e-001 6.270524e-003
<VARIANCE> 25
 3.151413e+001 2.799354e+001 5.531846e+001 2.695866e+001 2.164555e+001 4.452168e+001 5.304564e+001 8.438889e+001 7.017127e+001 5.406196e+001 3.030042e+001 1.455596e+001 5.003020e+000 4.249820e+000 4.462729e+000 3.127688e+000 3.583533e+000 3.484616e+000 3.663156e+000 4.714225e+000 8.062251e+000 3.247692e+000 2.914868e+000 1.518639e+000 1.022350e+000
<GCONST> 1.054858e+002
<TRANSP> 5
 0.000000e+000 1.000000e+000 0.000000e+000 0.000000e+000 0.000000e+000
 0.000000e+000 9.331660e-001 6.683405e-002 0.000000e+000 0.000000e+000
 0.000000e+000 0.000000e+000 8.038835e-001 1.961165e-001 0.000000e+000
 0.000000e+000 0.000000e+000 0.000000e+000 9.082935e-001 9.170654e-002
 0.000000e+000 0.000000e+000 0.000000e+000 0.000000e+000 0.000000e+000
<ENDHMM>
~h "dh"
<BEGINHMM>
<NUMSTATES> 5
<STATE> 2
<MEAN> 25
 7.438591e+000 -8.388139e+000 4.528626e+000 -2.142185e+000 1.162653e+001 -7.102297e-001 -1.349230e+001 -6.758403e+000 -8.989099e+000 3.208534e-001 -4.192450e-001 2.391439e+000 1.027680e+000 5.985538e-001 -2.615736e+000 -1.824317e+000 2.535815e+000 -4.331487e-001 -2.779831e+000 -1.456038e+000 -6.722549e-002 -1.690530e+000 9.887142e-003 1.434225e+000 5.605785e-001
<VARIANCE> 25
 8.474578e+000 4.647062e+001 4.046170e+001 3.173031e+001 4.706935e+001 1.483448e+001 6.163195e+001 2.769319e+001 2.647134e+001 4.581417e+001 2.411502e+001 2.370803e+001 7.273623e-001 2.098249e+000 1.542397e+000 3.412760e+000 4.345085e+000 2.015419e+000 7.431775e+000 2.375795e+000 1.914870e+000 4.720101e+000 4.646276e+000 2.285803e+000 5.488953e-001
<GCONST> 9.760971e+001
<STATE> 3
<MEAN> 25
 9.641253e+000 -1.377346e+000 -2.165083e+000 -1.812655e+001 1.362227e+001 6.453922e+000 -1.555097e+001 -8.500801e+000 -7.970192e+000 -7.767065e+000 3.938421e+000 1.034609e+001 1.846339e-003 9.040074e-001 4.397628e-002 -9.681159e-001 -7.954886e-001 5.272980e-001 5.402164e-001 3.485111e-001 -3.057088e-001 -8.403597e-001 6.242283e-002 2.070196e-001 -3.815174e-001
<VARIANCE> 25
 3.492252e+000 1.919865e+001 1.859945e+001 4.814182e+001 4.940958e+001 4.040085e+001 2.771968e+001 1.468706e+001 2.152837e+001 3.643834e+001 2.601495e+001 2.063961e+001 1.296422e-001 4.078376e-001 5.223982e-001 2.575216e+000 1.488892e+000 3.068740e+000 2.284697e+000 1.295252e+000 2.570585e+000 3.185376e+000 2.716617e+000 1.686506e+000 8.296152e-002
<GCONST> 8.460493e+001
<STATE> 4
<MEAN> 25
 -2.007798e-001 4.142503e+000 -4.065413e+000 5.811390e-001 -6.290498e-001 1.426892e+000 -4.002712e+000 -1.837666e+000 -3.101364e+000 -6.546996e+000 3.503378e+000 -6.832402e-001 -5.518444e-001 6.148706e-002 -6.848103e-002 8.629929e-001 -7.191917e-001 -1.037227e-001 8.185814e-001 2.094015e-001 5.041180e-001 2.197917e-001 -3.901807e-001 -4.328748e-001 -7.234617e-001
<VARIANCE> 25
 5.511067e+001 1.693731e+001 3.591247e+001 9.070863e+001 8.329851e+001 3.330495e+001 6.566580e+001 4.339051e+001 6.430219e+001 2.691943e+001 8.701660e+001 4.647657e+001 3.952406e-001 7.915933e-001 1.779073e+000 3.684410e+000 2.367078e+000 2.775216e+000 3.443819e+000 4.035160e+000 3.735358e+000 2.614656e+000 4.722665e+000 2.457180e+000 4.113562e-001
<GCONST> 1.015933e+002
<TRANSP> 5
 0.000000e+000 1.000000e+000 0.000000e+000 0.000000e+000 0.000000e+000
 0.000000e+000 7.709125e-001 2.290875e-001 0.000000e+000 0.000000e+000
 0.000000e+000 0.000000e+000 8.718910e-001 1.281091e-001 0.000000e+000
 0.000000e+000 0.000000e+000 0.000000e+000 9.224575e-001 7.754254e-002
 0.000000e+000 0.000000e+000 0.000000e+000 0.000000e+000 0.000000e+000
<ENDHMM>
~h "eh"
<BEGINHMM>
<NUMSTATES> 5
<STATE> 2
<MEAN> 25
 8.217994e+000 -6.583752e+000 6.063501e+000 -4.232530e+000 3.782327e+000 1.032137e+000 -8.013828e+000 -5.909686e+000 -2.795623e+000 5.663510e+000 2.353403e+000 3.490360e+000 1.179871e+000 -6.440601e-001 -3.831469e-001 -1.609256e-001 2.488841e-001 -7.393379e-001 -1.258486e+000 -1.553349e+000 1.309899e-001 7.310752e-001 4.158508e-001 1.110537e+000 1.282763e+000
<VARIANCE> 25
 1.444247e+001 5.893510e+001 3.550106e+001 5.954014e+001 4.920600e+001 4.717002e+001 3.565334e+001 4.869728e+001 5.747821e+001 4.379326e+001 2.499435e+001 3.660145e+001 5.035840e+000 5.130437e+000 2.867114e+000 4.221241e+000 1.503765e+000 3.719709e+000 4.849217e+000 2.934695e+000 3.742035e+000 4.329355e+000 2.826551e+000 1.791560e+000 3.849412e+000
<GCONST> 1.060860e+002
<STATE> 3
<MEAN> 25
 6.997975e+000 -4.462636e+000 7.793244e+000 1.216417e-001 7.503967e+000 -1.600347e-001 -6.827782e+000 -4.196660e+000 -2.554514e+000 7.105554e+000 8.686390e-001 1.853484e+000 -5.557695e-001 -8.898845e-001 6.972181e-001 -8.648279e-002 -1.324900e-001 -2.692544e-001 4.104982e-001 4.415893e-001 1.358584e-001 8.270113e-001 -8.768629e-002 -1.459969e-001 2.555232e-001
<VARIANCE> 25
 1.825366e+001 5.950795e+001 5.272607e+001 6.409254e+001 4.422864e+001 5.422642e+001 4.581998e+001 4.675303e+001 4.279857e+001 4.717274e+001 3.616936e+001 3.805006e+001 1.744159e+000 8.086699e+000 4.600609e+000 7.590150e+000 3.167016e+000 6.024548e+000 5.544789e+000 3.988072e+000 5.130275e+000 6.931218e+000 4.548642e+000 3.818155e+000 4.800189e+000
<GCONST> 1.115912e+002
<STATE> 4
<MEAN> 25
 6.757483e+000 -1.108173e+001 6.887148e+000 -5.102324e+000 4.549180e+000 -1.550096e+000 -7.717300e+000 -4.279235e+000 -1.515544e+000 8.342575e+000 1.505233e+000 3.689088e+000 -9.504216e-002 2.344429e-001 -3.709050e-001 2.149207e-001 -2.672770e-001 3.235983e-001 -3.084742e-002 -1.733434e-001 1.161649e-001 -4.445524e-001 1.701080e-001 -1.820443e-001 -4.114910e-001
<VARIANCE> 25
 4.175637e+001 5.564392e+001 4.698748e+001 6.112029e+001 2.865247e+001 4.246623e+001 2.627269e+001 2.810707e+001 5.521019e+001 4.055921e+001 3.062728e+001 3.934795e+001 1.403964e+000 3.321584e+000 2.850548e+000 2.530928e+000 2.105736e+000 2.771374e+000 3.185866e+000 2.606908e+000 4.156120e+000 3.365495e+000 2.212595e+000 1.680326e+000 1.291344e+000
<GCONST> 1.017810e+002
<TRANSP> 5
 0.000000e+000 1.000000e+000 0.000000e+000 0.000000e+000 0.000000e+000
 0.000000e+000 5.640202e-001 4.359798e-001 0.000000e+000 0.000000e+000
 0.000000e+000 0.000000e+000 6.134557e-001 3.865443e-001 0.000000e+000
 0.000000e+000 0.000000e+000 0.000000e+000 8.232766e-001 1.767233e-001
 0.000000e+000 0.000000e+000 0.000000e+000 0.000000e+000 0.000000e+000
<ENDHMM>
~h "er"
<BEGINHMM>
<NUMSTATES> 5
<STATE> 2
<MEAN> 25
 8.616681e+000 3.954388e+000 -3.035143e+000 -7.407342e+000 7.932185e+000 8.088518e+000 -3.633907e+000 -3.069206e+000 -4.549655e+000 -5.782276e+000 2.625702e+000 6.649537e+000 5.949153e-001 8.842494e-001 -1.230999e+000 -3.870802e-001 3.231672e-001 4.552632e-001 1.421797e-001 -4.794972e-001 -1.961499e-001 -4.967205e-001 3.053231e-001 1.920452e-001 -1.910241e-001
<VARIANCE> 25
 3.700333e+001 7.844655e+001 1.212008e+002 1.853911e+002 7.056952e+001 7.712699e+001 1.264781e+002 5.872961e+001 9.541685e+001 5.654874e+001 3.645048e+001 4.521049e+001 2.702594e+000 2.725495e+000 5.651766e+000 8.682052e+000 4.764589e+000 5.264703e+000 5.318240e+000 5.889542e+000 6.291489e+000 5.939997e+000 3.657524e+000 2.432740e+000 1.664374e+000
<GCONST> 1.163288e+002
<STATE> 3
<MEAN> 25
 7.641812e+000 9.073028e-002 -3.229960e+000 -6.650267e+000 3.184937e+000 4.352584e+000 -5.115163e+000 -3.153872e+000 -3.806863e+000 -4.829040e+000 9.135144e-001 4.430633e+000 1.510034e+000 -3.889829e-001 5.322655e-001 -2.185090e+000 1.150438e+000 2.923443e-002 -1.506476e+000 2.646864e-001 -5.682185e-001 -1.841010e-001 2.123332e-001 9.856486e-001 2.034034e+000
<VARIANCE> 25
 6.058023e+001 6.331807e+001 7.554971e+001 1.394236e+002 8.355197e+001 8.078758e+001 1.251615e+002 9.471169e+001 9.920228e+001 8.434460e+001 3.103598e+001 2.525992e+001 6.318263e+000 1.127108e+001 1.081445e+001 7.976779e+000 4.653870e+000 4.865071e+000 3.334244e+000 3.122754e+000 4.467869e+000 5.057706e+000 3.339479e+000 2.405327e+000 4.753414e+000
<GCONST> 1.183016e+002
<STATE> 4
<MEAN> 25
 1.005558e+001 1.913086e+000 -3.078409e+000 -1.386024e+001 8.464961e+000 8.512465e+000 -1.101410e+001 -3.600504e+000 -5.760891e+000 -8.061840e+000 4.124842e+000 5.442476e+000 -3.333932e-001 2.013295e-001 -1.037179e-001 5.522974e-001 -9.510690e-002 -1.797821e-001 1.924051e-001 8.514889e-002 1.867888e-001 8.757886e-002 8.272488e-002 -1.123085e-001 -4.874209e-001
<VARIANCE> 25
 1.830905e+001 4.355264e+001 4.587862e+001 1.043234e+002 7.732298e+001 7.313787e+001 5.986047e+001 5.229496e+001 6.625226e+001 5.514634e+001 3.620753e+001 3.675002e+001 3.691063e-001 1.496711e+000 1.607489e+000 4.001681e+000 2.905177e+000 3.108493e+000 2.384633e+000 2.820382e+000 2.986501e+000 3.109444e+000 1.937651e+000 2.685015e+000 7.530214e-001
<GCONST> 1.021565e+002
<TRANSP> 5
 0.000000e+000 1.000000e+000 0.000000e+000 0.000000e+000 0.000000e+000
 0.000000e+000 6.511123e-001 3.488877e-001 0.000000e+000 0.000000e+000
 0.000000e+000 0.000000e+000 4.717287e-001 5.282713e-001 0.000000e+000
 0.000000e+000 0.000000e+000 0.000000e+000 9.312807e-001 6.871937e-002
 0.000000e+000 0.000000e+000 0.000000e+000 0.000000e+000 0.000000e+000
<ENDHMM>
~h "ey"
<BEGINHMM>
<NUMSTATES> 5
<STATE> 2
<MEAN> 25
 6.585110e+000 -1.201810e+001 1.139073e+001 2.383813e+000 9.902828e+000 -1.077412e+001 -1.721648e+001 -1.272123e+000 -9.660608e-002 6.276594e+000 -3.206147e+000 -3.147155e+000 -1.594580e-001 1.534125e-001 3.903402e-001 5.566682e-001 1.956733e-001 -2.962875e-001 -3.848372e-001 1.677372e-001 8.606669e-002 -2.790200e-001 -3.651253e-001 -2.959457e-001 -1.762579e-001
<VARIANCE> 25
 7.249184e+000 1.323317e+001 3.714506e+001 3.720454e+001 2.787396e+001 2.778536e+001 3.583529e+001 3.315245e+001 3.170663e+001 4.886145e+001 2.586705e+001 2.267196e+001 2.158604e-001 5.976130e-001 7.529383e-001 7.095420e-001 1.078558e+000 1.934084e+000 1.609231e+000 1.553931e+000 1.712615e+000 1.775861e+000 1.385710e+000 1.172293e+000 2.242894e-001
<GCONST> 8.427329e+001
<STATE> 3
<MEAN> 25
 5.129462e+000 -2.410470e+000 8.975752e+000 6.733185e+000 9.325798e+000 -4.407884e+000 -1.493888e+001 -1.905004e+000 -5.643561e-001 1.842844e+000 -2.939376e+000 -4.409208e+000 6.147359e-002 1.471453e+000 -1.138178e+000 8.147071e-001 -1.044111e+000 1.277330e+000 1.197147e+000 -4.664167e-001 6.767598e-001 -5.959460e-001 6.711605e-001 3.859105e-001 -1.408677e+000
<VARIANCE> 25
 1.101855e+001 5.062653e+001 5.985999e+001 5.021624e+001 5.497769e+001 4.428910e+001 5.788184e+001 2.963235e+001 4.588657e+001 4.708983e+001 3.394060e+001 2.574542e+001 4.121697e-001 1.529127e+000 1.632222e+000 2.745176e+000 3.205627e+000 2.834245e+000 2.246749e+000 1.752241e+000 3.644889e+000 3.252436e+000 1.560645e+000 1.863585e+000 7.968733e-001
<GCONST> 9.790386e+001
<STATE> 4
<MEAN> 25
 5.281734e+000 5.879078e+000 -2.687875e+000 2.029031e+001 6.789033e-001 -6.075328e+000 -4.263967e+000 -8.641650e+000 4.522991e+000 -2.079153e+000 -7.228447e+000 -4.273660e+000 -4.077086e-001 2.065196e-001 -7.827700e-001 -9.288917e-002 -5.181912e-001 4.935055e-002 1.166472e+000 -2.866385e-002 -4.783740e-002 -1.056096e-001 -1.796298e-001 1.847779e-001 -6.168640e-001
<VARIANCE> 25
 3.237666e+001 8.400388e+001 1.292883e+002 1.500488e+002 5.701172e+001 7.106377e+001 8.874306e+001 6.403741e+001 5.393853e+001 6.153845e+001 7.705496e+001 2.821688e+001 1.106302e+000 6.389706e+000 4.120703e+000 7.727905e+000 3.931897e+000 6.458603e+000 4.731799e+000 4.144574e+000 6.400141e+000 5.087783e+000 4.292763e+000 2.680192e+000 2.396363e+000
<GCONST> 1.148994e+002
<TRANSP> 5
 0.000000e+000 1.000000e+000 0.000000e+000 0.000000e+000 0.000000e+000
 0.000000e+000 9.250395e-001 7.496055e-002 0.000000e+000 0.000000e+000
 0.000000e+000 0.000000e+000 7.532643e-001 2.467357e-001 0.000000e+000
 0.000000e+000 0.000000e+000 0.000000e+000 7.852914e-001 2.147087e-001
 0.000000e+000 0.000000e+000 0.000000e+000 0.000000e+000 0.000000e+000
<ENDHMM>
~h "hh"
<BEGINHMM>
<NUMSTATES> 5
<STATE> 2
<MEAN> 25
 -8.340345e-002 -9.527736e+000 -3.151554e-001 -4.178137e+000 1.726338e+000 7.272287e+000 -3.018396e+000 3.676985e+000 6.794326e+000 6.512815e+000 2.655800e+000 9.266882e-001 1.285358e+000 1.541354e-001 9.417474e-001 -1.058975e+000 6.334283e-001 1.935407e-001 -7.347980e-001 1.528479e-001 2.570240e-001 1.579495e-001 -4.167114e-001 1.866535e-001 1.508324e+000
<VARIANCE> 25
 3.282974e+001 5.325989e+001 6.930582e+001 3.980139e+001 1.164080e+002 3.764161e+001 5.774285e+001 3.771733e+001 6.456762e+001 6.060843e+001 5.227722e+001 2.057599e+001 2.608682e+000 4.406933e+000 3.891788e+000 3.490705e+000 8.135206e+000 3.203173e+000 3.120669e+000 4.027836e+000 4.411231e+000 2.462549e+000 4.216734e+000 2.169584e+000 2.609928e+000
<GCONST> 1.090609e+002
<STATE> 3
<MEAN> 25
 1.085374e+001 -1.009406e+001 3.746213e+000 -1.175590e+001 1.858507e+000 6.208208e+000 -4.289869e+000 5.041105e+000 6.188331e+000 1.093345e+000 8.032969e-001 1.866459e+000 1.870201e-001 -3.869945e-001 -2.863184e-001 4.275883e-002 -8.187141e-001 -4.927224e-001 1.466343e-001 5.217626e-001 3.256777e-001 -7.337549e-001 1.391417e-001 -1.347695e-001 1.824098e-001
<VARIANCE> 25
 6.388939e+000 3.297813e+001 1.426494e+001 4.189293e+001 3.397080e+001 1.949988e+001 4.702614e+001 5.815591e+001 8.303506e+001 2.358439e+001 1.925093e+001 2.375623e+001 4.109024e-001 9.169878e-001 7.504238e-001 2.236744e+000 2.621561e+000 1.733459e+000 2.333889e+000 2.239009e+000 2.274202e+000 2.178741e+000 1.547466e+000 1.551013e+000 5.949367e-001
<GCONST> 9.047116e+001
<STATE> 4
<MEAN> 25
 1.166353e+001 -2.092284e+000 3.216675e+000 -6.420998e+000 -1.281922e-001 -3.176054e-001 -4.528758e+000 5.788886e+000 -7.300794e-001 -7.285494e+000 9.605448e-001 -7.185847e-001 -1.736455e-001 7.076608e-001 3.232141e-003 7.987540e-001 -2.265540e-002 -1.124305e-001 3.899315e-002 -3.203115e-001 -3.231291e-001 1.047283e-001 1.364514e-001 -2.246204e-001 -6.713689e-001
<VARIANCE> 25
 6.898141e+000 5.119206e+001 2.397065e+001 4.236896e+001 1.147460e+002 4.662275e+001 4.122922e+001 3.984090e+001 2.126924e+002 2.533400e+001 2.659684e+001 5.089223e+001 1.847326e-001 1.543709e+000 1.453191e+000 2.846960e+000 3.266340e+000 2.327661e+000 2.502909e+000 2.736282e+000 4.518642e+000 2.421119e+000 2.066068e+000 2.029491e+000 8.104641e-001
<GCONST> 9.826202e+001
<TRANSP> 5
 0.000000e+000 1.000000e+000 0.000000e+000 0.000000e+000 0.000000e+000
 0.000000e+000 8.694217e-001 1.305783e-001 0.000000e+000 0.000000e+000
 0.000000e+000 0.000000e+000 8.667294e-001 1.332707e-001 0.000000e+000
 0.000000e+000 0.000000e+000 0.000000e+000 8.946311e-001 1.053689e-001
 0.000000e+000 0.000000e+000 0.000000e+000 0.000000e+000 0.000000e+000
<ENDHMM>
~h "ih"
<BEGINHMM>
<NUMSTATES> 5
<STATE> 2
<MEAN> 25
 4.130975e+000 6.499534e-001 8.687609e+000 5.254954e+000 6.627857e+000 1.586355e+000 -5.003888e+000 -1.356368e+000 -1.605952e+000 3.533169e+000 -1.745736e+000 -3.523280e+000 2.198694e+000 -9.959196e-002 1.352790e+000 1.198021e+000 2.600041e+000 -1.513659e+000 -3.509436e+000 -1.181189e+000 -1.383785e+000 3.170036e-001 -1.302854e-001 -1.411875e-001 2.182955e+000
<VARIANCE> 25
 6.252425e+001 1.300813e+002 8.058096e+001 6.167621e+001 6.938460e+001 6.017928e+001 1.069316e+002 6.244035e+001 6.917888e+001 4.878276e+001 3.028616e+001 2.665405e+001 7.018268e+000 1.713697e+001 5.576346e+000 8.095899e+000 4.808464e+000 8.830971e+000 9.643772e+000 6.426958e+000 5.953458e+000 5.895710e+000 3.353101e+000 2.816156e+000 2.897158e+000
<GCONST> 1.187652e+002
<STATE> 3
<MEAN> 25
 7.065872e+000 -7.883089e+000 1.244093e+001 7.619576e+000 1.536226e+001 -7.674830e+000 -1.646941e+001 -3.399775e+000 -7.160310e+000 4.475665e+000 -7.395570e-001 -5.080564e+000 8.301734e-003 -3.765581e-001 3.160573e-002 2.274411e-001 5.497148e-001 -1.024234e+000 -8.080169e-001 3.615484e-001 -1.054987e-001 3.704298e-001 1.941728e-002 -6.400352e-001 2.630112e-001
<VARIANCE> 25
 7.754030e+000 4.717020e+001 3.201075e+001 5.140394e+001 3.832768e+001 5.962279e+001 5.010464e+001 6.187097e+001 5.871840e+001 2.762892e+001 2.294732e+001 2.861322e+001 5.659879e-001 2.210618e+000 1.967044e+000 2.489893e+000 2.403282e+000 3.413348e+000 3.402225e+000 3.088409e+000 2.871539e+000 2.246733e+000 1.742777e+000 2.076607e+000 1.043428e+000
<GCONST> 9.836928e+001
<STATE> 4
<MEAN> 25
 6.350498e+000 -1.429997e+000 8.891088e+000 7.580064e+000 1.116829e+001 -1.449482e+000 -1.357184e+001 -1.375937e+000 -3.453921e+000 2.757149e+000 -6.589077e-001 -6.889525e+000 -1.879650e-001 1.022427e+000 -5.879581e-001 3.818186e-001 -1.038861e+000 1.045376e+000 9.504018e-001 -2.464290e-001 7.843271e-001 -7.232974e-001 -3.072413e-002 2.425174e-001 -1.090378e+000
<VARIANCE> 25
 1.647974e+001 4.606957e+001 3.890431e+001 7.762221e+001 4.676078e+001 6.071151e+001 3.182991e+001 7.517046e+001 6.371575e+001 5.545454e+001 4.451175e+001 4.309954e+001 5.894289e-001 1.896778e+000 2.192821e+000 4.247831e+000 3.180472e+000 2.804340e+000 3.058643e+000 3.822067e+000 4.448917e+000 3.121241e+000 3.182050e+000 2.543482e+000 1.199745e+000
<GCONST> 1.039469e+002
<TRANSP> 5
 0.000000e+000 1.000000e+000 0.000000e+000 0.000000e+000 0.000000e+000
 0.000000e+000 6.595228e-001 3.404772e-001 0.000000e+000 0.000000e+000
 0.000000e+000 0.000000e+000 7.980314e-001 2.019686e-001 0.000000e+000
 0.000000e+000 0.000000e+000 0.000000e+000 8.700790e-001 1.299210e-001
 0.000000e+000 0.000000e+000 0.000000e+000 0.000000e+000 0.000000e+000
<ENDHMM>
~h "iy"
<BEGINHMM>
<NUMSTATES> 5
<STATE> 2
<MEAN> 25
 3.626093e+000 -6.418409e+000 1.389053e+001 7.049375e+000 1.284448e+001 -9.504332e-001 -1.076122e+001 -2.932275e+000 -6.995828e+000 2.164240e+000 -2.370191e+000 -4.568590e+000 1.416832e+000 -4.260071e-001 4.954537e-002 2.066987e+000 1.711694e+000 -1.883310e+000 -2.576733e+000 -3.200239e-001 -6.558170e-002 7.698604e-002 -9.197400e-002 -6.038074e-001 1.100554e+000
<VARIANCE> 25
 4.303987e+001 4.653227e+001 1.000124e+002 8.796844e+001 4.918255e+001 5.416819e+001 6.039159e+001 5.169870e+001 7.072959e+001 4.906537e+001 3.084422e+001 2.637898e+001 4.376623e+000 7.701430e+000 5.004571e+000 1.141800e+001 5.312502e+000 4.848571e+000 6.822945e+000 5.421229e+000 7.542385e+000 5.308791e+000 3.789419e+000 2.962095e+000 3.328121e+000
<GCONST> 1.151519e+002
<STATE> 3
<MEAN> 25
 5.682926e+000 -1.117737e+001 1.423104e+001 1.349398e+001 1.642834e+001 -1.186912e+001 -1.893602e+001 -2.389677e+000 -5.031943e+000 1.269420e+000 -1.822592e+000 -5.993374e+000 -5.757223e-002 -2.036143e-001 -4.521287e-002 5.885281e-002 2.004608e-001 -5.264853e-001 -1.567558e-001 5.226858e-002 -4.022411e-002 -4.876041e-002 -1.688373e-001 -4.677613e-002 1.318957e-001
<VARIANCE> 25
 7.232364e+000 1.691806e+001 3.976631e+001 3.734990e+001 2.741792e+001 3.004633e+001 2.227852e+001 4.984683e+001 5.399577e+001 2.967023e+001 2.148311e+001 1.615133e+001 3.319098e-001 6.590716e-001 1.574016e+000 1.273639e+000 1.389928e+000 2.279714e+000 2.113061e+000 2.133428e+000 1.943929e+000 1.506861e+000 1.247832e+000 9.310981e-001 2.319683e-001
<GCONST> 8.661053e+001
<STATE> 4
<MEAN> 25
 7.377123e+000 -4.990137e+000 5.669751e+000 4.208706e+000 1.698962e+001 -5.393116e+000 -1.508934e+001 -4.074216e+000 -9.245359e+000 3.759269e+000 -1.523509e+000 -3.746970e+000 1.398972e-001 9.542767e-001 -9.880385e-001 -7.617229e-001 -4.349366e-001 1.061954e+000 6.678543e-001 -6.026347e-002 -6.912822e-002 -3.252200e-001 2.879419e-001 5.386393e-001 -6.794159e-001
<VARIANCE> 25
 1.159791e+001 4.617077e+001 4.788181e+001 8.146929e+001 6.503272e+001 5.846286e+001 2.712278e+001 3.565639e+001 6.595218e+001 4.369096e+001 2.848417e+001 3.409759e+001 3.959240e-001 1.301793e+000 1.704179e+000 4.208011e+000 2.581079e+000 3.640221e+000 2.601021e+000 2.856465e+000 4.038427e+000 3.880943e+000 2.300686e+000 2.547626e+000 6.427539e-001
<GCONST> 1.000926e+002
<TRANSP> 5
 0.000000e+000 1.000000e+000 0.000000e+000 0.000000e+000 0.000000e+000
 0.000000e+000 7.388643e-001 2.611357e-001 0.000000e+000 0.000000e+000
 0.000000e+000 0.000000e+000 8.874773e-001 1.125227e-001 0.000000e+000
 0.000000e+000 0.000000e+000 0.000000e+000 8.910708e-001 1.089292e-001
 0.000000e+000 0.000000e+000 0.000000e+000 0.000000e+000 0.000000e+000
<ENDHMM>
~h "jh"
<BEGINHMM>
<NUMSTATES> 5
<STATE> 2
<MEAN> 25
 2.420372e+000 -2.335282e+000 5.149347e+000 2.228459e+000 2.680851e+000 7.208648e-001 2.637679e+000 3.561777e+000 -5.955340e+000 3.962054e+000 1.724392e+000 -2.843400e+000 -7.455220e-001 -1.759590e+000 1.934649e-001 -5.846167e-001 -1.677104e+000 -5.144032e-001 6.969858e-001 2.684936e-001 -6.350206e-001 1.598063e-001 8.525578e-001 4.211290e-001 2.254665e-001
<VARIANCE> 25
 3.197216e+001 1.755474e+002 9.332883e+001 1.434149e+002 4.014943e+001 4.326429e+001 4.004858e+001 2.216614e+001 1.045109e+002 2.112656e+001 8.086762e+001 2.756831e+001 2.924202e+000 1.014774e+001 1.172431e+001 1.328228e+001 4.686664e+000 6.417057e+000 8.494887e+000 5.301419e+000 8.679482e+000 1.556515e+000 6.465633e+000 2.478893e+000 7.054610e+000
<GCONST> 1.167204e+002
<STATE> 3
<MEAN> 25
 -4.055275e+000 2.048347e+000 -1.793718e+001 1.669796e+000 -7.518939e+000 -4.278449e+000 8.953763e+000 1.373402e-001 3.765496e+000 5.553043e-001 5.483285e+000 5.773270e+000 -3.103091e-001 3.878302e-001 -4.865007e-001 -2.363795e-001 -2.992427e-001 -3.660159e-001 2.973146e-002 -2.813949e-002 8.080453e-002 -4.537935e-001 -2.252828e-001 7.379548e-002 -5.029796e-001
<VARIANCE> 25
 2.035048e+001 7.516959e+001 1.135968e+002 1.301065e+002 3.955745e+001 3.688086e+001 1.105851e+002 4.071064e+001 6.528743e+001 5.434328e+001 7.119537e+001 2.267517e+001 9.746006e-001 2.299928e+000 8.190351e+000 6.759401e+000 3.275656e+000 4.167068e+000 5.994085e+000 4.061323e+000 8.730568e+000 4.397285e+000 4.249465e+000 3.634115e+000 1.020404e+000
<GCONST> 1.111716e+002
<STATE> 4
<MEAN> 25
 -6.980701e+000 -4.797556e+000 2.735026e+000 -2.145109e+000 7.573814e-001 -1.836587e+000 -3.734090e+000 4.329116e+000 2.938911e+000 6.659055e-001 -6.538061e-001 -1.136305e+000 2.936195e-001 -1.015579e+000 1.009544e+000 3.626739e-001 7.746286e-001 7.050991e-001 -9.676670e-001 -2.905622e-001 3.924316e-001 4.497333e-001 -2.234029e-001 -1.944426e-001 9.278688e-001
<VARIANCE> 25
 6.402238e+001 2.130014e+002 2.895934e+002 8.020608e+001 8.668622e+001 4.574677e+001 5.591756e+001 3.278113e+001 7.951947e+001 3.352326e+001 3.944408e+001 3.363166e+001 4.236192e+000 1.272461e+001 1.105828e+001 4.429333e+000 1.128850e+001 7.103211e+000 9.855600e+000 5.884699e+000 7.973536e+000 3.588868e+000 3.534201e+000 4.496079e+000 2.631655e+000
<GCONST> 1.198089e+002
<TRANSP> 5
 0.000000e+000 1.000000e+000 0.000000e+000 0.000000e+000 0.000000e+000
 0.000000e+000 8.847061e-001 1.152939e-001 0.000000e+000 0.000000e+000
 0.000000e+000 0.000000e+000 9.192396e-001 8.076040e-002 0.000000e+000
 0.000000e+000 0.000000e+000 0.000000e+000 9.010402e-001 9.895983e-002
 0.000000e+000 0.000000e+000 0.000000e+000 0.000000e+000 0.000000e+000
<ENDHMM>
~h "ng"
<BEGINHMM>
<NUMSTATES> 5
<STATE> 2
<MEAN> 25
 8.969576e+000 4.024896e+000 -4.479222e-002 -2.221861e+000 5.718897e+000 2.521904e+000 -4.700660e+000 3.030588e+000 -4.883060e-001 -2.106313e+000 -4.539390e+000 -4.079317e+000 -4.985320e-001 -3.614708e-001 -1.048143e-001 -6.848273e-001 2.217762e-001 -1.599376e-001 4.474451e-001 -2.059551e-001 -1.461630e+000 5.952672e-001 3.387040e-001 5.557731e-002 -7.217473e-002
<VARIANCE> 25
 1.482841e+001 4.560578e+001 2.738989e+001 9.161569e+001 3.531322e+001 4.597402e+001 7.563149e+001 2.340631e+001 1.351193e+002 4.568959e+001 4.506773e+001 1.915225e+001 1.044812e+000 6.799878e+000 2.541972e+000 1.262744e+001 3.459910e+000 4.497610e+000 6.060930e+000 2.345739e+000 1.827330e+001 6.761138e+000 4.423889e+000 1.974704e+000 2.739877e+000
<GCONST> 1.094719e+002
<STATE> 3
<MEAN> 25
 6.950648e-001 -1.812340e+000 -5.602806e+000 -2.277131e+000 3.160451e+000 3.427896e+000 8.497506e-001 -8.996948e-001 -9.104026e+000 -6.541715e-002 4.322175e+000 -2.490798e+000 -4.106816e-001 9.775532e-001 -1.245658e+000 2.083781e+000 -8.519784e-001 9.001596e-001 -1.180899e-002 -6.977342e-001 2.769690e+000 -7.853523e-001 3.694356e-001 2.018136e-001 -1.700714e+000
<VARIANCE> 25
 1.069594e+001 3.289395e+001 7.295013e+001 1.489767e+002 5.413701e+001 3.047917e+001 7.302121e+001 7.052766e+001 1.245704e+002 2.517537e+001 8.590629e+001 2.875440e+001 1.046757e+000 3.220840e+000 2.500283e+000 6.390329e+000 3.434133e+000 2.765041e+000 4.094128e+000 4.898904e+000 6.794804e+000 3.973900e+000 3.335426e+000 3.126761e+000 1.368970e+000
<GCONST> 1.081122e+002
<STATE> 4
<MEAN> 25
 -7.650659e+000 5.762253e+000 -1.054278e+001 3.021187e+000 -5.148044e+000 5.626962e+000 3.853556e+000 -3.994401e+000 4.076430e+000 -6.107743e+000 4.990095e-001 7.643019e-001 -4.749447e-001 7.005090e-002 -9.791060e-002 -4.338542e-002 -3.166269e-001 -3.259867e-001 8.767692e-002 7.254127e-002 9.997875e-002 -1.832981e-001 -1.705842e-001 9.333702e-002 -4.305786e-001
<VARIANCE> 25
 2.749235e+001 3.510972e+001 8.165403e+001 3.585061e+001 5.636940e+001 5.426678e+001 6.128131e+001 5.393682e+001 4.461898e+001 5.972073e+001 6.150214e+001 3.766793e+001 9.247354e-001 1.455264e+000 3.381251e+000 3.244412e+000 4.437736e+000 3.971344e+000 4.679121e+000 5.082406e+000 4.290406e+000 5.516091e+000 6.085313e+000 3.890834e+000 5.525675e-001
<GCONST> 1.070316e+002
<TRANSP> 5
 0.000000e+000 1.000000e+000 0.000000e+000 0.000000e+000 0.000000e+000
 0.000000e+000 9.136267e-001 8.637321e-002 0.000000e+000 0.000000e+000
 0.000000e+000 0.000000e+000 8.663203e-001 1.336797e-001 0.000000e+000
 0.000000e+000 0.000000e+000 0.000000e+000 9.426144e-001 5.738564e-002
 0.000000e+000 0.000000e+000 0.000000e+000 0.000000e+000 0.000000e+000
<ENDHMM>
~h "ow"
<BEGINHMM>
<NUMSTATES> 5
<STATE> 2
<MEAN> 25
 1.166903e+001 1.984139e+000 4.346726e+000 -1.104201e+001 -3.874540e+000 -8.831006e+000 -7.164813e+000 9.613748e+000 3.715262e-001 -2.983415e+000 9.422548e-001 -1.436884e+000 -4.381816e-002 4.276197e-001 -3.742838e-002 1.724315e-001 3.953468e-002 -1.452005e-001 7.438344e-002 1.958754e-001 -3.424586e-002 1.308094e-001 1.083612e-002 -2.198344e-001 -2.887951e-001
<VARIANCE> 25
 3.444380e+000 3.268095e+001 2.888461e+001 2.838136e+001 5.726410e+001 4.168575e+001 2.479425e+001 3.904686e+001 5.179713e+001 2.498793e+001 2.040672e+001 2.568475e+001 1.134699e-001 6.536758e-001 6.619149e-001 1.153403e+000 1.203931e+000 1.992046e+000 1.097741e+000 1.559116e+000 1.621680e+000 1.328920e+000 1.246598e+000 1.216234e+000 2.564164e-001
<GCONST> 8.382412e+001
<STATE> 3
<MEAN> 25
 6.750525e+000 1.491971e+001 -4.135909e-001 1.011096e+000 -5.521080e+000 -5.725420e-001 -9.331912e-001 2.540470e+000 2.223924e+000 -5.067647e+000 -7.077795e-001 -3.528272e+000 -5.514635e-001 1.285425e-001 -7.005785e-001 9.836426e-001 -4.250784e-001 8.010678e-001 7.985249e-001 -1.131595e+000 2.106931e-001 -4.669787e-001 -1.296371e-001 3.080995e-001 -9.491305e-001
<VARIANCE> 25
 2.033278e+001 7.270090e+001 6.904023e+001 5.457631e+001 8.583633e+001 5.269195e+001 6.357030e+001 1.235453e+002 6.422319e+001 4.316940e+001 3.341264e+001 3.350713e+001 3.784794e-001 2.063566e+000 2.658880e+000 3.413163e+000 4.007261e+000 4.773025e+000 4.110363e+000 4.769063e+000 4.026096e+000 4.093793e+000 3.752999e+000 2.826460e+000 5.908488e-001
<GCONST> 1.063364e+002
<STATE> 4
<MEAN> 25
 -8.944077e+000 1.580380e+000 -1.228716e+001 -1.920259e+000 -1.183102e+001 2.567292e+000 3.292937e+000 -2.178905e+000 5.573016e+000 -4.041844e+000 7.078326e-001 2.162980e+000 -4.087100e-001 -3.214898e-001 -1.955115e-001 -3.947001e-002 1.239625e-001 1.267161e-001 3.333629e-002 -1.581732e-002 9.139501e-002 2.629896e-001 1.829799e-001 5.492673e-002 -2.141138e-001
<VARIANCE> 25
 5.030001e+001 6.820644e+001 1.205126e+002 5.997033e+001 5.781694e+001 6.425936e+001 5.430108e+001 4.253970e+001 8.390225e+001 4.987004e+001 4.453526e+001 4.667671e+001 1.153746e+000 3.542890e+000 6.347899e+000 4.806507e+000 5.430824e+000 4.767099e+000 4.253060e+000 5.102946e+000 6.238707e+000 4.276651e+000 4.775169e+000 4.839717e+000 1.017384e+000
<GCONST> 1.125157e+002
<TRANSP> 5
 0.000000e+000 1.000000e+000 0.000000e+000 0.000000e+000 0.000000e+000
 0.000000e+000 9.562665e-001 4.373351e-002 0.000000e+000 0.000000e+000
 0.000000e+000 0.000000e+000 8.923557e-001 1.076443e-001 0.000000e+000
 0.000000e+000 0.000000e+000 0.000000e+000 9.301172e-001 6.988278e-002
 0.000000e+000 0.000000e+000 0.000000e+000 0.000000e+000 0.000000e+000
<ENDHMM>
~h "oy"
<BEGINHMM>
<NUMSTATES> 5
<STATE> 2
<MEAN> 25
 1.455604e+001 -5.931187e+000 3.208944e+000 -1.267125e+001 -4.084507e+000 -7.066025e+000 -1.006618e+001 6.324154e+000 1.543464e+000 -5.128657e+000 3.370794e+000 2.013124e+000 -3.976332e-003 -6.803959e-001 -3.558891e-001 -3.278089e-001 4.773643e-001 5.816357e-001 5.824686e-001 -1.748967e-001 -6.189498e-001 -1.686219e-001 3.329691e-001 8.747722e-002 4.061305e-001
<VARIANCE> 25
 1.669737e+000 2.326342e+001 1.002937e+001 1.155532e+001 1.525169e+001 6.676024e+001 2.625690e+001 2.256394e+001 5.278648e+001 1.673988e+001 3.186680e+001 1.622285e+001 2.389295e-001 1.116121e+000 1.109639e+000 1.677688e+000 1.951773e+000 5.206364e+000 2.728935e+000 2.996348e+000 4.446275e+000 1.506020e+000 2.446029e+000 3.016229e+000 5.321208e-001
<GCONST> 8.769003e+001
<STATE> 3
<MEAN> 25
 1.233048e+001 -1.026251e+001 1.543541e+000 -7.616029e+000 1.215518e+001 -1.945905e+000 -1.111000e+001 -7.685214e+000 -1.027128e+001 8.409600e-001 1.272440e+000 7.102530e+000 -5.951310e-001 1.828365e-001 8.770965e-001 1.180508e+000 1.638687e+000 -9.189535e-001 -9.708003e-001 -1.550174e+000 -4.484431e-001 2.253768e+000 -1.572620e+000 -1.547849e-001 -3.588705e-001
<VARIANCE> 25
 4.516563e+000 6.104989e+000 1.554416e+001 2.805433e+001 3.756900e+001 1.905551e+001 3.323309e+001 3.417405e+001 1.500643e+001 6.617126e+001 3.103236e+001 1.217068e+001 1.292938e-001 1.154024e+000 7.258762e-001 1.173743e+000 2.876828e+000 2.043688e+000 1.470165e+000 4.539170e+000 2.379536e+000 3.669727e+000 1.926689e+000 2.761530e+000 1.737810e-001
<GCONST> 8.548057e+001
<STATE> 4
<MEAN> 25
 1.118860e+001 -9.241549e+000 5.089427e+000 -4.301172e+000 9.774633e+000 -3.974447e+000 -1.220247e+001 -6.179668e+000 -8.591336e+000 6.127352e+000 -3.877604e+000 2.563761e+000 -6.771112e-001 6.509711e-001 1.465484e+000 9.821067e-001 -1.726048e+000 -2.071891e-001 1.337855e+000 2.042742e-001 2.417760e-001 1.176896e+000 -1.551936e+000 -1.925004e+000 -7.763119e-001
<VARIANCE> 25
 7.568634e+000 7.973171e+000 1.232474e+001 2.489007e+001 1.006772e+002 2.537932e+001 4.508537e+000 7.536060e+001 1.783028e+001 9.860906e+001 1.180380e+001 5.763369e+000 4.933059e-001 5.144401e-001 1.229788e+000 1.505346e+000 8.061132e-001 5.144221e+000 4.088161e+000 2.475674e+000 1.358138e+000 1.223595e+000 4.156255e+000 9.597377e-001 9.131103e-002
<GCONST> 8.361867e+001
<TRANSP> 5
 0.000000e+000 1.000000e+000 0.000000e+000 0.000000e+000 0.000000e+000
 0.000000e+000 9.253579e-001 7.464215e-002 0.000000e+000 0.000000e+000
 0.000000e+000 0.000000e+000 8.265223e-001 1.734777e-001 0.000000e+000
 0.000000e+000 0.000000e+000 0.000000e+000 1.709044e-006 9.999983e-001
 0.000000e+000 0.000000e+000 0.000000e+000 0.000000e+000 0.000000e+000
<ENDHMM>
~h "sh"
<BEGINHMM>
<NUMSTATES> 5
<STATE> 2
<MEAN> 25
 -2.237997e+000 -1.473706e+001 1.981943e+001 3.663794e+000 8.985240e+000 5.084786e-001 -9.349535e+000 -3.994187e+000 -4.434003e+000 2.885816e+000 3.829390e-001 -2.037457e-001 -2.398659e+000 -3.132931e+000 2.386946e+000 -8.565661e-001 -5.155701e-001 1.400773e-002 1.783408e+000 4.935633e-001 -2.815910e-001 1.106249e-001 3.865407e-001 3.574937e-001 9.742869e-001
<VARIANCE> 25
 2.481376e+001 4.217592e+001 7.850449e+001 5.537398e+001 4.187859e+001 6.332144e+001 4.964467e+001 5.469910e+001 2.018165e+001 3.834200e+001 3.989053e+001 2.370972e+001 7.680584e-001 3.060494e+000 3.155796e+000 2.738636e+000 1.640425e+000 6.505785e+000 4.328022e+000 2.777549e+000 2.819067e+000 1.597759e+000 2.750144e+000 2.031517e+000 7.331545e-001
<GCONST> 1.013513e+002
<STATE> 3
<MEAN> 25
 -1.068995e+001 -2.615478e+001 2.562147e+001 3.472774e+000 4.546851e+000 -1.393419e+000 -2.637764e+000 2.215389e+000 5.625225e-001 -4.006894e-001 1.663981e+000 1.431869e+000 -4.885069e-001 -6.758706e-001 -1.015129e-001 -2.598577e-002 -5.785888e-001 -6.548268e-002 6.195326e-001 6.079170e-001 7.855277e-001 -1.311065e-001 -7.286973e-002 3.745850e-001 -5.869120e-002
<VARIANCE> 25
 1.043476e+001 1.482660e+001 2.654827e+001 3.196831e+001 3.400251e+001 1.262193e+001 2.814841e+001 3.260548e+001 2.760645e+001 4.190675e+001 2.221335e+001 1.709545e+001 4.297195e-001 8.260511e-001 1.502155e+000 9.905503e-001 1.238987e+000 1.324455e+000 1.930476e+000 2.421415e+000 1.347642e+000 1.548862e+000 1.792854e+000 9.809757e-001 2.832356e-001
<GCONST> 8.504715e+001
<STATE> 4
<MEAN> 25
 -8.113277e+000 -2.182011e+001 1.578371e+001 2.920970e+000 -1.606626e+000 -1.508515e+000 -6.373628e+000 1.778158e+000 5.702312e+000 -8.128848e-001 1.509002e+000 2.402041e+000 1.825728e+000 2.292658e+000 -1.924877e+000 3.683921e-001 -8.911939e-001 4.048933e-001 -8.468661e-001 -1.223722e+000 -4.797351e-001 -7.648598e-001 -1.454428e-001 -2.669577e-001 -8.833976e-001
<VARIANCE> 25
 2.287589e+001 5.486072e+001 5.126028e+001 3.338653e+001 6.080514e+001 3.018931e+001 5.427589e+001 6.544508e+001 4.445317e+001 4.425538e+001 2.455455e+001 2.590728e+001 4.147077e+000 3.954724e+000 1.468755e+000 2.389320e+000 2.845913e+000 3.063652e+000 2.453104e+000 5.346584e+000 4.519948e+000 3.903190e+000 1.987738e+000 1.883956e+000 1.324941e+000
<GCONST> 1.035212e+002
<TRANSP> 5
 0.000000e+000 1.000000e+000 0.000000e+000 0.000000e+000 0.000000e+000
 0.000000e+000 7.107415e-001 2.892585e-001 0.000000e+000 0.000000e+000
 0.000000e+000 0.000000e+000 8.778823e-001 1.221176e-001 0.000000e+000
 0.000000e+000 0.000000e+000 0.000000e+000 8.388855e-001 1.611145e-001
 0.000000e+000 0.000000e+000 0.000000e+000 0.000000e+000 0.000000e+000
<ENDHMM>
~h "sp"
<BEGINHMM>
<NUMSTATES> 3
<STATE> 2
~s "silst"
<TRANSP> 3
 0.000000e+000 1.407126e-001 8.592874e-001
 0.000000e+000 7.765470e-001 2.234530e-001
 0.000000e+000 0.000000e+000 0.000000e+000
<ENDHMM>
~h "th"
<BEGINHMM>
<NUMSTATES> 5
<STATE> 2
<MEAN> 25
 2.521440e+000 -1.288824e+001 8.220576e+000 -1.029721e+001 4.571600e+000 -4.820087e+000 -4.414968e+000 2.462510e+000 -8.315553e+000 7.535494e+000 4.797854e-001 3.996346e+000 2.245328e-002 5.781997e-001 -7.713365e-001 4.255519e-001 -3.071676e-001 8.699153e-001 4.300246e-002 -5.030032e-002 4.820761e-001 -4.097288e-001 3.663164e-001 -5.072092e-001 -7.320766e-001
<VARIANCE> 25
 5.705824e+001 4.543302e+001 5.156981e+001 5.791312e+001 2.481670e+001 8.408672e+001 3.053010e+001 2.671096e+001 3.177921e+001 3.655949e+001 5.088785e+001 3.707943e+001 6.923658e-001 1.350654e+000 2.545104e+000 1.376130e+000 9.733081e-001 1.159980e+000 2.509783e+000 8.314732e-001 1.571580e+000 1.444200e+000 2.047095e+000 1.752994e+000 2.965898e-001
<GCONST> 9.368208e+001
<STATE> 3
<MEAN> 25
 6.562249e+000 -5.798357e-001 5.877944e+000 2.102645e-001 4.865474e+000 3.204452e-001 -6.547366e+000 1.063414e+000 -4.847755e+000 9.446484e-001 -2.928818e+000 -7.299107e+000 2.886080e-002 1.555456e+000 -9.115463e-001 1.990159e+000 -8.246297e-001 1.499165e+000 2.841858e-001 -7.607970e-001 1.233729e+000 -1.363379e+000 1.115160e+000 -7.574270e-001 -1.630138e+000
<VARIANCE> 25
 2.115596e+001 4.692321e+001 3.767107e+001 6.673334e+001 3.308356e+001 7.847243e+001 1.688464e+001 2.398145e+001 3.663622e+001 2.758345e+001 1.029833e+002 9.793640e+001 2.655293e-001 1.429074e+000 1.702381e+000 3.232016e+000 2.340477e+000 2.230107e+000 1.393213e+000 2.063375e+000 3.738024e+000 1.353857e+000 2.866951e+000 1.935456e+000 4.831407e-001
<GCONST> 9.673171e+001
<STATE> 4
<MEAN> 25
 1.768402e+000 5.602778e+000 -7.291696e-001 6.956645e+000 -8.977677e-001 8.486669e+000 -5.113790e+000 -4.635580e+000 3.483263e+000 -5.082202e+000 3.726940e+000 -4.684762e+000 -6.828949e-001 4.692347e-001 -4.321037e-001 2.849634e-001 -6.501552e-001 -1.381300e-001 6.480150e-001 -1.877560e-001 5.836703e-001 4.333068e-002 -2.041546e-001 1.996514e-001 -9.452589e-001
<VARIANCE> 25
 4.814339e+001 3.431688e+001 2.370183e+001 4.453084e+001 5.673835e+001 2.377655e+001 5.687891e+001 4.968024e+001 4.880735e+001 4.053066e+001 4.427257e+001 5.106577e+001 8.335212e-001 2.441711e+000 1.590039e+000 3.305734e+000 3.057492e+000 2.319606e+000 2.863894e+000 3.773743e+000 3.127011e+000 3.905659e+000 3.199379e+000 4.243083e+000 4.040381e-001
<GCONST> 1.016993e+002
<TRANSP> 5
 0.000000e+000 1.000000e+000 0.000000e+000 0.000000e+000 0.000000e+000
 0.000000e+000 5.946645e-001 4.053355e-001 0.000000e+000 0.000000e+000
 0.000000e+000 0.000000e+000 7.667525e-001 2.332475e-001 0.000000e+000
 0.000000e+000 0.000000e+000 0.000000e+000 8.639094e-001 1.360906e-001
 0.000000e+000 0.000000e+000 0.000000e+000 0.000000e+000 0.000000e+000
<ENDHMM>
~h "uh"
<BEGINHMM>
<NUMSTATES> 5
<STATE> 2
<MEAN> 25
 4.819191e+000 3.346180e+000 -6.665262e+000 -6.184457e-001 3.745681e+000 4.667687e+000 -7.514826e+000 -5.353846e-001 2.130826e-001 -1.064390e+001 -1.937633e-001 -4.025082e+000 -4.855072e-001 -3.564104e-001 -3.774863e-001 7.621632e-001 -1.066126e+000 -5.224462e-001 6.590064e-001 -2.248141e-001 7.625099e-001 -2.148523e-001 -8.470313e-001 6.749650e-001 -5.537852e-001
<VARIANCE> 25
 2.173381e+001 2.306108e+001 5.868161e+001 7.891322e+001 6.062866e+001 1.329316e+001 8.092312e+001 9.128907e+000 5.934976e+001 2.340264e+001 2.714007e+001 3.101134e+001 2.478011e-001 3.601366e-001 8.521304e-001 1.152273e+000 1.168330e+000 1.826489e+000 3.056888e+000 8.966067e-001 2.707970e+000 1.839060e+000 3.261596e+000 3.147107e+000 1.221162e-001
<GCONST> 8.903596e+001
<STATE> 3
<MEAN> 25
